4185 64
481 -0.45712054 0.58194387 0.19879399 0.27124035 0.050774228 -0.2197082 -0.33148113 0.8969082 0.29503033 -0.29487535 -0.011617046 -0.22344728 -0.3547853 -0.4397811 0.009698879 -0.36909273 0.17604682 0.7528972 0.9228352 -0.05582053 -0.87819225 -0.46976614 -0.061902124 -0.7169995 0.48331404 0.987468 -0.58753204 -0.5692763 -0.41367352 0.70332605 0.3978393 0.09564556 0.852395 -0.864187 -1.3738583 -0.6256655 0.33965194 -0.1350668 0.5365784 0.39150292 -0.95815736 -0.7189383 -0.30168974 -0.73884374 0.5127665 -0.38934398 0.32782587 0.43002638 0.36025652 0.12777743 -0.910356 -0.25951204 -0.61810786 -0.14101765 0.5663514 0.6724292 0.53016174 -0.39024118 0.09373009 -0.20183282 -0.52185166 -0.22391707 -1.0350186 0.04321487
601 -0.36570507 0.5652703 0.13313653 0.29894727 0.043649923 -0.34542388 -0.40326273 0.90651184 0.40446213 -0.39959365 -0.005859092 -0.27602455 -0.2131819 -0.3999331 0.24988829 -0.3168823 0.28414547 0.6882494 0.97293454 0.00774571 -0.804488 -0.54133224 0.081712045 -0.7513576 0.56816775 1.0720406 -0.6317912 -0.5138093 -0.41661343 0.8216856 0.40835235 0.1068266 0.7317615 -1.0058421 -1.4405494 -0.6256302 0.4464814 -0.1639393 0.49784565 0.456862 -1.0029275 -0.74991703 -0.2954113 -0.7957735 0.5347134 -0.3877802 0.27217752 0.5621803 0.3573286 0.012035691 -1.0462735 -0.3461292 -0.5132056 -0.08284169 0.5865055 0.72113526 0.48554653 -0.3921578 0.14383073 -0.2124645 -0.61678094 -0.40383387 -1.0396795 -0.08149654
138 -0.014648173 0.4977258 0.16634479 0.33847612 0.023390459 0.42995077 -0.20254563 -0.117120646 0.5116423 1.2606096 -0.36097538 -0.8780457 -0.07859301 -0.037152678 0.44113624 0.081165746 0.63290125 -0.5649359 0.1660761 -0.10714308 -0.3664908 -0.024716897 -0.36130324 0.051127568 -0.06189923 0.6369249 -0.59026843 -0.75424975 -0.037510063 0.41807154 0.27201575 0.034029704 -0.09758816 -0.05500209 -0.10290582 -0.2857933 0.07907855 0.6173486 0.0667188 -0.37624466 -0.055159785 -0.44250825 0.2189216 0.020024642 0.67611223 -0.46089277 0.6840995 0.6110373 0.0033195165 0.26845384 0.30001202 -0.51951104 0.077248394 0.08595953 0.21121947 -0.21457537 0.3062877 -0.8003224 -0.09346598 0.5526024 -0.10103885 0.23139212 -0.1718072 0.0028346651
442 0.38945287 0.030106094 -0.7046378 -0.5922888 -0.103360265 0.088639826 0.15038025 -0.14624746 0.43474293 0.102010846 0.0841909 -0.29607818 -0.3156436 -0.6693201 -0.757842 0.106829315 0.5971102 0.34677106 0.61148125 0.6489007 -1.434174 0.57711726 -0.38364115 0.096758686 -0.80108273 0.755356 -1.0013974 -0.6922399 0.02358123 -0.27299502 -0.8130114 -0.26258922 0.68960404 -0.26899529 -0.26662064 -0.002991957 1.3658438 0.5981771 -0.22386417 0.18358704 -0.4241788 -0.7449763 -0.3600436 0.457063 0.5001396 -0.38054624 0.11935749 0.20791139 -0.013094929 0.3934764 0.2983946 -0.72302634 0.64287853 -0.50252426 -0.092191674 0.80985093 0.3676774 -0.60249805 -0.48640573 -0.21386363 -0.03797843 -0.75486714 0.13950418 -1.1557269
835 0.33042258 0.03806627 -0.7350678 -0.5901336 -0.10372721 0.16558078 0.10881883 -0.2389389 0.5573247 0.085790195 -0.014630976 -0.21417487 -0.4110536 -0.7269433 -0.78938967 0.053609915 0.60462654 0.35743254 0.75872886 0.75956297 -1.5054818 0.58072335 -0.41410536 0.07234527 -0.842144 0.74974704 -0.991666 -0.8199973 0.03550776 -0.33481383 -0.8630533 -0.36406806 0.6968627 -0.41905564 -0.29802018 -0.18012796 1.3720422 0.7975629 -0.18812756 0.18329917 -0.4733598 -0.7733853 -0.4853916 0.41087526 0.5429004 -0.47298974 0.0422159 0.16764013 -0.08926939 0.45821244 0.3950449 -0.713821 0.739638 -0.5414316 -0.19110039 0.7651639 0.49861184 -0.6105306 -0.42900786 -0.14234586 -0.0870284 -0.73771393 0.19281584 -1.2156222
635 -0.015290194 -1.2174706 0.3004935 -0.016119443 0.34225315 -0.17182854 0.5100393 0.11641716 0.20946707 0.54692286 -0.41583943 0.031390596 0.52967644 -0.4829495 -0.67839986 0.14319625 1.3278173 0.8569488 0.06070869 -0.5868238 0.4025068 0.7106691 1.0473921 -0.4045692 -0.23879421 0.2762858 -1.2815201 -0.87550837 -0.0073315836 0.121241845 -0.5602131 -0.20720321 -0.3188571 -0.43219826 -0.4901606 -0.30188218 0.32560295 -0.11840628 0.3939892 -0.06987564 -0.35063782 -1.5029368 0.54213655 -0.02184596 1.0691537 -0.7553643 -0.12572062 0.32458797 -0.4179632 -0.5985554 0.09159538 -0.5896033 -0.24464105 -0.024674797 -0.048687104 0.07678483 0.5925321 -0.44725412 -0.0662402 -0.41148365 -0.03376966 -0.011107254 -0.25688574 -0.5935019
665 -0.12697051 -0.4048531 -0.33871776 -0.32809496 0.0537286 0.2910647 -0.2931197 0.12553683 0.26533806 0.043496612 -0.5431709 -0.880926 0.3090094 -0.3015905 0.6198722 -0.23360346 -0.3162009 -0.22046402 0.36727718 0.5030559 -0.030744132 -0.31767294 0.33374047 -0.68246233 0.0017922531 0.3585113 -1.0416069 -0.1303204 0.10733308 0.2370971 0.4617081 -0.678164 0.15055291 0.6654112 -0.97299176 -0.065508775 0.7959408 0.54105645 -0.16579992 -0.2613963 -0.6570124 0.3482516 -0.92781144 -0.25972673 0.4177355 -0.18206488 0.35617957 -0.2520944 -0.1800597 -0.51097906 0.44088113 -0.04772717 0.2136972 -0.6165964 -0.19848946 0.04878029 0.39812142 -0.44911596 -0.28700957 -0.46180463 0.39597574 0.6875952 -0.93289703 -0.27683964
679 -0.06863942 -1.4173709 0.37434757 0.053429816 0.29658523 -0.19561946 0.46783996 0.088244 0.012679783 0.5628762 -0.521634 -0.13684942 0.41651258 -0.3508126 -0.77805334 0.21434228 1.2703372 0.75775164 0.1826045 -0.7832574 0.49509937 0.68813694 1.2388036 -0.43842804 -0.35252133 0.26138464 -1.4875156 -0.78008085 -0.13523103 -0.01986757 -0.5390178 -0.23377837 -0.29019845 -0.46614182 -0.4729196 -0.35501477 0.39213005 -0.16977794 0.42640743 -0.03828289 -0.39056098 -1.5333438 0.43873993 0.06688249 1.1560555 -0.86430734 -0.029253809 0.37363607 -0.4099726 -0.67869705 0.06283063 -0.6356124 -0.3754358 -0.023220228 0.010663567 0.11380454 0.5612104 -0.5249481 -0.04308325 -0.4187582 0.023899276 -0.016879497 -0.32146457 -0.6617903
796 -0.55987364 -0.19367245 0.53507805 -0.3039984 0.7529442 0.78984195 -0.73854023 0.15310138 0.25609505 0.15243445 -0.1465381 -0.615296 0.069839165 -0.31337878 -0.39381355 0.19457068 0.51439506 -0.49735 0.2775192 0.3452369 0.21595429 -0.08300871 1.0298697 0.061316162 1.0262815 -0.08454159 -0.5928452 -0.8464193 0.16704543 -0.36906245 0.71364135 -0.37316898 1.2709051 0.47641167 -0.77545524 -1.0359958 1.0955005 -0.08191746 0.55337363 -0.4359325 -0.208559 -0.19363955 -1.3185965 0.14195187 -0.5788577 -0.68050593 -0.14526267 -0.65641284 0.15919133 0.5392263 -0.12832275 -0.98629135 0.0036200078 -0.91411716 0.3601679 -0.34002814 0.8729555 -0.13545077 0.3508966 0.34472987 0.31388667 -0.16371396 -0.35336098 -1.0726533
27 -0.029738024 0.5601044 0.1797381 0.331946 0.04904469 0.4349354 -0.19275385 -0.039475247 0.5502198 1.2330698 -0.2407822 -0.9513533 -0.12369864 -0.02630938 0.4925748 0.11095187 0.57419884 -0.66662765 0.14318258 -0.09045653 -0.28420964 -0.05703627 -0.33536422 -0.0019358592 -0.08736892 0.67549896 -0.5715022 -0.77223194 0.0025325823 0.5134843 0.29233062 0.0075442516 0.025938757 -0.09957343 -0.07765909 -0.16304673 0.19887073 0.7029791 0.10450432 -0.42316017 0.046077013 -0.4485218 0.1959358 0.08440978 0.58587235 -0.41347778 0.559943 0.6050942 -0.041283265 0.27533883 0.2311201 -0.6689462 0.046257213 0.09608931 0.42342088 -0.24066184 0.18905175 -0.8298368 -0.1053634 0.5507074 -0.1985434 0.2067771 -0.16128178 0.07984255
506 -0.78566206 -0.22059523 -1.0813746 -0.02742152 -0.1266473 0.7770794 -0.57229775 0.51001036 0.12645361 0.100364484 -0.28916544 -1.4691759 0.31627798 -0.25266686 0.36987036 0.34922886 -0.06746852 0.6371122 1.2786517 0.58979625 0.43571326 -0.0453655 0.22960316 -1.1108428 0.023102509 0.11497754 -0.6915202 -0.14729157 0.18217763 0.08796757 -0.09817484 0.4132851 1.4284912 0.021119833 -0.02299133 0.3848663 0.75084156 0.495047 0.5478058 -0.95860744 0.35814878 0.3703695 0.4249703 -0.9778118 0.9920321 0.2791065 0.0882266 0.30661473 -0.21231455 0.7743708 0.3639558 -0.56903183 -0.12493594 -0.7634924 -0.036584783 -0.26949495 0.6658439 -0.9881105 0.048212975 -0.48873752 -0.14442326 0.25646618 -0.54167634 -0.39453733
269 0.058955994 -0.81512505 0.17169641 -0.22892447 -0.33399412 0.01063758 0.4299363 0.6641147 -0.26071635 0.1793546 -1.1516254 -1.0020088 -0.1955247 0.6708096 -0.82055575 -0.042728834 -0.5327903 0.7397122 0.31276277 0.65401244 -1.1395711 0.22645867 0.040241145 -0.2320085 0.22259036 0.65307325 -0.5776438 -0.5062048 -0.19828956 0.42487168 -0.66929185 -0.42508146 0.42712575 0.09387505 0.13357504 -0.06765069 0.6483995 0.9636198 0.57869446 -0.50685906 -0.3915482 -0.18944308 -0.26833352 0.49160415 0.46799037 -0.5988344 -0.005291153 0.99459994 0.08570391 0.47831804 -0.02903461 -0.7329117 0.44094348 0.11803218 -0.03872276 -0.4253177 -0.53398705 0.28780505 -0.040452305 0.33173242 -0.124726705 -0.9622688 -0.25785097 -0.46724048
3420 -0.6309199 -0.33776423 0.47883093 -0.37159672 0.96146464 0.68983966 -0.67335194 -0.028137064 0.2261677 0.14721744 -0.3172694 -0.71202135 0.10500655 -0.2985527 -0.33814126 0.0013682984 0.5547587 -0.4599024 0.26173747 0.25756466 0.14475513 -0.028577868 0.87476623 -0.011598657 0.96625453 -0.13173674 -0.34889382 -0.81467265 0.15546878 -0.39468205 0.7542257 -0.3399998 1.0679224 0.24986114 -0.77065235 -0.9945762 0.96740156 -0.15498908 0.57382864 -0.22730094 -0.24486424 -0.24748418 -1.1212233 0.1698881 -0.5506387 -0.40407538 -0.12694433 -0.48018113 0.12056262 0.40740335 -0.09680937 -0.93964934 0.09727003 -0.82745755 0.2958327 -0.20532455 0.89080125 -0.2944588 0.49566418 0.30541617 0.1601453 -0.13828468 -0.28673562 -0.95893186
507 -0.7173205 -0.25100848 -0.93756044 0.14940055 -0.16028321 0.6753466 -0.40594348 0.4865277 0.16285883 0.1681063 -0.23984025 -1.3520433 0.3781428 -0.30770093 0.2616078 0.28205833 -0.14573936 0.7570909 1.1519748 0.5194038 0.3648147 -0.10627572 0.15830028 -1.0372946 0.02854797 -0.023402942 -0.65115947 -0.08317482 0.11007694 0.0077024675 -0.11609762 0.39434975 1.3124924 0.01856051 -0.12571329 0.35801095 0.6977467 0.41680387 0.36112952 -0.8219923 0.15057826 0.2725523 0.3119009 -1.0179726 0.90884024 0.32765087 0.20679133 0.3533503 -0.3339939 0.6112197 0.28555408 -0.39189944 -0.10824491 -0.83821064 -0.067168035 -0.25313216 0.6935843 -0.929752 0.0810186 -0.44011486 0.13147162 0.2144589 -0.5924695 -0.46407583
750 0.12699217 -0.7520433 0.22165461 -0.2088888 -0.47505617 -0.051986914 0.39372167 0.5807141 -0.2754116 0.2297743 -1.1189524 -1.0526416 -0.1547383 0.59662336 -0.82397854 -0.05272251 -0.37699556 0.67724365 0.20863767 0.84307504 -1.1710261 0.21209516 0.25228995 -0.27174246 0.21121757 0.59645116 -0.6062609 -0.4953338 -0.20043784 0.27910957 -0.79116446 -0.4594048 0.24691232 0.0035870294 0.0783437 -0.06553218 0.6341861 0.85138994 0.6731318 -0.5116669 -0.4121762 -0.09970456 -0.22721766 0.50265664 0.35414904 -0.52102095 -0.0947977 0.90788007 0.15487696 0.41015118 0.009968851 -0.58058864 0.63216424 0.31885573 0.067016184 -0.35093376 -0.34910676 0.22928394 -0.20769899 0.29801118 -0.21006691 -1.0826027 -0.26457363 -0.55752295
223 0.16881678 -0.46151486 -0.8331169 0.84655106 -0.5598578 0.44457823 0.6005624 0.07436964 -0.2761729 -0.25407097 0.34242383 -0.4789948 0.7413561 -1.3329724 -0.3263471 -0.360967 -0.3010444 -0.92675513 0.7335093 -0.30418822 0.16179658 -0.4820978 0.9059435 0.37448347 0.22533475 0.5624695 0.20782194 -0.1887859 -0.110390685 1.0832847 -0.09688825 -0.44267783 -0.45535234 0.58979815 -0.49226567 -0.9405347 0.8627304 0.6807648 0.31103796 -0.29077733 -0.9036595 -1.1025387 -0.37984958 -0.35533944 1.531086 -0.1421047 -0.19536272 0.7930324 -0.79933375 0.28829408 -1.1627637 -0.7018269 0.108224474 1.2755755 -0.20464265 0.67905086 -0.019535337 -1.0975126 -0.5161133 0.75190425 -0.45977518 -0.1753366 -0.76513547 0.027639354
676 0.2623084 0.018663114 -0.63670534 0.80745006 -0.5631107 0.30610085 0.49178118 0.003408653 -0.10447892 -0.35732347 0.48781767 -0.50757575 0.8868319 -1.2581683 -0.42375356 -0.4624779 -0.11612944 -0.8182609 0.6378764 -0.16690911 0.19040452 -0.22523263 0.77726066 0.17293599 0.32963282 0.46715426 0.13747516 -0.25406024 -0.15067941 0.87675184 0.22377196 -0.2588795 -0.18491492 0.41140962 -0.6597613 -0.9530915 0.6490832 0.6539713 0.45662665 -0.095211245 -0.91951114 -0.90279 -0.3926546 -0.17404814 1.2149569 -0.11260769 -0.06566333 0.85421544 -0.5959227 0.30929077 -0.9301622 -0.6488626 0.08764247 0.90901536 -0.33926567 0.68567497 -0.029616382 -0.9906054 -0.27031642 0.6427015 -0.5542212 -0.13077328 -0.69589025 -0.19999886
10 0.2065262 -0.2888429 0.22249639 0.7767656 0.12065305 1.128765 -0.23651928 0.7447578 0.4311553 0.48829308 -0.78459746 -0.20980737 -0.5934905 0.77614045 0.14766636 0.4510375 1.1973343 -0.035358343 0.5669626 -0.52813977 0.29746592 -0.060189247 0.9528893 0.25715664 -0.80494034 0.13027923 -0.816504 -1.2601472 -0.21107928 0.45909542 0.42815396 -0.21460375 -0.20506354 0.55400676 -0.50741476 -0.62391233 1.135247 0.5280596 -0.49702674 -0.39528432 -0.3524741 -0.18468864 -0.081184074 0.03501186 1.3938066 0.02021592 0.3835762 0.42285082 -0.16312085 0.114205375 -0.51025224 -0.040164463 1.6132534 0.3248224 -0.08185953 0.32396454 1.0424136 -0.55472285 -0.7129032 0.2713961 -0.17386778 0.014455429 -0.27892727 0.8979692
147 0.40683925 -0.19170967 0.74399817 0.49273467 -0.09536693 -0.080045715 -0.019841237 0.20131093 0.23456246 0.94052756 -0.0219331 -0.9651568 0.33049488 -0.1347615 -0.088560805 -0.18239501 0.4771868 0.04887168 0.74628997 -0.10097472 -0.40977597 -0.55494314 -0.027642816 -0.18637769 0.07286313 0.42051554 -0.4863477 -0.8796306 -0.5495328 0.30378807 -0.32888588 0.67532146 0.29237527 0.5840828 -0.5356472 0.30563512 -0.34824726 0.7425711 0.009601054 0.24378806 0.30536893 -0.12413042 -0.49240902 -0.18371834 -0.13380745 -0.10354753 0.14562674 -0.1545593 -0.035564583 0.24354048 0.12352165 -0.95719886 0.09405353 0.012522118 0.7430734 0.6790698 1.167437 -0.41211203 0.32544443 -0.06167847 -0.42585838 -0.03199909 -0.3798373 0.42245105
355 0.24380031 -1.0203636 0.4974181 0.53763527 0.19351318 -0.30114394 -0.2952372 -0.93003947 0.07268595 -0.06340389 -0.5938514 -0.91600335 0.53164893 -0.59685147 0.293541 1.6349567 0.5251813 0.23537822 0.37243885 0.10310883 -0.91892725 -0.06678368 -0.16862853 -0.26560238 -0.26674426 0.16114867 -0.5863258 -0.76143396 -1.3804871 0.7395405 -0.47751433 -0.39098388 0.8788446 -0.15389776 0.46643913 -0.9899919 1.0031623 0.041045997 1.3301797 0.44936553 -0.23886462 -0.41619334 -0.11843651 0.12909573 0.7037684 -0.045160048 -0.04675712 -0.598924 0.33171362 -0.62278867 -0.27726755 -1.1793294 0.45143998 -0.5242052 0.59457207 -0.77643704 -0.20499158 -0.7755844 -0.912512 1.2908131 -0.65346503 -0.038396258 0.0737766 0.9459798
1442 -0.40596855 -0.2288707 -0.073593915 0.058408264 -0.22235982 -0.5496154 -0.19260173 -1.0013962 -0.3003988 0.664357 -0.61809915 -1.3105592 -0.33964157 -0.41178977 -0.42283446 -0.6415364 -0.11640629 0.64968854 0.3674602 0.16322042 -0.2384265 -0.49124727 0.24735579 -0.6652462 1.1829873 0.17356384 -0.6560815 -0.6663017 -0.6528335 0.14191793 -0.86035514 0.6034986 -0.20939812 0.101560734 -0.1463936 -0.96802586 1.451587 -0.22778931 -0.031509113 -0.30664763 0.24201423 -0.73055387 0.7530815 -0.34692082 1.1514723 -0.7721165 1.146653 -1.4178047 -1.219322 0.18907721 0.73931855 0.45547244 0.48799556 -0.30004627 0.15816809 -0.2911748 1.135837 -0.28169298 -0.7742542 -0.040128473 0.028612249 0.58565193 -0.5224716 -0.2007252
3237 -0.8598741 -0.5016617 0.2152613 -0.056675218 -0.17006883 -0.8066124 0.17105307 -0.6838567 -0.41382664 0.82706964 -0.4536579 -1.5576099 -0.88442886 -0.37908337 0.004398811 -0.80926317 0.15461846 0.08881254 0.27203223 0.23656473 -0.36110818 -0.32958862 0.21432124 -0.88620514 1.0909259 0.2673028 -0.5040198 -1.0858647 -0.77704966 0.06088914 -0.8887827 0.16296889 0.084004425 0.27945343 0.06784158 -1.1705732 1.4917839 0.022032982 -0.1937105 0.045437016 0.49944505 -0.6739947 0.60218567 -0.6662797 0.936793 -0.59354776 0.9578636 -1.4950615 -1.3352463 0.105560385 0.41993818 0.01235473 0.6543907 -0.2470332 0.11336658 -0.11156533 0.8071532 -0.41491422 -0.9614789 -0.18494275 -0.07710254 0.0091023045 -0.84264106 -0.3284874
178 0.35893583 -0.4100755 -0.07321834 0.0958476 0.12847024 0.36956257 -1.0557201 -0.7127015 0.17519848 0.5498498 0.41759154 -0.2341557 -0.09820342 -0.2640002 -0.19097005 0.68298566 0.20388936 0.005174569 0.44828627 -0.43993124 -0.096439645 0.39701715 0.8831251 -0.49661517 0.58158517 -0.5405 -0.16946743 -0.07014527 0.27029574 0.39450052 -0.47425735 -0.60510397 0.31391963 -0.52076775 -0.36805978 0.39076066 1.1661079 0.15397657 -0.44690692 -0.5813039 -0.48368323 -0.6484867 0.6408331 -0.3207947 0.21679871 -0.5334225 0.9898298 -0.1734131 -0.58154565 -0.70410085 -0.6413683 -0.22100829 0.66423637 -0.22358264 0.21884778 -0.15350147 0.86914426 -0.5138789 0.4444755 -0.29537275 -1.051934 -0.012382022 -1.0620514 0.07866229
537 -0.073941976 -0.46667874 -0.2284453 -0.3245081 0.08966618 0.18180221 -0.32554722 -0.015520221 0.21800514 0.11876057 -0.5307064 -1.0936403 0.3944873 -0.40189427 0.51974666 -0.2549789 -0.34538174 -0.17727706 0.26624355 0.3627979 -0.019047124 -0.19127704 0.42082733 -0.56193507 -0.0327813 0.13834193 -1.0988932 -0.19699578 0.16950212 0.13566062 0.48088297 -0.9129583 0.025876604 0.6994517 -0.8973666 0.036895998 0.7306324 0.39632547 -0.13161685 -0.27925026 -0.66631126 0.29843026 -0.8430334 -0.26904413 0.42765775 -0.10380798 0.3848493 -0.16813406 -0.22001383 -0.3445965 0.3768194 -0.042997085 0.17826118 -0.7280813 -0.35811833 0.07599543 0.4283048 -0.5430673 -0.37758222 -0.4584628 0.4208337 0.7375022 -1.0346364 -0.18507566
602 -0.44107988 0.6333963 0.17732474 0.32307172 0.020053178 -0.28816667 -0.419757 0.92385226 0.3488496 -0.45919198 -0.04293501 -0.26127422 -0.28249708 -0.41381833 0.100181 -0.30774814 0.2198402 0.71432275 0.9866701 -0.10336648 -0.82307345 -0.5673084 0.07477847 -0.81501347 0.5590642 1.0848753 -0.68638605 -0.5027354 -0.3921842 0.9150801 0.4497454 0.13140161 0.67397684 -0.99997586 -1.4442744 -0.6312538 0.46680495 -0.17383902 0.5342454 0.41577888 -1.1220989 -0.87630945 -0.31174827 -0.75731415 0.59744036 -0.4628197 0.26290047 0.5714909 0.33026606 0.058472373 -1.0970064 -0.33361477 -0.519557 -0.090382345 0.60885924 0.75909823 0.5212843 -0.41013846 0.14625765 -0.1781201 -0.6432361 -0.45612797 -1.1268618 -0.058654662
803 1.6783167 -1.7129809 -0.3666026 -0.03771748 0.04363607 -0.9165905 0.16796811 -0.47195923 0.4887849 0.727118 -0.0831657 -1.4314606 0.084598154 -0.22071224 -0.31782678 -0.27157813 0.12315392 -0.6481211 -0.1374495 0.39568558 0.16596542 -0.30317518 0.5158284 -0.9964189 -0.08239792 0.9557146 0.6865305 -0.9753396 -0.43947235 0.12227875 0.09759789 -0.0089103645 0.6219824 0.58214146 0.4107519 -0.20472723 0.6945895 -0.92955995 -0.28416649 -0.29228854 -0.6902083 -0.51789147 -0.111393966 -1.0003884 0.83514446 -0.9401808 -0.28566754 -0.10529348 -0.20045124 0.78347236 -0.91181517 -0.091503255 0.634073 0.4680054 1.2330714 0.06773296 0.0032287377 -0.6708076 0.018092679 0.6648892 0.3854108 0.75302714 -0.09023202 0.31894976
354 0.27339804 0.5233031 0.3905825 0.3328652 0.010390954 0.3089301 0.015125092 0.27886394 0.1123259 1.4377097 -0.35686433 -0.6489765 -0.3300722 -0.35740864 0.13988802 -0.30164242 0.46004042 -0.5517501 0.24271868 -0.3385066 -0.31168735 -0.16785382 -0.08463365 -0.12500528 -0.23957281 0.6167999 -0.58153695 -0.69382375 0.009795249 0.027620772 0.14183873 0.015006531 0.11582706 -0.18958485 0.19684625 -0.13888358 -0.18402083 0.81857526 0.40606982 -0.11636109 -0.12416702 -0.4058451 0.45442528 -0.31202805 0.41678643 -0.36108565 0.41613492 0.1964186 -0.183593 0.29905975 0.2949989 -0.668431 -0.040830676 0.10956486 0.45309246 -0.187548 0.50165004 -0.5867431 -0.068916135 0.27847344 0.10373794 0.088029526 -0.77463675 0.21619046
1596 0.318361 -0.96412426 0.33448964 0.36866337 0.26451245 -0.3895125 -0.37118432 -0.61275125 -0.017161006 0.03437514 -0.4991509 -0.8955562 0.45872998 -0.586753 0.13822916 1.2007688 0.6321737 0.197465 0.36193192 -0.04390592 -0.9355188 -0.03265263 -0.122470625 -0.29599774 -0.52546906 0.11111409 -0.5367462 -0.7381224 -1.3236874 0.43164298 -0.41214085 -0.29767 0.5146446 -0.07785189 0.30481425 -0.9982179 0.52954024 0.10706675 1.127761 0.13610871 -0.39045098 -0.31433538 0.12563263 0.07630162 0.48720467 -0.002426504 0.10295217 -0.63420194 0.12310852 -0.70699555 -0.2545671 -0.9441746 0.6149518 -0.5831674 0.6193165 -0.6831829 -0.18957506 -0.8175965 -0.96843886 1.0538507 -0.5470748 -0.23946555 0.13004084 0.40951893
264 -0.030828804 0.5181074 0.13860086 0.35012296 -0.11099465 0.39762786 -0.2921374 -0.02730967 0.51614684 1.359128 -0.46931168 -1.0407052 -0.06756486 0.088280655 0.57305616 -0.013768169 0.6127586 -0.62991345 0.20173591 -0.19623175 -0.48120782 -0.014509455 -0.2621502 -0.037523665 -0.15603086 0.5606848 -0.5314212 -0.79442877 -0.02656818 0.41015074 0.23316264 0.058101673 -0.091933504 -0.058700264 -0.048169523 -0.20399201 0.054672997 0.65831906 0.1022995 -0.5428173 -0.092625424 -0.46031904 0.33160087 0.062232107 0.6109996 -0.42112336 0.5852665 0.5875478 -0.08163427 0.20978375 0.20645519 -0.44231513 0.040450614 0.124405675 0.38858935 -0.23529133 0.40901676 -0.77208203 -0.13015673 0.50782305 -0.02676599 0.19572565 -0.23699003 -0.02455159
1574 0.029563596 -1.379443 0.53107274 0.066682875 0.31062442 -0.2899877 0.36647764 0.09214142 -0.049592055 0.58376396 -0.60100585 -0.12748584 0.32161805 -0.2715384 -0.73973423 0.2104493 1.3074303 0.85944456 0.20396572 -0.7554422 0.5395907 0.64095235 1.1862034 -0.51368773 -0.3336415 0.26522487 -1.4398398 -0.81947994 -0.1240183 -0.026612055 -0.7016937 -0.08024157 -0.40967947 -0.4342126 -0.46898657 -0.3370692 0.6256048 -0.23557684 0.2894597 0.005491478 -0.44180706 -1.6152071 0.37226564 0.19867375 1.1315255 -1.0129371 -0.026026063 0.33299828 -0.48020756 -0.8047378 0.10524293 -0.67686963 -0.4623288 -0.066728756 -0.09006501 0.24681866 0.49107698 -0.4307862 -0.06774687 -0.4262122 -0.009391423 0.02342408 -0.2940194 -0.4961762
0 -0.45872283 -1.6618576 -0.42423788 0.20930362 0.20964977 0.039835256 0.23021214 -0.9400735 -0.2511599 0.42695776 -0.0032174974 -0.15487918 0.5585987 0.21799959 0.50399935 0.76886475 -0.10780851 1.0173898 1.2648762 0.57923216 -0.32748848 0.10858786 0.9336918 -0.6907589 -0.6940081 -0.07331929 -0.63169676 -1.2953609 0.5766469 0.58880717 -0.275384 0.39283583 0.8822121 -0.293168 -1.2567023 -0.97121483 -0.5970214 0.9568521 0.2365222 -0.924021 -0.012003721 -0.22866605 0.65258986 0.20425992 0.63931054 0.08574922 -0.14304955 -0.034455676 0.5601389 0.6619537 0.6402121 -0.97238564 0.5364488 -0.4808535 -0.0955959 0.61865175 1.7012869 -0.57987374 -0.82672507 0.85872513 -0.32793865 -0.51446736 0.703854 -0.27320066
139 -0.10939172 -0.50167364 -0.102569364 0.12361286 -0.8808854 0.26176685 -1.0010974 1.106055 0.61389786 0.027612746 -0.37670776 -0.47920853 1.3063893 0.08536918 -0.50766075 -0.4897386 -0.19288632 -1.0378356 0.991195 0.47775754 -0.7386682 0.22607686 0.40485173 0.07097529 1.0238887 -0.6027097 -0.011264158 -1.8153944 0.7393717 0.54068005 -0.26293996 -1.4072393 0.55789745 -0.31236556 -0.8456989 -0.6983178 0.51873565 -0.5829008 -0.6177238 -0.294273 -0.29634345 -1.1873292 -0.40634292 0.47410566 0.07836936 -0.6405102 1.5176347 0.114608295 -0.77500033 -0.29604387 0.29659823 0.8848212 -0.31722048 -0.39846826 0.5726091 0.0051382137 1.2012544 0.52031237 -0.22585529 0.3396879 -0.013825456 -0.44784522 -0.38019153 0.33517143
53 0.28425753 -0.35502633 0.16738261 0.72095335 0.25163224 1.0999696 -0.16060565 0.7838088 0.37189695 0.48851317 -0.9606645 -0.22598018 -0.6442814 0.8591153 0.022105142 0.4756306 1.2033598 0.018260803 0.6014021 -0.42604703 0.3644035 0.0129355565 0.9467911 0.29147798 -0.718503 0.11885714 -0.61971277 -1.2808205 -0.14200082 0.68452084 0.410013 -0.2270889 -0.20205632 0.58235866 -0.5120621 -0.63868535 1.2339376 0.61646205 -0.49100664 -0.40415815 -0.28369373 -0.07420051 -0.20857666 -0.0076773996 1.5313869 0.071492426 0.49702382 0.33029258 -0.1674376 0.29640576 -0.5125244 0.071394764 1.5190678 0.36107832 -0.07470872 0.37862676 1.1393702 -0.58296883 -0.7121762 0.26198328 -0.3812004 -0.17372182 -0.2599199 0.8378449
2475 -0.5344927 -0.96166956 -0.5716869 0.22173427 -0.7595857 0.21931703 -0.32775682 -0.39727962 1.436469 0.19978611 -0.026258048 -0.6196961 -0.39352682 -0.33262962 -0.65001166 -0.1403798 0.24437816 0.36362457 -0.3433055 0.16870652 0.09344279 0.086590305 0.20273842 -0.2200431 1.2455975 0.29537573 -0.66412103 -0.60786194 -0.16626145 -0.86228096 -0.20308132 -0.9169659 0.43960285 0.55683196 -0.24572735 0.6985813 -0.04282702 0.587779 0.95411843 -1.0902221 0.35377172 -0.855483 -0.47619238 -0.6155243 0.92521983 -1.5100311 1.860813 0.6604363 -1.5602422 -1.122757 -0.35088414 0.81036913 0.5465588 -0.3052072 -0.29478812 0.19922832 0.60031134 -0.78824425 0.07548693 0.4139798 -0.72382045 -1.1839918 -0.40796018 0.48772094
1175 0.2631795 0.03845951 -0.77338773 -0.60399324 -0.23097442 0.11285519 0.14802963 -0.1919901 0.5832321 0.06801688 -0.07522495 -0.3072731 -0.35759392 -0.6649899 -0.7038274 -0.081744365 0.57284725 0.31839955 0.71883225 0.8844863 -1.5645335 0.43904045 -0.39039347 0.1404646 -0.8739136 0.6945468 -0.9157981 -0.78970695 -0.06912113 -0.2714596 -0.8219276 -0.29747826 0.83834076 -0.35075977 -0.2953344 -0.08400088 1.5093975 0.73300135 -0.31060827 0.23382019 -0.5053246 -0.7420251 -0.53639686 0.4431751 0.578008 -0.4974998 0.15630591 0.21113102 -0.011759127 0.52170205 0.2970651 -0.70563954 0.6935833 -0.44880363 -0.10173526 0.8351324 0.40391982 -0.62773633 -0.49679247 -0.13506003 0.04169854 -0.80534726 0.17951164 -1.1408144
426 -0.023123646 -0.10806717 0.0090979915 0.2277177 0.3456456 0.32794636 0.13264516 0.062010944 0.40670648 0.7975032 -0.46264485 -0.40340048 -0.036366586 0.052024215 -0.5154737 0.59270966 0.5315552 -0.38205314 0.558505 -0.38980174 -0.20654675 0.1835735 0.22952555 -0.20341687 -0.6584827 0.5664987 -0.916742 -0.62266415 -0.090430714 0.042968906 0.063914604 0.004579889 -0.17672479 0.046689462 0.0072345114 -0.17425396 -0.14339752 0.1474824 -0.072991535 -0.4191185 -0.04839425 -0.13883844 -0.12004699 0.28369004 0.9204659 0.14604357 0.96350974 0.43374795 0.026222633 -0.2726787 -0.2381402 -0.33021596 0.8026414 -0.00062867126 0.4388064 -0.27155766 -0.039711025 -0.54794306 0.023470009 0.21144535 -0.00026894486 -0.088782184 0.12821195 -0.40267253
1 -0.6097513 -1.7400413 -0.34773067 0.17625633 -0.08887643 0.0011002225 0.23206288 -0.7306805 -0.26234096 0.47545373 0.13261323 -0.07126563 0.57612574 -0.07473734 0.47193345 0.7492263 -0.1539708 0.85871196 1.073605 0.51346666 -0.21576543 -0.2631402 0.9303837 -0.37216166 -0.7285937 -0.052631266 -0.47939885 -1.2699547 0.11611699 0.5974042 -0.4123974 0.44219652 0.7939256 -0.025941828 -1.0885375 -0.9565075 -0.82991606 0.97133446 0.10213907 -0.8651905 -0.3579482 -0.2790223 0.4305687 0.42284387 0.55522317 -0.046263617 0.28343195 0.048818253 0.6853646 0.5440753 0.27961215 -0.600226 0.59765077 -0.19381537 0.0023950867 0.53521264 1.3239833 -0.5317606 -0.6749122 0.7016622 -0.26271126 -0.6004606 0.69794255 -0.65080315
508 -0.87306505 -0.1474028 -1.1007345 0.15226036 -0.13285626 0.7426514 -0.50297385 0.5428278 0.019453604 0.10469514 -0.39266106 -1.6574062 0.38211197 -0.24468736 0.41426498 0.314272 -0.02633329 0.68205774 1.2568741 0.8209108 0.26265 -0.054422125 0.20492703 -1.2198405 -0.0960632 0.09039417 -0.80814207 -0.23610806 0.11440953 0.06453556 -0.08951573 0.5164119 1.4845693 -0.024366904 -0.24426791 0.5525215 0.8414742 0.46139935 0.55404764 -1.0232292 0.29452795 0.178405 0.38141602 -1.1346418 1.0693914 0.2815103 0.14044356 0.27958742 -0.29075435 0.7765439 0.34268212 -0.5471939 0.026830144 -0.9204803 -0.07841063 -0.41174015 0.69343305 -0.91942215 0.29160568 -0.52169514 -0.10385914 0.36553892 -0.5148628 -0.4297413
509 -0.82599133 -0.29511943 -1.2381468 0.031487804 -0.030809985 0.5827591 -0.6108464 0.6175827 0.22765835 0.26500416 -0.22450973 -1.6265768 0.25103384 -0.27397263 0.427941 0.25421572 -0.1421779 0.72102636 1.4786468 0.4203889 0.38060272 -0.07209862 0.15410444 -1.18802 0.12320951 0.18603347 -0.7277753 -0.17523116 0.3131654 0.067556225 -0.10645108 0.47432777 1.5066227 -0.012624797 0.0021257878 0.41536963 1.103755 0.45942906 0.47329193 -0.94472593 0.21448305 0.3048594 0.4233353 -1.0192379 1.0350454 0.4248312 0.10912195 0.376553 -0.32282004 0.79464334 0.26260743 -0.6545534 -0.32157463 -1.0291047 -0.1479212 -0.33880708 0.6235277 -1.060377 0.07000366 -0.44933978 0.016573884 0.19155937 -0.6843449 -0.38639864
260 0.25361577 -0.5114985 -0.14420384 0.11518037 -0.106360525 0.6024265 -1.279027 -0.6850801 -0.0575847 0.51888376 0.3492901 0.032926813 -0.22303088 -0.12377152 -0.11639283 0.8091421 0.095598914 0.093123645 0.36208898 -0.26050925 -0.42609355 0.20531368 0.99147546 -0.27678263 0.7222725 -0.5363203 -0.37561703 0.06247713 0.13103728 0.52125347 -0.50843745 -0.3826251 0.39142188 -0.39951316 -0.43352982 0.55533147 1.253198 0.051287252 -0.5997637 -0.7029348 -0.46120253 -0.6204275 0.5360177 -0.36524943 0.34370238 -0.6967945 0.96847713 -0.14870292 -0.6647806 -0.55540174 -0.56567717 0.00018539833 0.93143255 -0.15574312 0.3099894 -0.32129133 0.8857002 -0.6411075 0.5200786 -0.3738454 -0.88570285 0.09921171 -0.9330369 -0.11828636
2672 -0.5321081 -0.9137032 -0.67861366 0.20940158 -0.6094156 -0.039097317 -0.5460993 -0.58441335 1.4512025 0.17337817 -0.6663595 -0.6588607 -0.30816177 -0.28522035 -0.7438814 0.05500403 0.44031528 0.57538426 -0.20848711 -0.048579894 -0.013231462 -0.08557587 0.39595762 -0.40887856 1.3372099 0.16413003 -0.9823678 -0.41813177 0.06930802 -1.2710769 -0.4672297 -0.86603934 0.3674158 0.3257306 -0.5091911 0.87684584 0.107400104 0.64736253 1.1191753 -1.0372142 0.43973002 -0.5027163 -0.6040274 -0.7462071 0.9460518 -1.2770761 1.8776182 0.742827 -1.629634 -0.80409217 -0.43590975 0.7444804 0.5028562 -0.32388425 -0.5384753 0.5105879 0.89738345 -0.59408885 -0.19699685 0.4624906 -0.7632735 -1.0249561 -0.2716821 0.3218825
153 -0.23274904 -0.52044004 0.008720052 -0.021293664 -0.76473284 0.33227873 -1.106783 1.0622383 0.6316178 -0.029078363 -0.3873489 -0.48634684 1.3031691 -0.0024762528 -0.5217079 -0.5764592 -0.20279902 -1.0243695 0.93593144 0.29980353 -0.6984405 0.18783833 0.55642724 0.16117431 0.9760831 -0.682603 -0.101232566 -1.8733197 0.7837991 0.436225 -0.3235238 -1.5031223 0.6523356 -0.42960414 -0.8454583 -0.82559735 0.45187995 -0.57672787 -0.5617756 -0.30382955 -0.31083396 -1.151102 -0.5101168 0.7355493 0.10903129 -0.6006875 1.3955957 -0.10636444 -0.87481016 -0.31798378 0.17896016 0.87982017 -0.22822645 -0.46211442 0.58722675 -0.13740681 1.2288667 0.4479443 -0.25186568 0.34808952 -0.17448655 -0.31070054 -0.3287954 0.33885416
1180 1.7041341 -1.6951209 -0.31021917 -0.08520853 0.101716794 -0.71816325 0.22980541 -0.51503134 0.4810067 0.61824995 -0.0714329 -1.3918654 0.027610786 -0.2923424 -0.243607 -0.32911143 0.084254555 -0.70592684 -0.32450467 0.31626484 0.27698284 -0.22334176 0.5195895 -1.0039285 -0.031202303 0.990719 0.761803 -1.1132461 -0.53404135 0.27685705 -0.061913535 -0.12767589 0.5940733 0.7328389 0.3070987 -0.31597847 0.66980803 -0.7929522 -0.21304695 -0.17337042 -0.62312835 -0.5857799 -0.3567742 -0.9560974 0.90236837 -0.8788457 -0.48835337 -0.031308062 -0.13197476 0.66771865 -0.8493585 -0.15942246 0.63881695 0.56189126 1.3090948 0.15444861 -0.16445152 -0.67330205 -0.0077317837 0.75190896 0.28359574 0.87538 -0.06564028 0.42936027
1716 0.01926121 -0.43377176 -0.5872575 0.8866537 -0.61201537 0.38967508 0.38251597 0.2858554 -0.35938182 -0.047807027 0.5369937 -0.25689295 0.06971622 -1.2760313 -0.3238548 0.019255258 -0.29291502 -0.72670376 0.63746697 -0.213449 0.32436317 -0.7883625 0.8208402 0.36098275 -0.08159908 0.39031598 0.32872465 -0.11514684 -0.08213657 1.2367047 -0.27292514 -0.59969854 -0.23430298 0.64492065 -0.53953356 -1.2969779 1.3492033 0.69707406 0.42889583 -0.22054005 -0.68230814 -1.1420152 -0.22720774 -0.21390247 1.6752344 -0.026446944 -0.5175417 0.70578617 -0.77687484 0.25031018 -0.8865927 -0.81458896 -0.030080382 1.2494849 -0.15446104 0.46048826 -0.03224834 -0.9260488 -0.7112589 0.5789112 -0.39409885 0.041283045 -0.73352754 0.08314163
1052 -0.62979203 -0.98822063 -0.27895364 0.7648389 0.084329076 0.027994711 -0.270895 -0.37111452 1.4593718 -0.2819856 -0.8795581 -0.2820587 0.018130487 1.0506872 -0.121218234 -1.0267156 0.22988994 -0.6162822 0.7654194 0.35790044 -1.4411367 0.30529585 1.2950654 0.21042289 0.19363311 0.81865555 -0.34886995 -1.1518309 1.5553826 0.40534663 -0.8282025 0.19229203 0.49299508 0.53393406 -0.8359438 0.6406326 0.61862147 0.032962434 0.4361209 0.024803676 -1.4399507 -0.9521914 -1.0293833 -0.4213985 0.2528768 1.1230477 0.39338824 -0.08529593 0.11194833 0.7941698 0.2553426 0.112022504 -0.104272574 0.7330136 0.93103373 -0.62717193 1.082106 -0.39131042 -0.28867725 -0.43038908 0.6876815 0.35001493 -0.27733633 1.0138458
1637 0.12624075 0.16923118 -0.013175428 -0.50444317 -0.39172837 -0.22840732 -0.4080441 -0.5380402 -0.13907911 0.29346928 -0.6401704 -0.34935334 -1.0979077 -0.36461556 0.82019633 0.27493784 -0.28576615 -0.274065 0.09306239 0.17561018 -0.012856157 -0.18387854 0.77673644 -0.8773015 1.3064973 0.020950839 0.5272255 -0.49362794 -0.92967004 1.2827481 -1.8474435 -0.6229448 0.4010883 0.00910269 -1.0040617 0.8753047 0.15592073 -0.505549 0.14728467 -0.42810282 -0.6304988 -1.2413317 -0.9751417 -1.4025226 0.891365 -0.02635108 -0.3753537 1.8165213 0.74333566 0.1163969 -0.075570084 -0.69566983 -0.47157997 -0.1932245 -0.07656148 0.37588978 1.1034985 -0.63033205 0.6527968 1.6710035 0.024623001 -0.5096357 -0.7760174 -0.615674
545 0.88474905 -0.558476 -0.23232506 -0.74033064 0.25169888 0.79366183 0.05404469 0.029901909 0.23305577 -0.052582607 0.24658541 -0.028414238 -0.32550672 -0.63468945 0.59726775 -1.0146499 0.5145547 0.36105886 1.3203925 0.82359684 0.68000096 -0.47790745 0.30640787 -1.9257219 -0.09434456 1.0410997 -0.30352047 0.5944583 -0.18988195 -0.32371446 -1.2570924 -0.37357065 -0.6142535 0.59933954 -0.338599 -0.15372749 -0.051196076 0.10806335 0.07228235 -0.530394 0.11076141 -0.22338304 0.16890489 0.21867894 0.95724326 -1.0201601 -0.71007526 1.358158 0.6442579 0.60391855 -0.17790894 0.16913657 1.5153983 -0.8275006 0.37266758 -0.10495159 0.036270287 -0.7665504 -0.65296113 1.1434737 -0.46183887 -0.6342886 -1.5221611 -0.03820247
702 0.54818183 -1.0128908 -0.10345325 0.49008557 -0.17926608 0.5157418 -0.4519584 -0.51044077 0.8526522 -0.21209483 -0.81001186 -0.7320082 -0.0695975 0.11378032 -0.31864846 -0.099311 -0.2651349 0.14731313 0.09498129 -0.09433659 -0.94879764 0.016320292 -0.32627547 -0.87005496 -0.16568537 0.82535684 -0.5094119 0.07286197 -1.3783814 0.52389795 -0.099059835 0.8661602 0.45652032 -0.49043176 -0.7919013 -0.28093165 -0.30140242 0.1809034 -0.9929582 0.45982015 0.30031478 -0.48288232 -0.27752104 -0.26010612 0.34228247 -0.13632202 -0.23522809 -0.29290184 0.13009207 0.21941662 0.4340244 -0.006316079 0.4694399 -0.51304936 -0.47164997 -0.49781594 0.43420094 -1.4735162 -0.31231028 0.05985592 -0.5972184 -0.49891162 -1.14143 0.10564434
276 1.0081233 0.3035324 0.112309165 0.5647452 0.5520758 -0.15989956 0.08721141 0.7518913 0.7453544 0.6125063 -0.97291225 -0.37411252 -0.3748022 -0.6359942 -0.50738716 -0.19445764 -0.18550935 -0.35987556 0.6807328 0.11316819 -0.44224262 -0.23494853 0.8690028 0.28759244 -0.4279009 0.8177289 -0.25444984 -0.047113772 0.16083567 0.73785114 -0.7167614 -0.35249326 0.6077925 0.23154238 0.16565871 -1.0845345 -0.53245217 0.8068252 -0.06417334 0.07214025 -0.6413906 -0.82780087 -0.0032680745 -0.29407585 -0.27138638 -1.2393909 1.1547273 0.24376883 -0.69312716 -0.05982988 0.119811535 -1.0068517 0.53672343 -0.34361035 -0.15749535 0.5864004 0.09212863 -0.8620167 -0.4487423 -0.3647195 0.008910235 -0.15544306 -0.2468137 0.10609914
1835 0.16272162 0.29891312 0.19080724 -0.6461961 -0.2391234 -0.2842001 -0.34484294 -0.5753698 -0.10161544 0.3011413 -0.55204314 -0.12659472 -1.1023929 -0.112380676 0.5836517 0.2772299 -0.22740926 -0.13883312 0.0713456 0.16469412 0.22929078 -0.021185283 0.7346072 -0.7521107 1.4637196 0.1713163 0.21602543 -0.520328 -0.90007025 1.2712729 -1.5929669 -0.47702983 0.22725001 0.2254164 -1.3626059 0.68755746 0.036272056 -0.44102067 0.07998201 -0.23701468 -0.87125254 -1.2847027 -1.0309321 -1.4333768 1.0072756 0.2373917 -0.34961805 1.4073654 0.4205309 0.25286594 -0.21489544 -0.8760691 -0.69552654 -0.39590573 -0.16435659 0.5448668 0.9605058 -0.78140396 0.3978688 1.1786216 0.26365712 -0.43012694 -0.5573523 -0.8019092
2757 -0.63614005 -0.912989 0.072843835 0.65240425 0.2527472 0.16871765 -0.16095042 -0.56517226 1.298899 -0.07298817 -0.9193886 -0.42644513 0.101871185 0.89502835 -0.3657839 -0.953425 0.091631 -0.44666785 0.7405198 0.40455803 -1.3782887 0.51108986 1.055797 0.10063599 0.3861983 0.6520183 -0.36690548 -0.8802028 1.3212346 0.11791485 -0.81202734 0.3678524 0.38016585 0.3496573 -0.6730143 0.7556302 0.7424976 -0.097612694 0.2218743 -0.14558691 -1.573701 -1.0462276 -0.94655204 -0.8076335 0.27993196 1.1205869 0.42845395 0.2746778 -0.06599651 0.67042816 -0.107954495 0.2686311 -0.27946582 0.57768524 0.72634137 -0.6202469 1.1024377 -0.1774283 -0.38458478 -0.4374301 0.57506484 0.26724264 -0.21131442 1.1288184
74 0.15090066 -0.44601437 -0.37276682 -0.7384359 0.060628112 0.35443687 -0.81482124 1.5419346 0.4925641 0.7658185 0.50901407 -0.9807185 -0.32743144 -0.29575276 0.4019365 -0.50101966 -0.031927224 -0.41437903 0.39951706 -0.52157444 -0.47046494 -0.99988025 0.14653777 -0.60687506 -1.2459139 0.8327893 -0.30286852 -0.36426678 0.7532999 1.2057198 -0.047065314 1.5110546 1.2334714 -0.3543359 -0.16653492 -0.3285363 0.8926624 0.654426 0.6077755 -0.64375645 0.4457965 -0.60769475 -1.0755368 1.3773317 0.9926982 -0.1386666 -0.23244505 0.8702159 -0.4516404 0.8337671 -1.1749772 -0.36277914 0.7513674 -1.6188365 -0.42617565 -1.3345886 0.2133251 1.0493771 0.30198237 0.6998145 -0.49663684 -0.28749055 -1.4391193 0.6629108
2460 -0.7338557 -0.20541957 -0.17420128 -0.62493163 0.099193916 1.5689329 0.0796959 -0.5702084 -0.14430086 0.48182604 0.2430793 0.09205598 0.29950917 0.78981906 -0.755382 -0.5499624 -0.2566245 0.20687103 1.7276676 -0.38007686 -0.4087373 -0.48851922 0.4820584 -1.4429717 -0.3865931 0.61493033 -0.31829697 -1.1701895 0.12112666 0.2722348 -0.36210606 -2.0514457 1.215692 0.030105695 -0.8377009 0.46924233 0.20134506 -1.6066635 0.61255497 -0.3476304 -0.10680233 -0.44856372 -0.62723047 0.093694 0.94344735 0.03851456 0.008907746 -0.052576024 -0.53176206 -0.18398163 0.7172188 -0.81350225 0.43849304 0.59958476 -0.043478914 -0.72736406 -0.48568135 -0.72339517 -0.42865443 0.55758035 -1.1431179 -0.7770655 -0.9023498 -0.68347305
3248 0.9170191 0.72343504 -0.73905104 0.18168217 0.8906569 -0.5044626 0.24059235 0.31959814 0.4501761 -0.8033145 -0.7252042 0.57946736 0.56388086 -0.12694141 0.90046704 0.81530195 0.1566322 0.5928344 0.67602855 0.071653254 -0.7342336 -0.23441318 0.3673707 -0.076824866 1.1746097 0.16033773 -0.24290136 -1.3603117 -0.099762045 1.0131896 0.24101675 -1.0907683 0.6945242 1.0426387 -0.79589814 0.35544762 -1.1773198 0.0062001315 1.0303074 -0.79006964 -0.6627485 -0.9028688 -0.76676434 0.5884919 1.2077525 -0.46273178 -0.5012453 0.254514 -0.3517024 -0.12626196 0.17566407 -0.52400905 0.7800258 -0.20859936 -0.015756855 -1.0722966 0.23158276 -0.32389003 -0.23980051 0.46869472 0.45250842 0.08329223 -0.9786847 0.3588462
407 -0.04886194 0.114911765 -0.094753616 0.5844116 -0.18883339 0.58204037 -0.4426645 0.09299 0.9043593 0.8561642 -0.21243848 -1.0068489 0.19164076 0.48940593 0.7008266 0.27858993 0.5204032 -0.9834257 0.36993214 0.031477224 0.0016719701 -0.19105208 -0.2466876 0.097530805 0.03537943 0.8004663 -0.7917117 -0.7079764 -0.36955744 0.64794576 0.37376517 -0.23459126 -0.21263325 -0.0028633408 -0.036294423 -0.005005287 0.28150883 0.13105494 -0.08315494 -0.7628623 -0.019627584 0.18609338 0.03973493 0.28547072 0.5108353 -0.10497918 1.0989832 0.58652455 -0.13915622 0.47544512 -0.32015806 -0.63984656 -0.020146174 0.5129536 0.2613296 -0.20037584 0.11936427 -0.90822715 -0.384241 0.47860265 -0.35741052 -0.018719403 0.052200265 0.16648276
915 0.7218355 -0.904495 -0.00023469064 -0.12780179 0.4454357 -0.13408846 0.30476165 0.0047624256 -0.66691184 0.5076449 -0.50956196 -0.18831216 0.059573777 -0.8625544 0.39094052 0.38357404 0.4348324 -0.036364418 0.66343826 -0.26035023 -0.71004313 0.14673354 0.65151215 -0.22415048 -0.24267873 0.23749825 -0.53287834 -0.04660988 0.15669395 -0.33799678 -0.1400485 0.65813714 0.4850738 0.63657063 -0.7322343 -0.32172218 0.7230445 0.4619737 1.2069528 0.06466594 -0.13850786 -0.16911525 -0.05420252 -0.021689065 0.22834639 -0.08500829 1.0331596 0.11446652 0.015977563 -0.006084723 -0.054105937 0.309059 -0.0856421 -0.11169499 -0.010855202 0.0139706535 -0.01910557 -1.0822804 0.2594883 0.8487557 0.17806417 -0.218286 0.17487253 -0.31926656
3886 0.09953546 -0.85672605 0.59916425 0.35762274 0.054342795 -0.80560434 -0.20581181 -0.82399046 0.16682822 -0.033826504 -0.3503713 -0.77366376 0.6643338 -0.46035618 0.2104605 1.5688117 0.42433706 0.29169312 0.17361443 -0.12145047 -0.6364153 0.082787745 0.049126454 -0.2888988 0.15555774 0.22062646 -0.67067695 -0.52288234 -1.0768148 0.29102194 -0.43230128 -0.4250711 0.8661049 -0.059419412 0.696109 -0.94358826 0.9565543 -0.2730777 1.2606193 0.3330185 -0.13804974 -0.27121294 -0.03124558 0.029591765 0.696029 -0.17043012 0.15860112 -0.46433234 0.28383505 -0.33682248 -0.16002414 -1.1480548 0.26583484 -0.35133803 0.3880715 -0.48466948 -0.43911088 -0.3679759 -1.1433818 1.3318449 -0.6384907 -0.17475136 -0.20328687 0.86773646
94 -0.03157735 -0.7135335 -0.3573165 -0.42412326 0.16876343 0.4271474 -0.79275346 1.5066618 0.3017281 0.83297276 0.3911567 -0.7963428 -0.22084415 -0.23023596 0.26153257 -0.4877422 0.18307358 -0.32954347 0.19984202 -0.5893684 -0.47471157 -1.1372501 0.2553713 -0.5491425 -1.0150938 0.9314113 -0.2874001 0.03441626 0.8062619 0.9439886 -0.11419638 1.2038102 1.295953 -0.25803667 -0.008849471 -0.6406717 0.8970633 0.48533988 0.41707548 -0.46980867 0.2820214 -0.62540853 -1.140097 1.4957807 0.9400065 -0.2496711 -0.17243645 0.73945826 -0.56862575 0.55342066 -1.0374681 -0.4809498 0.63893944 -1.4191581 -0.55385035 -1.1666588 0.2290961 1.0787308 0.39649475 0.63268405 -0.63774174 -0.29145518 -1.4029285 0.5032815
9812 -0.31553474 -0.464683 0.53618586 -0.14639886 0.50310755 0.8030979 -0.7077323 0.19287379 0.21049778 0.03552154 0.10367081 -0.4447827 0.14063643 -0.48918137 -0.49694523 0.20216818 0.4811644 -0.6782814 0.36043885 0.51171917 0.011867921 -0.36117586 0.7364045 0.1496495 1.0848083 0.3347512 -0.52315044 -0.6579106 0.19870989 -0.5327815 0.42642653 -0.34562072 0.7697122 0.44203106 -0.8799415 -0.9265877 0.66009796 0.10557793 0.56570107 -0.5529053 -0.2705639 -0.11477769 -0.9351925 -0.07186183 -0.47459602 -0.69780976 0.11592689 -0.59785604 0.2885774 0.27622467 -0.22064802 -0.96565634 -0.068839654 -0.7505626 -0.005727233 -0.34249592 0.7495838 0.35540423 0.2056176 0.09562514 0.47447374 0.1404581 -0.39701274 -1.0099164
336 0.024208978 -0.41612726 -0.3800704 0.6794099 0.68889046 0.18466641 -0.0490143 -0.5202337 0.7139721 0.16947494 -1.077505 0.6676379 -0.26512602 -1.4883916 -0.03782373 0.76269495 -0.111208625 -0.42493722 0.8675475 -0.07939154 0.25193363 -0.26027754 1.1730309 1.3083271 0.61694145 -0.10631889 -0.78620815 -1.2309027 -0.33872843 0.5646224 -0.23427182 -1.3809456 1.6083008 0.24917917 -0.8155022 -0.17560683 0.5019108 0.044008892 -0.09080794 -0.5599169 0.3557915 -0.6360303 -0.02498644 0.72966826 1.0888413 -0.749247 -0.8887939 0.07095547 -0.59728557 0.60610664 0.7269501 0.14102884 0.3251945 0.25433558 1.2333496 -0.3689986 1.5509632 0.21959303 -0.41105786 -0.19508125 -0.48900202 -0.56342006 0.20013848 0.610331
2347 1.1461066 -0.35354158 0.6595606 -0.5071688 1.0865496 -0.14222495 0.14147866 0.81181985 0.44770935 -0.08729817 -0.29942048 -0.46661335 0.7448208 0.039351985 0.18579563 0.36538118 -1.3919488 0.11098097 -0.18349719 0.40498862 0.27548552 0.6816154 0.72822315 -0.5812871 -0.16568147 -0.026625222 -0.49367774 -0.88377404 -0.15324855 -0.8974934 -0.40805376 -0.28946593 0.124157205 -0.08032031 -0.5305853 -0.3595528 -0.105516136 0.33648106 0.015587223 -0.051265597 -0.19084948 -1.2291453 -1.2164264 0.9543843 1.482758 -1.5081121 -0.24191827 0.3613806 -0.63025725 0.88809305 -1.2509148 -0.2841037 0.7475324 -0.21275885 0.22166629 0.05815276 -0.5227838 -1.0465358 -0.4488759 -0.2582282 1.3294002 -0.6403786 -1.8266995 0.8980216
997 0.9589659 -1.2698483 -0.16291277 -0.42095172 0.48161548 0.9801353 0.64216155 -1.1985939 -0.1228898 0.123940304 0.40503454 -0.47223637 0.17452408 0.5969249 -0.101208836 0.31450412 -0.29328987 -0.3760992 0.088979684 0.20464933 -0.17394476 0.72482884 1.2967725 -0.06529272 0.8494082 0.95753574 0.31523752 -1.2817774 0.22715129 0.78694487 -0.25929886 0.21761364 1.0813621 -0.24657199 -0.8669808 -0.05219662 0.5288411 0.23048183 0.022501327 1.777568 -1.0776826 -0.32973716 0.009258607 0.1896266 1.631446 -0.45234838 0.594628 0.29409936 0.07086235 0.80300504 -1.4236236 -1.269121 -0.5947971 0.40313077 0.34518436 0.45519745 0.2919358 -0.6455684 0.19699414 -0.548436 0.44557002 -0.15709485 -0.05520405 0.84345204
108 1.715726 -1.4800293 0.34123564 -0.074066415 0.45687646 0.6521488 0.32114702 -1.2274536 -0.82552856 -0.2543816 0.49121553 -0.03674531 -0.39024627 -0.4146551 0.22861764 0.49049428 0.31968963 -0.7404587 1.0763217 0.66706204 1.0625057 -0.24156068 1.131646 0.554732 0.32518637 0.20766957 -1.4311277 -1.4235808 -0.13145359 1.4797764 -0.37211436 -0.6226154 0.04231826 0.5654922 0.014719122 0.23991275 0.18460041 0.28926626 0.79912317 1.5963115 0.45189607 -0.7663763 -0.42209068 0.27129233 0.91035044 -1.0688919 1.0841799 -0.4771737 0.74800247 0.68146026 -0.1302933 -0.42672178 0.7455774 0.2165648 0.11113818 -0.35320577 0.116705574 -0.0141174495 -0.46531078 0.46573782 0.120905206 -0.7984667 -0.25115788 1.1577042
564 1.0901448 -0.22490063 -0.18274577 -0.13691866 -0.041396018 0.58526 -0.1069521 -0.08570695 2.1788611 0.61234856 0.99439573 -0.31860057 -0.4326383 0.057662446 0.25046217 -1.760892 0.31601012 -0.87115854 0.3053459 -0.006490541 -0.20319581 -1.0324839 0.47400892 -0.43757874 -0.13879982 1.1161009 -0.35256213 -1.3456999 -0.020872362 0.2849905 0.14956641 -0.4636828 0.47681066 1.3424499 -0.401345 0.30724 0.41146082 -0.19097015 1.329569 0.2506102 -0.36225274 -0.10829362 -0.5460013 0.1285397 1.9155147 -0.62865186 -0.7932021 0.1948477 1.3371813 0.9930891 0.19666938 0.20131366 0.48913103 0.0018053353 -0.061016787 -0.22495715 1.0293173 1.1277863 -0.6140625 0.3959194 -0.19944797 -0.2558677 -0.7131501 -0.16732483
662 0.6630174 0.05694285 0.580443 0.24088995 -0.80983293 0.9303495 -0.28827506 -0.033268813 0.53209466 0.33554962 -0.1446379 0.09275994 0.6118647 0.08048341 0.734484 0.8608321 -0.69742286 -0.14030537 0.948281 1.135065 -0.66093343 0.44412732 0.5161407 -0.2107366 -0.058530416 1.561541 0.054870725 -1.2036282 -1.4436737 0.47605678 0.6027778 0.3446529 1.1494708 0.8540093 -0.35307118 -0.4127382 1.1328189 0.3056257 0.4884577 0.72806394 0.08960289 0.5591182 -0.37910363 0.27180496 2.0962486 -0.35644048 -0.70553476 0.059609897 0.17683248 0.40007132 -0.005281209 0.21082723 -0.042627696 -1.6068808 -0.2751694 -0.067811675 0.5820282 0.28521124 0.5275753 -0.5845792 -0.5438594 0.04859745 -1.1587132 0.7054653
1258 -0.44051352 -0.7664899 1.1623524 -1.7344157 0.6203026 -0.33092093 -0.14553957 -0.23668794 1.6974146 0.22533457 -0.038538978 0.4651227 -0.2470831 -0.5911084 -0.13795774 -0.47975826 0.06552436 -0.7603277 1.0533199 0.27169383 -0.11971516 0.029243933 0.31947523 -0.4349707 0.26771978 -0.26356074 0.67175806 -1.1919361 0.41584155 0.03193837 -1.0575937 -0.29313564 0.09138233 -0.06791583 -0.43148363 0.33381385 0.20701572 -0.35181013 0.1348849 -0.27680898 0.5087695 0.093816526 -0.4066165 0.56379944 1.2754217 -0.552841 0.6664274 0.28291085 -0.14501813 0.5947985 -1.0127821 -0.55563563 -0.0063136187 0.24375409 0.3399165 0.6083987 -0.09244113 -1.1265941 -0.08932759 0.16133612 0.27442223 0.13105987 -1.6999702 0.36478615
96 0.17803197 0.5058751 -0.009275333 0.56843126 0.08873624 0.2424819 -0.45747155 -0.042585067 0.67518973 1.0522186 -0.42836645 -0.9179263 -0.34118843 -0.26177937 0.7277604 0.24001117 0.90227634 -0.17107205 0.52117926 -0.22724478 -0.13842131 0.21730588 -0.8645406 -0.0011467043 0.27255616 0.67786384 -0.7095571 -0.5792292 0.20686734 0.4786713 0.25463971 0.17280073 0.27203354 0.1527012 0.2233131 -0.66546434 0.23649405 0.48307106 -0.34998775 -0.3997037 0.37411788 -0.47700527 -0.1346875 0.6820462 0.5634303 -0.8520677 0.38893005 0.62500346 0.038192417 0.5389806 0.32044202 -0.46692395 -0.11994875 0.27003574 -0.18109702 -0.13883528 0.39536214 -1.0651718 0.07901797 0.40492293 -0.063290015 -0.061248463 -0.32754105 0.035307154
188 0.31396306 -0.23797865 0.793689 0.48863825 0.026328295 0.021540692 -0.07678871 0.22281678 0.25329173 1.0473833 -0.025604947 -1.0133548 0.34775075 -0.045533754 -0.047246266 -0.21523118 0.55394614 0.124711715 0.9404257 -0.17025992 -0.44776857 -0.65970075 0.076834925 -0.26353028 0.22829553 0.5469262 -0.5895 -1.005953 -0.2727194 0.20806162 -0.411193 0.73806596 0.17727995 0.5595815 -0.5161461 0.21395938 -0.34496388 0.8310579 0.063604094 0.28744182 0.3311499 -0.19332373 -0.41700447 -0.29291317 -0.05968777 -0.06452177 0.10653057 -0.27952644 -0.054975253 0.2299929 0.16975245 -1.1596907 0.15505956 0.06339901 0.5228377 0.7088232 1.103009 -0.3852673 0.28376216 -0.07255524 -0.4455039 0.065401286 -0.44644633 0.4805893
546 0.72739977 -0.65947074 -0.19765794 -0.7592746 0.20946454 0.5877139 -0.02844336 0.062120724 0.14700368 -0.015704853 0.3796862 -0.13599476 -0.40927887 -0.49428144 0.6489771 -0.9073573 0.6048001 0.33524993 1.3075615 0.8693317 0.6455549 -0.6494581 0.39506468 -1.8685054 0.008662368 0.9659953 -0.31604722 0.6557077 -0.28789845 -0.13629232 -1.3478552 -0.24702507 -0.8707809 0.71812445 -0.40141067 -0.12239159 0.008966031 -0.052265067 -0.049154367 -0.56306905 -0.019721735 -0.20703521 0.3003775 0.07664686 0.9554578 -1.0860403 -0.6173813 1.4553607 0.4704825 0.6705816 -0.15241928 0.20214917 1.5470456 -0.8505951 0.43188542 -0.23776284 0.03808655 -0.88443124 -0.51873624 1.0953275 -0.43640476 -0.6950214 -1.6181259 -0.15280272
338 0.885132 -0.8329376 0.92272806 0.91057944 0.06668418 -0.05123455 0.17571706 -0.29360977 0.09561041 0.4761907 -0.3465323 -1.1178529 0.024113866 -0.56322575 0.30815443 -1.096721 0.43415827 0.3907796 0.9617117 -0.213374 0.1062922 0.08936535 -0.35228488 0.44155747 -0.013008619 0.6419812 -0.4407211 -0.68828064 -0.40286925 0.052814636 -0.53963745 -0.24016386 0.5680332 1.0715234 -0.4500642 0.22563829 0.123657286 1.394816 -0.5645559 -0.6218187 0.59223545 -0.85705423 -0.6206798 -0.052966356 0.89024776 0.37124676 0.18701778 0.32940224 0.17783177 -1.1419897 -0.5056625 0.18433033 0.18999346 0.32955882 1.1750127 0.015818972 0.55220926 -0.49287474 0.1721837 -0.17603312 -0.16290824 -0.42039496 -0.20089327 0.0020544545
8880 0.24576113 0.33348757 0.08971544 0.06176092 -0.24105237 0.25321883 0.061962605 -0.34500232 0.35648972 1.0265559 -0.24697022 -0.91333693 -0.7364878 -0.21743308 0.6278422 -0.04052118 0.4451584 -0.33807182 0.109720364 -0.19057232 -0.5570254 0.19362003 -0.082731165 0.31342918 -0.06286191 0.80096483 -0.59770185 -0.56772596 0.101153426 0.6408158 0.5120787 -0.10227323 0.033697587 -0.19624059 -0.29269537 -0.27927986 0.12738714 0.5579765 0.027621923 -0.6290983 -0.033503927 -0.32218605 0.28621325 0.14939828 0.51302284 -0.18268639 0.7048088 0.4726026 -0.14954911 -0.22666468 0.3935601 -0.6259042 0.062071048 0.012434282 0.43654573 -0.06840036 0.30496824 -0.6635249 -0.20261282 0.6145219 0.2650437 0.4738553 -0.11365936 0.16098607
755 0.8244893 0.21538831 -0.415469 -0.2641824 0.47627386 0.74114984 0.069207564 -0.23438893 1.9892809 0.49769047 0.9504803 -0.7473526 -0.32200617 0.025862314 0.29571503 -1.6333704 0.13156067 -0.9017563 0.27691576 0.26259348 -0.07125521 -0.97929984 0.7449828 -0.7724359 -0.38853112 1.0313714 -0.6389935 -1.1108586 -0.26976517 0.32034716 0.31631735 -0.5056702 0.60905796 1.240908 -0.43362653 0.10609881 0.5792852 -0.2552571 0.7794611 0.6521198 -0.43405083 0.0017038181 -0.7169954 0.442316 1.7254814 -0.48964462 -0.86645216 0.038368654 1.0632645 0.83674395 -0.037039887 0.036858045 0.669239 0.13015395 -0.18403976 -0.13414013 0.9025769 1.0696514 -0.4932402 0.39567232 0.00080511026 0.16350475 -0.68348414 -0.19268875
61 -0.12870415 -0.23389608 -0.0013501055 0.6168125 0.1345401 0.901618 -0.039613333 0.3460321 0.23266783 0.6720199 -0.53304684 -0.46361947 -0.15906549 0.4159214 -0.21881914 0.7849628 1.0506194 -0.25979707 0.8633269 -0.47049782 0.14928061 0.20041798 0.53632945 0.012146406 -0.43222526 0.5583722 -1.2160466 -0.8107581 -0.023701373 -0.0069272295 0.21787696 -0.23765592 -0.5108885 0.2624961 -0.18659794 -0.25209886 0.25821802 0.08472819 -0.12052804 -0.27450922 -0.11747385 -0.13546576 -0.033681817 0.20659636 1.3515869 0.28287926 0.9095618 0.42959964 0.090129904 0.12809205 -0.335777 -0.25086972 1.2958552 0.24038872 0.33786446 0.11747395 0.32592776 -0.6896357 -0.3203196 0.30641562 -0.09806036 0.008699402 0.14905648 0.11636879
2612 -0.7355521 -0.2859825 -0.12304309 -0.6477637 0.13234688 1.548727 -0.047537103 -0.511417 -0.08137363 0.3982039 0.30304414 0.26782832 0.27978498 0.82890505 -0.69549096 -0.5984873 -0.18476972 0.28912804 1.7218821 -0.41406298 -0.53516763 -0.43044853 0.451634 -1.528524 -0.4003501 0.5820379 -0.46468523 -1.1103234 0.22788325 0.26711434 -0.30382618 -2.1503096 1.3343507 -0.10417337 -0.78769237 0.4405582 0.15859576 -1.5213611 0.62625676 -0.36402822 -0.057595603 -0.4742513 -0.6940616 0.017172132 0.93161833 0.029420024 -0.022400143 -0.11238959 -0.42601886 -0.20464456 0.7964807 -0.91131645 0.45437458 0.47797084 -0.011913707 -0.63912576 -0.4151549 -0.8511069 -0.38419837 0.5072695 -1.1894572 -0.7134281 -0.7295161 -0.6907351
1900 -0.17791094 -0.6212502 0.43840507 0.24051918 0.17206857 1.5445474 -0.76186657 -1.2648134 0.2622027 0.20016883 -0.44066855 -0.7191946 1.0318525 -0.3490919 0.59185064 1.5893978 -0.68808115 0.4249387 0.8620283 0.11734956 0.69561994 0.35031033 1.1438107 -0.1388926 0.54517746 0.9822454 -0.14607339 -1.0220405 0.65609205 0.7162187 -1.177115 -0.915525 -0.015316799 -0.83931524 -0.3095714 0.14500393 0.27837634 1.020246 1.6149755 -0.49849993 -0.040558785 -0.9198604 -0.85646516 0.36898753 0.7014538 -0.9391372 -0.8731862 -0.7709745 0.2550856 0.1300554 -1.6537954 0.809588 0.45362183 -1.755792 0.8877896 0.14289474 -0.8051231 -1.0470217 -0.1865926 0.4736587 -0.06706633 0.14963706 -0.22688618 0.49338585
834 0.28813472 0.22566162 0.1438943 0.2572506 0.5940094 0.80739576 -0.50400704 -0.08984812 0.6202804 1.3022584 -0.04057243 -1.0093303 -0.27099043 -0.19703549 0.60229063 0.3461848 0.75133723 -0.5889745 0.17083949 0.24832414 -0.57144934 0.03710563 -0.8031955 -0.1787614 -0.13653207 0.19830166 -0.63259524 -1.0383931 -0.031925388 0.53515184 0.40921184 0.25451702 -0.5092178 0.059682775 -0.22100389 -0.43598917 0.037891403 0.3617285 -0.028402725 -0.52486855 -0.18068886 -0.38475582 0.14937164 0.077110186 0.74160707 -0.644725 0.54610544 0.8143013 -0.16176106 0.13185984 0.69163716 -0.8554123 0.3830728 -0.047191978 0.5630326 -0.31733763 0.30957186 -1.1469964 0.2700422 0.2006162 -0.37398732 0.00874858 -0.3813938 -0.21741833
1879 0.7261678 0.16282544 0.50221616 0.23315607 -0.7991085 0.93249726 -0.31382802 0.018348202 0.43379682 0.23936935 -0.09154797 0.19248053 0.42589995 0.2404192 0.7551288 0.88620204 -0.62087697 -0.28351822 0.8969912 1.3504493 -0.9120354 0.25901896 0.5814189 -0.16716717 -0.29143998 1.7096809 0.05586102 -1.3524163 -1.317257 0.6272488 0.8144083 0.3990587 1.1363636 0.7359778 -0.6046493 -0.40840098 1.0268085 0.22929013 0.25655892 0.5967185 0.24620415 0.27109408 -0.4034511 0.4949609 2.212559 -0.6347331 -0.78739464 0.067947485 0.30888388 0.6342763 0.057354 0.33913943 -0.042241752 -1.7331736 -0.34442684 0.023150114 0.45872092 0.3163932 0.24975821 -0.37228313 -0.33592346 -0.025165958 -1.1859043 0.72171944
5295 -0.0916645 -0.88257265 0.13465466 -0.5400426 -0.07038607 -0.08889348 0.5367012 0.742235 -0.022381585 0.055570893 -1.0336046 -0.6234477 -0.04210643 0.62283397 -0.71209013 0.12477356 -0.41350093 0.70271236 0.31661978 0.25283745 -0.8957398 0.28167775 -0.11672313 -0.061287265 0.60212964 0.7360584 -0.6437987 -0.14551242 -0.08575366 0.24170308 -0.52348554 -0.42109558 0.23555557 0.1984129 0.20289634 -0.1805447 0.75986177 0.9334771 0.30823785 -0.45372784 -0.30183196 -0.00601522 -0.20359696 0.24109924 0.41543078 -0.4882058 0.061913207 0.8125342 0.15545858 0.4396463 -0.20644313 -0.67158455 -0.08531511 -0.0008353865 -0.25927067 -0.31035915 -0.42808858 0.17005023 -0.17619877 0.48010767 -0.28389144 -0.6156868 -0.36933422 -0.16265184
4944 0.24132814 -0.97280586 0.5667141 0.67711866 0.30372354 -0.27528116 -0.40223566 -0.9468985 0.05898631 -0.06474732 -0.5948114 -0.9907661 0.6678283 -0.59619766 0.22252393 1.6813385 0.52605206 0.36719304 0.4320817 0.07344646 -0.9148433 -0.019342639 -0.2883261 -0.29238516 -0.20063378 -5.907632e-05 -0.48477134 -0.8431349 -1.241282 0.6500723 -0.42996246 -0.39415425 0.9088833 -0.13546585 0.37682152 -1.0599252 1.1701436 0.09797271 1.3421263 0.39804024 -0.18838735 -0.44213495 0.023081204 0.04232807 0.78174883 -0.14852288 -0.037101083 -0.65035886 0.17550223 -0.620832 -0.08604198 -1.2755507 0.505451 -0.5582156 0.5532126 -0.7102896 -0.400727 -0.6373308 -0.8203419 1.2776726 -0.7392032 -0.048779584 0.10646665 0.78868026
2960 0.4099632 -2.131311 -0.16956338 0.6385041 -0.15752503 0.85900766 1.0642062 -0.5484689 -0.6948521 -0.47259918 0.42004564 -1.2604538 -0.31006935 -0.56398064 -0.4017973 -0.16685219 0.67757964 0.22355448 -0.7282055 -0.06062417 -0.28934386 0.57205516 0.68970287 0.2080593 0.40499794 1.4146581 0.20876664 -1.2573009 0.7020491 1.2023537 -0.6242693 -0.5171633 1.2437752 -0.33993077 -1.2149255 0.09411471 -0.20354107 0.86464816 0.111726016 0.07987068 -1.1385754 -0.42640772 -0.012449348 0.61358833 0.6701317 0.090213895 -0.19396195 0.06228976 -1.6311462 0.2510797 -0.24430566 -0.77264416 0.8657911 0.08777845 0.86291295 0.08480937 0.5660057 0.07354408 -0.1592013 0.8707268 0.5250666 0.7275097 0.04874213 0.3741068
404 1.0286711 -0.7452535 0.14064047 -0.42097625 0.19592825 0.13114795 -0.44033578 -1.0284973 0.25434953 0.75171685 0.0017043764 -0.66789526 -1.3289694 0.020318689 0.3626232 -0.4876457 0.47801623 0.05760165 0.2116557 -0.7650059 -0.3880689 0.18579568 0.71601117 0.5918317 0.21451296 0.24926874 -1.1159241 -0.6911898 -0.30790487 0.86680675 0.72724813 -0.33062887 0.41082492 -1.005551 -0.61136204 -0.56713074 0.74505514 -0.039485395 0.66261554 -0.9239458 -0.108345635 -0.22979748 -0.32328874 0.6084509 1.2155395 0.6104461 0.42079076 0.29907173 -0.94566804 -0.6044224 0.7610181 -0.71230227 0.2562866 0.038035195 0.79534584 0.27312165 0.317209 -0.72903657 -0.0046616225 0.437906 -0.43343136 1.2717761 0.3263831 -0.19096166
4477 0.60907996 -0.67518747 0.014536384 0.054943018 0.33140078 0.19335335 0.15373674 0.28449494 -0.5323425 0.5096291 -0.52130264 0.03462787 0.030037165 -0.8287486 0.37899104 0.17494626 0.2537262 -0.18496192 0.43927193 -0.1542928 -0.51013476 0.23540184 0.5324855 -0.4716885 -0.21457869 0.23912112 -0.594253 -0.063049234 -0.042430274 -0.3398225 -0.17140529 0.8778182 0.62880963 0.4298258 -0.8218888 -0.26700744 0.84605855 0.3771246 1.1943085 0.17951487 -0.17449418 -0.17033492 -0.18395965 -0.029900508 0.40888634 -0.17293672 0.97859615 0.04090354 0.07690094 -0.34096026 -0.052316085 0.23326412 0.014312963 -0.066171005 0.1719217 -0.09201222 -0.09288953 -0.91090584 0.2781583 0.9410003 0.30558336 -0.19391711 0.28223938 -0.22781704
181 -0.139972 -0.7498317 -0.4505312 -0.29306635 -0.6840198 -0.054481618 0.39131752 0.22448903 -0.28120247 -0.104453444 0.4399472 -1.5446385 0.08613542 -1.0526884 0.28568557 0.7458794 0.44057515 -0.47601992 1.095291 -1.1675755 0.36995524 1.512613 0.2068758 0.44000748 -0.11984844 -0.20335738 -1.5484979 -0.893019 -0.52357626 0.99898195 -0.52707446 -0.71369296 0.20582394 0.18325889 -0.71085334 -0.2578641 -0.3734725 -0.005959989 -0.43299657 -0.0647349 -0.6558009 -0.7138994 -1.0418198 1.8779933 0.90004146 -0.6661672 0.5694219 0.26700494 -0.2329861 -0.21405564 -0.037491217 -1.0463935 1.722012 0.13719353 -0.52103513 0.94655627 0.094717644 -0.2976377 0.49492913 1.3857372 0.014830829 0.4052013 -1.2816248 0.26510638
998 0.9794608 -0.9578752 -0.20827201 -0.61116445 0.4108801 0.89063275 0.7221256 -0.95721775 -0.068483345 0.24088709 0.45741218 -0.35704556 0.20803346 0.6371498 -0.1409106 0.12605457 -0.08733853 -0.6294862 0.23628202 0.21105735 -0.2639831 0.6937017 0.9682872 -0.2073401 0.78662884 1.1110173 0.32578915 -1.2102951 0.13813758 0.693487 -0.2570418 0.5734424 1.3115959 -0.24569592 -0.9120661 -0.076437 0.68326616 0.11327172 -0.091896236 1.5884851 -1.1597252 -0.25974652 0.0084202485 0.2375305 1.5374153 -0.56911576 0.586058 0.40373397 0.15795201 0.81489575 -1.2777644 -1.2667383 -0.9282377 0.3988025 0.2703151 0.26603842 0.1981059 -0.6967829 0.55978286 -0.7011869 0.28796887 -0.06513942 -0.13069277 0.79864764
1732 1.6884111 -1.3262349 0.21465132 -0.23225774 0.08513353 0.6660197 0.43763772 -0.9327113 -0.8292615 -0.13235734 0.58447576 -0.12496798 -0.39930594 -0.29650426 0.16008785 0.5235803 0.22497094 -0.6099974 1.2989185 0.6454636 0.9873551 -0.32223362 0.6623182 0.4631968 0.22448073 0.012767599 -1.2961501 -1.3494743 -0.47833174 1.3327806 -0.3620058 -0.22965318 0.092564985 0.9384304 0.08973214 0.19713272 0.34914297 0.18026346 0.89610225 1.3667173 0.4354708 -1.0320293 -0.58065444 0.25561377 0.835551 -1.2078289 0.92491364 -0.20300183 0.87234354 0.29918873 0.11522897 -0.3451241 0.46436083 0.2636286 -0.055800665 -0.36285838 0.024734467 0.06291289 -0.35082033 0.37888667 0.22763999 -0.6575556 -0.24104059 1.3103204
633 0.56995624 -0.4241435 0.7920545 0.64986974 -0.12612489 0.060825493 -0.07891183 0.21860616 0.23007402 1.0298139 0.034876663 -1.2835493 0.19850628 -0.38090953 0.13691403 -0.40388197 0.6704218 0.45403472 1.1590267 -0.3050264 -0.28566718 -0.20730557 -0.48861614 0.006900011 0.03642596 0.60295844 -0.46351707 -0.75018495 -0.35402963 -0.13833003 -0.49437797 0.45581028 0.29187235 0.7836767 -0.48998445 0.33648738 -0.08513504 0.946328 -0.1485946 -0.033086754 0.40866446 -0.2684342 -0.70731544 -0.21555613 0.044948358 0.23733683 0.05128792 -0.105294496 -0.04046653 -0.13609727 -0.030721482 -0.6363784 0.20119177 0.12679976 1.0016315 0.37771785 0.8565388 -0.41546252 0.34296548 0.032658283 -0.30523047 -0.068816766 -0.40831602 0.2729119
9224 -0.53621393 -0.254452 0.49771097 -0.43457198 0.63107026 0.8398711 -0.6634056 0.07301523 0.12704363 0.30548206 -0.31224102 -0.66341877 0.14876774 -0.30467486 -0.42155346 0.26512334 0.43216202 -0.4497053 0.36348313 0.6207796 0.012515915 -0.36011368 0.8573592 -0.24102011 1.1028922 -0.10764038 -0.26060295 -1.0408213 0.13680232 -0.4519015 0.7366459 -0.37708014 1.2277653 0.35578057 -0.95917034 -0.9899922 0.60497 -0.18489204 0.4946298 -0.39802665 -0.26296088 -0.45491493 -1.1882476 0.19791988 -0.40628064 -0.50400054 -0.4321935 -0.86088306 0.19490823 0.3179702 -0.255607 -0.8879892 0.22488424 -0.5199589 0.5374961 -0.47467852 1.0241473 -0.0594762 0.5630204 0.43515238 0.11720213 -0.059579004 -0.2618471 -1.3386478
632 0.49819437 -0.5925768 -0.21517867 0.13686192 0.1480213 0.25066254 -1.1511235 -0.5215374 0.044398766 0.7587766 0.44595325 -0.30089462 0.080848396 0.18339208 -0.28235608 0.5869434 0.05842937 0.09260453 0.31940213 -0.2132671 -0.0978965 0.22612952 0.6647581 -0.60387844 0.7491794 -0.38770896 -0.12293381 0.19581763 0.33871904 0.62630904 -0.68256783 -0.6965465 0.03447952 -0.2962116 -0.51375884 0.39856964 1.095686 -0.35888216 -0.30214086 -0.7330489 -0.61150265 -0.5450548 0.92475384 -0.42521963 0.48226678 -0.7252972 1.024044 -0.38175148 -0.539405 -0.90935886 -0.61224115 -0.46222553 0.6778226 -0.11676131 0.170799 0.31700826 0.6419992 -0.5184033 0.39473185 -0.08579336 -0.75009114 0.33353415 -1.1349804 0.15132058
2542 -0.20655619 -0.30495834 0.4342439 0.30533668 0.048546474 1.6209054 -0.72047263 -1.3869634 0.3072727 0.34632245 -0.43305984 -0.5876429 1.1598014 -0.35973483 0.5309095 1.5738969 -0.75118804 0.68382174 0.81556165 0.19384971 0.68250275 0.3080625 0.8693137 -0.340239 0.6232979 1.1793302 -0.11540741 -1.1114317 0.6992153 0.6789225 -1.0676528 -0.7837226 -0.017351037 -0.78677845 -0.36826465 0.31680796 0.47153622 0.8651342 1.6028093 -0.48068288 0.2214177 -1.051371 -0.8589716 0.5993932 0.85243714 -0.91985005 -1.0319774 -0.5072394 0.26079038 0.030478798 -1.5324203 0.6288465 0.5612893 -1.5103117 0.90468496 -0.12958598 -0.9550626 -1.1064748 -0.019384678 0.60974824 -0.10130423 0.40331966 -0.2573535 0.5154548
976 0.80359524 -0.5474681 0.07002661 -0.456228 -0.40505704 0.26377186 -1.0775858 -0.5940171 0.08531276 0.8319459 0.38361838 -0.3312882 0.3295304 0.07251527 -0.30626824 0.80392575 0.0055498723 -0.097530484 0.10825785 -0.5238536 -0.050769348 0.7183358 0.5855082 -0.6409654 0.6712191 -0.6007622 -0.24554838 -0.1993735 0.058945447 0.70009166 -0.57504237 -0.38356653 0.096032985 -0.40535882 -0.93927664 -0.07612627 0.901073 -0.014319024 -0.072481506 -0.545859 -0.20714262 -0.7613461 0.8071191 -0.34657824 0.66566396 -0.6472471 1.0353253 -0.16014335 -0.42660037 -0.546573 -0.4196805 0.39546067 0.88150966 0.0060553453 0.29964134 -0.1390071 0.62301064 -0.3198361 0.4095356 -0.2854131 -0.47645512 0.04722354 -1.208254 -0.6200327
943 0.299635 -0.42853925 0.32957911 0.22009338 0.2978463 0.5718746 -1.3650281 -0.75167525 0.14635827 0.45875266 0.52259564 -0.2229909 -0.34755123 -0.45728526 0.19992627 0.7342483 -0.04881657 0.047893353 0.40987864 -0.07056044 0.126861 0.42413968 1.1313266 -0.47303048 0.26131326 -0.3355201 -0.33346418 -0.19818747 0.28514752 0.87287194 -0.5241684 -0.30223048 0.7045877 -0.50866205 -0.12767738 0.46143138 1.5041344 0.5262757 -0.3563001 -0.71922684 -0.14918353 -0.6445631 0.82783055 -0.2121331 0.3935066 -0.72495395 0.74064845 -0.05366946 -0.119679786 -0.90510446 -0.51501644 -0.4993237 0.39414588 -0.111161165 0.3297942 -0.37725848 0.53654355 -0.16341724 0.44768396 -0.17244725 -1.075623 -0.18953317 -0.9387371 -0.1989775
1244 -0.65645957 -0.91640264 0.09283248 -0.1811291 0.29412085 -0.11741029 -0.44819328 -0.4964814 0.17538156 0.06056604 -0.084532164 0.4517992 0.74608326 -0.7873357 -0.39846253 0.37761998 -0.06059163 -0.18183435 -0.039710198 -0.4177283 -0.53872645 0.3386702 0.34476668 -0.74218905 -0.15118106 0.7749401 -0.38662577 -0.03731322 -0.06368819 0.36912134 -0.28502 -0.091953956 0.9034054 0.53914666 0.5003245 -0.60108346 0.20253026 0.24133722 -0.17984208 -0.019724226 0.18232958 0.17342284 -0.8452504 -0.07857558 0.4886879 -0.15118544 0.20567608 0.36479884 0.3012586 0.13257809 -0.008042691 0.11369438 0.3071127 -0.12613477 0.09007993 -0.6571867 1.6610109 -0.8858798 0.7473173 -0.020716207 0.15625694 -0.16487028 -0.63897747 -0.33971587
2571 -0.5053366 -0.57511175 -0.07997894 -0.6391127 0.20557083 0.21774113 -0.46306083 0.18657392 0.2857025 -0.25024143 -0.28297347 -0.826209 0.60544693 -0.395309 0.20574868 -0.10510885 -0.27637252 -0.14951731 0.40297523 0.7699126 0.12168231 -0.63514835 0.2523719 0.022476522 0.11782704 0.6090533 -0.98126256 -0.15780266 0.008775389 -0.048400942 0.46853697 -0.5567917 0.40469733 0.36315578 -0.6120104 0.31402436 0.7681238 0.8227619 -0.21162416 -0.50777054 -0.7430092 -0.08251438 -0.1989059 -0.19455157 0.39049748 0.006103028 0.49295264 0.03600798 -0.12516199 -0.59435874 0.5077812 -0.24023022 -0.0024585275 -0.11882395 -0.13953851 0.2708633 0.36019492 0.045366287 -0.052088466 0.12975156 0.6027762 0.72335106 -0.98226184 -0.31437284
1634 -0.43132335 -1.6502445 -0.23307514 1.3413136 0.8026321 0.6142791 -0.46514568 -0.1868486 -0.3168644 0.2104843 0.25599915 -0.09184399 0.05691651 -0.93861985 -0.47762802 0.93128854 0.8913108 -0.113714784 -0.13726199 1.147413 -0.53141576 -0.39444113 0.72964907 -1.1424849 0.4984112 0.86328286 -0.4485921 -1.4876426 0.6568286 -1.4879918 -0.34674495 -0.6633549 0.112579815 0.15690422 -1.284702 -0.20982254 0.6101863 -0.16206598 0.5074032 -0.2999597 -0.18033987 0.51609755 -0.7892442 0.9815446 0.20276166 0.26954344 0.8989664 -0.19312051 -0.7000436 0.100053646 0.1690026 -0.25332874 0.99718064 -0.15356398 0.7881725 0.79770595 0.099019945 -0.04408152 -0.39562374 -0.6068546 -0.7011741 -0.3517028 -1.4473155 0.4854941
3304 0.25676215 -0.5597903 0.061762113 -0.016667755 -0.056973387 0.35349572 -1.1417059 -0.7612878 0.17886779 0.68200463 0.40903768 -0.19314538 -0.031364996 -0.060620766 -0.30745327 0.8194874 0.3361729 0.01795132 0.4004074 -0.40711364 -0.07560255 0.29166993 0.711188 -0.43943113 0.7457492 -0.58201605 -0.23893666 -0.13607596 0.33602232 0.37387058 -0.6439544 -0.5173528 0.26162112 -0.25435302 -0.6223839 0.33927476 1.1166667 0.0761196 -0.42894337 -0.82080317 -0.72750545 -0.81797683 0.77560556 -0.32319576 0.3288557 -0.60938114 1.2208852 -0.123791546 -0.6686073 -0.6800191 -0.4673571 0.21702746 0.9286633 -0.35934308 0.10147096 -0.18261386 0.9844818 -0.47347072 0.4083511 -0.21372493 -0.94516194 0.095748104 -1.1232054 -0.12247678
2097 0.27032375 -0.47161102 0.0054523745 0.036443487 0.045568973 0.427853 -1.1202317 -0.71940327 0.0074193864 0.75607324 0.41374886 -0.28174648 0.012219329 0.013694698 -0.2463342 0.6692132 0.34607995 -0.04877109 0.38802084 -0.4472611 -0.052866 0.40397957 0.84322107 -0.5861213 0.71222657 -0.5456221 -0.33630043 -0.06947539 0.28072783 0.5153003 -0.6876367 -0.4784835 0.28597447 -0.39551416 -0.5796126 0.24741243 1.1866664 -0.08855609 -0.37969115 -0.89615756 -0.569122 -0.7343543 0.83833325 -0.24745092 0.3541051 -0.7367931 1.1785693 -0.1604967 -0.71472794 -0.7779973 -0.54842216 0.08539561 0.8724036 -0.25893313 0.22064763 -0.11742271 0.87849385 -0.48068127 0.4339512 -0.12170849 -0.95343274 0.031824127 -1.2040336 -0.067685366
548 -0.026023945 -0.7674749 -0.5992013 -0.31375545 -0.66346645 -0.16441764 0.4744916 0.29468292 -0.124282844 0.08171108 0.26749396 -1.5217775 0.011097669 -0.88199264 0.18269119 0.564629 0.42909783 -0.31216773 0.9887694 -1.0247364 0.3597664 1.5336518 0.18885107 0.45835537 -0.07518906 -0.050157733 -1.5410303 -0.8082367 -0.23813774 0.80070394 -0.34124747 -0.534832 0.062591106 0.2438982 -0.6013478 -0.3627469 -0.4111237 -0.0776449 -0.53901696 -0.21310672 -0.704722 -0.594455 -1.1205733 1.6352106 0.74423754 -0.5269213 0.6024738 0.13721971 -0.1440173 -0.2897348 0.06421305 -1.1518811 1.632066 0.14293824 -0.48863032 0.89326423 0.014704039 -0.37615037 0.42897588 1.5149102 -0.15448582 0.120565854 -1.2294143 0.13620809
2195 0.36449325 -0.5405881 0.0030753354 0.037053462 -0.044230968 0.38630623 -1.2745973 -0.595871 0.09864015 0.9194579 0.47342396 -0.26240712 -0.15241002 -0.10759901 -0.28920072 0.7967792 0.25599602 0.099164955 0.2247287 -0.36849928 -0.031143675 0.29261848 0.9578775 -0.54774123 0.70358616 -0.5747661 -0.22493798 -0.07556846 0.32174262 0.49558946 -0.63587165 -0.60074604 0.27023065 -0.26197532 -0.5417008 0.17153119 1.2526914 0.111723654 -0.26476225 -0.69752616 -0.5363719 -0.65680176 0.87423426 -0.37098962 0.37298355 -0.6958514 1.1545064 -0.16821548 -0.7076939 -0.7333821 -0.44929138 0.12102492 0.9647136 -0.31267366 0.12951629 -0.1722698 0.95945287 -0.42211437 0.41214508 -0.2762879 -0.8656502 -0.077001296 -1.195845 -0.09922337
3302 0.3023255 -0.5865751 -0.05558879 -0.024843143 -0.020599524 0.4366822 -1.2404125 -0.7269845 -0.014028162 0.6909545 0.4197856 -0.29968384 0.066306524 -0.14079985 -0.28299585 0.7386131 0.38077992 0.07849384 0.26701927 -0.43174022 -0.09727944 0.2602269 0.8592741 -0.43029386 0.7491267 -0.6360557 -0.24799359 -0.10531381 0.35668364 0.45265222 -0.6409296 -0.52423096 0.15576327 -0.39707384 -0.530062 0.27008113 1.1768893 0.10178169 -0.3295988 -0.82268834 -0.73684454 -0.7287217 0.8023049 -0.29003906 0.28641728 -0.6459031 1.1708947 -0.16051888 -0.7012259 -0.67577463 -0.54216164 0.027266555 0.9989748 -0.31297702 0.18439156 -0.189495 1.0116796 -0.47836438 0.34686962 -0.34696928 -0.8474869 -0.14419544 -1.2099562 -0.1648428
309 -0.7935941 0.19132595 -0.4377044 -0.21567594 0.5877817 -0.22030105 -1.493361 -0.3869729 0.81182766 0.49626055 -0.58432865 -0.17426795 0.4768368 0.20749034 0.42276636 -0.54279673 0.767446 1.2990322 0.9301131 -0.15745677 -1.2325858 -0.59438807 -0.80777293 -1.6133503 0.20310521 0.1159322 -0.586409 -0.9056261 -0.18899661 0.50826395 -0.008952788 -1.620626 0.4978415 1.3044246 -0.58202624 0.09888236 1.1866264 -0.47273713 0.7067779 -0.69018954 -0.84456635 -0.569497 -0.17229435 0.4385385 0.23302214 0.18468496 0.7985272 0.100693084 -0.25724882 -0.5129413 -0.17676039 -0.6267232 0.5702569 -0.8476358 -0.26052067 -0.9010363 0.5584835 0.015907591 0.1899326 0.21554361 -0.5206858 -0.68204176 0.24616432 0.89237034
3306 0.32388026 -0.5432575 0.076559015 0.018181616 -0.004319424 0.38961896 -1.1976807 -0.7947922 0.15217642 0.7349053 0.26102513 -0.19151968 0.028695889 0.022729918 -0.17218535 0.6699556 0.38808125 0.038180303 0.28514755 -0.43888292 -0.13823296 0.3051781 0.8124056 -0.42119136 0.6820094 -0.740127 -0.29776976 -0.055168897 0.18686159 0.4991342 -0.6936219 -0.49453467 0.22426069 -0.3520425 -0.69737184 0.20281903 1.1419973 0.102927715 -0.3306779 -0.68818057 -0.62817323 -0.697453 0.751433 -0.4208081 0.27743524 -0.59654236 1.2052644 -0.06356208 -0.8239022 -0.6918435 -0.45900613 0.14642155 0.9689971 -0.3722509 0.28593776 -0.16766557 0.88354516 -0.34934375 0.36258245 -0.21898627 -0.8457894 0.103201635 -1.2104998 -0.06612047
2661 -0.6587579 -0.17967002 -0.1832775 -0.5466775 0.033427063 1.6398205 0.2725184 -0.26302522 -0.13667773 0.38760757 0.16739652 -0.100887276 0.31067416 1.0521553 -0.50205845 -0.4717786 -0.37436864 -0.16036083 1.5565766 -0.38675788 -0.35623914 -0.6015532 0.37826264 -1.4350604 -0.6153343 0.55014396 -0.1478239 -0.89362043 -0.14334325 0.60242206 -0.31609908 -1.6865278 1.2114248 -0.042650703 -0.8501107 0.3916867 0.3106357 -1.4536581 0.58597565 -0.3792647 -0.19376454 -0.4348026 -0.6647018 0.3893447 0.87444127 -0.025774961 0.036550306 -0.31033015 -0.5273606 -0.114652716 0.7139764 -0.5500139 0.2514099 0.6930047 0.35808477 -0.81776357 -0.51534784 -0.47683877 -0.42435265 0.38161713 -0.8702455 -1.038607 -0.87304384 -0.58918005
900 0.30607444 -1.9561123 -0.2786529 0.33574665 -0.19917297 -0.3204152 -0.6151277 -0.7204682 -0.17398027 0.82730377 -0.63459724 -0.7030081 0.033698384 -0.5651457 -0.28936976 1.086469 1.4247398 -0.116071895 0.69114447 0.689636 -0.9818009 -0.46186277 0.26850322 -0.99281174 0.5741714 0.2151643 -1.6366825 -0.4829827 -0.4217325 -0.20302178 -0.44890484 -2.4251275 0.0021688973 -0.39223984 -0.16475159 0.575614 -0.08300453 -0.4227949 -0.05418049 -0.50790626 -0.099656574 -0.36746603 -0.6386229 -0.15594658 0.4805411 -0.41735342 0.02298253 -1.6163851 -0.8553457 0.8326654 -0.41852012 -0.8647523 -0.31347895 0.26667112 -0.04091151 0.57705456 0.37173238 -0.85718775 0.14233892 0.20798907 0.07698518 -0.05792919 0.5694464 -0.64820164
880 -0.02844468 -0.36043704 -0.022710944 0.21710618 0.0040146094 0.25130194 0.3891375 -0.19663084 0.38634947 0.57658076 -0.40408066 -0.20792612 -0.05525359 -0.13818726 -0.3750032 0.7007081 0.5790541 -0.31225118 0.851248 -0.13226567 -0.24856074 0.30920053 0.5089896 -0.45197517 -0.62579757 0.1426748 -0.9594975 -0.4446798 -0.32567665 -0.072964825 -0.013709031 0.4469825 -0.102608144 -0.07573035 -0.120026425 -0.46336955 -0.09291333 -0.018082857 -0.071959116 -0.4953159 -0.24269597 0.053667773 -0.32114604 0.41795388 0.71190614 0.115759455 0.90570813 0.2726763 0.09527637 -0.4949177 0.052842997 -0.4684748 1.1466839 -0.066340074 0.4993013 -0.20045413 -0.3308038 -0.42746368 -0.03007959 0.31308535 0.09436892 -0.3595163 0.104282424 -0.3190465
83 0.57678425 -0.596744 -0.2315836 -0.45643306 -0.588223 0.19533801 0.59650904 -1.0952842 -1.0375518 0.2341777 0.70620716 -0.390127 1.1519502 0.7874938 -0.22092289 -0.27649528 0.8401891 0.63534373 1.4065517 -0.31853327 -0.079322524 -0.31889892 0.16265675 -0.093660735 0.50884503 -0.13698125 -0.31892443 -0.21225709 -0.6387595 0.3217584 -1.1311158 -0.3054456 -0.3113476 -0.45210248 -0.79279137 0.52014595 0.4551858 1.6892879 -0.21536414 -1.368864 0.31499857 -0.47433302 -1.0183036 -0.051472094 -0.23098892 -0.43382168 0.45231557 -0.27832627 -0.967617 -0.48093313 0.16713883 -0.75220203 0.18943024 -1.2655371 0.75147057 -0.009505799 0.5763979 -0.81840557 0.66717285 1.1279914 0.6530246 0.18506171 -1.4715649 0.056468513
2449 -0.13239044 -1.0838904 -0.25921705 -0.549252 0.24575843 -0.102595635 -0.11980425 0.26766932 -0.24597794 0.71326107 -0.014517763 -0.6165284 0.5897104 -0.09355694 0.17770886 -0.6136818 1.9236352 0.8323153 2.0110087 0.033936497 -0.04036613 1.3314857 0.8158831 -0.64793396 0.13863574 0.93919164 -0.94302434 -0.30136985 -0.84922796 -0.1910917 -0.8477914 -1.8243333 0.03278507 -0.4077097 -1.764676 -0.8770095 -0.4750368 0.11072292 0.7846245 -0.40410772 0.41443184 -0.28921023 -1.514573 -0.25586528 0.94086367 1.1164477 0.5865924 -0.29407176 0.58455235 0.6065113 0.8275204 -0.74359536 -0.2645073 -1.0086167 0.52888685 -0.5094207 0.5874494 -0.20578744 -0.22291118 0.32026646 -0.108689934 0.7135014 0.5665437 0.20978849
1819 -0.069677345 0.4455135 0.08852144 0.47419077 0.17885494 0.53282195 -0.30298376 -0.027205449 0.6224074 1.1566668 -0.025260711 -1.2852325 -0.28135392 0.06213451 0.6029192 0.34681752 0.9163409 -0.44154853 0.117433794 0.01748879 -0.4614292 0.027356764 -0.38677016 -0.17376243 -0.21412662 0.5979603 -0.6722082 -1.0627297 0.1341705 0.42499623 0.18726291 0.0074428227 0.071512565 -0.08619166 -0.13482198 -0.33438918 -0.015541333 0.76493174 0.00012869711 -0.5281771 0.10125236 -0.4074036 0.04704739 0.13780689 0.4810399 -0.64145374 0.6687412 1.0762221 -0.28276142 0.28489044 0.24734583 -0.57895553 0.25948453 0.027959246 0.22758485 -0.35164666 0.19380447 -0.9297832 -0.33444017 0.41209224 -0.08120624 0.13281243 0.05948639 -0.19982725
4749 0.06740943 -0.67698383 -0.24922732 -0.49774614 0.47418085 0.42816904 0.10361645 0.2226199 0.21975364 -0.19894506 -0.46528038 -0.99563843 0.29268172 -0.26428387 0.67610836 -0.29909667 -0.17917567 -0.14142588 0.6238044 0.6838054 -0.02368311 -0.41623348 0.56463987 -0.71145946 0.05450427 0.5370971 -0.8063013 -0.2246615 0.039306317 0.12992477 0.4985113 -0.7192203 -0.00494533 0.15641789 -0.7743449 0.11981318 0.9441651 0.4936017 0.016764835 -0.4108404 -0.79004437 0.29563364 -0.801513 0.0057036383 0.4160604 -0.122727446 0.36588582 0.08964287 -0.35401753 -0.38129488 0.8250806 0.35420695 0.27893168 -0.26859915 -0.45988926 0.10530813 0.47487858 -0.6882183 0.40521637 -0.20455196 0.65330386 0.7489602 -0.70520216 0.24034192
2234 -0.5247796 -1.6794235 -0.092641175 1.3828428 1.0443959 0.56102115 -0.71449196 -0.27442372 -0.31528947 0.19034061 -0.004972776 -0.21839298 0.28160524 -0.8695383 -0.39525837 1.0479926 0.77587765 0.01646281 -0.07446816 0.98295283 -0.7025821 -0.3597696 0.82228637 -0.893313 0.5754513 0.4453758 -0.3222238 -1.6724839 0.5960914 -1.5558021 -0.51461434 -0.8365136 -0.039894037 -0.06316478 -1.458264 -0.1991832 0.51354223 -0.13863955 0.42439768 -0.500879 -0.41837865 0.34991187 -0.4469385 0.8971811 0.22840412 0.40125453 0.97359645 -0.2633891 -0.9751245 0.2353233 0.16246413 -0.18300879 0.95097494 -0.26758486 0.9753535 0.698655 0.22395234 -0.30863264 -0.22011136 -0.7560203 -0.5278855 -0.28583893 -1.6516578 0.61289376
913 -0.074042656 -0.30239096 0.22426078 -0.96230805 -0.82020986 0.21301742 -0.21460225 -0.8224035 -0.194618 -0.18917303 -0.20989536 -1.061805 -0.55028796 -0.8436329 -0.67006 -0.01724483 1.6155329 -1.0282288 0.86609435 0.01743881 -1.0968009 -0.30520582 0.028189711 -0.33878827 0.15412207 0.40587595 0.47011712 -0.5865516 0.31704977 1.515293 -0.431728 -0.45356914 -0.42380318 0.82256776 -1.0485352 -0.46543297 0.80303967 0.5468684 -0.74028206 -0.025454434 -0.063541606 -0.59740424 -0.5583424 -0.52794796 1.2022678 -0.36710542 -0.047364052 0.6814395 -0.46182978 1.0115002 -0.10359152 0.81979 0.05254393 0.02429793 1.5741569 0.13009709 -0.14954457 0.099368446 -1.1778066 0.7263321 0.06888066 -0.67539215 -0.0036618144 0.35907084
154 0.3258614 -0.74848187 0.0025058084 0.20070933 -0.85012496 0.20675622 -0.66523206 1.0951922 0.34800944 0.24540399 -0.33027494 -0.61843926 1.2878153 -0.109968096 -0.44790187 -0.12848057 -0.34200767 -1.175494 1.0610313 0.70662147 -0.5119944 0.5664664 0.19546 -0.009612972 1.2066374 -0.73279697 0.14970002 -1.5916184 0.7848982 0.8727794 -0.40584788 -1.4003402 0.4940751 -0.25029165 -0.8982095 -0.50603 0.42944717 -0.4080832 -0.8018221 -0.114227965 -0.31140572 -1.2879139 -0.52902395 0.56037325 0.10829693 -0.7550776 1.258442 0.18434775 -0.70183027 -0.24217486 0.43658033 1.074843 -0.28063652 -0.33759925 0.4534115 0.17888819 1.1750227 0.26811066 -0.3060433 0.2609358 0.15878448 -0.49527496 -0.39089823 0.1310995
1860 1.2424245 -1.3504018 -0.37078115 -0.07810899 0.1077115 -0.99534947 -0.17963451 -0.22457632 0.25890312 0.6336161 0.04531456 -1.1962218 0.26451793 0.055408526 -0.6687939 0.06630929 0.08359427 -0.57066756 0.371027 0.37432355 0.18841772 -0.24781345 0.6943796 -0.8045381 -0.46594125 1.040505 0.20965591 -0.346605 -0.58111715 0.04207775 0.2377815 -0.019811746 0.56384975 0.30281302 0.2830297 -0.036632206 0.6460285 -0.9649609 -0.06356579 -0.36436462 -0.6555602 -0.26995933 0.051221073 -0.6174846 0.77722114 -0.9680722 -0.70731956 0.32243064 -0.036989704 0.6060298 -0.901769 0.07866258 0.36708266 0.08945238 1.4929867 0.22531475 -0.25879383 -0.62519294 0.26144058 0.91178435 0.68579465 0.5214039 0.17108227 0.38582757
681 -0.24487236 -0.8778744 0.6242567 0.54798007 0.5105455 1.0771142 -1.1489681 -0.66311157 -0.41763434 0.51050484 0.16985416 -1.2754611 0.42964527 0.59686786 -0.57542187 0.5769584 0.1992181 0.026237614 1.5074096 -0.46113712 -1.5257792 0.38496503 -0.15511449 -1.1722076 -1.134554 -0.9338149 -0.3613126 -1.3733538 0.4809638 -0.87069434 0.14584221 -1.7344611 -0.23582236 0.52378917 -0.31933698 -1.3655324 0.46176782 -0.10083316 1.1018785 -0.6326029 -0.60806876 -0.6751092 -1.1642549 0.4574891 0.77343947 -0.48911962 0.5735395 -0.38457233 -0.5175749 0.4253514 1.4951996 -1.1533931 -0.24278341 -0.19427185 0.64934015 0.006273605 -0.10048406 -0.20203005 -0.5834924 0.24432984 -1.1852494 0.5225705 0.38561147 -0.09873736
833 0.09097601 0.083734065 0.6653842 0.39297497 0.20560686 0.059071034 -0.17205067 0.17350629 0.28405842 0.79085815 -0.02474239 -0.90056854 -0.14677157 -0.12346502 -0.06828734 -0.2195052 0.52912444 0.5587025 0.74111336 -0.21712026 -0.45960703 -0.5729089 0.015756903 -0.08967068 0.22673085 0.9230855 -0.3745438 -0.5720812 -0.23610532 0.17961712 -0.31330225 0.5654274 0.260671 0.22955854 -0.8420213 0.32432625 -0.32205597 0.39855328 -0.3429365 0.6607819 0.05284492 0.08183535 -0.42620498 -0.25859153 -0.10705906 -0.2342314 0.09169536 -0.16272157 -0.36325893 0.26977786 0.1315505 -1.2453096 -0.33466762 0.4087337 0.20288129 0.34888953 1.0932043 -0.490991 -0.28047958 0.11822822 -0.36211085 -0.036257483 -0.6745301 0.5350788
3303 0.23331104 -0.4606011 0.13849455 0.027534463 0.06997655 0.38595787 -1.2209934 -0.71740013 -0.08195924 0.79427475 0.42969728 -0.28146124 -0.026016997 -0.038675755 -0.21227556 0.69284815 0.36394128 0.08239398 0.4096088 -0.2722522 -0.16589199 0.42187494 0.95705503 -0.42914757 0.63894945 -0.5371585 -0.28187594 -0.113032795 0.1952617 0.4659684 -0.5782003 -0.6872507 0.20547862 -0.2739933 -0.58735615 0.32305452 1.2292253 0.13436925 -0.35015213 -0.84663254 -0.6615416 -0.6947829 0.87068313 -0.40078795 0.26260158 -0.6194985 1.1488991 -0.14741625 -0.7693098 -0.8283958 -0.47980428 0.062832534 0.9025155 -0.29047093 0.13432907 -0.17695767 0.9182699 -0.45615092 0.50130725 -0.21836476 -0.98720104 -0.05231783 -1.0745666 0.053851724
368 0.51206946 -0.48007613 0.5280337 0.5121066 0.36317578 0.8507951 0.09234774 0.32296172 0.40923235 0.44574767 -0.69830126 -0.034014553 -0.6630655 0.5489218 0.15298028 0.73546445 0.7353052 0.42255366 0.21380137 -0.56449324 0.4633489 -0.30389383 0.7745557 0.30750996 -1.093577 -0.4512356 -0.2131562 -1.0089679 -0.07895755 0.65897167 0.13821903 -0.2864134 0.06818569 0.7011467 -0.5026204 -1.048826 1.1383784 0.51050127 -0.33942813 -0.47735947 0.04430837 -0.10664436 0.06489363 0.1462846 1.2374556 -0.10099384 0.36787137 0.35781088 -0.580601 0.8532739 -0.59696764 -0.44304585 1.07755 -0.0007537071 -0.60525906 0.40028545 1.0572464 -0.40492675 -0.81536573 0.10835111 -0.4609371 0.0045893635 -0.5302534 0.98026705
3305 0.10451595 -0.65223014 0.17838977 -0.19926903 -0.14125428 0.266999 -1.1321226 -0.7939434 0.058353275 0.59279406 0.3710642 -0.29534024 -0.1643117 0.1159057 -0.24021155 0.9179151 0.19710356 -0.022382531 0.37871218 -0.4302739 0.0007662401 0.09940466 0.6842601 -0.31015697 0.6792893 -0.5808772 -0.3361531 -0.10112508 0.2227485 0.5682783 -0.7313537 -0.5234907 0.14282474 -0.056242164 -0.8365363 0.25650704 1.2063311 -0.17666602 -0.09521034 -0.7710172 -0.5778327 -0.73181325 0.9098659 -0.4802767 0.19161667 -0.5974411 0.9189359 -0.32486758 -0.91919416 -0.6163323 -0.20893118 0.17080124 1.0126479 -0.27158692 0.17248763 0.0490964 1.1040494 -0.5109672 0.3227468 -0.09570926 -0.77489424 -0.0195864 -1.1393226 -0.21890058
7008 0.014584103 -0.55484855 -0.30819303 -0.39363572 0.2778203 0.6320513 -0.071838 0.11641608 0.26836938 -0.04124568 -0.10015642 -0.72540665 0.27496365 -0.35957268 0.4701396 -0.34344938 -0.1735087 -0.070731014 0.5982777 0.68805575 0.060936872 -0.50465035 0.3849824 -0.5023204 0.047390815 0.48120406 -1.0835719 -0.31449535 -0.020814987 0.3701995 0.15246244 -0.43554667 0.20105702 0.30832514 -0.6306864 -0.16403903 0.6729983 0.6138915 -0.0628728 -0.8370049 -0.56701356 0.25330085 -0.88560075 -0.2002869 0.6244647 -0.080104865 0.47637805 -0.06039031 -0.37830776 -0.7034356 0.81271046 0.2651281 0.035763726 -0.5294488 -0.44479555 0.26981926 0.36065876 -0.39120764 -0.08998025 -0.4293559 0.6634327 0.8930116 -0.9444024 -0.11122785
438 1.2048466 -1.0021167 1.0165635 0.7994788 -0.07498463 0.03307712 0.2782502 -0.24461739 0.06624186 0.5777679 -0.116092086 -1.3453485 0.25628668 -0.60823786 0.31915635 -1.0209965 0.5067764 0.47886857 0.9828401 -0.19132914 0.14236104 0.19291387 -0.39279038 0.55522084 -0.03550512 0.6642624 -0.17250459 -0.819878 -0.17294267 0.12344957 -0.5901603 -0.113647446 0.80559826 1.0399822 -0.67175865 0.24211101 0.007326255 1.4219192 -0.40267852 -0.4028228 0.8604263 -0.92229545 -0.7755917 -0.14981835 1.0692947 0.60968703 -0.029234968 0.55687875 0.10108866 -0.9760579 -0.4119278 0.18561794 0.15525822 0.6610784 1.4370285 -0.059833236 0.54390895 -0.41119125 0.39146724 -0.03359893 -0.17444238 -0.26272568 -0.5057554 0.028556848
885 0.15507875 -0.95262766 0.0118026035 0.056436874 -0.54419327 0.6983865 0.31575647 0.9103018 0.017550156 -0.5937564 0.0051361476 -0.016404156 1.0457214 0.32795584 0.41428128 -1.9597726 -0.16832136 0.645054 1.1638886 0.08898356 -0.73707175 -0.8383184 1.4669335 -1.1856725 -0.57016593 0.024823215 -1.0714782 -0.29732367 0.9056398 0.2625598 0.6368669 -1.2243346 -0.06549939 -0.0037633362 -0.61598384 -0.83089566 0.20254172 -0.3605118 0.60699975 -1.3955563 -0.14198951 -0.74121284 0.6333545 0.6236018 1.4375477 0.58719504 0.6090896 0.6868004 -0.39408982 0.7398907 0.31250852 0.1559581 0.12425301 -0.20454627 0.62934273 0.51155347 1.5626885 0.6374427 -1.2639512 0.4537912 -0.13234901 -0.640585 0.17755304 0.78520644
2027 -0.43693432 -0.48475608 -0.7188724 -0.2886982 0.13257149 0.4385737 0.056676894 0.20630385 0.36730084 -0.063291274 -0.25174326 -0.672713 0.24877554 -0.38692042 0.4818532 -0.0456673 -0.08174637 -0.022535214 0.19849941 0.7776133 -0.085341506 -0.5838745 0.44728267 -0.85640055 0.13159943 0.4969651 -1.316135 0.052682128 0.30709803 0.26194254 0.48044416 -0.8258534 0.34574857 0.49861816 -0.49104193 -0.03890594 0.7074144 0.6475041 0.028132608 -0.1920714 -0.6328463 0.30866787 -0.86918145 -0.21170166 0.48115936 0.058454033 0.56264544 0.15557586 -0.2708492 -0.7840196 0.6222811 -0.08219332 0.4015142 -0.40290394 -0.14528899 0.44209334 0.076383136 -0.6711761 0.23011725 -0.20481291 0.15835562 0.4435087 -0.9385608 0.29466748
353 0.76958084 0.19258483 0.63721186 0.41018113 0.023706358 -0.25147933 -0.62208086 0.0030362362 0.38724482 1.1472851 -0.41513157 -0.82448924 0.72635233 -0.028986108 -0.49922413 -0.047233522 0.5944776 0.3284563 0.87745947 -0.083629236 -0.49304956 -0.49745905 0.036304835 0.027923375 -0.12764305 0.50000256 -0.8570698 -0.8415747 -0.4754538 0.49898028 -0.6094871 0.64237016 0.19671273 0.46773592 -0.81849337 0.31034815 -0.17792015 0.59639287 -0.22047794 0.14609396 0.6298477 0.13370796 -0.51172495 -0.0826022 0.10817746 -0.11292851 0.08641016 -0.06916545 -0.24177928 0.34246543 0.10212755 -1.5022169 0.08676747 0.47450033 0.639357 0.66538066 0.9964098 -0.225652 0.5305235 -0.17869306 -0.5718287 0.21618535 -0.3926351 0.54775167
440 -0.19398975 -0.50562376 -0.6461938 -0.045075692 0.6201892 -0.8055366 -0.309295 -0.69179636 0.069031976 0.9489563 0.04389383 -1.0395883 0.551215 -0.21540183 0.2719277 -1.2808124 -0.11964039 0.069293104 0.43268022 1.226999 -0.5972255 -0.08940777 0.98854 -0.37078825 1.2500653 -0.16320468 0.488731 0.19384696 0.040437624 1.2403785 -1.2791626 -0.6246329 -0.8096938 0.27108797 -0.4272119 0.4110711 0.4759953 -0.36331454 -0.17237006 -0.5244373 -1.2271585 -0.18634579 -0.82640356 -0.32463756 1.3154033 -1.1605642 1.113051 -1.382611 -0.37770182 0.0074569453 -1.7342565 -0.34616205 0.22811362 0.2570707 0.26134187 1.4120407 1.1612881 -0.92951316 -0.12718514 0.2559182 0.07463346 0.18105409 -0.8738718 0.6068271
3137 -0.33095655 -0.44337147 -0.5555882 -0.22370714 0.093059614 0.45174322 0.16744523 0.46988255 0.028219111 0.08723884 -0.15940985 -1.0752382 0.55224395 -0.33552134 0.557722 -0.39725122 -0.41589558 0.291586 0.8109379 0.6595669 -0.037494775 -0.14719579 0.33254632 -0.7130741 -0.0004506984 0.26874572 -0.74918216 0.052800357 -0.024394909 0.16383134 0.4799045 -0.49877492 0.5204926 0.23355658 -0.32907972 0.2514171 0.91926116 0.7425084 0.21971418 -0.50020844 -0.31153727 0.10809095 -0.5616968 -0.27401188 0.32838485 0.22731392 0.41874403 -0.12895067 -0.44181973 -0.6019411 0.8541672 0.20894085 0.22787268 -0.74387145 -0.17872573 -0.13877806 0.60332644 -0.59723514 0.07396481 -0.004957688 0.39079216 0.53415954 -0.77672654 0.26844847
2590 -0.550679 -1.5731077 -0.54706705 0.9780601 0.06796621 -0.79377276 0.26398662 0.7714542 0.13798459 -0.13453121 0.39348108 -1.564876 0.4004039 -0.007036048 0.05903383 -1.2145241 0.2761358 -0.3327571 0.91247886 1.2158743 -0.4381073 -0.30148903 0.9360356 -0.17859882 1.8535959 0.052916534 -0.6922724 0.6668893 -0.45532137 0.35703743 -1.1499201 0.6450361 -0.68330973 0.21027324 0.36490312 -0.06283372 0.5761026 -0.16023186 -0.064932466 -1.0436813 -0.8529975 -1.1517489 0.36778018 0.38858303 0.64562976 -0.5240748 0.7087497 -0.54514843 0.16892491 1.1104578 -0.18391085 -0.53792095 -0.08684862 -0.47693667 0.25254616 0.2344 1.5422591 -0.5870152 -0.291389 -0.32600054 -0.3863871 -0.7129209 -0.17056979 0.80456954
232 0.06685668 0.57698584 -0.0022896822 0.57027465 -0.027695367 0.5471857 -0.32352233 -0.03303176 0.6646802 1.3057504 -0.26479658 -1.1551813 -0.16721344 0.18644959 0.7205868 0.18375279 0.68035966 -0.6422747 0.24879791 0.025076447 -0.36690855 0.09721267 -0.39014 -0.08391157 -0.12449298 0.6676129 -0.6950716 -0.7721709 0.0071807844 0.60114413 0.4460366 -0.13069685 -0.21888232 -0.043486282 -0.25214148 -0.10710977 0.29295975 0.5032949 0.07060871 -0.4749463 0.09364313 -0.5171853 0.26974517 0.18860848 0.4318492 -0.4693883 0.6536254 0.7869558 -0.13738915 0.31135693 0.14907841 -0.60614467 0.151605 0.08846529 0.39330402 -0.4120799 0.42808843 -0.9711746 -0.13471429 0.64669013 -0.18823355 0.13436812 -0.0096663525 0.053414155
136 0.4052102 -0.39148715 0.41537943 0.15599915 0.7437331 0.74827075 0.8449398 -0.5060795 0.3366744 0.9218437 -0.5080417 0.102896966 0.7676148 -0.25306192 -0.063554764 0.09318713 -0.4600658 -0.20010702 0.6406228 0.056254815 -1.0837014 -0.36696756 1.0545735 -0.35611367 0.53025705 0.055111196 -0.84749377 -0.7382033 0.12216607 0.6393001 -0.5193119 -0.39484 0.27721834 0.30503845 0.49392316 -0.7086575 0.17023383 -0.14157294 -1.1836892 -0.077047534 -1.28489 -1.3492509 -0.57421726 0.15565506 -0.03462663 0.042746577 0.82913333 -0.5454322 -0.49517274 0.15062916 -0.33175698 -0.29001337 0.08579672 -0.17106776 0.580018 0.074183345 0.06815137 -1.293633 -0.4085234 -0.30243662 0.67576087 -1.3642834 0.77269506 0.043410588
414 0.4505001 -0.036549594 0.8816824 0.45087138 -0.20764421 -0.02107211 -0.051746745 0.34443778 0.30765194 1.221219 -0.2062778 -0.89384645 0.4730391 -0.083749786 -0.28071913 -0.11655184 0.44414228 -0.055435397 0.9225447 0.1395486 -0.24222915 -0.5131407 0.07223286 -0.18634357 0.22821659 0.56307006 -0.6565841 -0.9676002 -0.3087782 0.04232915 -0.39261538 0.6004453 0.31504026 0.5289218 -0.33627903 0.23826958 -0.4761363 0.82597035 0.38212442 0.4224559 0.3190188 -0.2303197 -0.32599548 -0.37009093 0.050107405 -0.176766 0.26216108 -0.3179015 -0.19452113 0.37987274 0.37030697 -1.1898699 0.23789616 -0.021386564 0.59890467 0.57815915 1.0457323 -0.3413543 0.34445855 -0.12597048 -0.4216725 0.18103388 -0.6724161 0.3898175
5052 0.0008157254 -0.4895725 -0.56017214 -0.33841413 -0.13489783 0.43800554 -0.19425735 0.37733683 0.17728357 -0.19060558 -0.24356027 -0.93644905 0.6357398 -0.29634327 0.50660163 -0.16998234 -0.061885957 -0.21150722 0.61847216 0.77961564 0.043878015 -0.473886 0.4470153 -0.66001344 -0.043154772 0.38888967 -1.1300813 -0.19743124 0.1477901 0.064439744 0.29847428 -0.79109997 0.51063424 0.7208724 -0.5860892 -0.20412028 0.602556 0.80883074 0.06392135 -0.33792186 -0.68992925 0.26530033 -0.55623263 -0.31429517 0.51708055 -0.1369656 0.41419864 -0.075316794 -0.100401565 -0.5024848 0.5193024 0.051184118 0.054502323 -0.59922725 -0.4118234 -0.054456998 0.49625987 -0.8732309 -0.03909149 -0.72588736 0.6036969 0.6208897 -0.81580424 -0.16510344
3387 -0.019038782 -0.2823546 -1.0676948 -0.018602997 0.353456 -0.44776753 -0.51420796 0.13389152 0.7450447 0.5640927 -0.37520567 -0.7370889 0.88690436 1.6272665 0.4974174 -0.028684966 -0.19794516 -0.641069 0.7194724 1.4741964 -0.7765545 -0.22713682 -1.6225506 -1.2212888 0.22037376 -0.17913064 -0.8034446 -0.75404525 1.3238909 -0.4265585 -0.89194936 0.5512401 0.40725824 0.95356196 -1.1442313 -0.06412036 0.5596427 0.021127664 1.0740018 -0.8939942 -0.31765887 -0.79748297 -0.23425996 0.3206337 -0.4365937 -0.81129503 -0.015010556 1.0655428 -0.15681124 -0.05563985 0.63642544 0.04830212 0.1558777 -1.3512677 0.94032764 -1.0915669 0.9246929 -0.45256278 0.028254177 0.6601484 0.2465 -0.7837794 -1.2326522 -0.1896777
8074 -0.07629672 -0.52164316 -0.3441612 -0.5856845 0.23446213 0.47865155 -0.14693157 0.25350073 0.28842005 -0.03372856 -0.31091106 -0.91755545 0.40627778 -0.46517333 0.44501415 -0.27972594 -0.15019597 0.026404481 0.6612289 0.55774146 -0.0385375 -0.34023836 0.52820003 -0.8529548 0.03745626 0.34452906 -0.9295608 -0.26792702 0.0037884463 0.0901402 0.4728836 -0.72736126 0.3758567 0.5776817 -0.5884599 0.02384881 0.81770444 0.8347566 -0.1374889 -0.41931012 -0.80065876 0.29664028 -0.81683475 -0.2604129 0.30255225 -0.07550764 0.41376203 -0.038505394 -0.36281663 -0.37185934 0.46291855 0.21591485 -0.074888326 -0.38868555 -0.57936186 0.05882099 0.42157146 -0.728733 0.038942832 -0.14461128 0.53528285 0.6619251 -0.99737054 0.048076596
2711 -0.25447965 -0.52790076 -0.52008045 -0.30757502 0.24199972 0.62080675 0.022158187 0.15040572 0.50748765 0.19725378 -0.31589156 -0.95174634 0.4295826 -0.38207972 0.4333199 -0.43472627 -0.075786754 0.07202979 0.6561164 0.6838846 -0.1711114 -0.48865595 0.5145537 -0.48858052 0.15087019 0.36704442 -1.0608661 -0.15241334 0.11565315 0.43255574 0.43009603 -0.627609 0.257004 0.46282902 -0.5889917 -0.22677697 0.59243774 0.75083816 0.13743424 -0.6367481 -0.8050803 0.30099723 -0.7522761 -0.13109627 0.45505303 -0.10242642 0.3590663 -0.07824437 -0.21298951 -0.48763558 0.81775606 0.29774326 0.15642866 -0.7230773 -0.5291873 0.22613445 0.27982053 -0.4806571 0.13786514 -0.25947106 0.5248205 0.7877741 -1.0040287 0.012094103
3189 0.8287366 -1.1112947 -1.1953247 -0.45642042 0.3606575 0.96928865 -0.9378235 0.586448 0.036758978 -0.11312897 0.601147 -0.011140067 0.21519032 0.6092008 1.5245405 -0.2514469 -0.5323262 0.4376282 0.3495847 1.177879 -0.4402945 -0.6430084 -0.5381981 -1.4153935 -0.4055432 -0.26992515 -0.5375456 -0.56997067 0.31620374 0.15743655 -0.653349 -0.08930392 0.66503406 -0.15451235 -1.0887622 0.23487407 1.7648185 -0.12586574 0.65336585 -0.493332 0.17898151 -0.8864946 -0.3679651 -0.27673215 -0.86573184 -0.9211125 1.1650823 0.6946706 0.33102065 0.45531115 -0.8518738 0.5418798 -0.91639215 -0.2736749 0.54176956 -1.3455516 0.73117864 0.6051293 -0.056633726 0.9873787 -0.36821342 0.17973053 -1.9872352 -0.0009828598
4533 -0.25136122 -0.48896644 -0.63882864 -0.44528687 0.45283288 0.23148488 0.15450534 0.5227537 0.052016884 -0.281984 -0.17215934 -0.8569126 0.48221532 -0.28507847 0.47300553 -0.25856707 -0.119919464 -0.56061655 0.5106594 0.27189082 -0.28820544 -0.34179968 0.37882805 -0.5814543 0.057423275 0.40231907 -1.2065017 -0.12952761 0.13111475 -0.0030604627 0.38337395 -0.48487133 0.27955386 0.47290188 -0.55698997 -0.066098355 0.8292647 0.81839186 0.31287345 -0.41453278 -0.5688212 -0.0821789 -0.43178526 -0.14406708 0.2205603 0.009910309 0.74283975 -0.08538925 -0.14578384 -0.6402347 0.93719834 0.29140002 0.5881354 -0.2801691 -0.2611949 0.4229307 0.19018328 -0.67025095 -0.03046803 -0.2912506 0.2933978 0.40025458 -0.7479689 -0.0070533147
304 -0.32752827 -0.98700875 -0.10106884 -0.16482371 0.53852224 -0.19943863 -0.47830576 1.0040565 -0.19389601 0.76529956 -0.3260654 -0.091094755 0.24994595 -0.6427266 -0.3866001 -0.48691183 0.05011414 0.14236903 0.27968752 -0.6694026 -0.66575193 -0.8587952 0.81856626 0.32735488 -0.17227927 0.25401473 -0.61001664 0.12250171 0.35667345 0.42770925 0.011934474 0.05729745 0.61159635 0.0077727335 -0.6693309 -0.9403541 0.754785 0.7375614 -0.43856034 -0.4137611 0.111175574 -0.34465456 -0.042281725 0.45710254 0.97867566 -0.26378807 -0.57528293 0.5904729 -0.65372765 -0.10712547 -0.17430751 -0.5850028 0.49137887 -0.63454956 -0.0495463 -0.5393463 -0.5557366 0.3425872 0.69449586 0.59010273 -0.89613473 -0.5968824 -0.6510478 0.18044002
849 0.30501428 -0.23822305 0.8485886 0.516067 -0.02014391 0.13456643 0.0044331914 0.28745177 0.37659842 1.1581008 0.04159199 -1.2481453 0.3206767 -0.14515196 -0.098158225 -0.25875506 0.59670186 0.035038233 1.0064493 -0.031244503 -0.43650857 -0.5148186 0.062036697 -0.17828928 0.16021428 0.42433196 -0.5378101 -1.1400818 -0.28617406 0.13515775 -0.4712893 0.61499435 0.22003643 0.54002196 -0.3642617 0.20867504 -0.33053827 0.9652993 0.051120818 0.45425457 0.22307198 -0.07850058 -0.5890064 -0.3731116 -0.03201207 -0.2228618 0.100259975 -0.22636132 0.017649997 0.34426084 0.168906 -1.1998621 0.065104015 0.07745711 0.6438119 0.5440168 1.2188538 -0.3728482 0.1999943 -0.18781511 -0.39472678 -0.0026931406 -0.46894178 0.4212279
547 0.7139335 -0.6750603 -0.13584387 -0.8008459 0.32261163 0.64625657 -0.053453594 -0.05719914 0.26000673 0.027399337 0.43857846 -0.16012369 -0.3661467 -0.3614031 0.3170709 -1.0393214 0.53093725 0.3640785 1.1807183 0.8532255 0.6729947 -0.69968194 0.18782651 -1.9495566 -0.09667574 1.053901 -0.20149176 0.42696497 -0.22969335 -0.2039559 -1.3967317 -0.24531268 -0.63431287 0.7661262 -0.48409185 -0.17140752 -0.0014262055 -0.00046236222 0.07425606 -0.48966458 0.29112163 -0.2829307 0.23905428 0.0839458 0.9840661 -0.98740417 -0.7047408 1.5344485 0.5477395 0.48688737 -0.12297248 0.030582163 1.5898358 -0.8918822 0.24150684 -0.23402943 0.036379565 -0.86773187 -0.655287 1.2812042 -0.32782423 -0.6464948 -1.5922924 -0.18099745
2721 -0.525499 -1.6190248 -0.6115094 0.96509105 -0.077238776 -0.8562641 0.18930611 0.631418 0.18960199 0.036633883 0.2865573 -1.6394783 0.40652332 0.08809823 0.062185474 -1.2886016 0.41630813 -0.28365034 0.8294917 1.1905982 -0.55066854 -0.34463373 1.0415171 -0.07082348 1.8815274 0.12229622 -0.7147199 0.6301365 -0.47554794 0.37442258 -1.3144691 0.6923996 -0.7811334 0.19293135 0.32325178 -0.22994411 0.56829053 -0.029520048 -0.26414403 -1.1888945 -1.0144464 -1.2063835 0.5981878 0.16746981 0.6730866 -0.580492 0.8420019 -0.38392618 0.085012555 1.2448925 -0.32070348 -0.37163964 -0.1280081 -0.33453247 0.20410916 0.28748456 1.5656899 -0.61208165 -0.362768 -0.38899618 -0.37544456 -0.66393733 -0.27151278 0.8754908
