4185 64
2836 0.0016647095 -0.9704504 0.4037017 -0.11067187 0.07894766 0.20055903 0.13846561 -0.06715341 -0.022522843 0.8247254 0.37311184 -0.049473528 -0.53490573 0.10096457 -0.33276284 -0.38023248 0.53671694 0.49026278 -0.006549466 -0.12728171 0.32831168 0.43214536 -0.15044641 0.19044624 -0.146144 0.20353098 0.029375471 0.4089115 0.317666 0.12737821 0.1375121 0.04492296 0.41714582 0.16677026 -0.51560324 0.14490645 0.3100807 0.7875434 0.34707642 -0.080914624 -0.9244389 -0.15102166 0.061081298 -0.10015281 -0.129647 -0.51817214 -0.5535751 -0.023649754 0.037994344 0.076533206 0.4372206 0.29229823 0.17552966 -0.04902788 -0.20467491 -0.25433683 0.43223846 -0.35892254 0.007484325 -0.33929333 0.03470439 -0.5429914 0.25939327 -0.65175337
2962 -0.02610937 -0.13325289 1.0772077 0.02206698 0.06246293 0.39148867 0.40303707 -0.069816634 -0.3921412 0.3464855 -0.3378072 0.03641133 -0.10959376 0.21320231 0.097200096 -0.43908808 0.054821875 -0.2150992 0.13222629 0.50195235 0.29880452 0.19316182 0.0021276858 0.29848415 -0.28718013 -0.46521527 -0.34264472 0.17347771 -0.050342917 -0.08162064 0.044052735 0.3957451 0.20495978 0.105494484 -0.5725716 -0.019186355 0.14982754 0.50306886 0.25666687 -0.2985078 -0.3109232 -0.5075186 0.3604641 -0.21591383 -0.01887844 -0.7493074 -0.5253485 -0.14855456 0.47535196 0.5737711 0.17494307 -0.047058705 0.45468208 -0.49026868 0.020615818 -0.48093206 0.40785798 -0.1831886 -0.308044 -0.16181804 0.056591213 -0.35398725 0.15429202 0.26323742
2571 0.01601761 -0.28849748 0.5131387 0.17521173 0.42611408 0.2317007 -0.05184969 -0.18720685 -0.67054015 0.56751096 -0.07264035 0.0110244695 0.0651439 -0.12237995 -0.14276044 -0.062594585 -0.06372902 -0.094979845 0.28248343 0.31735715 0.24061468 0.062361646 0.08157262 -0.18421991 -0.13932465 -0.32907173 -0.15487151 -0.16877253 0.03249664 -0.14649318 0.12173656 0.34619325 -0.050191265 0.7758833 -0.4329254 0.15407823 -0.2651713 0.3757291 -0.308741 -0.39903736 -0.48297396 -0.5288221 0.56561464 0.15878446 0.122681 -0.19561855 -0.43163487 -0.11029993 0.2869856 0.95220053 -0.030172303 -0.13680796 0.21872365 0.301273 -0.13341857 -0.35729924 0.18651715 0.4149316 0.11885248 0.21702085 0.31892103 -0.21648386 -0.12558517 0.34466237
3713 -0.18070346 -0.5580937 0.352815 0.056245193 -0.010541308 0.13537495 0.270672 -0.19661105 -0.57931083 0.8975646 0.31636766 0.23874317 -0.16902782 -0.30136442 0.16105995 -0.14449054 0.19761331 -0.27664065 -0.040669523 0.02910919 0.08126501 0.34313202 -0.021720031 0.042488005 -0.15511054 -0.5120102 -0.6024626 0.1080394 -0.25769717 -0.49633884 0.28876418 0.6348385 -0.21881352 -0.6050539 -0.16124542 0.089758374 -0.22377935 0.9675407 -0.2194012 -0.15329725 -0.3037178 -0.24424301 0.15412737 -0.23019405 0.43826488 0.008534265 -0.50313556 0.04531655 0.59136045 0.014946875 0.5286807 0.13269885 0.1745025 -0.13577685 -0.08673857 -0.8317743 0.005364724 0.02411725 0.19777116 -0.025711898 -0.028516842 -0.2087344 0.30059996 -0.1732958
9812 -0.27861837 -0.92184556 0.41712105 0.2667246 0.5077083 0.4119646 0.1552057 -0.48161212 -0.1130638 0.6339739 -0.21338001 0.3875571 0.23809367 -0.050853677 -0.25337586 -0.44202542 0.08951901 -0.26156798 0.08657288 -0.048926983 0.5631069 0.24387047 0.24089758 -0.299231 -0.34735888 -0.08948989 -0.3487729 0.21772172 -0.041087277 -0.18005519 0.12012333 0.14145994 -0.01828112 0.37117028 -0.64571434 0.39332494 0.24918316 0.38586035 0.01325595 -0.24322888 -0.4230379 -0.85861695 0.48181984 0.11764378 0.42981303 -0.40955576 0.06747366 -0.29939473 0.47492173 0.61426765 -0.19022763 -0.22502501 0.16104576 0.24150945 0.21239133 -0.98083 0.08953573 -0.056848224 0.190321 0.18996862 0.34419724 -0.33425477 -0.066986665 0.44398192
5295 0.3862717 -0.3670898 -0.042243008 0.17296784 -0.22084132 0.5981166 -0.23556046 -0.06421722 -0.2572194 0.5164935 0.22180831 -0.39293385 -0.17875636 -0.0859551 -0.20493822 0.20858696 0.3283608 -0.19227387 0.36396274 0.31434172 -0.19002812 -0.28774336 -0.70894825 0.3706191 -0.64501226 -0.17636159 -0.3963301 0.2047246 0.06631628 0.33011752 -0.25281012 0.06983875 -0.70510113 0.14308174 -0.78497195 0.43603998 0.32520494 0.18038245 0.28868335 0.19155934 0.021607822 -0.10529437 0.4583211 0.18817702 -0.39733928 0.4740833 -0.15523027 -0.579415 0.3895614 0.80531055 0.3763845 -0.041146304 0.3629837 -0.13338889 0.85138386 -0.019652557 -0.09590979 0.80480105 -0.49919528 -0.079136245 -0.42437094 0.20122777 0.42641938 0.19965363
3420 -0.1674828 -0.8302974 0.45850477 0.33197513 0.46625414 0.46149108 -0.22675762 -0.2853522 -0.33478415 0.21617867 -0.33316183 0.48757228 -0.25901008 -0.102359615 -0.013272093 -0.122633755 -0.029948354 0.001851183 0.48871866 -0.45860875 0.06345293 0.08054912 -0.12193717 -0.0031308662 0.27140254 -0.252501 -0.23753436 -0.09712431 -0.010183857 -0.19049111 -0.03549599 0.19053186 0.15819913 0.48100087 -0.5631676 -0.038588606 0.38797358 0.34860107 -0.27750573 -0.14899513 -0.3515223 -0.25286007 0.3825917 -0.0043086377 0.3864516 0.11960549 -0.52334136 -0.15262154 -0.110763706 0.7502339 -0.31429198 -0.12868579 0.12692764 0.22021535 -0.08664919 -0.21722525 0.3490075 0.20922229 0.5943472 0.30311242 0.21232533 0.19229636 -0.21773502 -0.0027992653
354 -0.10767345 -0.23478293 0.91595274 0.0038934122 -0.4578584 -0.26037762 0.19897869 -0.6869169 0.5255464 0.57587886 -0.059371553 -0.16583012 -0.7411907 0.056426715 0.054599326 0.12336474 -0.32681072 0.022462254 -0.213666 -0.102217235 -0.6887271 0.78020763 -0.37164196 0.096052974 0.4554622 0.3356976 -0.11383312 0.21794367 0.37999615 -0.12062711 0.41714478 0.35339317 -0.12572311 0.6136931 -0.48341584 0.8536555 -0.1510666 0.35287118 0.056847464 -0.39317697 0.13210484 0.68031234 0.55818605 0.09562025 0.23458752 -0.20012707 0.13327993 -0.1252456 -0.26955256 -0.07211012 0.5625599 -0.42820397 -0.1275147 -0.5696631 -0.11487948 -0.7779635 -0.19956149 0.13004057 -0.43981677 0.59269416 0.22085759 0.021545691 -0.33249086 0.11955267
5721 0.31648934 -0.05897052 0.5094185 -0.26519674 -0.43426684 0.18378547 -0.00550542 0.026509957 -0.28101802 0.26053926 -0.19908565 0.041061446 -0.16552833 0.015036421 -0.13922107 -0.23000169 0.2585822 0.16292286 -0.08641319 -0.4984747 0.26755607 0.06833988 0.13774417 0.5485131 0.13173608 -0.042124443 -0.31008023 0.38993084 0.07732299 0.15696265 -0.13132933 -0.030258846 0.33442947 0.5895533 -0.5288637 0.095545806 -0.11155434 0.96636325 0.3505308 -0.061190292 -0.6036737 -0.21964285 -0.023676457 0.03431188 0.19351512 -0.40428725 -0.27871034 -0.14691617 -0.09824512 0.32980144 0.49082053 -0.1535925 0.37827474 -0.39379734 -0.03562921 0.1806513 0.3551148 0.51044375 -0.25519875 -0.4310189 0.19125126 -0.45691758 0.65508056 -0.47214422
1953 0.40908992 -0.6520322 0.95502496 -0.17500678 -0.08644463 0.0038441957 -0.2507192 -0.368508 -0.49597263 0.27105948 -0.03418765 0.39526117 0.13295095 -0.9268429 0.41789615 -0.42778355 -0.182171 -0.15111338 -0.046801567 -0.2366911 -0.1722013 0.7231975 -0.08217653 0.20048931 -0.40584248 0.08712046 0.41879866 -0.20041476 -0.32037213 0.08981314 0.57983613 -0.3163422 -0.17968136 -0.2254211 -0.4047925 0.25030562 0.17770676 0.39167273 -0.22279516 -0.27515087 -0.8341014 0.040016174 0.59097505 -0.41603178 -0.16234341 -0.29517505 0.2059594 0.25314412 0.0125712035 0.6336085 0.10150254 -0.30475703 -0.22533314 0.1253242 0.30984885 0.022134537 -0.27990198 -0.158864 0.032198157 0.66695774 0.0042686504 0.33112428 0.2941585 -0.2653391
2810 0.04004522 -0.53643584 0.73292404 0.4842981 -0.15844813 0.3002911 0.00024299968 0.046273503 -0.54752254 0.009884103 -0.21725743 -0.06155657 -0.0051274607 -0.15830821 0.47632742 -0.33797595 -0.0075106267 -0.38446096 -0.44540897 0.1841396 -0.087418534 0.4409816 -0.003842561 -0.24529563 0.51711833 -0.18634877 -0.45951667 -0.3746307 0.2048086 -0.6336728 0.453998 0.62790924 0.090152614 -0.09499952 -0.44871682 0.17279862 0.14713122 0.6304469 0.02710228 0.23075685 -0.4671743 -0.086263604 0.24225873 -0.1016739 0.29428715 0.39987257 -0.30108568 0.25223765 0.4400122 -0.33953133 0.31212786 -0.14569227 0.07913338 -0.6867501 -0.055078365 -0.52011144 0.27100512 0.46185252 -0.42897567 0.05173395 0.31195477 -0.055237956 0.18364693 -0.2337409
880 0.7706726 -0.47842208 0.6652796 -0.1089012 -0.12138887 0.50530344 0.1877176 -0.38198534 -0.21643226 0.2467462 -0.3463245 -0.12991713 0.23023319 0.38425365 -0.3855209 -0.25309297 0.538423 0.39091107 -0.26589766 -0.5290563 0.014989441 -0.11484586 0.08810798 0.8513245 0.22404766 -0.292137 0.05485079 0.59075266 -0.08529645 -0.06880911 0.10666451 0.48238653 0.32888886 0.21516615 -0.5602751 0.34904206 -0.59109294 0.5124541 0.24596488 0.22385783 -0.0849143 -0.27734312 0.24307778 -0.11873129 0.01607695 0.10054301 -0.5068001 -0.24192342 -0.0093164155 -0.0318755 0.83824235 -0.48015767 0.33127296 -0.7680088 0.028714761 0.12830935 -0.08420097 0.40277204 0.11542292 -0.13417183 0.14650683 -0.026954023 0.6386376 -0.46426722
3374 0.25378686 -0.105060786 0.40914404 0.20863731 -0.64417875 0.4848708 -0.06060394 0.36993963 -0.52574813 0.4913685 -0.06324745 0.26219246 -0.23254098 -0.5122389 -0.10931544 -0.1696838 0.21895745 0.723373 0.26096645 -0.4070987 0.45941198 0.093267515 -0.18682504 0.31771433 -0.33358505 0.11079935 -0.08367464 0.116336636 -0.12776542 -0.22855262 -0.44943205 0.012487419 0.43084228 0.42211857 -0.5495236 0.3083559 -0.03610493 0.5552173 0.6562843 -0.13752162 0.32170993 -0.5035258 -0.06295889 0.67528397 0.48298782 -0.1834821 -0.08863142 0.03702589 -0.34245816 0.88617444 0.8760647 -0.46481362 0.4033626 -0.6057622 -0.029144956 0.29299295 0.25007448 0.4695961 0.022225263 -0.33620572 -0.1794495 -0.29738975 0.3731698 -0.118959524
2743 0.27212483 -0.77024704 0.479268 0.31529844 -0.01582528 0.11286625 -0.008640622 -0.49107122 -0.41112417 0.69737816 -0.23991343 -0.4158979 -0.23511384 -0.04357265 -0.31233263 -0.8045199 0.15907012 -0.1369816 0.074267656 0.17595023 0.4054722 0.23613767 0.10594293 0.29537332 0.4146354 -0.18057019 -0.15997097 0.58469224 0.16225523 0.4993628 -0.36060148 0.13498701 0.5124236 0.25436574 -0.8877261 0.26045746 -0.19174607 0.61244226 -0.540244 0.24210472 -0.010872383 0.36674127 0.2067191 0.08211495 -0.121013336 0.23274553 -0.19961849 -0.1164859 -0.2994534 0.27276334 0.48397896 -0.28076392 0.28636563 -0.62451786 0.1224609 -0.07501453 -0.33492407 0.5003303 -0.0546488 -0.34999952 0.07647925 0.26628262 -0.041623887 -0.21316491
6433 -0.30510247 -0.7153694 0.41671696 0.1346212 0.5468895 0.42376438 0.39515427 -0.16306114 -0.2937252 0.62841934 -0.38035247 0.2539045 0.13955216 0.010150332 -0.14482564 -0.048282247 0.025175326 0.20730963 0.43700248 0.22734015 0.46498722 0.31409505 -0.18859404 -0.3333814 -0.37211502 -0.062463205 -0.117784284 0.1904371 0.1511813 0.20205043 0.33971542 0.71098435 0.018161464 0.53053904 -0.5847288 0.43668956 -0.043732353 0.772375 -0.21566783 -0.15744436 -0.57061374 -0.6522989 0.440018 -0.16662748 0.05450902 -0.24062592 -0.5025176 -0.19178545 0.36261404 0.8213008 -0.3168623 -0.140113 0.056996815 0.44198468 0.27041999 -0.36526898 0.10443797 0.10508619 -0.18037683 0.4062539 0.53996354 -0.19298829 -0.3714307 0.32467332
442 -0.07433209 0.3022172 0.8332226 -0.1928936 -0.3567446 0.2724959 -0.77889377 -0.30597764 -0.6386428 0.44755408 -0.10060202 0.023552468 -0.09151579 -0.13232264 -0.05973126 0.09145906 0.103859216 -0.57015795 0.24739197 0.22526263 0.08698885 0.20961209 -0.489218 0.36178192 0.08690405 -0.6028729 -0.13018376 -0.25778413 0.13112971 -0.4563507 0.6316426 -0.08418904 -0.2567965 0.26775378 -0.70245516 0.17733178 0.44425595 0.22859396 0.10020714 0.01703604 0.15462908 -0.19356693 0.068023354 0.16011015 -0.12447995 0.17426962 -0.22323312 -0.4270148 0.017601052 0.74172825 -0.3545011 0.051861506 0.5241754 -0.8092492 0.40783802 -0.093301505 -0.48859763 0.77658963 0.12701876 -0.5499281 -0.9737937 0.039044626 0.19033647 0.08178066
5028 0.3433347 -0.23303507 0.39489555 0.2593604 0.055661853 0.24782802 -0.20934616 -0.37115425 -0.8932218 0.67264783 -0.49210313 -0.04270624 -0.49481368 0.42632568 -0.077176936 -0.71670866 0.6849748 0.3033489 0.09515653 0.0056052585 0.31083113 0.16970792 -0.071949326 0.79548454 -0.1793148 0.24884397 0.011253333 0.2673135 0.3323078 -0.42178375 -0.22065006 0.29773796 -0.2293433 0.37122667 -0.47385323 0.16267984 -0.4993417 0.23246114 0.47084585 -0.15434808 -0.13158424 0.046751086 0.0018151806 -0.224486 0.4931483 -0.03538335 -0.47825179 0.22600564 0.14829622 0.5828774 0.88428104 -0.74336755 0.52718335 -0.50842273 0.33268988 0.5955724 0.2661966 -0.012348654 0.21299015 0.48645997 -0.2595466 -0.39292842 0.6518695 0.13786766
386 -0.6845777 -0.629433 1.4555374 -0.10376471 -0.17624615 0.15871152 0.9266135 -0.19033669 0.1607351 0.16309799 0.16772375 -0.43431967 -0.563329 -0.5422324 0.39582813 0.09477219 -0.3664455 -0.11756755 -0.060397334 -0.34964108 -0.5819099 0.46625105 -0.6206513 -0.16275378 0.32446858 0.19787137 0.450821 0.16659778 0.0721807 -0.36454967 0.12820391 0.07479487 -0.592857 0.4217785 -0.14596218 1.0228109 -0.30549893 0.28598106 0.2205875 -0.16964146 -0.02676216 0.9609757 0.2875601 0.3760032 0.07233984 -0.15828094 -0.14637633 -0.19870302 -1.0079324 0.10864195 0.25746137 -0.82477826 0.030073347 -0.42938563 0.3662237 -0.38966995 0.5906297 0.67475533 -0.1059218 0.72371405 0.03926751 -0.29874942 0.0025040642 -0.44418395
635 -0.018300876 -0.33263764 0.8093618 0.29251707 -0.16858016 -0.107646205 0.21340445 0.12656495 -0.21886288 0.45912716 0.33006772 0.08541995 -0.12294721 -0.15759672 0.587232 0.06439828 -0.4982379 -0.14710969 -0.22505043 -0.09621743 0.24969383 0.17056516 -0.08566998 0.2000263 0.46830449 -0.7286405 -0.5412768 -0.035765994 -0.19860707 -0.34640634 0.6165169 -0.06409835 0.53347206 0.12048848 -0.9937011 0.13266282 0.2188406 0.39576095 -0.080099314 -0.03346494 -0.23387425 -0.08425366 0.3835427 -0.014254959 0.17926471 -0.14887305 -0.60371053 0.121449485 -0.3084575 -0.18231516 0.41955283 -0.41669288 0.45792073 -0.3111551 0.036297545 -0.33937222 0.01721771 0.031527653 -0.7270504 -0.47170213 0.22472128 0.72171074 0.76124024 0.05505721
3966 0.29667357 -0.06750758 0.34954005 -0.07486914 -0.69554794 0.2799727 -0.30430964 0.24526598 -0.11557799 0.7047366 0.2056081 -0.06394033 -0.39173615 -0.5274451 -0.23364206 0.01380418 0.08274191 0.25594217 0.4424781 -0.0411607 0.20289758 0.11933937 -0.55556756 0.09685726 -0.14508365 0.025198314 -0.32133186 0.5214041 -0.008181237 -0.13052398 -0.04852663 -0.009419683 -0.3300365 0.17248894 -0.6228866 0.46429956 -0.01817213 0.60086036 0.30765146 0.20230502 -0.12221401 -0.38869706 -0.21877274 0.22479452 0.14178811 0.08999339 -0.17737141 -0.6072231 -0.24382596 0.5796895 0.16361427 -0.05190649 0.49797818 -0.41442886 0.17333192 -0.18261273 -0.21082132 0.71444017 -0.33748773 -0.6594786 -0.4907549 -0.08704226 0.5935156 0.13282155
3668 0.11135586 0.08840274 0.76397943 -0.29980245 -0.04250328 0.086256415 -0.36729276 0.067929804 -0.8298658 0.49595952 0.44695857 0.07602834 0.03936272 0.058879454 0.18428695 -0.0577422 -0.33564487 0.022388551 0.5625345 0.23419845 0.1515055 -0.085216925 0.1127853 -0.09967066 0.19042248 0.33165553 -0.11254499 -0.42141333 -0.3258139 -0.2956184 0.16216323 0.015244409 -0.4336053 0.6385533 -0.503609 0.13961037 -0.13053802 0.44803753 -0.39447075 -0.13989297 0.10631283 -0.118397556 0.21767563 0.13739926 0.37405223 -0.12415989 -0.58342123 -0.028767832 -0.08620034 0.7913796 0.032558333 0.06889107 0.3329496 -0.09700716 -0.15056641 -0.2872624 0.23763226 0.67844033 0.7124571 -0.1285617 0.736398 -0.28641382 0.10286882 0.3615198
4533 0.4513032 -0.12133696 0.34296268 -0.2799483 0.15013254 -0.27616832 -0.48203993 -0.06386755 -0.857178 0.54777306 -0.09205825 -0.23659906 -0.3034753 0.08626431 -0.029473484 -0.16266318 -0.004840061 -0.26046988 0.7951385 0.17411242 0.22819564 -0.09731911 0.060391214 0.53392863 -0.026860682 0.27681682 -0.0896045 -0.47061145 -0.09087072 -0.11657351 -0.049262144 0.46584177 -0.092828915 0.9129187 -0.63141453 0.48794302 -0.50194484 0.435041 -0.32461834 -0.24146278 -0.38389373 0.266633 0.5038256 0.21187556 0.47696355 -0.0658682 -0.4844787 -0.10254431 0.11837827 0.70659363 0.29109406 -0.13968988 -0.04964899 0.033800382 -0.5040701 -0.0510371 0.018846203 0.5508548 0.18231612 -0.14288841 0.5126728 -0.1517936 0.1181534 0.14325508
7207 0.44313645 -0.7820691 -0.061399285 0.31821135 0.28526026 0.05634568 0.18149045 -0.35047808 0.12799202 0.8412359 -0.04185009 0.12005339 0.25750417 -0.18522374 -0.5311996 0.2836617 0.62105685 -0.03959537 0.8476582 0.6012138 -0.2131326 -0.23974118 -0.494508 0.80506885 0.26152912 0.2550411 -0.01238255 -0.09024923 -0.50952536 -0.045133498 -0.7595782 0.35118103 -0.3192441 0.3320225 -0.18681481 0.8725657 0.05673321 0.3082983 0.27875018 -0.23179801 0.32886657 -0.21255256 0.46360517 0.26634803 0.15558696 0.9386222 0.30315137 -0.18973638 -0.038735714 0.68030435 0.3209728 -0.4367488 0.11583431 -0.8637551 0.3827004 -0.61359257 -0.04224151 0.09472181 -0.19919296 0.07423599 0.5845047 0.25931394 0.49033695 0.25428513
3137 0.5568137 -0.08897355 0.3787507 -0.091867626 0.46410578 -0.10870066 -0.19133824 -0.007878806 -0.89120966 0.035818204 0.43123013 0.22283557 -0.110641114 0.06641637 0.22175679 0.045956835 -0.007736741 -0.035670806 0.70195097 0.22183977 0.5472156 -0.11450479 0.15957582 0.29819524 0.28335062 0.47907087 -0.40497553 -0.40403408 -0.13632648 -0.29152903 -0.070902236 0.2911677 -0.23055768 1.0432886 -0.5056521 0.14071506 -0.27840593 0.82666194 -0.19451293 0.08273177 -0.51527363 0.36601147 0.72659045 0.22338226 0.8021498 -0.2977612 -0.26224732 0.22433601 0.34455162 0.68641055 -0.0024768836 -0.082176745 0.19696625 0.21326302 -0.2386865 -0.36657006 0.6037182 0.5700753 0.46637455 -0.11620975 0.38770026 -0.22593115 -0.0072927848 0.060584
833 -0.44003728 -0.114266425 1.4272937 0.03706427 -0.34592748 0.023500806 0.17365746 -0.27431092 0.061801307 0.32417917 0.24405016 -0.23210086 0.03543214 -0.51519847 0.3779337 0.2573352 -0.2764857 -0.24449232 -0.03380217 -0.5361864 -0.48355657 0.9207208 -0.31365466 0.0530151 0.06701779 0.19728972 -0.19160478 -0.019286243 -0.10455098 0.0028180166 0.26397446 -0.052342784 -0.20457233 0.32683536 -0.47441164 0.7397226 -0.089144416 0.47854102 -0.11637808 -0.30445212 -0.29518542 0.645468 0.34911418 -0.34227845 -0.24873164 0.002063688 0.4982024 -0.27376002 -0.15740998 0.03681226 0.1690238 -0.5904814 -0.18525654 -0.003753746 0.2563547 -0.19481416 0.21243039 0.34047225 -0.026362263 0.9814486 0.15531376 0.46596098 -0.062184773 -0.17872971
5924 0.27238545 -0.4068274 0.48802578 0.29225805 0.33210164 0.013369683 -0.12723577 -0.09988125 -0.8924648 0.56984633 -0.5461973 -0.13475288 -0.35090536 0.3053664 -0.15230322 -0.5028054 0.3252619 -0.24252535 0.6501116 0.010783561 0.35456198 -0.090904705 -0.1147738 0.48577657 0.017311476 -0.369177 -0.12875342 -0.020961301 0.21989818 -0.16385828 -0.2478524 0.5467425 0.24208042 0.5205347 -0.57013184 0.5662732 -0.31419182 0.37990516 -0.14794496 0.0314478 -0.5021918 0.042964533 0.16901664 -0.013586541 -0.035134483 0.19740677 -0.6415766 0.01132109 0.060333878 0.670612 0.37224248 -0.5163756 0.0012965677 0.17428997 -0.22045365 0.13241316 -0.34970337 0.20326972 -0.16147861 0.029598696 0.1495221 0.19659483 0.05499899 0.0458976
6794 -0.99391705 -0.24011455 0.21369049 0.3796507 0.19037281 -0.30713668 0.25930578 -0.6429605 -0.18012547 0.5980842 -0.58791596 -0.03901186 -0.41665295 -0.6485891 -0.5713718 -0.6579554 0.778166 0.3790119 0.3012784 0.015043569 0.49077532 0.27854973 -0.23231588 0.723859 0.519119 0.35621497 -0.2736678 0.287972 0.17708552 0.1605601 0.3026284 -0.30874255 0.18853877 -0.21140546 -0.9436602 -0.046578567 0.80061454 0.53891885 0.097914055 0.3610345 -0.53057677 0.40216556 -0.023178196 -0.25171828 -0.19620703 -0.41578087 0.17860939 0.26587635 0.4002308 -0.37988964 0.6489328 -0.39176914 -0.056357894 -0.71408135 0.53680974 -0.021115648 0.050667647 0.84003544 -0.17189461 -0.19675346 0.26547235 -0.92774594 0.42406413 0.19059107
8881 0.2423114 -0.22279483 0.3108241 0.16287431 -0.113977104 -0.061349023 -0.13503969 -0.32160303 -0.4526062 0.6847179 -0.17448804 -0.05962737 -0.27471 0.12516412 -0.36683676 0.0355464 0.20056754 0.06855826 -0.009803872 -0.035754785 -0.24518406 0.4235197 -0.16276447 0.53411883 0.07435705 -0.17333794 0.044488423 0.71298563 0.45289785 0.20419605 0.4111453 0.43067834 0.45204288 0.29220983 -0.4727815 0.4201946 -0.51551014 0.52527803 -0.23006001 -0.060886938 -0.34932655 0.04467778 0.4182596 -0.05135427 -0.044908807 0.05676693 -0.34319243 -0.22205684 -0.36676446 0.05558171 0.6642083 -0.37457967 -0.19294636 -0.69588464 -0.06911003 0.034656458 -0.35369742 0.29377538 -0.10249579 -0.24837579 0.30102414 -0.14297587 0.0277897 -0.17080602
4165 -0.07596375 -0.42066512 0.78908974 0.53018105 -0.36822543 0.6656982 -0.29661563 -0.26154673 -0.17017654 0.0031852364 0.36499226 0.5008764 0.04042319 -0.89097345 0.19217835 0.18655728 -0.13301852 -0.46504298 0.42785951 -0.6736264 -0.21948472 0.44227648 -0.17504965 0.42842087 0.003416548 0.42296863 0.030247567 0.09696854 -0.7922287 0.05614274 0.37032422 -0.30219477 -0.22429827 -0.12035331 -0.7187117 0.4378734 0.17161264 0.12386043 0.13136205 -0.46648622 -0.24422173 0.30966952 0.45307752 -0.70795584 -0.363904 -0.2652206 -0.1978586 -0.28448215 0.21153615 0.6474549 0.1448781 0.14362289 -0.36156112 0.2526199 0.17081687 -0.18554857 0.19642559 0.42507502 0.44689837 0.515093 0.21696828 0.6927909 0.1426859 -0.15987213
4618 -0.3105143 -0.38791797 0.5603948 -0.18222502 -0.1652693 0.77548116 -0.6375264 0.098707825 -0.39756224 0.92236286 0.33240288 0.39718786 0.11423756 -0.08842739 0.41114148 0.266615 -0.094728306 -0.29493693 0.28284115 -0.7618023 -0.06316671 -0.2568096 -0.13931105 0.05494542 0.6292752 0.3303652 0.056445606 -0.070848584 -0.25780413 0.035108086 0.50135225 -0.07314251 -0.25590888 0.49531665 -0.966095 -0.55631775 0.12730663 0.3982168 -0.78297114 -0.10991777 0.30327594 0.21675658 -0.13391192 0.18717423 0.5612137 0.03314319 -1.1425468 0.3456863 0.114580974 0.48802075 -0.39674887 0.013771106 0.0061819954 -0.07823143 0.46116692 -0.26277792 0.01615525 0.26276028 0.5295247 0.1233035 0.94737077 -0.20608686 -0.18456066 0.96703786
8771 0.028232064 0.1137742 0.85752136 -0.18403274 -0.45461702 0.3185783 -0.33125713 0.5567858 -0.27731845 0.30752847 0.1985665 0.07430853 -0.47886977 -0.18735091 -0.089855276 -0.32867107 -0.3183515 0.72092855 0.32783198 0.08023369 0.57297045 0.45046267 -0.26382586 0.1481932 -0.14644708 -0.0134145655 -0.3427606 0.03623875 -0.2026199 -0.057465717 -0.124589615 -0.19341159 0.20051122 0.13786723 -0.28331393 0.49532318 -0.024811463 0.5812156 0.43832135 0.13543539 0.15471709 -0.17249115 -0.049272984 0.026836751 0.6256859 -0.047662932 -0.12634581 -0.0080071855 -0.36167228 0.84692156 0.52382976 -0.027668545 0.2366349 -0.438524 0.3385025 -0.06266576 0.12200744 0.39622924 0.32382712 -0.8579519 0.374674 -0.40008837 0.62318176 0.140724
6735 0.3160396 -0.06923035 0.6641203 -0.032966074 0.032526467 0.14577532 -0.5032137 -0.20293494 -0.3301137 0.9593207 -0.37014633 -0.27853855 -0.1440723 -0.23272277 -0.18616417 -0.0575911 0.17656893 -0.36570713 0.061849378 0.058815803 -0.26950496 0.36543402 -0.29532546 0.78200704 0.20989856 -0.1477786 0.013881644 0.08935735 0.099215336 0.12296268 0.21442208 0.6045292 0.3752447 0.62134445 -0.28169295 0.3618616 -0.08206086 0.5496098 -0.34923458 0.036344294 -0.3244235 0.13599753 0.48800242 0.4874094 0.021155965 0.35088894 -0.12579057 -0.35729396 -0.5494251 0.23845837 0.41574922 0.020345803 0.13275792 -0.6889828 -0.21718362 0.1771714 -0.2852988 0.078802206 0.21500805 -0.45462272 0.16868405 -0.31394082 0.069678456 -0.007942856
7008 0.33929637 -0.1685986 0.5314855 -0.11485227 0.23446582 0.17886452 -0.29812023 -0.051995385 -0.89710397 0.5620961 0.2948784 0.16811813 0.04688133 -0.13308902 -0.04692879 -0.18227223 -0.27574116 -0.05093905 0.41339883 0.45986152 0.34706494 -0.20494603 0.5611571 0.0195699 0.070090674 0.33177027 0.20063438 -0.47883385 0.1721718 -0.053208537 0.094277956 0.028943272 -0.29771563 0.9211812 -0.47830978 0.22933245 -0.45640212 0.77703875 -0.5381466 -0.20151564 -0.4543932 0.17547671 0.6164246 0.18796399 0.60811967 -0.614228 -0.2245577 -0.055509545 0.22358213 0.7564887 0.1701062 -0.24210191 -0.08883989 0.164188 -0.3214471 -0.7504677 0.365428 0.6363386 0.14119583 -0.20747498 0.5536352 -0.16488291 0.24658982 0.19782954
529 0.43470985 -0.023088748 1.0394572 -0.018454056 -0.7950275 0.67577606 -0.022149993 -0.35382387 -0.5880118 0.6658083 0.79055667 -0.6605096 0.06847185 -0.22741233 -0.029060598 -0.069231994 0.028385576 -0.85977906 0.21309404 -0.07124458 0.4049162 0.046196885 0.63967484 0.884221 0.39076844 -0.022394728 0.68321216 0.48788998 -0.07237593 -0.10528982 0.30276012 0.52491194 -0.22140144 1.1666439 -0.57640713 0.42056262 -0.7486267 0.18199204 -0.17847137 0.22233622 -0.31853977 -0.22789542 0.66628975 0.25912043 -1.0076596 -0.37485272 -0.022507964 0.6309325 -0.03872303 0.20909956 0.6821103 0.31435105 -0.43816394 -0.63368344 1.1707997 -0.13081357 -0.08955438 -0.30142912 0.037649494 -0.048913397 0.3429009 -0.2033399 0.12491386 -0.6638291
2577 0.65833783 0.4410701 0.8984878 -0.15474391 -0.15626718 0.13501747 0.41226736 -0.06796272 -0.36293462 0.3096626 -0.4134432 0.016289897 0.28305367 0.0025470478 0.18746059 -0.123216145 0.5038562 -0.46070346 0.049253527 0.009769944 -0.086864285 0.20755315 -0.19722383 0.6738926 0.04832679 -0.5255915 -0.011188513 0.4459918 -0.06469734 -0.20956293 0.59743273 0.14021601 0.32659885 0.24690592 -0.7900114 0.120804824 0.3398784 0.51043385 0.17623915 0.14715737 -0.22517253 -0.35115767 0.44198814 0.21345076 -0.020147888 -0.69086456 -0.40039417 -0.45757484 0.22884908 0.013551665 0.1668394 0.062835485 0.63650876 -0.5843684 0.15990958 -0.2651217 0.01023737 0.38643256 -0.3267283 -0.6171569 0.16339317 0.066734836 0.6440584 -0.026870845
1945 0.17397577 -0.10230538 0.28075013 -0.006892343 -0.29549378 0.16916324 -0.12808658 -0.24801108 -0.18775558 0.6808999 -0.19538409 -0.121213704 -0.34133902 -0.2649782 -0.30421025 -0.17789713 0.24729371 0.40291741 -0.008921544 -0.077096 0.14063476 0.18634132 -0.30028692 0.4605041 0.20452061 0.005363949 -0.34633085 0.6362634 0.1851081 0.06926661 -0.15974452 0.28932765 0.22050731 0.15575491 -0.5986896 0.551401 -0.37960458 0.681427 0.16531232 0.28998563 0.11394582 -0.19273853 0.1675145 0.10311656 0.17279486 0.34136418 -0.41507494 -0.42000392 -0.3788902 0.57864493 0.50637305 -0.46867627 0.049461514 -0.6609899 0.031968087 0.049177047 -0.3449762 0.48950365 -0.07342255 -0.30402467 0.1297785 0.16242717 0.52050483 -0.1324926
2414 -0.08393292 -0.16245253 -0.008461789 0.28223994 0.57933664 0.81993735 0.2733908 -0.016080476 -0.14172831 0.5236435 0.81432146 0.53083605 0.47137263 0.5209765 -0.18180156 0.11407968 -0.3694859 -0.14454621 -0.49032012 -0.32549176 0.5006006 0.16632926 -0.45244887 0.3735757 0.17516215 -0.019039363 -0.9605329 0.32686383 -0.23382923 -0.5065358 0.6052017 0.5265564 -0.110896416 0.41257033 -0.024217032 -0.047773603 0.0155962035 1.6092855 0.4986741 -0.1727547 -0.8343281 -0.19356999 -0.045491163 -0.34273815 -0.19065033 0.44679168 0.19768648 0.40650675 -0.23143971 -0.38480452 0.4807337 -0.21609606 0.48452857 -0.4301068 0.29750082 -0.79818726 -0.49218553 0.4794977 0.21503283 0.2377658 0.09571439 -0.49442336 0.34528455 0.44840813
1282 0.7778413 -0.625002 -0.29142803 -0.67110205 2.0567079 1.8117971 0.43760937 0.5283306 -0.03325343 0.8776952 0.17330135 -1.5368297 -1.2764279 -0.9672302 -0.22101815 0.256113 -0.4230031 -0.76745015 1.4070965 -0.51893806 -0.4957481 0.0035543656 -0.5039631 -1.1386474 0.2315283 -0.5244778 -0.4218815 -0.76947016 0.3145031 -0.04860875 0.562671 0.6399358 -0.15806794 0.8359448 -0.5130993 0.81535685 0.3155348 0.5667312 0.5063217 1.0716403 0.22704718 0.0689936 0.024893666 -0.52486223 0.7817523 -0.759003 0.27168703 0.91593516 0.009976953 -0.09067828 0.2169057 -0.51669246 1.2029418 -0.63478875 0.5810215 -0.4741606 -0.90312284 -0.41431496 0.35557887 0.10334579 0.7225527 0.25131527 -0.10113695 0.7587795
2567 0.0046055317 -0.29964712 1.0648953 0.7190779 -0.265647 0.4423992 0.28259805 -0.09442111 -0.1908715 -0.29651266 0.20704381 -0.13358149 -0.08878076 -0.8839842 0.28022972 0.85114163 0.15166707 0.26173243 -0.27402204 -0.0078029046 0.06385836 -0.048387635 0.07475865 0.054645747 0.030590221 -0.4175165 -0.28700197 -0.9109828 0.17190242 -0.4001087 0.09376424 -0.36174044 0.11663409 0.21766816 -0.32380933 0.19407143 0.5494626 0.66964084 -0.9686971 0.72733593 -1.4057181 0.2944774 0.62807393 -0.5867287 0.7297394 -0.15601176 0.038198207 -0.007255219 0.31215787 0.3999029 0.24525888 -0.5516478 -0.6768788 -1.0082532 0.47861302 -0.24903157 0.06216889 0.108338445 -0.23430671 0.4189946 0.11467845 0.13039501 -0.54515004 0.45088097
8880 0.22291048 0.28743583 -0.051943522 0.27028468 -0.08131743 0.61401266 0.20527738 -0.4505628 -0.112119526 1.0203018 -0.6058443 0.4034251 -0.14566901 -0.2155064 -0.17197528 0.15326895 0.16034672 0.14493123 -0.13961476 0.09096333 -0.26005197 0.4546674 -0.20533246 0.2654782 0.023070542 0.0655559 -0.21812207 0.4483993 0.109212965 -0.24451904 0.4820373 0.6068966 0.21126348 0.24550524 -0.15008688 0.5240728 -0.6992428 0.1752684 -0.28845444 0.23641485 -0.07068635 0.4519363 0.44466862 -0.06301214 -0.2775838 0.049952142 -0.5873148 -0.049359523 -0.22166036 0.200802 0.5765976 -0.2238369 -0.53388923 -0.8776187 -0.29599667 -0.18205838 -0.25249428 0.36796176 -0.2830944 -0.058329526 0.28716758 -0.047421798 0.04333003 0.21773449
414 -0.65512484 -0.45916218 1.2598732 -0.0702617 -0.28315115 -0.029385302 0.9289843 -0.45176852 0.2489016 0.30483562 0.21356708 -0.24576867 -0.5843902 -0.21227577 0.26609707 0.24697562 -0.63419807 -0.27198446 0.040432595 -0.18245973 -0.3084536 0.59173214 -0.5539156 0.0215643 0.30902943 0.10265929 0.16071983 0.15396515 0.05920754 -0.3054896 0.27079055 0.17225663 -0.6507364 0.7165822 -0.287416 1.0633503 -0.07618288 0.31978408 0.08422235 -0.47746184 -0.055045813 0.6116359 0.4519299 0.4811841 0.11319431 -0.061875798 0.058997955 -0.14748247 -0.5860289 -0.1940101 0.29880244 -0.927207 -0.064901136 -0.23348397 0.22692327 -0.31776887 0.19871129 0.43308535 -0.3348766 0.6910018 0.0049257977 -0.27510825 0.09954224 -0.34123734
353 -0.7199309 -0.12762168 1.331335 -0.33998415 -0.6728508 -0.09075269 0.17091031 -0.7221138 0.5757524 0.7721129 0.18255213 -0.18842418 -0.32579812 -0.51203173 -0.34880424 0.09413471 -0.24977885 -0.19286272 -0.27706572 -0.2315173 -0.13207453 0.5181322 -0.85506785 -0.33643642 0.4022749 0.17750926 0.29474774 0.23106939 -0.45030224 -0.39241037 0.23991722 -0.084684975 -0.516856 0.66045153 -0.055254888 0.84279686 -0.4997274 0.33978632 0.7853443 -0.56451756 -0.0019542705 0.9496896 0.6238227 0.034205087 0.085023455 -0.40718147 0.40697572 -0.085406385 -0.2794205 -0.10034959 -0.2948242 -0.7659018 -0.43503875 -0.38979286 0.4052435 -0.46028855 0.21785769 0.78365064 -0.5446486 1.0589705 0.08739676 -0.05128543 -0.31489283 -0.3578937
481 0.16838396 -0.4406374 0.9630865 0.055286247 -0.44829267 0.100432515 -0.27621266 0.089381486 -0.43183962 0.31731802 0.37733853 0.17863095 0.16679403 -0.84078026 0.36957872 -0.18795754 -0.3856266 -0.08660707 0.4192717 -0.62508726 0.259494 1.031978 -0.45952225 0.3381709 0.061976787 -0.03449186 0.2024198 0.19573371 -0.8522786 -0.05381567 0.49857438 -0.47738662 0.13553278 -0.3074519 -0.56221825 0.40780517 0.1509865 0.024701297 -0.20102972 -0.19361489 -0.40938485 0.2738723 0.14750369 -0.97011495 0.015768921 -0.40790316 -0.03498486 -0.2391811 0.011189829 0.33897024 0.21355036 0.1023891 -0.32524496 0.32445902 0.24839917 -0.34945452 0.24925092 0.49493897 0.40839565 1.0197746 0.117452405 0.76685727 0.34369296 -0.10068753
2773 0.2845146 0.029882174 0.7311112 0.14162709 0.3342137 0.5408808 -0.16378143 -0.83284426 -0.17986508 0.7745577 -0.02807815 -0.045371864 0.047362555 -0.39157423 0.12876752 0.051400032 0.27203453 -0.051824667 -0.34314808 0.3510404 -0.24041817 0.77759516 0.067618 0.63463664 0.052273057 -0.26907632 -0.04298273 -0.75764394 -0.65090275 0.1992284 0.12398593 0.34430698 0.19569197 0.39497823 0.067472704 0.06428979 0.64355326 0.8123299 -0.07177377 0.31450555 -0.28228828 -0.6173938 0.35203487 0.08645572 -0.10424676 0.18054204 0.048547138 -0.42403233 -0.21522349 0.43324494 0.5290923 -0.6006946 -0.11718482 -0.047600225 0.40166134 -0.4116376 0.42412883 -0.46059883 -0.25517774 0.15253052 0.10008524 -0.20820954 -0.23848358 0.092654936
5470 -0.062086947 -0.6817918 0.61649233 0.42169422 -0.17358822 0.96182334 -0.25383425 -0.024598349 -0.5120108 0.4140082 -0.24555887 0.34975848 -0.83296514 -0.75107276 0.4907823 0.58920556 -0.13248783 -0.09373478 0.32799253 -0.48239863 0.32861686 -0.034821864 -0.437172 0.40942562 0.16026978 -0.3178708 -0.08215604 -0.03703228 0.17583394 0.2862249 -0.1285397 0.60673106 -0.0300616 0.08639696 -0.7623373 -0.07357334 -0.24064311 0.43799746 0.1583491 -0.011379508 -0.26989654 -0.4679771 -0.049355686 0.1291746 0.42266786 -0.5603227 -0.24965575 -0.3318671 0.24924384 0.43749276 -0.44275776 0.2167469 0.082767606 0.2809228 0.0411246 -0.051991846 0.4758331 -0.16045526 0.77251285 0.35710508 -0.30476362 0.75905323 -0.104505785 0.30985013
1596 0.29201773 -0.5167978 0.26547298 -0.41718006 0.07862749 0.12367066 0.1759758 -0.35364005 -0.39716867 0.45409656 -0.15411328 -0.027172875 -0.47412726 -0.19657706 -0.18341374 -0.19852377 0.50797874 0.19297944 0.03761499 -0.33113313 0.017270321 0.886209 0.11730062 0.44428024 0.15351579 -0.25925723 -0.046300482 0.8398755 0.56717867 0.25113562 0.18090492 -0.35263306 0.5041149 0.7441744 -0.62531173 0.55195355 -0.12375007 0.23954976 0.31148958 0.391252 -0.35573265 -0.5242465 0.39426133 0.18318202 -0.23624693 0.32682645 -0.27167344 -0.042472117 0.25279334 0.19432655 0.17666174 -0.4990071 0.07344638 -0.2993477 -0.118560925 0.16593376 -0.15511063 0.4099571 -0.23810872 -0.4184982 -0.14253311 -0.25316495 0.5280669 -0.51286036
665 0.3601778 0.031016294 0.73285276 -0.44229585 0.095406845 0.35601515 -0.38507298 0.025293985 -0.9989697 0.6451189 0.5682662 0.26537785 -0.026209341 0.09044595 0.033824928 -0.0049078846 0.043969747 0.06898327 0.6751301 0.24460088 0.060223382 -0.36424375 0.4317209 0.08741247 0.36043835 0.29336143 -0.19766252 -0.32152674 0.18412323 -0.3077303 -0.19076668 0.008655049 -0.28166762 1.0007155 -0.31536698 0.11451868 -0.010652339 0.7373598 -0.29572332 -0.35944557 -0.43373653 0.022066886 0.5104842 0.18062177 0.6903086 -0.48928332 -0.2958294 -0.15753905 0.28687418 0.987668 0.075114876 -0.1975593 0.2289241 0.122268915 -0.39058933 -0.59874004 0.32966784 0.7966842 0.6312381 -0.24727714 0.37195116 -0.094873324 -0.048831463 0.19250429
2419 -0.45874763 -0.8152127 -0.08222274 -0.010559992 0.40530482 0.5308759 -0.23197255 0.1355802 -0.31203118 -0.28762951 0.13526051 -0.6041835 0.44332096 -0.9925226 0.2018086 0.7488391 0.2875955 0.38126135 -0.1268886 0.48437977 -0.21284236 0.29941946 -0.04468151 0.49001983 0.3603464 -0.22193116 0.35595018 -0.5608854 0.3000256 0.5429434 1.1885722 0.020717576 0.058195796 0.15693721 -0.45392057 -0.6909371 0.18768223 0.20742148 0.103210375 -0.027385853 -0.39786965 -0.3800498 1.183685 -0.08884692 -0.0038618366 -0.34541982 -0.300738 -0.26478925 0.43585783 0.49902588 0.17229564 -0.33705646 0.2780192 -1.0796541 0.20618616 -0.5501301 0.447555 0.37199426 -0.48104545 -0.034276616 -0.09711384 0.44031352 -0.22981998 0.71105385
5425 0.051500633 -0.5309064 0.13881108 0.38540363 -0.22206108 0.7093345 -0.22562082 -0.7954565 -0.6047693 0.90203613 0.6531087 -0.078189634 -0.07098449 -0.12869498 -0.15302145 0.28262544 -0.05400528 -0.27445585 -0.19462363 0.5672668 -0.02743457 1.0108361 -0.17392513 0.6668783 0.31843114 -0.23391993 -0.27913317 -0.35508677 -0.82399064 -0.02562155 0.20722632 0.5975623 0.41787177 0.136345 0.45159733 -0.5640301 0.31581777 0.8462123 0.04718145 0.029148687 -0.5764298 -0.06282339 0.1733562 0.2445995 0.18847524 0.48044616 0.3052361 0.047519837 -0.34022588 -0.1427016 0.5872427 -0.12272874 0.25544205 0.2509801 0.3944923 -0.9154448 0.31932577 -0.23632921 -0.0005447526 0.07138231 -0.28625026 -0.61244726 0.20059462 0.3622334
750 0.3347929 -0.36546272 0.38914502 0.030103743 -0.5136613 0.2712186 -0.13424705 0.043279883 -0.17509298 0.44142473 0.50089127 -0.16090451 -0.48032767 -0.11157306 -0.31499434 0.0911767 0.17971647 0.12487435 0.30868292 0.3417208 0.13482751 0.22823091 -0.60076386 -0.1760892 -0.17144193 -0.0664667 -0.5854234 0.39181405 0.051779073 0.100440964 -0.20433202 -0.21176386 -0.65774673 0.75598925 -1.0881407 0.2608086 0.16820063 -0.24307697 0.3168088 0.25400385 -0.4788538 -0.31505528 0.23369932 0.26834267 -0.31853923 0.34215757 -0.31122765 -0.44627604 -0.003602237 0.8410326 0.19729021 -0.13028322 0.75436544 -0.40627697 0.2108293 0.04756818 -0.358527 0.8834568 -0.33366036 -0.5946449 -0.80357146 0.3335928 0.59275323 0.19097841
3759 -0.28270558 -0.30341625 0.73097074 -0.26792 0.051139385 -0.29123297 0.3090521 -0.62246037 0.024515286 0.792719 -0.19608846 -0.04313181 -0.3459161 -0.28947735 -0.41276816 -0.71246487 0.60910165 0.23226103 0.18048085 0.1958906 0.5045528 0.5739118 -0.057870254 0.49697578 0.13079505 -0.016821258 -0.09767553 0.17732535 0.20435293 -0.11478044 0.3815546 0.02518997 0.28654796 -0.21384445 -0.8117074 -0.39439687 0.67558163 0.5283727 0.33714175 0.13758673 -0.28777042 0.37879223 0.3891059 -0.4316753 -0.5234568 -0.5234158 -0.22006571 0.102775745 0.1584844 0.08665934 0.2703497 0.012072871 0.3107942 -0.450871 0.20437656 0.03297941 0.21116507 0.12836206 0.058401193 -0.327269 0.19371092 -1.1283762 0.19360706 0.06816033
3237 -0.5504326 -0.63272 0.92997015 0.13237576 -0.3582403 0.36512813 1.0726169 0.3648117 -0.7321124 0.96473694 -0.18935475 0.42253166 0.024733001 0.045529418 -0.25219154 0.96304774 0.5034597 -0.053870566 0.43587652 0.29518366 0.7940275 1.0391951 -0.19373034 0.020352129 -0.0043736063 0.43645555 0.28233346 -0.9389684 0.8623509 -0.3244458 0.3771474 -0.106020994 -0.42785886 0.32760778 -0.49696457 0.3700652 -0.28210396 0.073549874 0.4109927 -0.12187812 -0.86276835 0.20718563 0.21149206 0.6480361 -0.00024036225 0.22756003 -0.41107443 1.447901 -0.18961625 -0.26681152 0.20672008 -0.14685911 0.15221031 0.22003761 -0.3666089 -0.6311095 0.3784428 0.1373913 -0.06334297 -0.4587173 0.4159727 0.483764 0.6625953 0.110196896
4059 0.44117215 -0.12735675 0.3646482 -0.18882081 -0.42156544 0.4961475 -0.33743694 0.35808754 -0.043384697 0.7153207 0.24067135 0.018340213 -0.23001482 -0.35553455 -0.053963188 0.061829444 -0.06789675 0.11148829 0.13382207 -0.03998468 0.26646155 0.31524375 -0.84222484 0.05662706 -0.18986991 0.10810451 -0.27964726 0.23773412 0.0020638742 -0.18692447 0.0014485286 -0.15012977 -0.42500985 0.46526664 -0.8642442 0.57391757 -0.011529479 0.10844457 0.348843 0.21334322 0.10367174 -0.15023348 0.1999382 0.3136515 -0.1830621 0.31237382 -0.3491179 -0.3456522 -0.36856577 0.9196242 0.33029866 0.17306203 0.56357706 -0.47242048 0.22707395 0.37708768 -0.20980819 0.82890624 -0.0015368729 -0.8050616 -0.5871206 -0.15468645 0.7087669 0.021410013
3080 0.8550317 -0.26905218 0.32261822 0.31055763 -0.20076072 0.86228585 -0.0895116 -0.41779912 -0.7837199 0.4538773 0.24032308 0.37233335 -0.5723086 -0.39127636 0.05727157 -0.35816127 -0.3991839 -0.0003983173 0.45617956 -0.9027997 0.025936319 0.3169471 -0.4438718 0.13930373 -0.33267158 0.066777945 0.3500524 -0.011862654 -0.37864512 0.02669377 0.5406041 0.64754564 0.28380492 0.1494243 -0.7251595 -0.5100862 0.55973065 0.12040771 -0.08809397 -0.2518327 -0.10706281 0.25258204 0.2569568 -0.49735677 0.21512969 0.12973902 0.160637 -0.20860632 0.01307061 0.74174285 0.04154813 -0.42206284 -0.41942295 0.38641006 -0.43300334 -0.1037372 -0.4398724 -0.035380743 0.8802264 0.49894714 -0.017969456 0.882987 -0.2650891 0.3921659
4708 0.2845191 -0.24972378 0.46788386 0.10462229 0.0852923 0.34326065 -0.2479204 -0.08546233 -0.32205474 0.76820844 -0.6369955 -0.1671291 -0.6005513 -0.55715626 0.01108014 0.021781113 0.077081025 -0.11818522 0.13697149 -0.04161708 -0.46626297 0.5673159 -0.372832 0.62717634 0.013096805 0.041081578 -0.10379545 0.7537423 -0.13228776 -0.447302 0.0050768526 0.3546443 0.70479083 0.49071836 -0.47781408 0.10852696 -0.15638751 0.28681424 -0.4349636 0.5579693 -0.624332 0.14143124 0.30374748 0.29602456 -0.09398199 0.04749353 -0.19309379 -0.4364776 -0.3348943 -0.011480813 -0.10480461 -0.16368428 -0.0057268715 -0.5344427 -0.48054412 -0.022062488 -0.29941893 0.32952043 -0.22917156 -0.611004 0.007617746 0.11488662 0.27260533 0.064194225
4110 -0.054270916 -0.2703351 1.1388108 0.83351624 0.09735543 0.76359713 -0.34391296 -0.3986218 -0.053047065 -0.052692913 -0.21701676 -0.07036352 -0.3183278 -0.664667 -0.3620322 1.1230944 0.15392269 -0.08411922 -0.039666332 0.08572815 -0.14812511 -0.29136625 -0.13347727 0.03954828 0.46938172 -0.73616403 0.076389425 -1.1496899 -0.81522495 0.16081336 -0.29753622 -0.71132654 0.10723743 0.12571834 -0.8598426 0.07219592 0.55941135 0.78610426 -1.1347879 0.0045609 -1.0090438 0.4592376 0.33496737 0.020312592 0.47764355 -0.24154617 0.15988623 0.46754494 0.06360377 0.34866837 0.15893798 -0.8582296 -0.38299865 -1.0146663 0.19261505 -0.15767948 0.35675073 -0.16412656 0.25438035 0.7341985 0.37394837 0.2874482 -0.15054038 0.20931897
1851 -0.2495815 0.0044478048 0.9450984 -0.21944702 -0.116876476 0.12175727 -0.0822847 -0.013813406 -0.47224513 0.37472236 0.08857006 -0.04043704 -0.23614751 -0.041287445 0.37382945 0.09883093 0.01112555 -0.40147772 0.24851716 0.68095094 0.18170598 0.08902061 -0.14993504 0.07081169 -0.55138505 -0.9424832 -0.32839033 0.13178352 -0.11633295 -0.26142478 0.3856824 0.24776876 -0.121360004 -0.09084094 -0.5533767 0.02043901 -0.06608117 0.6941781 -0.5184176 -0.4774723 -0.3828415 -0.31458345 -0.1373809 0.39135855 0.08026041 -0.16229863 -0.64772516 0.25017536 0.62796926 0.8678429 0.11871153 0.18489203 0.71279687 -0.46341863 -0.11715425 -0.2774997 0.10771076 0.5373297 0.2771165 0.07291335 -0.5664867 -0.104680836 0.036470857 0.59747493
3718 -0.34953728 -0.091628514 0.85655415 -0.63435215 -0.40557373 1.0398265 -0.27253732 -0.13134223 -0.8646915 0.4815993 1.0548489 0.24633983 0.6257605 0.1713046 0.61189735 0.5718157 0.3764748 -0.13076682 0.25917858 -0.53837675 -0.0188802 -0.07264458 -0.008474425 0.014035534 0.39487886 0.2990785 0.08111048 -0.42947528 0.10603869 -0.014833468 0.29058874 -0.19414967 -0.4595806 0.2690828 -0.7467746 -0.025784733 0.16454455 0.526614 -0.48248997 0.23189028 0.23045895 0.42024738 0.0011479323 0.66008145 0.26812208 0.005077785 -0.9660253 -0.64722884 0.49817175 1.0001409 -0.33835724 -0.008290844 -0.023328142 -0.19759023 0.20672524 -0.055859864 -0.023944968 0.17525826 1.1212467 0.02523949 0.68346864 -0.0076668477 -0.115278035 0.40631554
6137 1.0222508 -0.24018644 0.76930803 0.5626776 0.19442585 0.44766098 -0.5007676 -0.006628169 0.046527226 0.94483876 0.31578836 0.4871611 0.28974694 -0.62362826 0.19286819 -0.57116586 -0.46963686 0.124015324 -0.07202161 -0.8391008 0.73143506 0.80534667 -0.39945945 0.19058232 -0.14086562 -0.65393686 0.09412214 0.35255504 -0.70770967 -0.010130079 0.67695194 -0.49875984 0.4491561 -0.011193622 -0.29471505 -0.038231786 0.103798404 -0.18072402 0.3171043 -0.16065331 -0.41943255 0.4590556 0.79301816 -0.6069336 -0.12841754 -0.31264505 0.010397693 0.43734387 -0.12135083 0.65852267 0.24807344 -0.4024856 -0.33242765 0.36799675 -0.082515955 -0.41327247 -0.2088893 0.36227176 0.745103 0.9693518 -0.15087354 0.65326285 0.27216306 -0.04339433
1144 0.32770258 -0.17091687 0.33621463 0.3165835 -0.25503287 0.091178454 -0.37044495 -0.3209472 -0.6151058 0.47254664 -0.10115335 -0.004052771 0.046177264 0.27691478 -0.1741686 -0.64824384 0.2441449 0.4208184 0.08942645 -0.37558672 -0.38605225 0.095955364 -0.40598592 0.23052534 0.2874998 -0.15753298 -0.381335 0.18584934 0.08951309 -0.4669855 0.6307532 0.49098203 0.028026622 0.059544045 -0.27507067 0.28855196 -0.57234687 0.52273446 0.22563401 0.027456103 -0.16701517 -0.37687212 0.27792805 -0.4512089 0.40158585 0.42782068 -0.5347084 0.087381005 0.13908061 0.03913124 0.87104976 -0.71105057 -0.442503 -1.0511346 -0.077968195 -0.17874297 -0.5572257 0.733392 -0.26988876 0.11742774 0.3229575 0.0864772 0.15484682 -0.30241126
3074 0.71490157 -0.14324509 0.8631579 0.38804257 0.26053414 0.21780358 -0.34237936 0.16712467 -0.08272012 0.75055575 0.595557 0.12648118 0.38143903 -0.3706037 0.18893047 -0.19490288 -0.3878355 0.056725636 -0.3762918 -0.59619397 0.844707 0.8546227 -0.28185764 0.277809 -0.059232365 -0.7187755 -0.2810227 0.24786301 -0.61121106 -0.20882462 0.7022433 -0.5684384 0.63996464 -0.04525657 -0.16773501 0.10480697 0.2924744 0.041568145 0.32271522 -0.12780948 -0.2505951 0.39889267 0.8695646 -0.48112884 0.12197912 -0.20672993 -0.07302007 0.2305671 -0.061282694 0.34902143 0.41699845 -0.07720201 -0.11082361 0.31562153 -0.018305704 -0.5513596 0.060781825 0.1449333 -0.010106542 0.48868117 0.4158941 0.79851305 0.5718597 0.092717335
7465 0.5745629 -0.103472926 0.2675785 0.038643073 -0.60006773 0.42826992 0.065917835 -0.21477367 -0.2840586 0.18568549 -0.24495439 -0.09134392 -0.10957917 -0.47649297 -0.3382858 -0.09714741 0.25707301 0.27560025 0.06298741 -0.5701589 0.15547654 -0.3083655 -0.40192178 0.6668682 0.1108356 0.36689976 -0.29871967 0.68531924 -0.43142402 0.072855234 -0.25561354 0.31384176 -0.15249646 0.3442729 -0.59651226 0.41936463 -0.24614243 0.6869089 0.239894 0.17004284 -0.21116059 -0.4867154 0.30148217 0.34987488 0.6373563 -0.23600681 -0.24732427 -0.64067245 -0.24184307 0.049736165 0.57764155 -0.27311715 0.27335542 -0.68847907 -0.09733293 0.15586972 0.21573222 0.5301873 -0.46078935 -0.36317226 0.18162115 -0.13071403 0.67343485 -0.020007178
2711 0.5184168 -0.21991128 0.41015628 -0.19586994 0.4532554 0.16812478 -0.38029486 -0.22514033 -0.70013404 0.45155004 0.20218532 -0.013192041 -0.23002528 0.113509074 0.082403384 -0.33470887 -0.19288431 -0.39280862 0.60780805 0.4175557 0.14256822 -0.17498839 0.46252462 0.15619867 -0.08357102 0.13250458 0.028243417 -0.3477104 0.04648778 -0.26982155 0.2437114 -0.1312461 -0.23508121 1.0873033 -0.5899001 0.2861842 -0.28184593 0.85961276 -0.46351963 -0.24549909 -0.39047614 0.24748309 0.7432506 0.2423827 0.6105134 -0.61853564 -0.36118215 -0.26608872 0.51029533 0.5663431 -0.039417822 -0.091424845 0.2957199 0.10224039 -0.29452276 -0.7906374 0.4486532 0.48325095 0.4320749 -0.378007 0.65428793 -0.25970533 0.15188323 0.22188598
3886 -0.044676386 -1.073541 0.11619831 -0.25577128 0.25869024 0.46877635 0.60242736 0.16579203 -1.0845062 0.55367535 0.2625225 -0.4837349 -0.8773006 0.3657013 0.13832295 -0.29861563 0.14528033 0.3643504 0.6321427 -0.0105751995 0.3449778 0.043158546 -0.033190366 0.4861212 0.20845464 -0.18061393 -0.07233251 0.7373863 0.35596868 0.83437586 0.27118966 -0.49510083 0.4905147 0.46727744 -0.25018236 0.78492904 0.2555571 -0.14678536 0.37382433 0.642347 0.25386697 0.02475913 0.41885743 -0.067353964 0.09169797 0.691662 -0.104845434 -0.029737726 0.78943974 0.20156336 -0.018877735 -0.7927891 -0.18055557 -0.3528323 -0.02833188 0.283121 -0.22378081 0.61689526 -0.5671728 -0.26885 -0.13810351 0.05363126 0.50728315 -0.16936149
2133 0.31404564 -0.027691701 0.4002653 0.11884144 -0.28810692 0.12664303 -0.22817943 -0.09966805 -0.3799912 0.74942124 -0.4929163 -0.6349523 -0.30802158 -0.06772276 0.09606293 -0.2222936 0.30962634 -0.015855964 0.21167411 -0.054829944 -0.05875491 0.15961212 -0.153455 0.6252293 0.28259668 0.32045382 -0.17812888 0.54697126 0.021059332 0.139151 -0.026242092 0.58786535 0.1161959 0.8008167 -0.7067249 0.40669122 -0.6256123 0.50635827 -0.34602082 0.33844534 -0.6919639 0.23140974 0.35972267 0.2919716 0.07455485 -0.031330407 0.012739716 -0.4075214 -0.2923574 0.050615378 0.34366906 0.06576167 0.30139875 -0.70794266 -0.35602072 0.0010636101 -0.4427581 0.39617893 0.21367614 -0.42484578 0.30109593 0.25773284 0.036105573 0.093588084
5542 0.40864456 -0.12909275 0.48133203 -0.07849158 -0.08934225 0.16429822 -0.08753385 -0.30194488 -0.27924043 0.7279246 -0.5545318 0.06557583 -0.34691015 -0.16306049 -0.07774241 -0.48238423 0.18986821 0.11689503 0.23232618 0.11612222 0.08390101 0.5378376 -0.1959483 0.52943283 -0.010611357 0.096186206 -0.11241701 0.4776211 0.35119784 -0.14466882 -0.3742608 0.5795162 0.5088815 0.24689615 -0.4493828 0.43305984 -0.3502027 0.4374751 -0.08855089 0.376716 -0.18579671 0.38322002 0.028622769 0.0009061164 0.047675747 0.09149684 -0.5258992 -0.22209935 -0.45204934 0.5729793 0.62116647 -0.3343777 0.10847064 -0.6781624 -0.19610487 0.1680088 -0.30161166 0.21475261 0.24928506 -0.4158123 0.18844098 -0.28893432 0.20458604 0.15966967
975 -0.18777364 -0.33385044 0.78737974 0.24723467 0.27971756 0.022499343 0.060847066 0.1596084 -0.28089353 0.4882167 0.5304867 -0.05211683 -0.093827344 -0.45552972 0.21591143 0.13495754 -0.35339487 0.038062427 -0.008262217 -0.30477425 0.14725517 0.7789863 -0.52928734 0.44208393 -0.24089661 -0.26741287 -0.6762062 0.19142611 -0.45063347 -0.595942 0.40614548 0.12604792 0.07561156 -0.24551928 -0.2223258 0.35567763 0.17134984 0.8540236 -0.053827357 -0.36763555 -0.14003608 0.07518813 0.8318985 -0.7920642 0.3730771 -0.0023542386 -0.22235213 0.02344012 0.31966263 -0.22858547 0.63772327 0.27936074 0.0073288647 0.18933035 -0.03382292 -0.5053557 0.037981037 0.4093914 -0.16171709 0.46699047 0.15383929 0.61804616 0.23524515 0.0910869
6879 0.06776778 -0.2811661 1.1857791 0.29210278 -0.044793278 0.46780965 -0.09065155 0.08538609 -0.46921745 0.42708993 0.06408871 0.44527572 0.25909728 -0.7428806 0.18524092 0.24093758 -0.31587565 0.06786926 0.44033974 -0.5395969 -0.28168 0.8752263 -0.22372325 0.31675848 0.23584253 -0.03966968 0.10590211 0.24872686 -0.38199896 0.068396725 0.17794345 -0.19347237 -0.16183817 -0.11031103 -0.6060449 0.26183245 -0.13113911 -0.021413572 -0.038467318 -0.36974353 -0.46907976 0.23367411 0.21430106 -0.6345895 0.04429506 -0.38360032 -0.082661614 -0.15260097 -0.0264718 0.36851287 -0.082972944 -0.09610822 -0.19063063 0.27500623 0.14483029 -0.002133501 0.19019267 0.019095305 0.8290699 1.0000331 0.15201272 0.84522384 0.3768348 0.0926924
5052 0.27122906 -0.35784796 0.48968217 -0.5755575 0.16246441 -0.11144092 -0.2202831 0.024189956 -1.0185081 0.5099441 0.3684825 0.15729204 -0.0059564062 0.14926447 -0.029439531 -0.015948577 0.0048885006 -0.14431448 0.62812805 0.34406346 0.49002182 0.03654149 0.14000173 0.13995168 0.09656021 0.14387499 -0.2772375 -0.4220337 -0.08356602 -0.03363668 0.28152713 -0.014554207 -0.5131683 1.1952151 -0.3965963 0.28823438 -0.15552768 0.5678108 -0.5433227 -0.18134937 -0.5573898 0.008390553 0.5900387 0.35735187 0.6750101 -0.3134955 0.18354566 -0.30835816 0.30727074 0.9361945 0.01741653 0.0420343 0.03195213 0.111298904 -0.4688106 -0.66297746 0.3477534 0.34544554 0.44524837 -0.33771464 0.3933851 -0.26680177 0.03972129 0.2111588
8074 0.34338388 -0.17207785 0.45262456 -0.18810025 0.42431137 0.2549479 -0.46229312 -0.05920661 -0.66638094 0.3396418 0.33573607 0.10424756 -0.23945333 -0.10339651 0.1213115 -0.17496742 -0.035295412 0.049666785 0.662307 0.12585735 0.15169847 -0.029315349 0.37090504 0.08048556 0.26248822 0.12372583 -0.3879941 -0.4624646 0.31036884 0.11123595 0.09448577 0.27650878 -0.29436263 1.0516257 -0.49690938 0.29854333 -0.10617779 0.7917725 -0.2943007 -0.24330743 -0.57910526 0.09239616 0.7386272 0.10826735 0.81991994 -0.28357482 -0.11539686 -0.21187487 0.3884891 0.799569 0.043862816 0.0019825387 0.13868842 0.253955 -0.36114278 -0.56316924 0.47412378 0.7491828 0.64375246 -0.09776925 0.47772455 -0.06564439 0.012287112 0.13340063
6249 0.06503992 -0.1427042 0.5713844 0.43746546 0.14512675 0.06582578 -0.20592229 -0.09451886 -0.39501318 0.4529925 0.70355105 0.3423572 -0.14082898 -0.5242178 0.41568258 0.22558086 -0.16507865 0.44637302 -0.18746196 0.13341932 0.44177133 0.6361496 -0.30748203 0.41134024 0.116777666 -0.07313847 -0.49701712 -0.4113196 -0.6668262 -0.316128 0.20701952 -0.29521376 0.32956943 -0.4331336 -0.41997766 0.66508573 0.18575469 0.5617544 0.40259716 0.0056432863 0.2820164 0.24904239 0.5815301 -0.32655975 0.4835662 0.51145905 -0.14879164 -0.14725515 -0.14697824 0.32466114 0.12875058 0.014205451 0.33625248 -0.044629578 0.2181464 -0.5261721 0.3438248 -0.1966977 -0.25950998 -0.19344866 0.71055937 0.33915716 0.6103085 0.14398602
6532 -0.07275697 -0.657519 0.59617317 0.28080606 -0.20883507 0.37372354 0.1121908 -0.30911353 -0.033326965 0.550885 0.14301594 -0.02739608 -0.48203138 0.091251396 -0.17245089 -0.5445892 0.4476181 0.21419579 -0.11857003 -0.21212241 0.5049656 0.42574653 0.09245628 0.6573333 0.23689261 -0.2517631 -0.22430551 0.2763748 0.22649819 0.43435934 -0.25881612 -0.009697259 0.66595626 0.2792817 -0.8872484 0.2234257 -0.110569775 0.6346458 -0.18515961 0.38693705 0.0055381176 -0.04676633 -0.2903683 0.01437127 -0.36557043 -0.18237187 -0.21470164 0.25522396 0.06680742 0.4714208 0.7728846 -0.1964747 0.22497785 -0.3201796 0.15482937 0.031540353 0.31249255 0.3605977 0.02437254 -0.30989674 0.23260483 -0.12980245 0.4386223 -0.7199736
6295 0.23215678 -0.39719984 0.684952 -0.23540527 -0.021747055 0.13221814 0.23597047 0.022576194 -0.31553426 0.5769087 -0.46154997 0.019019336 -0.14754274 -0.28910908 -0.16830382 -0.47718978 0.23936403 0.25276423 -0.1007159 -0.13517845 0.06024042 0.4563792 0.001447785 0.50971943 -0.22884147 -0.06183925 -0.16413459 0.4488871 0.2260599 -0.19944885 -0.15903154 -0.0069379765 0.66695327 0.068436466 -0.50402397 0.0005432867 0.15369514 0.6895014 0.58571756 0.2035848 -0.28249714 -0.0011349389 0.17016903 -0.016863558 -0.05720412 -0.5327777 -0.40487444 -0.16339704 -0.002800439 0.74907446 0.16134973 0.12040086 0.28089485 -0.6715921 -0.1220174 0.123392425 0.37727553 -0.07389064 -0.06003039 -0.4282052 0.20377928 -0.9944297 0.28406802 -0.017826116
4961 0.062648565 0.04096848 0.5499615 -0.5427086 -0.112277575 0.18388551 -0.6132862 0.14484185 0.07873994 0.769006 0.72595286 -0.033434667 -0.30490264 -0.28799984 -0.4224192 0.47353366 0.08679279 0.29724124 0.43061757 0.47700214 0.28287232 0.3527725 -0.48478127 -0.058571123 -0.3717265 -0.1859948 -0.04294482 0.056216076 0.21077393 -0.29977602 0.24875827 -0.24737059 -0.4986878 0.7582716 -0.99312913 0.5612537 0.033366814 -0.042381227 0.39847797 0.37477726 -0.03346782 -0.06309316 -0.51046556 -0.45068106 -0.28057402 0.60537416 -0.24372745 -0.4710486 0.043186888 1.033626 -0.02542714 0.105792984 0.47457466 -0.76873994 -0.06121669 -0.0074465442 0.08648945 0.702676 -0.019357748 -0.7011854 -0.68602234 0.45000485 0.8576211 -0.22314174
4460 0.4480637 -0.2691718 0.48523697 -0.28997782 0.18926285 0.08785852 -0.24741945 -0.017898222 -1.0885539 0.48944682 0.55190325 0.28939152 0.0033930375 0.04042593 -0.0026481145 0.08241147 0.10814754 -0.047361594 0.60678 0.43890283 0.16211462 0.20507713 0.44169503 0.13227 0.12716275 0.16427678 -0.21007298 -0.5562402 -0.05325864 -0.34396076 0.17159966 0.36480308 -0.15081294 0.6383993 -0.39381996 0.24606462 -0.47000134 0.85738015 -0.57540464 -0.07078611 -0.4820199 0.08478489 0.31502354 0.12904248 0.5054369 -0.32874495 -0.2845632 -0.17396268 0.47245505 0.7794771 0.25241077 0.009149506 0.11643872 0.1179607 -0.39344975 -0.6991331 0.4268651 0.4225481 0.48297638 -0.15425853 0.45326442 -0.25860357 0.13072999 0.0902926
976 -0.25897697 0.84940314 0.47232735 0.037060615 -0.09889709 -0.17135495 -0.05141455 -0.9778003 -0.7745211 -0.43296957 1.0173483 0.30433533 0.11036513 -0.37245345 -0.22772606 0.80281246 -0.7346689 0.48171258 0.39740545 -0.39740232 0.4423991 0.2849299 -0.21064381 -0.36476386 0.47411585 -0.049665388 1.0932719 0.91568077 -0.8520457 -0.0185899 0.59347093 1.1112856 -0.5437104 -0.6289827 -0.7257506 0.1537202 0.016455187 1.1465245 0.25544947 0.5718295 -1.1513243 0.3950187 0.5773494 0.6983735 0.38569808 0.382088 0.64583075 0.3410003 0.87549376 0.8446064 0.54197997 -0.3991078 0.8924349 -0.15216745 -0.8108119 -0.7878495 -0.06685816 -0.5938799 -0.36425716 -0.8492741 0.38913858 0.2935298 0.13593133 0.43365842
8889 0.59785545 -0.4330008 0.45559448 -0.06843752 -0.57073754 0.46565753 -0.26502135 -0.05444852 -0.1761584 0.6172178 -0.3346144 -0.7963276 -0.102979556 -0.3465692 0.0111150695 -0.10559798 0.35473353 -0.15939608 -0.11632649 -0.41890472 0.25015578 0.16190775 0.10744467 0.54603344 0.09446815 0.2227683 0.090639725 0.67363095 -0.3870201 0.21899618 0.20856315 0.4891079 -0.2014388 0.48980296 -0.661831 0.22907044 -0.8627398 0.7991291 -0.05803238 0.19987209 -0.44314063 0.0051450036 0.68366265 0.37690705 -0.014812177 0.2753897 -0.31171083 -0.25557125 -0.36987123 0.040918093 0.7931338 0.19494224 0.26509547 -0.7779219 -0.17063616 0.018482829 0.120464 0.052973084 -0.06167678 -0.61608255 0.15909328 -0.16842853 0.05444279 -0.3508217
2027 0.43330485 -0.2547268 0.54643995 -0.39148888 0.19670157 -0.04178026 -0.33977175 -0.11451651 -0.935002 0.3044709 0.17326406 0.14946766 -0.09312673 -0.04714451 -0.102201015 -0.42740116 -0.07002042 0.21321423 0.7178191 0.31147423 0.12083626 -0.2399547 0.14851351 0.11835887 0.073743254 0.12931028 -0.14354943 -0.57823646 -0.12735936 -0.22128433 -0.10631994 0.1191252 -0.3577845 1.0952202 -0.34504366 0.25750792 -0.48494366 0.69160414 -0.18771964 -0.2865338 -0.22855227 -0.058255527 0.49393257 0.19339333 0.8780738 -0.41278917 -0.2614446 -0.09813964 0.4281522 1.0090024 0.29844886 -0.15822302 0.04658573 -0.041105773 -0.57860756 -0.4934446 0.3577754 0.73497105 0.6411042 -0.2210172 0.42743188 -0.24018666 0.17938603 0.15075248
930 0.4430185 -0.78992397 0.040210847 0.6536601 -0.3915733 0.70358145 0.43583483 -0.29280686 -0.67548484 0.5801359 -0.0033916838 -0.74546736 0.38735712 -0.51904356 0.15548728 -0.8800287 -0.2801617 -0.007348898 0.38037297 0.52295536 0.21465287 0.08283728 -0.295744 -0.6071815 0.95692307 -0.1995059 0.0040917136 -0.38539103 0.057444133 -0.41026703 0.16705102 0.3142136 0.53130263 0.59068173 -0.37012377 0.79006237 0.26399338 0.5946932 0.27140942 0.2419123 -0.03526113 0.7106462 0.44092813 0.111871354 0.51919127 0.9181681 0.08792577 -0.2064501 1.0974897 -0.22779842 -0.119496465 0.29833898 -0.4125943 -0.5650164 0.3086914 0.10152969 0.6030007 0.165087 -0.30531994 -0.20844585 -0.026645083 -0.3355239 0.1310142 0.15831035
2528 -0.4346428 -0.2318257 -0.26228383 -0.1236694 -0.19880088 1.0149411 0.34403855 -0.91197187 -0.62760186 1.0131652 -0.34509796 0.5617527 0.4920142 0.07566841 -0.013070246 -0.026486712 0.26678696 0.13161922 0.05030462 0.29631862 -0.37640533 0.38921624 -0.06362913 -0.14385977 -0.4977054 0.19361022 -0.15122336 0.32464358 0.2752245 -0.3652889 0.53145164 0.39804944 -0.46920568 -0.10480955 0.04068997 0.18481503 -0.8732693 0.4454852 -0.17592862 0.2952365 -0.49419928 0.35043898 0.430784 0.012241972 0.20401898 -0.18900907 -0.56619287 0.48795462 -0.053431544 0.68482465 1.0073739 -0.3333219 -0.5951074 -0.5791739 -0.20186478 -0.6466488 -0.5352641 0.2854993 -0.4926245 0.26059142 0.012104592 0.054840866 0.12014109 -0.0050111627
4749 0.24939987 -0.14189248 0.5110412 -0.31613737 0.50472564 0.1574218 -0.50205934 -0.058949787 -0.98551005 0.43858224 0.33180186 -0.04166589 -0.2363716 -0.03207152 0.040646624 -0.13140674 -0.1429887 0.07387135 0.6246318 0.50153214 0.29596505 -0.17061447 0.2929151 0.049227253 0.16854003 0.14203295 -0.28854182 -0.58401704 0.006226576 -0.017587919 -0.04291134 0.03606924 -0.3676625 1.0691563 -0.72939473 0.2004142 -0.27116102 0.8702715 -0.5333567 -0.23214222 -0.48559037 0.13138334 0.48620826 0.17313245 0.6506325 -0.45106992 -0.11700825 -0.08209761 0.3862457 0.8404039 0.2818872 -0.055685107 0.24145515 -0.010785648 -0.3045901 -0.65087044 0.45586705 0.75373137 0.6840041 -0.049435705 0.51856494 -0.3914965 0.0042741057 0.01776795
3399 -0.41023406 -0.40887222 0.36433974 -0.27437773 0.244777 0.57693154 -0.080569126 0.24621747 -0.4316269 0.2715574 0.3217914 -0.3943212 0.6043643 -0.35138622 -0.03538574 0.9375134 0.22436884 0.07855187 0.696263 0.94702816 0.085225046 -0.545713 -0.090216056 -0.05381543 -0.19511601 -1.2482046 0.0154147055 -0.07948509 0.6136028 0.68609023 0.17510764 0.818429 0.028320964 -0.2468137 -0.6574787 0.0019915302 -0.24859242 0.6747726 0.12568055 0.12098788 -0.16735177 -0.21550357 0.6429832 0.10940736 0.07355844 -0.0039648195 -0.19996604 -0.13401996 0.86890787 1.2387942 0.54556286 0.07600239 0.1307539 0.016295929 0.4100906 -0.5513425 0.41717035 1.2284544 -0.29191855 0.2149966 -0.5326988 0.0059128683 -0.31979215 0.36256707
1244 0.17529856 -1.141395 0.20988868 0.2176622 -0.23077902 0.35345906 -0.123672165 -0.8684585 -0.5922733 0.38613355 0.6675056 0.20014603 -0.8018922 -0.30170658 -0.41083142 -0.22345398 0.3883277 -0.28094757 0.030465584 0.6504531 0.15618859 0.5377962 -0.4526504 0.3901929 -0.17840523 -0.035743464 -0.41438606 0.054077785 -0.14082406 -0.09272772 0.34390983 0.42646164 0.3282749 0.9370831 0.009870266 -0.67390436 1.0652878 0.3913765 0.24868903 0.3467303 -0.58688194 -0.2719976 0.5010781 0.7092456 0.12090255 -0.17208645 0.683887 0.42808923 -0.08382515 -0.033809505 0.28722617 0.025948383 0.071377784 0.4920296 -0.16472596 -0.36654836 0.7716038 0.09321819 0.13980019 -0.2449756 0.16706258 -0.48616394 0.08034341 -0.33581397
2786 0.27388558 -1.0333583 0.6828188 -0.6027687 0.20249633 0.35122794 -0.1690643 -0.31622553 -0.5960086 -0.1277695 -0.026992787 0.6973791 0.22780606 -0.7073693 0.47155914 -0.56948864 0.06628298 -0.21352209 -0.27226692 -0.26715824 0.41303864 0.032804172 -0.11352233 0.43366218 0.29813826 -0.25504434 0.07883469 -0.12491118 -0.25510985 0.092392914 0.17305341 -0.12135888 0.19284578 -0.1271902 -0.37009096 0.31449154 -0.21698983 0.22528945 -0.22486484 -0.38144535 -0.74298763 0.5462869 0.539596 0.04682413 -0.11188459 -0.38222063 -0.5234811 0.3267384 0.12837122 0.33241782 0.051934555 -0.47910282 -0.30623817 0.39214352 0.5305109 -0.5767992 -1.1313827 0.22441593 -0.005833507 0.30716652 -0.022940962 0.27921668 0.75429535 -0.011175624
1442 -0.39703503 -0.32868084 0.8750211 -0.28783968 -0.07651531 1.046396 0.941535 -0.38760474 -0.68333954 0.5698729 -0.18791352 0.46923256 -0.1496514 0.02677737 -1.016758 0.6119223 -0.5694557 0.08684197 0.612836 0.4886715 0.6228206 0.47127923 0.24021156 0.23210658 0.77792054 0.06045109 0.5004704 0.20362456 0.3398548 -0.25078708 0.45842487 -0.33474135 -0.42658564 -0.054113675 -0.21659204 0.28935558 -0.8713876 0.30739093 0.5848702 0.7754823 -0.010433188 0.089280866 0.8715508 0.054795895 -0.29587984 -0.3186964 -0.30061036 1.2301084 0.06202243 -0.20572898 -0.09896616 -0.11022782 0.08635637 0.03243553 -0.6953684 -0.3753236 0.22085728 0.021421265 -0.0030503285 -0.59980774 0.3617954 0.31073108 0.77551156 0.09797747
1058 -0.15731283 -0.41863036 0.43554008 -0.41357082 0.41320992 0.9436647 0.07726672 0.37117493 -0.73570657 0.08794369 -0.17739342 -0.024935938 -0.6015325 -0.2346761 0.6585124 0.24176177 -0.5473409 0.08295685 0.11242926 0.62573636 0.09885899 0.26302958 -0.10012549 0.6249 -0.0001826325 -0.36171636 -0.066733405 0.001215715 -0.05226883 -0.13819335 0.3585187 0.7356323 0.03683161 -0.0011561258 -0.36883056 0.113401026 0.5848076 0.04503565 0.6104577 -0.07796646 -0.6185594 -0.7746029 0.8739103 -0.58105063 -0.8011491 -0.50611085 -0.570434 -0.27588472 0.4651068 1.1560487 0.71492034 -0.34269494 0.6676857 0.12679183 -0.0008694757 -0.3628257 0.6572775 -0.6512889 -0.08243709 0.53930444 0.0048869886 -0.2453977 -0.6099268 0.49352637
7280 0.2207956 -0.46201548 0.76148087 -0.37378073 0.15037288 -0.08172118 -0.49554256 0.014891297 -0.7648543 0.48368916 0.311892 0.19596566 -0.23840325 -0.16642882 -0.031185962 -0.0059367996 0.013009903 0.014376256 0.5846671 0.36424312 0.06943576 0.037765402 0.31154054 0.36167377 0.1681537 0.26616895 -0.23980781 -0.54092735 -0.10440546 -0.024421614 -0.12685628 0.018454626 -0.4319415 0.66419315 -0.4216921 0.35720393 -0.17917365 0.7033651 -0.34445035 -0.40804467 -0.6225931 0.09371967 0.47315428 0.09628707 0.5052294 -0.19559509 -0.40370983 -0.069795325 0.034153912 0.88580173 -0.08256201 -0.0012301275 0.19762643 0.20181237 -0.30794454 -0.43011978 0.6277847 0.3090461 0.6487494 0.1506935 0.64107424 -0.15408158 0.3263691 -0.107971676
6533 0.508267 -0.7580815 0.8823209 -0.43513954 -0.3624534 0.5150025 0.26244533 -0.41840887 0.004047633 0.80343133 0.21498372 -0.5004605 0.13421197 0.14873819 -0.30892742 -0.24556796 0.19658075 -0.23947904 -0.07593686 0.014138942 0.35038173 0.6676575 0.36534446 0.45897588 0.4272576 -0.3193266 0.10790716 0.0052139102 0.10562772 0.11993102 -0.4313282 0.002174194 0.45165455 0.83637303 -0.7450621 0.30008247 -0.12827034 0.33271033 -0.28319088 0.19599742 0.12658513 -0.11227813 0.18908986 -0.09192652 -0.61020535 0.41945714 -0.16360463 0.10260565 0.23903176 0.31635123 0.7159859 -0.11606741 -0.11465805 -0.10172915 0.5166201 0.21321009 -0.0007024535 0.07967397 -0.06827835 -0.5035717 -0.09321125 0.25637394 0.20924512 -0.6070023
7979 0.042733155 -0.17164403 0.64437467 -0.082305886 -0.38302606 0.19457059 -0.14318152 -0.07065409 0.11810895 0.51098657 -0.0812335 -0.122883186 -0.1051528 -0.1222211 -0.4951609 -0.45222571 0.31822717 0.0085231 0.10158093 -0.17315972 0.28272578 0.3550779 -0.26436076 0.46931574 0.15874225 0.0037789154 -0.04067751 0.21410994 0.16827773 0.44172984 0.2345585 0.2798651 0.4362795 0.15773913 -0.6150427 0.23286274 -0.06042004 0.6574615 0.08233043 0.047439158 -0.5529092 -0.060549635 0.21755123 0.323221 0.1490862 -0.2078881 -0.50666535 -0.20068988 -0.17386836 0.403327 0.54902357 0.18528187 0.045341913 -0.5088776 0.2530496 -0.0058537833 -0.000872601 0.076967135 0.0038473965 -0.6531375 0.37090543 -0.45127317 0.37976998 -0.38548243
6055 0.13069808 -0.20153902 0.7082434 -0.16980523 -0.15351099 0.040652435 0.024621172 -0.08750255 -0.37254676 0.60897356 -0.40570906 -0.03514835 -0.13606744 -0.23204143 -0.17970058 -0.53733 0.26880062 0.36655414 -0.06770705 -0.010915083 0.23280719 0.42606103 0.029694626 0.5318315 -0.2273796 0.19500677 -0.17850329 0.3092232 0.1420173 -0.13164124 -0.2777307 0.036340937 0.6584217 -0.030710297 -0.68091303 -0.05103254 0.26837212 0.65946174 0.52490234 0.26202536 -0.14435129 0.07294997 -0.0051994673 -0.052228022 -0.11816182 -0.44875887 -0.2275831 -0.09544111 -0.068073414 0.8417316 0.36919788 0.28968605 0.48759747 -0.7747892 0.0076752743 0.123219 0.37632155 0.05273612 0.1343979 -0.35001028 0.32417086 -0.95329547 0.20641053 0.05614168
3864 -1.0216879 -0.31434193 0.15415575 -0.029435325 -0.95496583 -0.099850714 -0.31979293 0.5838257 -1.6062405 1.8052952 0.46329492 0.83690816 1.2310913 0.62742966 -0.28662512 -1.3517927 -0.7953287 -0.35469243 -0.6205119 -1.1382838 -0.84153754 -0.06089745 -0.09660332 0.5295786 -0.26309422 -1.0032561 1.0582016 0.5680675 -0.14852814 0.90425944 -0.6795628 0.13529423 -0.293263 0.8267071 -0.5113571 0.86566 0.23474686 0.24323411 1.4187437 1.7940733 -0.47996122 0.9490111 1.4841259 0.4249985 -0.5037018 -0.33194366 -0.58958393 0.2525121 1.3165883 1.4692992 0.10107052 -1.3177776 -0.4757116 -0.8787715 -1.2448272 -0.8667374 0.45246962 0.06676945 0.21670808 0.32416022 0.14752091 -0.7383488 0.78491896 -0.7720969
742 -0.6932645 -0.34766582 1.4780266 -0.20799012 -0.4913741 0.0808318 0.6537542 -0.41123724 0.23448029 0.32978106 0.19239737 -0.09087209 -0.3717974 -0.3748014 0.17408124 0.0953663 -0.13654442 -0.12798417 -0.113544025 -0.6915799 -0.5284428 0.5881138 -0.79604065 -0.12246053 0.59919715 -0.0097719245 0.21325208 0.3570697 0.110010356 -0.47193062 0.30408964 0.0031309817 -0.64330524 0.37460855 -0.046922475 0.7136333 -0.3025483 0.28502935 0.30276364 -0.038733386 -0.11574955 0.89021933 0.12232898 0.33238986 0.1249285 -0.24384618 0.19401692 -0.2601897 -0.892057 0.060234275 0.26776883 -0.66734284 -0.08857507 -0.26633877 0.3785916 -0.6751221 0.48113528 0.5799908 -0.07008655 1.0935831 0.06543511 -0.0906903 -0.25110507 -0.33334574
2757 0.60482126 -0.33958888 -0.13162617 0.12507834 0.17762418 0.59305835 -0.43520933 0.112551376 -0.56936604 0.7321141 -0.43605265 -0.4843666 0.41179976 -0.9196405 -0.27866283 0.70722 0.18922798 0.30436724 -0.5592095 -0.3214131 0.3544186 0.7313634 -0.12650993 0.103792675 -0.09640671 -1.8666483 0.45985037 0.13533957 0.23595206 0.4789692 0.193892 1.3101397 0.25865442 -0.23713693 -0.8026072 -0.08525401 -0.7567352 -1.0908475 0.088736154 0.013215198 -1.0246186 0.45993033 0.094145134 0.38437584 0.52025884 0.005278576 -0.11897556 0.26230136 0.40999314 0.7480036 0.20551148 0.48724726 0.4016768 -0.2526232 0.20837305 0.042870943 0.5829734 0.9213713 0.2888433 -0.6186285 1.1982164 0.34743667 -0.080003425 0.06263739
260 -0.06877128 0.57403296 0.888486 0.6451814 0.3168076 0.14189522 0.030588752 -0.82620955 -0.89447343 -0.9022947 0.8295589 0.0029597704 -0.50285846 -0.7719261 -0.2806349 0.80257 -0.50078773 1.1458415 -0.15784213 -0.11034031 -0.04983017 0.27831212 -0.56092274 0.19678487 0.713407 -0.032411568 1.1861588 0.5727402 -0.55371535 0.14532185 0.48865634 0.68303823 -0.7547616 -0.36713004 -1.332825 0.25178945 -0.3353379 0.42059514 0.4237067 0.41709867 -0.9684997 0.58025175 0.49684814 0.29358524 0.23581117 -0.010430213 0.31266087 0.41253963 1.1874194 0.8472266 0.7165517 -0.9103027 0.9120119 0.40603635 -0.005866452 -0.61307484 0.22155531 -1.1386821 -0.3729556 -1.2709607 0.72977746 -0.30862615 0.41786772 0.12517962
3881 0.61644465 -0.05732101 0.77980053 -0.21342394 -0.23656192 0.31652838 0.24592704 0.024255103 -0.4133025 0.8274671 -0.38985988 -0.3675099 0.23340556 0.24454212 -0.01246878 -0.32599664 0.34243178 -0.08499228 -0.1634147 -0.27774137 -0.011605271 -0.05074998 -0.4055887 0.56116027 -0.04470779 -0.027539335 0.15566976 0.6126838 -0.23684493 0.044440318 0.4004441 0.49743748 -0.061445594 0.34237477 -0.83314824 0.16955267 -0.34872666 0.8127198 0.054795403 0.18949883 -0.7789071 -0.05102876 0.69345325 0.23441896 0.09268509 -0.09889581 0.20053709 -0.5374404 -0.35833257 -0.4458705 0.42281556 -0.134982 0.43298253 -0.64798987 0.001794328 0.017866775 -0.37060902 0.18554479 -0.19292945 -0.9354296 0.32739985 0.023159627 0.47027248 -0.18503705
744 -0.1406779 -0.5228723 1.0541952 -0.52279085 -0.44047636 -0.037675507 0.4318323 -0.87179977 0.6843035 0.4700517 0.17210835 -0.045558605 -0.66681474 -0.019630628 0.3457959 -0.3866974 0.029230006 0.06292904 -0.10063594 -0.56729686 0.016001366 0.15983474 -0.7409444 0.29259214 0.19971988 0.28172728 0.010881908 0.2225789 -0.38776228 -0.018881908 0.6210629 0.2252809 -0.46395397 0.46923935 -0.3525481 0.6495926 -0.033203382 0.17984395 0.3769679 -0.3265223 -0.34759396 0.69762117 0.25482294 0.46013108 0.0031199846 -0.19957288 -0.41331065 -0.2801814 -0.66083974 -0.10837555 0.1278256 -0.64607036 -0.08231127 0.04531445 0.3643858 -0.5523007 0.11749571 0.07344803 -0.3444612 0.91729987 0.20270409 0.0735582 0.06593526 -0.8015528
4372 -0.07215657 -1.1283249 1.551448 -0.16772602 -0.12049108 0.15536426 1.1204262 0.31798846 -0.4356485 -0.14913197 -0.18851091 -0.71128356 -0.25561112 -0.14967513 -0.21461628 -0.18054788 -0.30797717 -0.7295008 -0.5755763 -0.7729247 -0.58615553 0.6673894 -1.0231103 -0.7341129 0.49587092 -0.04362414 0.68141353 0.51715016 0.11311732 -0.584138 0.36458 0.0046915407 -0.6681224 -0.052610222 0.34730178 0.76404166 -0.062298127 0.26019558 0.3333587 0.86233574 -0.027309768 1.2650441 0.16359983 0.65633804 0.37281826 -0.4977042 -0.3134354 -0.3772722 -0.6935423 0.10819453 0.6296697 -0.7822664 0.2447267 -0.32898432 -0.13524227 -0.6038169 0.70209396 0.62790066 0.41614488 0.72390497 0.33664632 -0.98891526 -0.21020553 0.15641457
9336 0.24181902 0.14931582 0.22321662 0.40299746 -0.42354524 -0.02058961 0.03010054 -0.07669604 -0.4706338 0.28903493 -0.32955572 -0.2827017 -0.40339607 -0.4145723 -0.286441 -0.08547212 0.4667115 0.35293272 0.06733375 -0.74943733 -0.078436 0.3526827 -0.27903485 0.5363041 0.09076009 0.18451819 -0.4431635 0.89941823 0.04088996 -0.047720347 0.095221005 -0.110137835 0.09023678 0.70381373 -0.58186686 0.083965644 -0.14005323 0.5470087 0.014800222 0.26732445 -0.533782 -0.19119878 0.15779907 0.30332795 0.29646236 -0.0635532 -0.5117948 -0.46641973 -0.20858562 0.16480541 0.15656559 -0.61022264 0.23435281 -0.6900868 0.06262483 -0.1879617 -0.5426498 0.6452877 -0.46796343 -0.46140796 0.077107705 0.3156602 0.8568317 -0.022076037
3331 0.10006762 -0.304899 0.82606053 -0.46705985 -0.04223054 0.7491039 -0.57258624 -0.14613359 -0.53854406 0.5920711 0.26370278 0.39509434 0.15036562 0.37915343 0.14837687 0.37474442 0.26364833 0.08491121 0.36302984 -0.34858114 -0.32680002 0.01974627 0.1426312 -0.23088118 0.30556834 0.3422027 0.12858827 -0.35166463 0.2788987 -0.082489595 -0.028457452 -0.2769462 -0.44466108 0.37608027 -0.45608458 -0.22703922 0.47331637 0.42473263 -0.35717082 -0.34996596 -0.118389614 0.2106591 0.037491985 0.2670667 0.28006688 0.0040030954 -0.7475862 -0.16722524 0.048708968 0.8906866 -0.44458088 -0.19689813 0.18526572 0.099992044 0.03360261 -0.23075537 -0.05900144 0.471369 0.8997804 -0.12847206 0.6370896 -0.03890778 0.09049037 0.5066046
2463 -0.2733584 -0.5987197 0.18735099 0.36093628 0.025280273 0.46833047 0.032439627 -0.13111286 -0.5285678 0.007617375 0.9051743 0.2273745 0.3482375 0.17197272 0.32759282 -0.6896636 0.51885605 -0.39213 -0.44176972 0.10602212 0.16867484 0.6439234 0.17793249 0.004636096 0.117593735 0.027978571 -0.19823131 0.049333755 0.30485004 -0.94476575 1.0451468 0.88264894 -0.42754376 0.2757074 -0.59734684 -0.123124324 0.4296541 0.87264144 0.36093092 0.66950226 -0.6461592 -0.25492966 0.22775373 -0.018042466 -0.0030819525 0.31809172 0.22064817 0.4636933 0.27118307 0.11874486 -0.49742657 0.046686646 0.2770371 -1.0183585 -0.66209614 -0.6957379 1.0656346 0.4731963 -0.31086892 0.6439348 0.20561726 0.29443368 0.20113787 -0.1949157
1899 -0.102798305 -0.5020529 0.37150455 0.19980986 0.1729373 0.11105278 -0.08159169 0.0030326662 -0.66193986 0.6532191 0.58118623 0.22354762 -0.09988534 -0.37589413 0.19718976 -0.12102085 -0.24367428 0.22062148 -0.3560188 -0.2410833 -0.19436617 0.24338733 -0.2861522 0.2266042 0.16560425 -0.3185832 -0.8965866 0.06009176 -0.08432126 -0.86071223 0.40003756 0.4376661 0.059801456 -0.21944161 -0.1688541 0.16435502 -0.009712272 0.9352798 0.012807379 -0.07034225 -0.48277348 -0.22072524 0.31051308 -0.5763357 0.35495782 0.32872167 -0.36388236 0.4669827 0.42941087 -0.70238173 0.9250479 -0.016220449 0.10158426 -0.44727504 0.27986985 -0.8099263 -0.49323246 0.7282045 -0.19900255 0.39100745 0.005895613 -0.16382968 -0.055940237 -0.13291839
1341 -0.40613657 -0.848611 1.3416436 0.087573156 0.006450738 -0.047677424 0.97631294 -0.0648104 -0.27409896 0.07746493 -0.47669706 -0.4848058 -0.3151143 -0.3642727 0.11212955 -0.44378224 -0.30657685 -0.5893934 -0.2241414 -0.9233606 -0.90738565 0.50526774 -0.7697553 -0.64921796 0.6364946 -0.21146293 0.7269975 0.5717139 0.24277522 -0.5663486 0.34782332 -0.03096071 -0.92519087 0.2047145 0.21016014 0.65901226 -0.44925267 0.11484265 0.30600005 0.7800029 -0.18854527 1.0072064 -0.11755743 0.49774352 0.46045652 -0.38690385 -0.07317739 -0.13450849 -0.8468664 0.30441192 0.5951184 -0.690273 -0.23178296 -0.43128031 -0.019586977 -0.8131402 1.2805647 0.72979575 0.28014418 0.6575471 -0.061078236 -0.7672575 -0.12771289 0.19555137
7792 1.0342628 -0.33544323 0.8451737 0.10228518 -0.17175384 0.44103512 -0.3235513 -0.33593604 -0.22586928 0.45772666 0.25983572 0.37855017 0.29835913 -0.94453865 0.013824339 -0.48725465 -0.1609028 0.045899335 0.32554585 -0.61623365 0.21846631 0.77016973 -0.52510464 0.12048058 0.023553483 -0.091727674 0.42076555 -0.16684842 -0.7624828 0.31401488 0.6000003 -0.30712435 0.032474853 -0.24301304 -0.64539266 0.2509222 0.26248407 0.2166109 -0.15774038 -0.3006266 -0.66066927 0.6538967 0.53638005 -0.82241625 -0.020586953 0.022163851 0.18295209 0.13198131 -0.26580942 0.6645107 0.10548966 0.19545685 -0.20145683 0.20556873 0.38810357 -0.5042305 -0.18575263 0.071271785 0.50971264 0.96077543 -0.17127036 0.6568208 0.3108073 -0.40100658
5184 -0.51007557 -0.5528405 0.67697823 0.30770522 0.14011997 0.5325773 0.11934951 -0.11300539 -0.5171778 0.40668297 -0.38089332 -0.14311777 -0.0092549175 0.041769765 0.09021033 0.11936244 -0.19298804 -0.1456581 0.19781786 -0.16250052 0.53777343 -0.14778918 -0.062045135 -0.8288929 0.09274512 -0.3601473 -0.19484028 0.040194713 -0.58882344 0.4197106 0.3528196 0.7255617 -0.20898123 0.65936387 -0.39368397 0.23414148 -0.33654293 0.08563857 -0.40430027 -0.11012646 -0.06400974 -0.34046736 0.009895585 -0.31246302 -0.11040217 -0.053998593 -0.62486356 -0.17552297 -0.18038835 0.6630423 -0.6259737 -0.16201352 0.08525718 -0.26950446 0.42022145 -0.44200417 0.26903203 0.5930361 0.42063046 0.22303352 0.7825606 0.077825144 -0.20703653 -0.13443016
702 0.025881229 -0.08756759 0.7511304 0.22498804 0.12143048 0.28068548 -0.36922368 -0.89629877 -0.5853892 0.57048476 0.4247986 -0.84272164 -0.43411145 -0.26413408 0.075220115 0.2522192 0.013963296 0.16498561 -0.5908936 0.12733734 -0.051475152 1.1194257 0.46537843 0.788884 0.62560934 -0.69146687 -0.12633502 -0.08871017 -0.73107904 0.75196 0.48186505 0.3224464 0.15371242 0.73391587 0.44130307 -0.61809576 0.17651562 0.7976716 0.0076144375 0.6834706 0.02774391 -0.3105051 0.09734655 0.18939722 -0.7753032 0.44707134 0.18172455 -0.24916272 0.131591 0.61887574 0.45053673 -0.45004883 0.25208598 -0.1274716 0.52476084 -0.5610417 0.54644346 0.2585387 -0.41324145 0.15652595 0.1556299 0.0797744 0.34829566 0.060898557
3123 0.71991193 -0.38614535 0.792217 0.09027394 -0.20195772 0.4708158 -0.3606667 0.022973306 -0.026055392 0.28396618 0.3311943 0.46307838 0.098104864 -0.5181332 0.30939642 -0.7047209 -0.019731222 0.25145942 0.3134142 -0.49510324 0.5777301 0.79268336 -0.5651562 0.4490166 0.31104225 -0.20883985 0.060832325 0.0098764645 -1.0269103 0.30739406 0.6340279 -0.6908342 -0.11305335 -0.4394347 -0.5104003 0.49622107 0.20868844 0.144765 0.10968162 -0.37980336 -0.53918284 0.5399548 0.5471174 -0.777472 0.0576078 0.022846423 -0.12501398 -0.08003296 -0.1555527 0.62565583 0.040448584 0.38229913 -0.3231371 0.18476984 0.5154271 -0.8381214 0.16003692 0.23676282 0.31640562 0.98300457 0.10420951 0.86549366 0.24227405 -0.23980163
4260 -0.16806273 -0.1502972 0.45820445 0.028689992 -0.098293826 -0.18838751 -0.11554178 -0.4361835 -1.1350919 1.1165663 -0.7347387 -0.63890356 0.122230634 0.023571689 -0.23442231 0.7278248 0.24750665 1.4016064 0.607701 -0.5611693 0.22285831 0.308963 0.75046724 0.1150359 0.21371025 -0.30852318 -0.9201511 0.626744 -0.3024858 -0.5759645 1.0084434 0.15829073 -0.07965191 0.0608976 0.06544736 1.0002872 1.5333091 0.680749 0.25095758 0.7468934 0.4372224 1.0022882 -0.0506793 0.38221362 -0.3573572 -0.7254628 -0.040701557 0.63186276 0.4974571 0.06849392 1.1365385 -0.28126287 0.55535907 -0.11563285 0.99528867 -0.40322182 -0.34555972 0.43009236 0.516296 -0.43330833 0.13633047 0.6293819 -0.33883423 -0.1253441
5828 -0.16534366 -0.24355242 1.4042822 0.17876798 -0.15677488 0.14122306 0.052331474 -0.15338607 -0.56240666 0.21918876 0.11011153 0.114372805 0.4361315 -1.0117456 0.053165596 0.2280379 -0.6659832 -0.26488853 0.38756832 -0.4108828 -0.37871718 0.9205344 -0.3025703 0.6257457 -0.33364078 0.40585506 0.2700477 0.502494 -0.3241819 0.0066641397 0.2466613 -0.12405976 -0.2461569 -0.088248685 -0.45251936 0.53077835 0.10838377 0.41044843 0.0029592663 -0.6251355 -0.62510777 0.389042 0.29982755 -1.148186 -0.21494396 -0.4906793 0.38169035 -0.4582886 0.031862278 0.4973879 0.20177095 0.05407398 -0.28511426 -0.2055405 0.13030598 0.2825994 0.25582543 0.42234612 0.53309447 0.88468736 0.60107505 0.90054893 0.15690222 -0.024159594
2746 0.32561794 -0.17563714 1.2705005 -0.040778663 0.053576525 0.77048886 0.7493335 0.05678824 -0.4280287 0.457014 -0.29216218 0.13978411 -0.043128 0.3258998 0.056129064 -0.38748804 -0.029164381 -0.081405595 -0.0855255 0.3016123 0.23335636 0.3783101 -0.027224308 0.37900612 -0.32080284 -0.5753087 -0.4366103 0.42115486 0.041135505 -0.0011133765 0.12458866 0.31215382 0.17451751 -0.12483915 -0.56389093 0.22224201 -0.07323283 0.50593597 0.42393845 -0.27033904 -0.22230183 -0.29836768 -0.012215614 -0.47679916 0.4571605 -0.7281066 -0.4365158 -0.54236877 0.7205777 0.084887534 0.36001962 0.24954712 0.52193743 -0.6548247 0.101576574 -0.5904982 0.39352772 -0.24548468 0.083331436 -0.27184123 0.123921774 -0.48607343 0.32576874 0.034550294
820 -0.1054321 -0.7263169 0.46885976 -0.036577687 0.27956045 0.12622043 -0.057128116 -0.09595396 -0.51199883 0.48193374 0.99369806 0.3562304 0.10626164 -0.31081066 -0.04556625 0.04821997 -0.46302605 0.3836254 0.23174259 -0.22438419 -0.23632713 0.4480452 -0.34020287 0.37944758 -0.26478088 -0.49988493 -0.93025565 0.24120943 -0.2956476 -0.7329036 0.3301508 0.08632772 0.23272026 -0.32058185 -0.18024929 0.42376232 0.028465578 1.2355517 0.062164564 -0.19734631 -0.06145845 -0.19237891 0.51692873 -0.45311874 0.49137902 0.41618568 -0.08121351 0.74602187 0.02011648 -0.17310889 1.0287138 0.38246182 0.68552834 -0.21031627 0.21216449 -0.45997924 -0.30847126 0.20894271 0.20904875 0.24920227 0.0639867 -0.15441877 0.23384182 0.18258363
9449 -0.28009877 -0.6636725 0.7088556 -0.28774878 -0.056681402 0.92584825 -0.4829068 -0.1750351 -0.5985442 0.5367917 -0.034738064 0.28520152 0.18313442 0.11144462 0.20526654 0.46460888 -0.04906539 -0.23915267 0.12905712 -0.35906228 -0.09131536 -0.14359257 -0.21210758 -0.2688432 0.31013653 0.26570973 -0.122538194 -0.18875353 -0.25162315 -0.22937112 0.31490177 -2.0765217e-05 -0.49719074 0.3303504 -0.81704503 -0.37840545 0.15919545 0.0639499 -0.45316416 0.20911375 0.19090207 0.063454814 0.046104863 0.02744159 0.3764735 0.100883275 -1.1486977 -0.43655455 0.15877126 0.7482825 -0.3023289 -0.04584237 -0.05307147 -0.049040854 0.4213507 -0.4568541 0.069820836 0.26133883 0.7967215 0.068059646 1.0832053 -0.2829373 -0.007838242 0.17845918
8086 0.43125972 -0.17087212 0.19511396 0.1351737 -0.3735687 0.32656825 -0.62666905 0.19409908 0.081947975 0.4574083 -0.2775378 -0.29676905 -0.3724662 -0.41535544 -0.10113846 -0.14821367 -0.011926702 0.14509436 0.5513181 -0.3141265 -0.25514218 0.35424355 -1.0697314 -0.1341759 -0.12446282 0.16864891 -0.3169975 0.17126319 -0.022486199 0.24001534 -0.2833452 -0.118771255 -0.40700245 0.29066718 -0.57608885 0.32176685 -0.07387187 1.1679381 0.4025764 0.30453467 -0.5541778 -0.13000752 0.10482918 0.22129124 -0.3375664 0.030792888 -0.5265333 -0.28600147 0.24098948 0.34141374 -0.17387834 -0.027050374 0.17357302 -0.45469895 0.22805354 0.5880467 0.15347269 0.6133847 -0.40403882 -0.76365477 0.23312481 -0.30023894 0.8166885 0.029668014
3992 0.2672417 -1.4330188 0.60035074 -0.5093036 -0.08658599 0.10256131 -0.35272795 0.14855841 -0.81452876 0.8215795 0.44047558 -0.08026792 -0.4783536 -0.007064989 0.20164253 0.3534557 0.9088344 0.4432865 0.07913196 0.016029933 0.39831924 0.16680166 0.15980014 -0.066100955 -0.09669183 0.17454892 0.022401735 0.21265587 -0.018989643 0.13382787 -0.14026907 0.41045764 -0.56309193 0.097583935 0.13357477 0.5097403 -0.29652166 0.78483605 0.15630898 -0.16794263 -1.1632367 -0.2930227 -0.096261986 -0.25150147 -0.18735312 -0.8688827 -0.6760716 0.23902816 -0.16644606 0.59568405 0.41354033 0.49204814 0.1581674 0.15259023 -0.29798418 -0.37162003 0.70990366 -0.18900743 0.30111822 0.026475625 0.5588486 -0.34649786 0.6173792 -0.54193294
633 -0.24563086 0.022476636 1.6288533 -0.29715946 -0.50975144 -0.25577575 0.5459971 -0.49723026 0.5384857 0.46735784 0.28183973 -0.09204989 -0.22526203 -0.42821917 0.2101507 0.14848188 -0.27330488 -0.34091088 0.1632231 -0.5774221 -0.29034898 0.6156396 -0.48084286 0.24226847 0.32927358 0.23041715 0.14526196 0.090778716 0.11396505 0.09199685 0.45868942 0.7354908 -0.72790504 0.9183022 -0.22084995 0.85505134 -0.3037277 0.47619343 0.3741807 -0.30952784 0.1361683 1.0218153 0.6757132 0.3055296 0.0037895914 -0.29496273 0.20991223 0.07688777 -0.4949799 0.09900748 0.3047966 -0.8311961 -0.15810889 -0.057458676 0.6646541 -0.5231867 0.28344694 0.4331746 -0.45070732 0.7009745 -0.24558042 0.28160232 -0.100943215 -0.6162212
7071 -0.50610536 -0.7660935 0.33228725 0.067816675 0.23958763 -0.120064825 -0.20054786 -0.8261917 -0.1852167 0.9017729 -0.22571921 -0.059960075 -0.52309865 -0.23021439 -0.4652518 -0.8141226 0.8046054 0.24380878 0.317054 0.17326525 0.49484104 0.30111232 -0.042161305 0.8053455 0.21592718 0.2485638 -0.100114785 0.35391852 0.58836675 0.21050079 0.22369711 -0.37680805 0.3803045 -0.07095243 -0.97424 0.051034477 0.75848746 0.76558274 0.12002217 0.44469833 -0.1710335 0.5045235 -0.06690488 -0.1433452 -0.45763236 -0.22117344 0.06538362 0.22203672 0.116743065 -0.08382634 0.36144322 -0.16213602 0.166801 -0.19482045 0.34382325 0.11036833 0.32752815 0.49349552 -0.0621723 -0.34285313 0.13412403 -0.5266511 0.45942518 -0.21507938
4777 -0.517888 -0.62070554 0.25691217 -0.23428759 0.3312823 -0.3498915 0.24558544 -0.47383854 -1.0711215 0.74613005 -0.08301448 -0.30968267 -0.47415605 0.28458542 -0.002032465 -0.39399037 0.1282296 0.77636147 0.80655706 0.4284963 0.64606345 -0.31512436 0.60498554 0.4899239 0.3802419 -0.40061018 -0.3600449 0.93997604 -0.12839477 0.18257049 0.4307702 -0.34602454 0.4469772 -0.098627545 -0.16584381 0.9304562 1.10774 -0.06833121 0.5535865 0.6575082 0.04783797 0.53796405 -0.055680607 0.05334174 -0.07068019 -0.14449356 -0.16790745 0.059648134 0.5151897 0.017719887 -0.20368735 -0.9836133 -0.16230755 -0.19495186 0.6793477 -0.32036388 0.12119828 0.68946564 -0.45189655 -0.5214911 -0.013031961 0.27698132 0.19016768 -0.42477518
7630 0.27614078 -0.6042908 0.7441444 0.16233842 -0.06896264 0.19194455 -0.25374356 -0.23489839 -0.46391475 0.29042983 0.11759683 0.49948478 -0.2672571 -0.79666746 0.4102964 -0.25857115 0.08058181 0.32017347 0.23195228 0.10718451 0.04064382 0.28150398 -0.17107396 0.65537846 0.095054366 -0.26334217 -0.24799064 -0.3999593 -0.30195242 0.08968828 -0.091304176 -0.5183626 -0.1396389 0.11469697 -0.32760283 0.47732824 0.126306 0.50816303 0.12541719 -0.36516076 -0.3658955 0.21082053 0.5394095 -0.53693455 0.48118186 0.33335152 -0.11361699 -0.043474887 -0.23573866 0.7024592 -0.22640096 -0.21255153 0.11302849 0.16938125 0.19365233 -0.49355012 0.1154558 -0.4326215 0.32257414 0.4710165 0.7065728 0.57997394 0.16043884 -0.11146288
5945 -0.13883875 -0.46947932 0.56296736 0.1908805 -0.12568022 0.9225243 -0.60880136 -0.060729753 -0.17282161 0.2799137 0.4479864 0.81607497 0.20580302 -0.58397275 0.5395943 -0.03390075 -0.14615464 -0.800572 0.80047375 -0.7437121 0.11644988 -0.127472 -0.022004327 0.7135044 0.2501326 0.28681022 0.14237541 -0.1256208 -0.3485688 0.14166284 0.593804 0.060779765 -0.08680072 0.22326992 -0.6619243 -0.31361338 -0.11032355 0.37541744 -0.03456005 0.1893164 0.08535749 0.20407358 -0.053632025 -0.1592196 0.1172158 -0.14998138 -0.5958283 0.37511215 0.33485982 0.38753077 -0.48455396 -0.010778583 -0.3685936 0.17198679 0.061766468 -0.21275744 -0.2870912 0.3775047 0.21467976 0.090402275 0.04799717 0.30781594 0.13274667 0.58928955
4781 -0.32147977 -0.80671674 0.3934442 0.31325242 0.13188857 0.5252625 -0.029468276 -0.047734596 -0.3310386 0.31083083 -0.029799232 0.81645703 0.6695025 -0.6381566 -0.07808471 -0.08805597 0.1447736 0.15702434 0.034438163 -0.21447341 0.56323975 -0.22381657 -0.48761886 1.0248756 -0.26727834 0.1714862 -0.37773883 -0.20661472 0.67024666 -0.3376927 0.5765545 -0.05961879 -0.51061195 0.7264545 -0.61931086 0.07405815 0.08296339 0.2839769 -0.20291896 0.41293567 0.26583734 0.9279129 0.48226133 -0.2678754 -0.29354456 -0.02681368 -0.20025706 -0.18427052 0.112393506 0.5009795 -0.58507705 -0.8486502 0.5598573 -0.68748486 0.10604825 0.2678883 0.15660045 -0.27846542 0.016001126 -0.67341185 -0.2417673 0.4139297 -1.0466511 0.35779697
8809 0.34114155 -0.09346671 0.3287786 -0.45481157 0.25996995 0.059437852 -0.49341723 -0.069554664 -0.55760646 0.23850544 0.27907705 0.10597706 -0.21246995 0.0941502 0.011242456 -0.047399234 -0.054875042 0.15803322 0.21784855 -0.1381521 0.41052702 -0.18396564 0.36246145 0.07931193 0.24381445 -0.0595162 -0.48864275 -0.07408823 0.28963578 0.008719353 0.14591669 -0.3201204 -0.38902822 1.3401818 -0.30473742 0.26162326 -0.35797265 0.84369683 -0.25466093 -0.11037747 -0.5984018 -0.053387266 0.2766807 0.073618814 0.91120434 -0.73958164 0.26808605 -0.4035811 0.72828764 0.8031209 0.377699 -0.13336506 0.26549727 0.19645616 -0.32763514 -0.63347495 0.3167189 0.69638836 0.67472714 -0.40128875 0.26508954 -0.4281684 0.4508391 -0.11090829
5489 -0.93042207 -0.9475427 -0.7894641 -0.4024954 0.308187 0.8128371 0.0031919968 -0.09355538 -0.34343582 -0.32971042 0.9757669 -0.031881653 0.25995648 -1.0924206 0.39262053 0.36703843 0.9435898 -0.36009207 -0.007018855 0.24485563 -0.34159032 0.37348768 -0.5211893 1.2260996 1.0276626 -1.1990868 0.6349348 -0.71706825 0.6741496 0.91915107 1.5524073 0.08417407 0.07768089 0.85129243 -0.1335141 -0.6811337 0.021297473 0.42705023 0.6391552 0.18856359 -0.22232847 0.09117274 0.8318588 -0.23602444 0.35962015 -1.2479125 0.040394053 0.55442196 -0.39963344 0.6173454 0.25732225 0.030460166 0.778512 -0.6455274 0.18848638 0.17492917 0.22380033 0.48965755 -0.4475937 0.07740874 -0.14200057 0.30758297 0.20546658 0.80564415
7796 0.3858542 -0.17504984 0.3443395 -0.35877034 -0.4495695 0.1555291 -0.43154556 0.24386613 0.058993626 0.43116665 0.34028596 -0.11085166 -0.44026205 -0.2823243 -0.6233021 -0.13218845 0.112502486 0.34146208 0.40442985 0.0068694367 0.29425222 0.3847507 -0.72593945 -0.21957822 0.082361504 0.23843223 -0.36205965 0.40604237 0.1994036 0.14439605 -0.4913139 0.21761213 -0.07267965 0.57582754 -0.47717613 0.5931665 -0.041712005 0.5169801 0.20673169 0.26216677 0.030013412 -0.059604134 -0.4800756 -0.20378028 0.016259683 -0.07996412 -0.38231984 -0.31805438 -0.3734547 0.527252 0.09671529 -0.081159174 0.29948008 -0.79051757 0.06986187 -0.022034017 0.0009856638 0.67951757 0.1665287 -0.9433966 -0.17544591 -0.020112135 0.6897551 0.17505516
2877 -0.21295287 -0.5588812 0.3894347 -0.5590617 0.23100685 0.47234973 -0.44767064 0.042246845 -1.4499569 0.19884609 0.755131 0.529977 -0.09126599 0.16218065 0.28661537 0.8767112 0.49409693 -0.07199435 -0.39440545 -0.21846466 0.62478095 0.43071908 -0.5039587 -0.09951022 -0.03548117 -0.38813248 -0.15162107 0.21929075 0.47646275 -0.10774713 0.5022898 -0.22546123 -0.6792358 1.3077747 -0.055821765 0.31550565 0.16410373 0.7223992 -0.30842462 -0.29393324 -0.47679338 -0.008394323 -0.62799144 0.75130683 0.4017104 -0.24628173 0.5862539 -1.1466193 0.78171474 0.5809637 0.7977689 -0.8596963 -0.65974635 0.15449937 -0.55168664 -0.4470139 0.5035711 -0.18629406 1.1128439 -0.46428284 0.65896165 0.047407858 0.111560956 -0.009715544
1905 0.10156422 0.24772772 1.119549 -0.030899124 0.004094902 -0.021992529 0.31728938 -0.59138036 -0.44285905 0.13010387 -0.1716733 0.169339 -0.2722182 0.09633431 0.34350124 -0.16561946 0.33974886 -0.39031336 0.4812378 0.22984073 0.067473486 0.5651247 -0.485326 0.27110663 -0.35904709 -0.9103948 -0.08844273 0.31106076 -0.15476424 -0.3899071 0.47069854 -0.28133973 -0.09651923 0.17116973 -0.6510737 -0.07699582 0.08278284 0.22650751 -0.28683993 -0.011875215 -0.33055678 -0.7253177 0.31136718 0.43073922 -0.31579834 -0.40107423 -0.6087346 0.3121292 0.19537663 0.81654626 -0.07891283 0.18831831 0.6344244 -0.8421754 -0.03634219 -0.060228616 0.14168476 0.53594136 -0.31053168 -0.49386248 -0.580841 0.18543418 0.21642888 0.34124452
6045 0.3221703 -0.17933585 0.4416192 -0.25941882 -0.18187465 0.7316019 0.024566019 0.22786966 0.10716041 0.8405208 -0.21869032 -0.5029148 -0.073958166 0.03193631 0.25351736 -0.18882863 0.2932701 -0.035970815 0.0040517137 -0.3145639 -0.21198966 -0.056496292 -0.47927892 0.7253274 -0.25886545 -0.014019642 0.07344132 0.5148745 -0.33173665 0.38114876 0.32782772 0.1833624 -0.29120302 0.6906058 -0.8061179 0.21847011 -0.6294417 0.94939756 0.080489 -0.037486408 -0.57355314 0.01836567 0.49294573 0.09238338 0.046962075 0.14617965 0.04325291 -0.26495978 -0.5065106 -0.13670146 0.7801816 0.3528778 0.39705643 -0.725381 -0.2818744 0.17882732 -0.02562559 0.21387981 0.1925984 -0.75238657 -0.027874334 -0.22212961 0.4312127 0.007998968
2682 -0.20609076 -0.30038184 1.2083915 0.75052524 0.030297149 0.4029848 0.065078124 -0.05772571 -0.56539327 -0.21123315 -0.18480232 -0.89148915 -0.38597658 -0.20857064 0.5578799 -0.12545109 -0.070951745 0.10427899 -0.33818218 0.10914872 0.34611726 0.36283013 -0.27168304 -0.5721676 0.35443395 -0.19562207 0.045748755 -0.2367706 -0.4762765 0.029213624 0.43793163 0.5866553 -0.58557063 0.3657676 -0.3187607 0.32346803 -0.2521756 0.32191288 -0.450683 0.097853586 -0.085383266 -0.11969232 -0.041238107 -0.1548606 -0.13905014 0.20574197 -0.49169227 -0.015136004 0.15664582 0.27597374 0.15558505 0.101225294 0.10713938 -0.5326045 -0.17323974 -0.27395958 0.1710811 1.2644881 0.06279917 0.17999089 1.0235226 -0.29955447 -0.12823027 -0.1466501
3940 1.2401769 -0.1191065 0.92088 0.6062141 1.061631 1.2427384 -1.658017 -0.62856257 0.22255573 0.3663001 0.9121685 -0.69387704 0.9836144 -0.06541579 0.5575223 -0.14775224 0.39427018 -0.24655941 0.3356845 0.076519705 1.5407025 1.7446395 -0.54818827 -0.90767944 0.6175832 -0.71323603 0.743483 1.3431388 0.24258453 1.7189622 0.004538183 0.29358965 -1.0837992 -0.10165854 -1.0236123 0.902947 0.064525604 0.44854593 1.1567779 0.04755009 -0.5261642 0.9539742 -1.3292481 -0.08196094 -0.61474097 -0.295284 -1.1486834 -0.0026520826 -0.18348801 -0.58814496 1.1260372 -1.5309932 1.0089785 0.030886581 0.20038855 -0.31367865 0.63037384 -0.09722556 0.6677162 -0.59357995 -0.5278363 1.3380656 -0.6130975 0.5800438
136 0.20095684 -0.48133603 0.73499787 -0.592406 0.06972497 1.3243399 -0.010198107 0.56096506 -0.46214682 1.3609977 0.10076089 -0.5914397 0.5673523 0.601974 0.9081793 -0.41951257 0.4649164 -0.17947905 -0.24636279 -0.32533255 0.739372 -0.068721116 -0.09792555 0.7835237 -0.47479713 -0.05413781 0.32951158 0.8485912 -0.2771582 0.23695554 -0.21700974 0.03002193 -0.51240885 0.45597908 -0.70772284 -0.32755557 -0.73346835 1.2386229 0.5099826 0.2075447 -1.2357256 0.77717817 -0.19139802 0.45959795 -0.0012249311 0.22336937 1.1697956 -0.20314792 -0.7108406 -0.48912555 0.995225 -0.48034286 1.4029928 -1.266372 -0.10171714 -0.3264785 -0.22479834 0.34218666 -0.07675773 -0.9521017 0.64742744 -0.5510484 0.36759633 0.15431151
6939 0.5033975 -0.34668744 0.5806642 -0.13170141 0.37020066 0.20388077 -0.09481689 -0.23381092 -0.36308667 0.7439679 0.357681 0.48060563 0.5773164 -0.7199901 0.120741904 -0.6654852 -0.3671372 -0.10063194 -0.36407965 -0.43742612 0.4206438 0.52934885 0.019313578 -0.148879 -0.17086811 -0.538918 0.12097095 -0.05392002 -0.28007275 0.24907109 0.42107177 -0.18255478 -0.0021965578 0.033204153 -0.17782782 -0.1687975 -0.09249516 -0.017683132 0.21714479 -0.29948434 -0.7638924 0.25290325 0.95138067 0.03141314 -0.24953786 -0.9015421 -0.23449185 0.30770966 -0.06844526 0.75601935 0.20621866 -0.535708 -0.63913697 0.28318414 0.1563107 -0.41869247 -0.6110634 0.21535592 0.44141918 0.5800913 0.3235631 0.68074375 0.91124755 0.028418716
885 0.025603948 -0.139189 0.3772486 0.5330681 0.16070417 0.7789751 -0.9669861 0.44838074 0.22104144 0.50796884 -1.2054965 0.37471408 0.35152915 -0.03923954 0.35771543 1.4860927 -0.527474 0.8645798 -0.60598624 -1.6198575 -0.36126083 0.99367034 -0.4486907 0.73449147 0.7558685 -0.066834144 1.5860795 1.4831717 -1.4245678 0.255206 -0.29477522 0.17753106 -0.9077785 0.61709684 -0.5068665 0.56014127 1.0273514 0.101441324 0.25151134 -0.6314504 -0.2572636 0.6179252 0.38329133 0.36636543 0.48729664 -1.2537955 0.33856925 1.9735018 1.4940107 1.689902 0.08388613 -0.6399902 0.42422622 -0.19220535 -0.36897814 0.3847157 -0.751797 0.71498334 -1.0015279 0.006486052 0.4388427 0.18331672 0.18183239 -0.59309673
632 -0.5750203 0.2390722 0.7387008 0.0005839178 -0.03252853 -0.12930092 0.06798187 -0.75601363 -0.50153536 -0.63992864 0.9129929 0.6363126 -0.101055555 -0.85091376 -0.0031265733 0.4879135 -0.13459027 0.59494674 0.22137657 -0.29406914 0.011998746 0.08404269 -0.26262254 0.27136037 0.40521213 -0.2896965 1.127034 0.7149156 -0.84660333 -0.44292688 0.65769756 1.0878527 -0.27418 -0.6523704 -1.4789859 0.25033247 -0.2662505 0.34438998 0.3093365 0.7029943 -0.6895272 0.20206185 0.46027377 0.18591605 0.78503084 0.19033858 0.35929477 0.2891975 1.2489054 0.59320164 0.52434385 -1.0879747 0.8542511 0.7399359 -0.068351954 -0.56296766 0.43286046 -0.45982134 -0.4498562 -0.67327154 0.51076734 -0.07725864 0.32842198 0.25741982
2060 0.7749785 -0.242961 0.3650702 -0.11422288 -0.40972167 0.18284668 -0.4106371 -0.09856854 -0.99518794 0.5661028 -0.62861115 -0.3505211 -0.3805856 -0.16831692 0.062246352 -0.20750684 0.23711133 0.14256726 -0.24186759 -0.4946113 0.8268757 -0.41588944 -0.06390358 0.6732318 -0.15311284 0.646591 -0.329844 0.41025576 -0.18178934 -0.43664598 -0.34200925 0.51520383 -0.65861875 0.32818767 -0.34550777 0.34297922 -0.70220333 0.7575943 0.28405958 -0.07208509 -0.23051344 -0.21147142 0.25203615 0.22846267 0.42145193 -0.20845975 -0.5004047 -0.23433606 -0.082945324 0.548587 0.7661686 -0.30833125 0.54576844 -0.5645227 -0.29930857 0.22135308 0.633127 0.14569785 0.039614834 0.10814149 0.19619443 -0.038257483 0.23911063 -0.37558952
7433 0.11048289 -0.2783727 0.27148923 0.26273394 -0.44098806 0.6169462 -0.14884692 0.033748675 -0.13492493 0.54069257 0.20453584 -0.32329935 -0.22069138 -0.07872284 -0.37950084 0.16788414 0.20924185 0.10283769 0.36198947 0.0669337 0.09253397 0.43387392 -0.5019964 -0.25279585 -0.58875066 -0.25163394 -0.31848693 -0.11769503 -0.08924992 -0.31521565 0.011434846 -0.26905578 -0.5016874 0.58818203 -1.071292 0.061657507 0.32190695 -0.16964388 0.23724864 0.37242496 -0.5670654 -0.28707352 -0.004282823 0.19349849 -0.06846224 0.3466229 -0.5781073 -0.43409678 -0.026472932 0.54822135 0.057849742 0.0055974172 0.6067885 -0.4418348 0.35851845 -0.0934055 -0.28627506 0.7824625 -0.45367086 -0.6631415 -0.6334706 0.3943557 0.6662953 0.20345098
5771 -0.09551756 -0.4683003 0.92184716 -0.47677124 -0.07268181 0.910661 -0.4921907 0.092870966 -0.5112549 0.6247142 0.22652768 0.62597954 0.4892104 0.20889837 0.25198883 0.45959386 -0.1570369 -0.17235924 0.59076846 -0.23461123 -0.17483655 0.25098857 -0.14531144 0.11537266 0.68725 0.49054527 -0.112236746 -0.10391363 0.03560595 -0.2000904 0.52872986 -0.14641356 -0.4242267 0.5896738 -0.7185885 -0.47672722 0.016442457 0.40464884 -0.15185294 0.42482033 0.3251928 0.23960437 -0.053907327 0.118126616 0.2332209 -0.05823787 -0.9463526 0.2338555 -0.020805463 0.38551092 -0.58547544 -0.016258502 -0.2038859 0.1870957 0.19069022 -0.1836074 -0.03208914 0.32811192 0.6208564 0.023271898 0.84837323 0.038509067 0.045179743 0.6381165
3242 -0.35718244 0.20048045 -0.004861908 -0.064370826 -0.4547186 -0.02319047 -0.13508812 -0.10080701 -1.3704301 0.7003126 -0.83427495 -0.6038422 0.19113001 -0.0526199 -0.1706108 0.50283873 0.45379305 0.971926 0.8896991 -0.30790251 0.3056001 0.44426203 -0.07144913 -0.030822588 -0.39185506 -0.08043222 -0.5899614 0.6631442 -0.21697403 -0.49615115 1.6242518 0.024531707 0.12870055 -0.004474892 -0.68936527 1.3119606 1.3690914 0.09232199 -0.05085201 1.0001668 0.08926733 0.87225217 0.34004733 0.27722052 -0.7860062 -0.6850282 -0.058755837 0.75230145 -0.44346157 0.6621795 0.73789334 -0.487704 0.5263763 0.1517329 1.0717617 -0.56011117 -0.60695225 0.61779493 0.1159441 -1.0023887 -0.22908346 0.3070627 0.054218344 -0.05669575
269 0.36975574 -0.20560311 0.11300549 0.3611807 -0.39805788 0.5130431 0.12009921 0.032692064 -0.43826148 0.7552484 -0.25700682 -0.5681687 0.09775885 0.01703025 -0.05871879 -0.031145344 0.15182185 0.22613585 0.40384477 0.22091104 -0.031831056 0.31587 -0.36279526 0.20529899 -0.39135584 0.13821065 -0.67347294 0.45657554 -0.10893502 0.39509842 -0.013052116 0.076664545 -0.7031772 0.65035826 -1.3997241 0.34319478 0.38730487 0.011304997 0.046229236 0.4538798 -0.13237894 -0.03598128 0.5643169 0.25605384 -0.5069191 0.19567993 -0.08023788 -0.35009667 -0.19361836 0.41671926 0.36200592 -0.3836578 0.5156331 -0.13075551 0.4749251 0.033791557 -0.50952667 0.8700923 -0.49472183 -0.70034254 -0.33296555 0.44516182 0.43509635 0.34231296
4392 0.5378815 -0.3025151 0.20864499 0.08275286 0.4163373 -0.4298227 -0.13172424 -0.15606071 -0.32578638 0.5276297 -0.32643482 -0.28129986 -0.20009658 0.29259396 -0.06996994 0.27672794 0.74233127 -0.32921666 1.2949905 0.15550685 -0.0066353353 0.03653442 -0.3854931 0.8786602 0.114698194 0.3898501 -0.10182459 -0.2731749 -0.05877475 -0.3642753 -0.6939949 0.6767119 -0.35996875 0.32682538 -0.7519756 0.6041761 -0.3353603 0.31935728 -0.16175556 -0.1395725 -0.14895748 0.03395578 0.32428557 0.035937272 -0.023899822 0.43199897 -0.18041743 0.19589545 0.18919715 1.1295325 0.30173156 -0.37653875 -0.5192498 -0.31377944 0.18838064 -0.25522438 -0.12265872 0.23761998 -0.27174687 0.19805682 0.5543823 0.2603224 0.738575 0.37794036
