4185 64
2571 -0.28043464 -0.032450035 0.2458706 -0.009981738 -0.2899093 -0.030406829 -0.37111452 0.19609833 -0.19085392 0.20223287 0.3343393 0.31683657 -0.09018891 0.112893686 0.2121922 -0.40416926 -0.04857191 -0.16212353 0.1626505 -0.62937117 0.10415815 0.25765178 0.2798525 0.24014111 -0.070589654 0.44744802 -0.073528744 0.5200352 0.14620702 -0.35686222 -0.45013192 -0.3394947 0.2237086 -0.06760486 0.4493855 0.27193934 -0.4071416 -0.24541621 -0.5780079 -0.15986004 0.36680758 0.15568405 0.32332253 -0.14248241 0.19800258 -0.028828733 0.06874002 -0.07518225 -0.3608958 -0.057461757 -0.05006295 0.3408862 -0.25835153 0.060446687 0.018914372 -0.24525018 0.54446214 0.0038816538 0.22716966 0.20078404 0.20156266 -0.006369122 0.029352326 0.20077372
2836 -0.03688176 0.3439868 0.14884882 0.0717267 0.024071738 -0.028792588 0.12776585 0.006534223 0.27879718 0.058587346 0.64254177 0.32199675 -0.020143662 -0.011648309 -0.07101927 -0.3185854 -0.31405184 -0.1117494 -0.17144196 0.105178304 0.22457038 0.26424155 -0.13361399 0.23302776 -0.26962095 0.5350934 0.04827943 0.40882164 0.18930195 -0.15476887 0.073463514 -0.012854 0.42182887 0.20171286 0.32868463 0.01040731 0.35952252 -0.0005472595 0.019363612 0.086102605 0.4232407 0.71159106 -0.03564053 -0.48529434 0.25326282 -0.38195077 -0.19234622 -0.14413653 -0.39034644 0.067526534 -0.0134482 0.50923896 -0.16056499 0.24755038 -0.374983 -0.5978731 0.20569445 -0.2044065 1.0049304 -0.37151465 0.04838072 -0.0020096414 0.06906859 -0.109573305
2962 0.21881224 0.28823885 0.10732554 -0.47533414 -0.33144566 -0.060211528 0.11901316 -0.01548989 -0.06173624 0.033986207 0.6275428 -0.06741347 -0.40605187 -0.2090666 0.09985855 -0.44542518 -0.21223629 -0.034103144 -0.058892272 -0.5408262 0.12004762 0.15785462 0.15576586 0.35993475 0.051434174 0.62710387 0.09292655 0.56247246 0.05884858 -0.104649454 -0.36576575 -0.044448294 0.04124263 0.18139867 0.2894243 0.41385093 -0.31382757 -0.01464964 -0.3451486 -0.08810682 0.28704858 0.10995577 0.247846 -0.26202184 0.23253421 -0.29865217 0.02136525 -0.048002176 -0.3235915 -0.4262696 0.12505658 0.38110602 -0.4615415 0.00069930736 -0.34549314 -0.52093315 0.079272166 -0.062080193 0.32101977 -0.07013157 0.21099399 -0.16676494 -0.20316118 0.21912082
5295 -0.32379255 -0.2466216 0.07564826 0.048251566 -0.16579202 -0.041474786 -0.24537577 0.52375984 -0.18240243 0.38798076 0.37718257 0.14400242 -0.045044076 0.10481769 0.10856509 -0.19642587 0.351408 0.22184357 0.087666556 -0.29138374 0.20278364 0.07572124 0.10968291 -0.08303083 -0.27424422 0.48844787 -0.031026525 -0.21093391 0.19524139 0.53438985 -0.029323855 0.6080248 0.909983 -0.12146609 0.5893956 -0.5654984 -0.7880059 0.043517098 0.21812949 -0.44121 0.47355407 -0.16460869 0.5832019 -0.010168271 -0.30643374 -0.09872639 -0.22502859 0.014899874 -0.5528525 -0.36598787 0.08516821 0.14563079 -0.1777747 -0.09133759 -0.3914192 -0.0031747622 0.20833673 -0.014311951 0.32155508 -0.3465053 0.05779555 -0.19312684 0.24476542 0.28682488
3713 -0.38907316 0.03803444 -0.15929669 0.43172985 -0.39971432 0.2074396 0.114509955 0.5010796 0.22051433 0.12562138 0.4414896 -0.10007753 0.01729285 -0.05441095 0.37926224 -0.15543985 -0.27344477 0.23752096 -0.16530758 -0.3296367 -0.0067873704 0.19024913 0.182311 0.38711512 -0.12209014 0.3197705 -0.102277674 0.605399 0.17413504 0.124984175 -0.14075083 0.21849844 -0.32041597 0.085248776 -0.17270423 0.41942403 0.015804848 0.33458948 0.024415186 -0.029247193 0.53862756 -0.101207405 0.31159738 -0.11909318 0.46735725 -0.09869847 -0.3679053 -0.05477702 -0.3186575 -0.13649634 0.066503614 0.5689053 -0.12255447 -0.26635575 0.039922945 -0.57462156 0.6346791 -0.10988314 0.39575043 -0.0095622465 0.43603948 -0.016975382 -0.05757283 0.034452524
9812 -0.2050768 0.16215535 0.10088816 0.15684812 0.11711918 0.30949894 -0.6852384 0.08660905 -0.14354493 0.16685285 0.39891157 0.17162007 -0.16240188 0.06495224 0.5942023 -0.25599015 -0.29648858 -0.19330311 -0.30162337 -0.35218382 0.08758772 -0.032145116 0.108302854 0.28198317 -0.17088643 0.63893473 0.05353396 0.54795074 0.096133016 0.0073043588 -0.28160986 -0.29998052 0.05061206 -0.20785567 0.20623483 0.53793675 -0.3264773 -0.06316288 -0.7046361 -0.34292054 0.6103034 0.29742414 0.21352175 -0.29412228 0.33529502 -0.314426 0.08167999 0.036263704 0.00827349 -0.11563786 0.287575 0.6304999 -0.1302772 -0.07872651 0.09271619 -0.33883497 0.5379781 0.04752375 0.32362476 0.21759246 0.22024342 0.06092676 -0.28053164 0.31926334
354 -0.025473805 0.29416662 0.8439439 0.017717997 -0.57250607 0.08375486 -0.41571587 0.07804211 0.44988173 0.19689578 0.6220802 -0.014147972 0.3964839 -0.1760728 0.21068895 0.17142363 -0.19067019 0.18307908 -0.17242514 -0.3226653 0.042502817 0.10877947 0.09935404 0.41513237 0.31934935 -0.40149617 -0.2022317 -0.016108312 0.33207503 -0.3165739 -0.098550975 -0.14307924 0.23125716 -0.059096012 -0.26824063 0.138212 -0.07093581 0.46593523 0.39499074 0.24917334 -0.02235351 0.4387259 0.62447536 0.4176402 0.16582416 0.379554 -0.45724717 -0.16477732 -0.67876303 -0.23523104 -0.089383595 0.13030064 0.011646835 0.23650171 -0.80127865 0.18609165 0.47002894 -0.34429955 0.010210659 0.2791889 -0.2804787 -0.65302074 -0.26652798 -0.031914283
3420 -0.56821674 0.018110223 0.43931508 0.30320874 0.15592104 0.0921784 -0.5533983 -0.043296568 0.051263038 0.17925644 0.16745123 0.4579857 -0.12265452 -0.33590472 0.46375778 -0.46876633 -0.15902726 0.00024790113 0.23028213 -0.45295998 0.119647294 -0.24537365 0.40072244 0.18389101 -0.1725767 0.040773254 -0.080079935 0.26207778 0.0984075 -0.26105082 -0.047222767 -0.022039028 -0.06902483 0.18323879 0.026819794 0.5950752 -0.2022199 -0.106521666 -0.48215646 -0.34779012 0.30628768 0.271757 0.27354905 -0.19691126 0.10172917 -0.057878923 0.024229996 0.0009178062 -0.39380953 -0.020888878 0.039831415 0.49273488 -0.31359977 0.24523048 0.046297025 -0.21870898 0.29945982 0.598094 0.15256175 0.35396737 0.20083182 -0.088086694 -0.28743303 0.29701898
5721 0.09906163 0.00228024 0.29895768 -0.19793387 -0.26151544 -0.26962188 0.0025266777 -0.09639638 0.016744565 0.04303854 0.554736 0.04491753 0.004528603 -0.29136735 0.17033315 -0.32618716 -0.1529842 -0.09773523 -0.021468591 -0.30823192 0.033643138 0.34768933 -0.27057308 0.4056551 -0.3807165 0.46861055 0.05384391 0.32291183 -0.030674558 -0.19713777 0.27398348 0.30769193 0.49943426 0.2634752 0.30860418 0.07274194 0.23599452 -0.035298806 0.43610388 -0.34020045 0.46174592 0.22352555 0.08990208 -0.040426813 0.16223882 -0.1610848 -0.037761927 -0.3282043 -0.36201662 0.17998706 -0.24775478 0.4114215 -0.6510258 -0.05785993 -0.3060136 -0.4681407 0.11401738 -0.44382712 0.29940358 -0.03289677 -0.02060675 -0.15447523 -0.1746772 -0.12126233
1953 0.3605809 0.18102042 -0.24091227 0.562928 -0.2755638 0.39812976 -0.7283805 0.011542016 -0.14552236 -0.11290113 0.5279037 0.042007953 0.11625182 -0.24911068 -0.19538029 0.011419569 -0.3285695 0.22965442 0.3626899 -0.3400456 0.3677419 0.22702552 0.052475266 0.13923767 0.06418848 0.18924747 0.27675894 0.06651376 0.24103715 -0.12585066 0.08320326 0.2982747 -0.4043411 -0.20323953 -0.0331791 -0.012647325 -0.13268462 0.19823936 -0.7005511 -0.13947915 0.12294287 0.35747457 0.2797249 0.33271542 0.01700395 0.105663955 -0.10089011 0.07898921 -0.36633655 -0.22406246 0.12148132 0.4741962 -0.4898975 0.4571117 -0.32491994 -0.3439978 0.29373997 -0.1536288 0.13184433 -0.050160587 0.32564053 -0.9365877 0.30711553 0.16385955
2810 0.27212223 -0.23438258 0.2667077 0.5207014 -0.33526018 -0.22217627 0.14560169 0.20567338 0.0052238684 0.08754032 0.52402925 -0.14685604 0.21992725 -0.03807407 0.29864758 -0.052360103 -0.2688578 -0.172441 0.57193416 -0.3384821 -0.005415185 0.4072126 0.22130267 0.43077672 -0.133384 -0.10696154 -0.018479798 0.35029438 0.32891807 0.26512423 0.049892645 0.15269268 -0.20273341 0.47480762 0.021992004 0.34025106 -0.37728068 0.1055747 0.0071685207 0.07446818 0.17682856 0.062717885 0.13609152 -0.4677165 0.35389954 -0.4993401 -0.37809986 -0.16228506 -0.24927461 -0.20008579 0.02232419 0.47893757 -0.32955813 -0.4166801 -0.4552374 -0.37017018 -0.014568774 -0.0072600553 -0.19660717 0.21059042 0.2812331 -0.32843003 -0.3288166 -0.04523255
6433 -0.17476103 0.07321297 0.3274491 0.11604068 0.14997175 0.28599435 -0.32394785 0.23461695 -0.024455665 0.2631875 0.40028942 0.4362427 -0.18405478 0.21098605 0.3049167 -0.47578254 -0.2846853 0.15456532 0.015430752 -0.50060683 0.12973711 0.23555464 0.36628145 0.35321474 -0.13281554 0.5091224 -0.14667247 0.65661085 0.1939389 -0.2790289 -0.31768882 -0.44374356 0.42767337 -0.2847952 0.3601434 0.40712854 -0.29645607 -0.14775085 -0.7398208 -0.19136165 0.40764087 0.4297819 0.11148006 -0.13461834 0.110900946 -0.27954748 -0.1066841 0.020199217 -0.13048163 -0.26204616 0.065084554 0.5251724 -0.31731153 0.0652804 0.016371856 -0.2022083 0.5099387 0.28400323 0.30261752 -0.0939359 0.06699082 -0.108745605 0.046688575 0.37918672
880 0.28285888 0.24042436 0.13250428 0.02333946 -0.37411857 -0.2516872 0.14787851 0.1462103 -0.0029616575 0.05644347 0.331167 0.22546007 -0.023362797 -0.0678845 0.20897827 -0.31569186 -0.3644197 0.19057836 0.054530945 -0.25106475 -0.19357292 0.27798873 -0.2576702 0.23978128 -0.27418822 0.25690717 0.119782165 -0.14246736 0.11701021 -0.4372823 0.30813766 0.2679589 0.47586563 0.24410976 0.29618388 0.103288695 -0.28803748 -0.1275957 0.7914014 -0.4250412 0.33490235 0.036621355 0.07687905 0.08682662 0.44073048 -0.6017902 -0.45316646 -0.17610772 -0.2634554 0.28232402 -0.3065677 0.38383642 -0.4043527 -0.05134898 -0.61122507 -0.47006732 0.24795955 -0.25820726 0.36343414 -0.08195518 0.26388866 -0.5850693 -0.18305682 0.48177508
3374 0.04172685 -0.009434048 0.33271918 -0.3588022 -0.3521215 -0.65128875 -0.07717194 0.22549742 0.06749335 -0.069131695 0.10086793 0.42065638 0.041732814 -0.50031054 -0.09703794 -0.52726454 0.26998672 0.39198786 0.17565867 -0.17792632 0.28042805 0.34371912 0.00046591437 0.740868 -0.6519221 0.3982321 -0.3377344 -0.07025922 -0.24879369 0.17016055 0.29900947 0.0755999 0.35409015 0.022199558 0.17133552 -0.15932158 0.035938963 -0.0637257 0.41710898 -0.57590157 0.3054052 -0.14427432 0.15248352 -0.3478468 -0.030923862 -0.39911085 -0.015489239 -0.26840934 -0.43853575 0.10332524 0.16754924 0.14484414 -0.54540175 -0.1649422 -0.511553 -0.15002048 0.20312983 -0.24417584 0.45270827 0.23680934 -0.3702858 -0.47378772 -0.23857285 0.2784424
386 0.025474576 -0.04549688 0.8251759 0.3692155 -0.43415025 0.44576547 -0.59805906 -0.24697304 0.3155626 0.29204336 0.99700826 0.051634878 0.44161987 0.13369685 -0.039033253 0.032064877 -0.31159672 0.27984437 0.38082862 -0.19844823 0.21805981 0.15904847 0.31813464 0.20089842 0.03611224 -0.19112468 -0.0051050587 -0.06790901 0.46102187 -0.29596022 -0.026201209 -0.20818375 0.09027193 -0.0843162 -0.43808717 0.05158875 -0.033140384 0.68007374 0.405988 0.27020937 -0.28401023 0.17609915 0.57947767 0.18091314 0.11916068 -0.13872358 -0.51607114 -0.21000093 -0.81463075 -0.40163508 -0.036439106 0.30440408 -0.008327464 0.17579554 -1.1335354 0.54153126 -0.0861029 -0.75425005 0.18252538 0.52487326 -0.011662814 -0.4116273 -0.15935531 -0.123958595
442 -0.51818097 -0.007861153 0.36657703 -0.40338308 -0.6082077 0.008462624 0.02529423 0.19947754 0.15297782 -0.4034905 0.27875146 0.080878 -0.10579876 -0.00044926794 0.21282504 -0.27498668 0.20512138 -0.007953002 0.233722 -0.7816165 0.5236652 0.013408819 0.5158094 0.10871466 0.14499328 0.58418334 -0.10255134 -0.032603238 -0.30790228 0.49141562 -0.38623804 0.8671598 0.9248972 0.07698525 0.123634025 0.26053137 -0.042519826 -0.021243565 -0.045823794 -0.42469776 0.027504146 0.00081403047 0.68491334 -0.021546975 0.35504448 0.11060903 0.12600969 -0.1976401 -0.20213632 -0.28114653 -0.010278386 0.4837972 -0.29250798 -0.37091875 -0.39610332 -0.011195074 -0.24450515 -0.154192 0.6363785 0.101755925 0.279589 -0.20867147 0.28511864 -0.09248562
3668 -0.098458424 -0.053982396 0.1366861 0.17141253 -0.47797447 -0.25720233 -0.10668606 0.1495399 -0.4284256 -0.013977189 -0.11672753 0.4287896 0.21427806 -0.267258 0.1971036 -0.6061984 0.08151879 -0.08774607 0.4995278 -0.68429315 0.20844439 0.20759942 0.21947186 0.10566612 -0.26618186 0.115859196 -0.11661813 0.27780548 0.023631731 -0.14507689 -0.15129443 -0.20810911 0.043874606 0.29694855 0.3912317 0.3359895 -0.18341987 -0.13310634 -0.15394011 -0.3962652 0.2490783 -0.01479237 0.70015144 -0.15202911 0.22745024 0.27110296 -0.0427479 -0.36562574 -0.5336535 -0.023091167 -0.05018539 0.5734516 -0.11268656 0.0684841 -0.023717763 -0.005208115 0.41912052 0.031323824 0.28883564 0.45738024 0.28292188 0.052780252 -0.21691309 0.0745207
2743 -0.25183308 -0.17941383 0.13087344 -0.09599945 -0.4847501 -0.012691218 -0.43521106 0.10495803 -0.04280009 0.1261473 0.9655974 0.6239562 0.049671967 -0.07202922 0.19953054 -0.18503171 -0.328395 -0.25062212 0.3897087 -0.2880481 0.07741186 0.22487792 -0.20347609 0.18116114 -0.2512609 0.33551633 0.15920949 -0.04730321 0.11163665 -0.34070164 -0.031111551 0.30525267 0.36928526 0.21890008 0.350784 0.14486074 -0.17601714 0.33534008 0.48900235 -0.4432357 0.12427837 -0.44161814 -0.03573569 0.036241245 0.1383805 0.06828257 -0.12959133 -0.4285376 0.047164597 0.052123953 -0.013386743 0.111595035 -0.38415548 0.08870388 -0.7034948 -0.38194248 0.17808181 0.1076778 0.60456115 -0.17231798 -0.23704892 -0.3657482 -0.22590846 0.19312662
3137 -0.19475953 0.15752561 0.08861527 0.53316635 -0.53316987 -0.37648845 -0.46247077 0.09315064 -0.11269565 0.1147222 -0.008907256 0.6713046 0.26884148 0.017814968 0.37250203 -0.6223322 -0.039777122 -0.048568588 0.32686642 -0.942445 0.082280874 0.29326642 -0.038777806 0.17539944 -0.33626178 0.27853233 0.034601096 0.34837496 0.33159164 -0.36159462 -0.15276836 -0.10997893 0.017096432 0.38735986 0.52426386 0.4209547 -0.19014147 -0.16330087 -0.43785593 -0.13106565 0.46330446 -0.06849703 0.54450476 0.12529615 0.0284832 0.14767851 0.20458493 -0.39668763 -0.19791543 0.11251027 -0.19800596 0.06888651 -0.4132409 0.15262134 0.272481 0.18317448 0.4332896 -0.28071982 0.3163668 0.27856442 0.31398433 0.04354324 -0.16924262 -0.07020348
4533 -0.16386561 0.03399318 -0.039799407 0.25760505 -0.5998083 -0.46532133 -0.35098046 0.1758669 -0.0018284266 0.23376575 0.18302655 0.6513703 0.15802635 0.12411228 0.26642057 -0.44182113 -0.00290029 -0.009531843 0.23414385 -0.55850655 0.20974573 0.09289988 0.009843711 0.15861532 -0.45591214 0.33613807 0.014582933 0.060410507 0.19482921 -0.589863 -0.2035373 -0.19613457 0.4454948 0.3626893 0.7307059 0.26950535 -0.5302967 -0.20782982 -0.22735025 -0.43276188 0.21654347 0.019033575 0.37508842 -0.023924764 0.179403 0.08582764 -0.033658486 -0.2435267 -0.21685372 0.14802209 -0.28705686 0.034809314 -0.2955071 0.09480296 -0.089802176 -0.09218284 0.36203688 -0.1930527 0.38912103 0.2943506 0.32895067 0.07193046 -0.20023744 0.064625375
5028 0.32135653 0.10955101 0.050555885 0.10716412 -0.49112636 -0.4075958 -0.020639252 0.14022195 0.24692015 -0.20711555 0.29084638 0.5940691 -0.32660314 -0.44747922 0.38298956 -0.7017102 -0.16453288 0.4985489 0.45259157 0.26325867 0.037029866 0.021957166 0.12922774 0.5350854 -0.43156987 0.45877576 -0.12205745 -0.1211496 0.4960205 -0.39536783 0.26302227 -0.35320213 0.44627312 0.2031417 0.36920187 0.38661015 -0.6760812 -0.43923944 0.23860557 -0.047657665 -0.0954827 0.26368815 -0.11634976 -0.39706194 -0.2309477 -0.42678785 -0.17400122 -0.059345637 -0.1458639 -0.028618867 -0.20546281 0.20093453 -0.5791982 -0.27885926 -0.4774667 -0.5898196 0.08967605 -0.48279557 0.3861658 -0.05421927 0.2573222 -0.45397985 -0.17038038 0.07153924
635 0.34687892 0.26843357 0.14205357 0.1313332 -0.41745162 0.4932442 -0.085456066 0.016563134 0.32365748 -0.34549516 0.6130067 -0.09077411 -0.25960836 0.24115218 -0.0011100401 -0.03558673 0.025631482 -0.037453756 0.5632868 -0.62574136 0.13323675 0.4198034 0.027848447 0.22012354 -0.18394153 0.31470528 -0.08367063 0.35190278 -0.028354432 -0.07673487 0.0871482 0.65536493 -0.10597541 -0.07628945 0.3395061 0.5568918 -0.36069876 -0.081539646 0.42848215 -0.21464515 0.29503998 -0.035813045 0.30313107 -0.0025283648 -0.03293503 -0.2531722 -0.2850676 -0.07130194 -0.12525284 -0.34238708 -0.56117254 0.4212691 -0.29954764 -0.22755536 -0.1553041 -0.42134458 -0.07244436 0.057769917 0.100575544 0.1671668 0.38491926 -0.3847913 0.25599694 -0.5109064
833 0.24283183 0.19023505 0.556229 0.6254867 -0.26285347 0.4338658 -0.3397485 0.001838706 0.0019316196 -0.08303428 0.74633473 0.16821161 0.44878405 -0.2500722 -0.17312998 -0.051131155 -0.24026528 0.450627 0.3490682 -0.27122673 0.25791764 0.08465274 0.11926296 0.43583253 0.19305006 -0.25955635 0.112743035 0.11381708 0.30069393 -0.04501841 0.13056952 0.25288 -0.20469081 -0.2926717 -0.36240828 -0.0768266 -0.2550314 0.55035216 -0.20564161 0.13779835 -0.08767215 0.526317 0.47112527 0.24797975 0.119779386 0.2721571 -0.5557284 -0.036709562 -0.506359 -0.4164582 -0.06360281 0.5680889 0.03750624 0.40855896 -0.79888743 0.24529426 0.31922024 -0.37633035 0.060310345 0.22265899 0.012815906 -0.6289574 0.17217815 -0.20229617
3966 -0.05485155 -0.19395849 0.34484103 -0.1771053 -0.71579176 -0.051653307 -0.06666745 0.28962475 0.3353656 0.24111871 0.2682876 0.12793005 -0.07320266 -0.19642574 0.14648764 -0.21617752 0.029654788 0.0069869533 -0.18087323 -0.26821834 0.3611611 0.083443716 0.21220304 0.30726084 -0.42681628 0.7356665 -0.25205803 -0.15135306 -0.49216664 0.17678653 0.33823755 0.6255115 0.6312109 0.013025538 0.32722157 -0.05393736 -0.03913952 -0.35885918 0.2168675 -0.21307763 0.44961396 0.22989398 0.3805939 -0.03427489 -0.042101998 0.017971333 0.13690187 -0.35378268 -0.52265066 -0.13409948 -0.16612537 0.3774323 -0.19256645 -0.39609098 -0.47882688 -0.15112132 0.060441054 0.024855243 0.30977935 0.168849 -0.055274285 0.023288226 0.240375 0.13897765
5924 -0.18993169 -0.08010475 0.13972302 0.13908151 -0.5793255 -0.15450521 -0.4732215 -0.07687184 0.13213159 0.15633157 0.3369454 0.57244056 -0.2669893 0.024841845 0.30138722 -0.3262812 0.009282496 0.24532509 0.27484468 -0.20575741 0.07830938 -0.04387742 0.024521647 0.39792284 -0.24043138 0.40014464 -0.04804209 -0.055161454 0.17052121 -0.4310811 -0.19976741 0.09344279 0.4615 0.17916253 0.6491186 0.14569795 -0.62344706 -0.09578578 -0.11849135 -0.2987487 0.055068895 0.07155529 -0.033776265 0.15473641 0.1589852 0.053535078 0.033784494 -0.12935008 -0.11128281 -0.03276343 -0.2255128 0.09865039 0.021661889 0.12303051 -0.32380223 -0.68272483 0.22489865 -0.023488633 0.40124753 0.014629391 0.1992746 -0.32957092 -0.1997258 0.32691798
7008 -0.21456121 -0.09359757 0.19834204 0.15602103 -0.6957449 -0.30340263 -0.6450299 -0.04883542 -0.26006618 0.14384653 -0.01033275 0.57231885 0.1774269 -0.09341219 0.19131558 -0.5069052 0.005660465 -0.23252659 0.42699936 -0.6424313 0.20386039 0.2753016 -0.06766968 0.2620938 -0.20394653 0.4321782 0.043329865 0.46398 0.10489455 -0.48109925 -0.37332025 -0.32471052 -0.018872939 0.23363763 0.6541726 0.26348653 -0.258664 -0.2556053 -0.40073147 -0.036770158 0.35364503 0.09829143 0.64053184 0.17582926 0.2571919 0.08340965 0.16340053 -0.2130696 -0.21101885 0.19116643 -0.24569005 0.32884607 -0.38330767 0.06692713 0.101887204 -0.09812758 0.71713215 -0.32807747 0.3142348 0.36813205 0.4192221 -0.005368382 -0.13734841 -0.11882172
8881 0.069685385 0.18093006 0.14750595 0.030583141 -0.6768534 -0.12312543 -0.119690314 0.17424424 0.074787095 0.10921532 0.5935357 0.07422505 0.21274212 -0.13754655 0.19040024 -0.4309262 -0.285426 0.012633125 -0.12445663 -0.30833644 0.050664887 0.047276024 -0.12675801 0.43663839 -0.11918356 0.13704942 -0.43437755 0.05587927 0.44197348 -0.33202127 0.019963052 0.32466623 0.40392444 0.012233053 0.21289328 0.27728412 -0.0576278 0.1107939 0.5828296 -0.2946111 0.25581983 0.038515903 0.12095131 0.16876903 0.4558183 -0.1438618 -0.31785187 -0.30165038 -0.072499946 0.21707542 -0.26607156 0.1518005 -0.11335371 0.10683672 -0.6544535 -0.39044106 0.3983916 0.16664636 0.17357402 -0.1068593 -0.18906328 -0.50521666 0.06724982 0.13136834
4165 0.114462815 0.23459865 -0.21947138 0.6344173 -0.19699562 0.4784418 -0.42882603 0.26200622 -0.35981897 -0.38557047 0.35557076 0.24101368 0.09396174 -0.20521341 0.014375528 -0.46072352 -0.11356377 0.4727814 0.47748804 -0.22920121 0.6505888 -0.3006839 -0.16040258 0.19188349 0.2247498 0.016166864 0.27903047 0.20833921 0.0601124 -0.008466595 0.286213 0.35824707 -0.22893943 -0.26005295 -0.41886643 0.10043703 -0.48136866 0.15333861 -0.5475503 -0.3193959 0.14809927 0.4776353 0.40031907 0.06842461 -0.1425677 0.3367053 -0.5573437 -0.0849867 -0.672741 -0.47623903 0.01430143 0.52813995 -0.007277518 0.8220379 -0.3377376 -0.053034905 -0.028351549 -0.1184798 0.036530208 -0.27732444 0.10415321 -0.42402843 0.097849 0.06937521
7207 0.087575346 0.0120632555 -0.2669656 0.47878432 -0.1562193 -0.04822178 -0.45722336 0.14202261 0.06016578 0.42149106 0.9874611 0.5821584 0.21334517 -0.014483852 0.49439713 -0.5688547 0.38958606 0.20946677 -0.5253353 -0.41794926 0.37535575 0.1704375 0.16273859 -0.28487965 -0.6041701 0.30017143 -0.31903884 0.31395373 -0.016002325 0.20541017 0.39006034 0.10213283 0.5147658 0.13799545 0.6075308 0.29625118 -0.7860604 -0.16196786 -0.11309919 -0.5861462 -0.09606974 -0.30604216 0.51583016 0.18660107 0.09068735 0.0070466646 0.07382219 0.13892359 -0.3098875 -0.08715906 -0.06778005 -0.46928525 0.07162056 0.095937006 -0.6439747 0.4441718 -0.14172728 -0.3271329 0.13895842 0.06175315 -0.48637944 -0.79819536 -0.3363049 -0.03799711
5470 -0.29667488 -0.027012235 0.20576376 -0.1439839 0.30725527 0.4365575 -0.43445876 0.24488215 -0.35360143 -0.15925637 0.6778004 0.34012148 -0.12266099 -0.5265096 0.40211713 -0.40829694 0.023962298 0.5133985 0.24308807 -0.41115656 0.37128398 -0.23649843 0.47661838 0.40957278 0.004383086 0.49286896 -0.0318149 -0.19810101 0.33450767 -0.4163564 -0.07255224 0.6717314 -0.010479866 0.28175232 -0.3761293 0.17725973 -0.14221069 -0.20024376 -0.15179396 -0.3247379 0.045182835 0.15781786 -0.009741556 -0.26818693 -0.04889329 0.09431442 0.0212476 0.015611292 -0.707342 -0.2477954 0.38476643 0.18055688 -0.5919457 0.49382177 0.2481761 -0.049972102 0.28356865 -0.0030554659 0.16203158 0.31240872 -0.029047312 -0.13328046 -0.049668927 0.23876455
1945 0.059367094 -0.037052948 0.14648221 -0.114612535 -0.6544082 -0.015942452 -0.052107684 0.16380964 0.042843085 0.06566842 0.5348392 0.40724522 0.10242708 -0.09247653 0.11523309 -0.4395626 -0.022360256 0.04601137 -0.018899009 -0.2250834 0.17082375 0.21206589 -0.057018142 0.32537243 -0.10231968 0.38812888 -0.26181945 -0.04435732 -0.05846681 -0.056811042 0.20375644 0.3209121 0.5935863 0.13554332 0.2885224 0.118147746 -0.26799306 -0.10428233 0.640279 -0.34207553 0.15907301 -0.022909626 0.10492756 0.10057121 0.11238302 -0.19065537 -0.21598963 -0.2580746 -0.15048072 0.13712892 -0.24674638 0.045538846 -0.3203234 -0.14440891 -0.692759 -0.27535838 0.04059643 0.16425017 0.37522337 0.13699049 -0.018485285 -0.3968785 -0.23314448 0.051534165
414 -0.06914291 0.1379999 0.97295237 0.3285464 -0.12014299 0.3184589 -0.4101678 -0.13408145 0.30654114 0.16338775 0.9653572 0.21944432 0.4324561 0.15008324 -0.06848315 0.03320869 -0.34889224 0.27410537 0.3301569 -0.2227174 0.16270185 0.11553003 0.19653374 0.46878472 0.055030886 -0.14967537 -0.101691455 -0.06050461 0.3906845 -0.27287987 0.012299286 -0.012461499 0.023895683 -0.23469378 -0.22948661 0.07833795 0.003256718 0.5023081 0.42343357 0.39417052 -0.19346875 0.4448454 0.67659056 0.12696345 0.12026379 0.006079494 -0.48581627 -0.21194267 -0.6699911 -0.42279744 -0.017233916 0.2719363 0.024793204 0.25796908 -1.134595 0.4562217 0.20686634 -0.72578156 0.08902871 0.46044755 -0.045386616 -0.47896215 -0.15311395 -0.19302657
6735 -0.0041732155 -0.14788675 0.24607626 -0.1023602 -0.4330979 0.013412118 -0.13031656 0.14876065 0.285122 -0.03397236 0.6434861 0.23663117 -0.005683175 -0.16641532 -0.07821296 -0.11733636 -0.3377774 -0.28009054 -0.0076150494 -0.53438395 -0.07045851 0.19005528 -0.10109152 0.1867681 -0.19162522 0.22284761 -0.4075745 -0.07995269 0.53221583 -0.1013078 0.06435669 0.34599692 0.5509741 0.2580987 0.42222375 0.14123622 -0.13049173 -0.319692 0.18381064 -0.5176936 0.28303382 0.18392304 0.21853061 0.23182565 0.53407615 -0.0058341636 -0.16506481 -0.28825703 -0.20352063 0.06633563 -0.06349598 0.041569866 -0.18267997 -0.02642478 -0.33801043 -0.29581556 0.046784844 -0.12792306 0.18935232 0.051792126 -0.19806351 -0.3252727 -0.18239431 0.11893118
4618 -0.11033545 -0.20963071 0.23744424 -0.02300506 -0.09397112 0.36321056 -0.021283625 -0.0075712195 -0.82822484 -0.34421834 -0.39444953 0.6238274 0.37617263 -0.5340797 0.18850374 -0.9396206 0.15640129 -0.035584375 0.5464238 -0.58662826 0.6433148 -0.27623025 0.514747 -0.27381203 -0.16034172 -0.4396889 0.05523107 0.41171926 0.39865083 0.085261345 -0.07589255 0.09846868 0.047096677 0.5165946 -0.021855213 0.64485985 0.029522682 -0.32984212 -0.021763863 -0.6260844 0.25354332 0.3788467 0.56724644 -0.1432622 0.0073835626 0.036189817 -0.40859 -0.28789514 -0.74801993 -0.14728288 0.0058720806 0.72279334 0.07536133 0.21671958 -0.28482354 0.15999512 0.03831546 0.23904312 0.18765168 0.20577781 0.43215427 -0.05047908 -0.013616813 0.3410014
6794 -0.24924782 0.39515615 0.18755557 0.051741537 -0.22730578 0.3187508 -0.25003952 -0.32394335 -0.44522652 0.010713023 0.11927328 0.1948387 -0.036156148 -0.5959833 0.35121614 0.122618236 0.32492784 -0.24877606 -0.2975106 -0.55504864 -0.09785912 0.35673067 -0.2587837 0.38995102 -0.53409743 0.1633441 0.13259232 0.7811077 0.2789464 -0.14992554 -0.056843746 0.19978637 0.66666085 0.19866641 -0.23479082 0.19703558 0.55875975 0.13619393 0.35383186 -0.18698025 0.42151192 0.09879983 -0.24177958 0.19364426 0.45095834 -0.03798452 -0.21838604 0.041496467 -0.5998198 0.22631294 0.13039915 0.015034585 -0.3523446 -0.03529403 -1.2881941 -0.7041264 -0.2956713 0.029899046 1.0159416 -0.7706611 -0.8307386 -0.1752174 -0.27499285 0.16825837
2577 0.08518002 0.071907245 0.032005433 -0.26537815 -0.6175965 -0.08292522 0.114504956 0.2831406 0.16233636 -0.25901628 0.61136305 -0.14674644 -0.14749372 0.20138533 0.25066411 -0.51070964 -0.4272573 -0.16159363 0.25393996 -0.614515 0.03255839 0.53248435 -0.068973854 0.4402501 0.06685817 0.56740826 -0.06721813 0.1276638 0.021492746 -0.20436957 -0.32489067 0.6730422 -0.050235342 0.2778634 0.4704084 0.23385157 -0.29115176 0.07036576 0.048535876 -0.36366242 0.7110307 -0.018897766 0.33832592 -0.04582242 0.32471523 -0.23643088 -0.32403338 -0.34891108 -0.22427383 -0.22984968 -0.08237204 0.29037708 -0.7427415 -0.35596907 -0.5568482 -0.14621523 -0.17935932 0.14458625 0.3654122 -0.10350265 -0.06560323 -0.18729168 0.17082 0.3889822
665 -0.3556719 -0.15806638 0.2681517 0.2416818 -0.5114178 -0.4249671 -0.3106662 0.04800566 -0.27529687 0.001896437 -0.08138307 0.60151637 0.26817194 -0.06378638 0.20303924 -0.6637206 -0.030957773 -0.056476798 0.41228458 -0.76204455 0.18098204 0.16105868 0.10120772 0.062099658 -0.29829994 0.2781621 0.012276498 0.15616138 0.16562572 -0.54388845 -0.37755454 -0.28033334 0.13811588 0.5465037 0.6834725 0.41347453 -0.21128106 -0.26605394 -0.47062644 -0.16103402 0.47740677 0.07511947 0.79031086 0.1477848 0.24051157 0.21816331 0.09860281 -0.3270537 -0.3881141 0.049284287 -0.3511111 0.3862411 -0.43112504 0.16545576 0.06062182 -0.03879173 0.6481011 -0.08991123 0.4043059 0.49113885 0.24096066 0.22365463 -0.23652299 0.05308967
2567 0.36535716 -0.13584171 0.51457965 0.6492876 -0.1611548 0.30684054 0.17361185 0.17224212 0.4148168 -0.024736477 0.68696326 -0.3140717 0.10928176 -0.46029994 -0.30773076 -0.27722558 0.02014423 -0.097635314 0.630777 -0.914648 0.112696454 -0.06837831 0.5152593 0.6425637 -0.34745106 -0.49252057 1.0692495 0.5863701 0.81195825 -0.48163614 0.41089356 0.39685363 -0.0564186 -0.045160178 0.1889454 -0.59172875 -0.056184378 -0.11525437 -0.94432133 -0.05330431 0.09161399 -0.14931314 0.10926017 0.54927045 0.62615764 -0.65459925 0.27317947 0.3960821 -0.33836448 -0.016608771 0.18047886 0.9106614 0.23570716 -0.1024133 -0.5740347 0.41054463 0.05114657 0.6901657 0.00020299418 0.32552993 0.25483388 -0.6263793 -0.005905101 0.3440983
481 -0.25646052 0.32780704 -0.11720605 0.9611184 -0.17236394 0.59594434 -0.5516386 0.09709878 0.058808923 -0.31853557 0.33221972 0.013678991 0.30368912 -0.30904526 -0.21739613 -0.18546936 -0.21235052 0.5976619 0.51569563 -0.46033424 0.7521664 -0.09392652 -0.27412802 0.46285382 0.20851696 0.12491145 0.05548599 0.19805625 -0.0138690965 0.0568362 0.21765399 0.40970856 -0.41360885 -0.30726182 -0.5308961 -0.039212324 -0.5057477 0.22802614 -0.2095089 0.005363124 0.23372638 0.7992439 0.35046005 0.20575893 -0.15406515 0.26849657 -0.61820143 -0.17669299 -0.4112702 -0.30695963 -0.008658109 0.5574983 -0.112946205 0.5940806 -0.13223934 0.0024372328 0.19221671 -0.16754115 0.2667087 -0.056823477 0.2974693 -0.90010643 0.29793304 -0.2982365
353 0.3033295 0.384406 1.0379391 0.6168722 -0.19440375 0.3078243 -0.6223577 0.06817771 0.627606 0.014640656 0.72382534 0.048602745 0.42820236 0.15751915 0.18070886 -0.1157551 -0.11151966 0.65466964 0.14725164 -0.19385867 -0.08463376 0.25696257 -0.06208267 0.5323303 -0.0051684254 -0.07871787 0.032017745 0.04085467 0.41607583 -0.45336926 0.0176869 0.21453698 -0.0021474462 0.1657191 -0.3181018 0.0605311 0.10144529 0.7267473 0.20292085 0.30965427 -0.38378063 0.37712464 0.968441 0.10550152 -0.0050569256 0.13423206 -0.37751883 0.11113959 -0.38630548 -0.5018041 -0.043722305 0.22151363 -0.05256678 0.2745671 -1.0675275 0.8345065 0.35845366 -0.6630652 0.029717026 0.4375682 -0.033565834 -0.4365697 0.21638857 -0.19268072
3759 0.23341784 0.21044572 0.08448226 -0.34427112 -0.009926571 0.14473742 0.0536718 -0.34485406 -0.037085593 -0.036995485 0.410098 -0.04891842 -0.014768683 -0.38566822 0.25536224 -0.12056868 -0.19876057 -0.10709383 0.01763079 -0.45559713 0.12475661 0.3868648 -0.17604661 0.24414396 -0.41587448 0.41365236 0.077319965 0.73911697 0.22332174 -0.06667355 -0.3629181 -0.06763239 0.16908889 0.4797122 0.050160874 0.07287985 0.1226889 0.22300687 0.05251145 -0.12041305 0.33139634 0.23073061 -0.09607073 -0.1412089 0.27164313 -0.038942967 0.10601799 -0.18646412 -0.6793491 -0.022494702 0.32454368 0.18492469 -0.42722833 -0.09961484 -0.995492 -0.63343006 -0.068586126 -0.02841377 1.1078142 -0.5346566 -0.49867162 -0.2625996 -0.037486978 0.16782501
3718 -0.36516047 -0.37428123 0.32451397 0.23942424 0.042793315 0.08797588 -0.07762958 0.16463846 -0.8252391 -0.40547186 -0.40547666 0.40838864 0.47867227 -0.4459197 0.26938382 -0.8298219 0.052341912 0.28524545 0.86809105 -0.73597866 0.6363846 -0.2221312 0.44700792 -0.33275244 -0.101055324 -0.055551898 0.056605704 0.21623276 0.28890237 0.03056451 -0.35169032 -0.12514263 0.24960363 0.7676471 0.42912045 0.33783752 0.20807354 -0.15677845 -0.15731539 -0.75603795 0.21026999 0.12998821 0.5535744 -0.08743105 0.050757695 0.4178721 -0.40172997 -0.20197038 -0.62040013 -0.306357 0.102933615 0.73825973 -0.16497767 0.14043972 0.09452293 0.0018416608 0.54412454 0.1914945 0.45038477 0.20789616 0.121963836 0.0050016018 -0.082793675 0.06586078
2414 0.036169462 0.23602414 0.0375717 0.56468457 -0.5376638 0.6559054 0.3242484 0.13952677 0.14946689 -0.07510539 0.30809954 -0.108644255 0.042039607 0.06907504 0.27395055 0.040556833 -0.20472239 -0.22304139 0.25954473 -0.37557706 0.041246977 0.48485646 0.89331585 0.40101692 -1.0716681 0.19013025 0.052345388 1.0595943 0.054974765 -0.10141795 -0.5785191 0.04157672 -0.3322803 0.18823956 -0.41375303 -0.09618229 -0.40343997 -0.61773235 0.25853947 -0.3057918 1.0016872 -0.26284775 0.10405978 -0.07896575 0.18323132 0.056438457 -0.7066512 -0.44252953 -0.112999044 0.11663811 0.24752004 -0.2798343 0.06664696 -0.2499366 -0.34459046 -0.3711316 0.31148794 -0.27616572 0.44543928 -0.04041508 0.09936635 -0.06923452 -0.5055696 0.21416233
2773 0.028226713 -0.288735 0.32060057 0.2292094 0.012531232 0.52213734 -0.035078917 0.2616131 0.19025506 0.051087845 0.6047103 0.13950764 -0.0044169184 -0.02086736 -0.2417526 -0.21665716 0.23396842 -0.13536641 0.070421234 -0.6503575 -0.1345969 0.26328576 0.5320472 -0.12264915 -0.14074868 0.4324325 -0.019258881 0.15165392 1.1183419 0.18298423 0.26474035 -0.18947704 0.16787717 -0.13250974 -0.06891335 -0.30423278 -0.12672254 0.08147855 -0.3544165 -0.2565704 0.19728357 0.3506192 0.41878805 -0.04312879 0.49991158 -0.40218076 -0.24313116 -0.13681518 0.037453637 -0.33493164 -0.1702569 -0.13985871 -0.15938677 0.305524 -0.041323032 -0.31736708 0.19092846 0.19601403 0.6559792 -0.054027405 0.11024329 -0.834407 -0.15078741 0.12435053
8771 -0.035183974 0.09333735 0.020005755 -0.38184336 -0.46753895 -0.24673079 -0.094124496 0.07764796 0.036962144 0.02397009 0.203897 0.057827186 0.098687 -0.38091198 -0.072797164 -0.7935882 0.34979287 0.09214823 0.15857345 -0.4141159 0.5315371 0.49919435 -0.015211915 0.6677908 -0.44313177 0.74464196 -0.16469023 0.11726034 -0.14259833 0.2185618 0.36394042 0.031049935 0.09026295 -0.024794288 0.37984577 -0.03838313 0.3112758 0.047686927 0.3733027 -0.44860688 0.08062515 -0.0026759536 0.4255563 -0.22245485 0.03379951 -0.039076682 0.06892477 -0.4009586 -0.23093697 -0.22167283 0.35552582 0.08122276 -0.3638067 -0.2900146 -0.5788122 -0.060791522 0.3654163 0.07464106 0.57029796 0.18304954 0.018674644 -0.43207684 0.009741551 0.05503243
4059 -0.16655205 -0.11822009 0.17350315 -0.29976285 -0.55930406 0.024349272 -0.15645054 0.16196223 0.35542184 0.08500653 0.2919563 0.1067906 -0.29848874 -0.10231734 0.3066775 -0.40137258 0.28659427 0.06211898 0.040035278 -0.37696388 0.24855822 -0.029466782 0.104177885 0.2334676 -0.18383162 0.77951574 -0.25338072 -0.16167685 -0.4429366 0.3133233 0.121388495 0.70916504 0.84287184 0.09890812 0.23094232 -0.3077393 -0.18320142 -0.21797124 0.28786606 -0.47524017 0.29780403 0.115113705 0.6270283 -0.02242179 -0.13461684 0.023937967 0.07409795 -0.35778978 -0.54114693 -0.08558368 -0.10424429 0.32422578 -0.25187021 -0.50594676 -0.4758006 0.026733441 -0.044162203 -0.019654881 0.5014076 0.121742964 0.0737142 -0.24487665 0.21003725 0.047687218
8880 0.09953262 -0.12859297 0.14429894 -0.20311755 -0.68412817 0.044468362 -0.2331758 -0.03510493 0.07542633 -0.08282001 0.16722813 0.41634408 0.49616173 -0.07053285 0.46910325 -0.27194887 -0.2354928 0.33799213 -0.3601324 -0.23598793 0.16734827 0.19071974 -0.02326566 0.20514248 -0.0918561 -0.12594199 -0.45349336 0.26879 0.57801205 -0.044261444 -0.13464971 0.23352842 0.123206735 0.16903181 0.040102467 0.15567154 -0.03639003 0.0023782463 0.32229602 0.06040161 0.07649165 0.24852216 0.2155499 0.36278147 0.09748167 -0.3398401 -0.56374705 -0.21246415 -0.28612617 0.48129064 -0.32956952 -0.06491858 -0.16963641 -0.1911694 -0.82814056 -0.31607807 0.49422988 0.47823897 0.14850909 -0.21163559 0.0649834 -0.53548867 0.06340694 -0.15687971
2711 -0.16639717 0.0916912 0.1689291 0.2251872 -0.6262088 -0.39731187 -0.5371654 0.036394067 -0.21491876 0.1618313 0.08487044 0.47915974 0.23310357 -0.010283937 0.1243789 -0.58093166 -0.07670312 -0.3344498 0.3658678 -0.7638819 0.11774285 0.28128973 -0.044992976 0.27020496 -0.2663425 0.5314824 0.019330733 0.41970044 0.021566294 -0.52481395 -0.32544112 -0.1844003 0.1353648 0.30436894 0.6850376 0.39058366 -0.24919528 -0.1892462 -0.55115414 -0.14137094 0.47858274 -0.06307953 0.63639385 0.007947516 0.24823675 0.09115183 0.23180409 -0.24166733 -0.25282648 -0.07726366 -0.31167746 0.2958255 -0.46721223 0.0038142393 0.16617948 0.019323474 0.6477951 -0.26244238 0.31434175 0.45459294 0.14599773 0.19586422 -0.28482682 0.08204179
5052 -0.112644896 0.16260928 0.21095179 0.24806698 -0.5099166 -0.42694157 -0.40885562 0.12728228 -0.4012311 0.09141631 0.09407472 0.50388145 0.2654632 0.13965935 0.06939945 -0.53408855 0.118880644 -0.016324155 0.42116433 -0.6293948 0.13558805 0.041883856 0.06676085 0.036862306 -0.34397247 0.5283996 0.18974489 0.35451737 0.119239874 -0.56412625 -0.23275793 -0.31544214 0.1443251 0.3230258 0.5481659 0.19077183 -0.29042488 -0.53268 -0.5700757 -0.1976749 0.39231783 0.037386224 0.6639741 -0.027363963 0.3478019 0.15492794 0.27998453 -0.37303254 -0.27957657 0.0047460343 -0.37965584 0.4459254 -0.5123711 0.24953814 0.14347649 0.04922403 0.44531325 -0.34699482 0.34095052 0.41587102 0.24227832 0.29120734 -0.34120288 -0.017699499
750 -0.10913362 -0.20025852 0.06514997 0.07951444 -0.83426 -0.1602225 -0.20727298 0.19572599 -0.020684084 -0.037442468 0.39124212 0.016540904 -0.2642416 0.014993186 0.28233132 -0.23253518 0.2499834 -0.05470944 -0.17260525 -0.5273978 0.22791032 0.044562235 0.23126158 0.055496093 -0.14622778 0.7824103 -0.06855321 -0.309404 -0.33672637 0.41895014 0.14615773 0.5469081 0.9422294 0.10705678 0.52225596 -0.44790867 -0.4569245 -0.3323174 0.18928884 -0.19960077 0.48538864 -0.003841456 0.5501136 -0.08064097 -0.13708594 -0.21436176 -0.03923591 -0.28028446 -0.7879582 -0.32786313 -0.066788636 0.2263351 0.0063907662 -0.4097069 -0.5276854 0.096215956 -0.19346835 0.17715162 0.26930657 -0.022322102 0.1695426 -0.2628877 0.43257582 0.17924364
7465 0.21779466 -0.15719116 0.020529915 -0.041545507 -0.6055859 -0.19786343 -0.04106416 0.16398592 0.07764154 0.30158693 0.66820556 0.2888771 0.10045181 0.052965403 0.24386634 -0.4657923 0.012823701 -0.046010587 -0.010744815 -0.32361493 -0.03085464 0.11863912 -0.10876605 0.3358901 -0.41998756 0.519298 0.034229457 -0.42212862 -0.29034126 -0.31052306 0.34834173 0.2786158 0.29097492 0.09616186 0.22696018 0.00018412987 -0.14175488 -0.17981869 0.41289163 -0.3841997 0.66360694 0.3689714 -0.0019872317 -0.17053258 0.12736635 -0.30561322 -0.14134634 -0.40697667 -0.15558961 0.20166025 -0.15523 0.030925931 -0.56000733 -0.18826824 -0.7982705 -0.012671574 -0.16292028 -0.23447016 0.49315792 0.19083753 -0.014166529 -0.2027695 -0.345555 -0.0028483889
1596 -0.17059414 0.010743221 0.14011435 0.0693093 -0.5089065 -0.07151994 -0.10635477 -0.13357174 0.047953088 -0.11360952 0.45617735 0.11361459 -0.22395194 -0.08678648 0.17489417 -0.117297515 -0.121476695 -0.13608424 -0.15483625 -0.012789583 -0.052080538 0.20869754 -0.19031402 0.17222674 0.13447566 0.4967352 0.022524571 0.03345867 -0.0007628192 -0.28099152 0.42601043 0.13584387 0.82309735 0.23957992 0.7659299 0.09462507 0.32962298 -0.0982711 0.3228328 -0.03588604 0.3666586 0.35691074 0.22138117 -0.24013694 0.4961494 -0.31495672 -0.094705634 -0.31094083 -0.1666134 0.06704729 -0.124985926 0.27307102 -0.1809786 -0.083354846 -0.6757613 -0.50301355 -0.005248145 0.08454937 0.3976824 -0.13672955 -0.09265104 -0.96074873 0.22962473 0.1820294
8074 -0.35154837 -0.057751853 0.25291133 0.41084376 -0.38911775 -0.2809389 -0.37186646 0.08186686 -0.3274157 0.20932811 0.056429133 0.55781186 0.18904443 -0.023332186 0.16956408 -0.4867377 0.004391544 0.028386626 0.50231624 -0.7417636 0.047464546 0.2565229 0.034504443 0.046203464 -0.28726742 0.35116616 0.08774454 0.34837314 0.1894561 -0.58577365 -0.3690376 -0.15524109 0.22543594 0.42760545 0.65675783 0.42735687 -0.20754297 -0.32267013 -0.50966674 -0.2710346 0.3677283 0.14215063 0.4924542 0.029891364 0.19716786 0.1155203 0.05570869 -0.29833362 -0.18928263 0.017069858 -0.31598687 0.3371318 -0.41311708 0.2301868 0.27926266 -0.019611228 0.5835348 -0.21211939 0.28262073 0.3835748 0.20220378 0.19936195 -0.25803337 0.05091856
1851 -0.06287994 -0.21974973 0.024827834 -0.21391097 -0.6373449 0.2018388 0.3313909 0.56822693 -0.0015211964 -0.13490966 0.42089525 0.06758954 -0.42056134 -0.048417836 0.062298503 -0.40955585 -0.10351754 -0.018374905 0.004464755 -0.7129624 0.38529557 0.4849711 0.32889175 0.10836033 -0.0008586359 0.562456 0.056528483 0.346423 -0.020090662 0.014888883 -0.53401476 0.21259554 0.10413952 0.05060949 0.2422988 0.42197958 -0.23948134 -0.21686412 -0.24958485 -0.10385474 0.20708789 -0.14307564 0.5015886 -0.2267252 0.057483952 -0.16571942 -0.08985281 0.055713154 -0.5771895 -0.34322527 0.18865097 0.6813947 -0.18002452 -0.025219698 -0.09509897 -0.33325037 0.2508088 0.152873 0.008947397 0.045059506 0.18610618 0.08774469 0.2726898 0.091772854
1282 -1.0133507 0.028697474 -0.63991886 0.36536735 -0.463134 0.25931287 -0.17417593 -0.008917989 -0.053179774 0.40134025 0.6271919 2.175942 0.83030844 -0.8762755 0.078518346 0.7407433 -0.09470101 0.13552642 0.91028124 -1.3240676 0.15157779 -0.032190833 -0.3567782 -1.5116713 -0.38379508 0.5883461 1.2746956 0.36786482 0.5409597 -0.29824507 -0.0450328 0.4020257 -0.7790612 1.049918 0.91983944 1.4236323 0.97098154 -0.68843645 -0.53151816 -0.6450766 1.2832594 0.47553495 -0.27741393 -1.2748748 -1.5632218 -0.25356632 -0.04556739 0.95718807 -1.2040929 -1.5552415 -1.188509 0.23048514 0.0832725 0.02101803 -0.45831335 1.15966 0.77835244 -1.3132553 -1.0428439 -0.5464817 -0.08322519 -0.34632215 -0.31577367 0.8567758
2419 0.15936342 -0.32057136 0.9047138 -0.068753 -0.30035475 0.800817 0.17134841 -0.43880337 0.1644974 0.2779751 0.44676015 -0.16295743 -0.15812178 0.13093652 -0.4366353 -0.208931 0.08857177 0.20321222 0.51706606 -0.9761169 0.33325207 -0.14067458 -0.13426684 -0.04272194 -0.24907975 0.34151608 0.09568209 0.27764684 1.033805 0.49900192 -0.5204197 0.47696322 0.18245259 0.32880276 0.23910534 -0.53993106 -0.67633146 0.16305874 -0.44197348 0.040727757 0.28749046 -0.27887055 0.020313278 -0.66081834 -0.6035146 -1.0811731 0.22575015 0.080069505 -0.3796163 0.02077685 -0.06848195 0.74069595 0.27974007 0.53614825 -0.029614853 0.4521841 0.19731882 0.42235327 0.27544478 -0.2265689 -0.08078835 -0.26626736 0.107964806 0.675448
6249 -0.34432814 0.28962874 -0.085518986 0.39784634 -0.013804562 0.37471434 -0.32023463 0.17736481 0.2500644 -0.17616472 0.44755772 -0.008923093 0.14190502 -0.27596235 -0.17053251 -0.16453785 0.14919543 0.40491816 0.12606259 -0.67550135 -0.06757323 0.24631137 0.091489755 0.34618473 -0.07437179 0.27603677 -0.31960702 0.53755856 0.11128089 0.4196743 0.4967503 0.38595423 -0.46988565 -0.0682209 -0.026353579 0.17440552 -0.30672663 -0.209132 -0.20044225 -0.29890066 0.028783426 -0.1332234 0.517954 -0.23666741 -0.02879934 0.08309022 -0.41633546 -0.5442601 -0.06487379 -0.22135058 -0.30793443 0.035069354 -0.29565653 -0.19499949 -0.2314452 -0.019196257 0.3120799 0.21715698 0.39240313 0.10446214 -0.0034762486 -0.3378472 0.017219692 -0.52955025
5425 -0.48372394 -0.37642977 0.04380017 0.48666692 -0.31016427 0.61975193 0.22485738 -0.045086157 0.07047822 -0.15987834 0.6255209 0.16111423 0.12850122 0.24099071 -0.17481434 0.20722234 0.18790105 -0.17425995 0.04141429 -0.49915054 -0.16068159 0.08820507 0.46184993 0.17412768 -0.54995733 0.13983466 -0.44336653 0.5502361 0.8074161 0.13391596 0.051753584 0.015456403 -0.14659664 0.18609072 -0.030012248 0.00976666 -0.07784386 -0.25214294 -0.36160547 0.008007749 0.49266127 0.5122691 0.21958183 -0.23634155 0.56318796 -0.11604791 -0.20491576 -0.85403264 0.13201945 -0.2808259 -0.12585376 -0.084233485 0.05258691 0.05284748 0.07538628 -0.44272283 0.39803222 -0.3073841 0.43858692 -0.0799136 -0.12997963 -0.77742565 -0.2097311 0.36238074
4460 -0.28888413 0.087888084 0.03934862 0.32739857 -0.59442526 -0.24682407 -0.21470618 0.14344795 -0.1353315 0.06419787 0.045735136 0.5356323 0.31423753 -0.032791726 0.27208364 -0.5386461 0.02877354 -0.17941098 0.22883815 -0.71039313 0.082122445 0.22100478 0.029301738 0.22255068 -0.23608398 0.5187394 0.15764311 0.3691976 0.17657723 -0.46690062 -0.22155817 -0.3022857 -0.09296694 0.284702 0.4934788 0.23799363 -0.20290859 -0.2773691 -0.4187825 -0.141261 0.4741044 -0.050741695 0.5591 -0.033146 0.2182243 0.0047052633 0.027742071 -0.22170264 -0.26503456 0.03231198 -0.39598343 0.3793882 -0.39147863 0.16272442 0.18289582 -0.15507178 0.60073936 -0.22265717 0.42273897 0.45930722 0.3848355 0.106390655 -0.13643509 -0.0016441225
3074 0.0068625296 0.18497473 -0.39089003 0.4703946 -0.01640936 0.49365053 -0.5543522 -0.03690311 0.19174312 -0.6679461 0.5788884 -0.029322574 0.40120894 -0.18970479 -0.35406747 0.36226946 0.21458876 0.28041506 0.5718847 -0.562202 0.5357405 0.39314562 -0.027167108 0.19965118 -0.26753274 0.002574047 -0.24035698 0.5547542 -0.3545022 -0.11084006 -0.07881315 0.6517248 -0.64834195 -0.43232253 -0.25710002 0.043132793 -0.24609667 -0.28967732 -0.10370893 0.0064018387 0.18976122 0.26916713 0.35898983 -0.2182141 0.1960641 -0.059429903 -0.5422228 -0.32179937 -0.21501796 -0.17377979 -0.23867542 0.5423025 -0.33719668 0.17244986 0.0009048163 -0.1948077 0.34990057 0.009971275 0.50694615 0.024952104 0.3490839 -0.98299396 0.36068726 -0.30188188
1144 0.14595255 -0.050853968 0.50293887 0.049904566 -0.58247095 -0.2646189 -0.195183 0.2379831 0.13847366 -0.009610151 0.19974862 -0.073155716 0.249242 -0.4732292 0.24701306 -0.17716569 -0.014883804 0.15969436 0.14591679 -0.34700513 0.073988706 0.11070558 0.17251109 0.6081186 -0.32771868 0.099519566 -0.31716627 0.0074656764 -0.15825123 -0.23382637 -0.114367165 -0.10543233 0.23345234 0.39281198 0.064393066 -0.031249033 -0.55681115 -0.283482 0.48361123 -0.25785294 0.10487623 0.07906291 0.1850034 0.15966567 0.538437 -0.4201858 -0.5347277 -0.33295357 -0.027226081 0.35608292 -0.30213097 0.36162686 -0.081424825 0.006700616 -0.60620666 -0.8458972 0.29571292 -0.05512955 -0.2642123 -0.09906537 0.20483853 -0.60273033 -0.50596625 0.091681
529 0.003246767 0.07965417 0.71958894 -0.45533472 -0.26126763 -0.24510825 -0.5928536 0.13603176 -0.111175284 -0.44114733 1.1585559 0.52631587 -0.31005222 0.023219716 0.23579894 0.24146326 0.0030753887 -0.36420143 0.16688329 -0.35891232 -0.32635424 -0.031535447 -0.18792713 -0.40889177 -0.28855428 0.6542468 0.3014896 0.42782277 -0.021059772 -0.26808387 0.39605916 -0.2489023 0.07216781 0.82909006 0.21353415 -0.7734344 -0.3341309 -0.056544162 0.5532963 -0.24839936 -0.2523054 0.21346678 -0.14151852 0.3224885 0.52132016 -0.14784954 0.13544941 -0.09704167 0.07839265 -0.12578794 -0.13659939 0.8675535 0.26763108 0.037474446 -0.5159215 -0.29254037 0.6210689 -0.7756515 0.23929088 -0.31129998 0.42377746 -0.8737951 -0.20843004 -0.110877894
5542 0.18064927 -0.08396623 0.2051222 -0.35465246 -0.44678858 -0.23335941 -0.17497694 -0.1091597 0.39430684 -0.09822191 0.34146208 0.30103558 -0.2150154 -0.24071908 0.33959866 -0.4063051 -0.043872073 0.3133187 0.15782115 -0.19386561 0.19809599 0.20669831 -0.14767325 0.35048229 -0.18818858 0.17682357 -0.1850699 -0.15163398 0.31196222 -0.15573405 -0.11922813 0.1672843 0.56963485 0.2153466 0.34094253 0.021648344 -0.27274176 0.018580696 0.4443575 -0.38604522 0.17776686 0.10314809 -0.03440539 0.08053689 0.2719924 -0.038707465 -0.2243094 -0.3590851 -0.22814539 0.12047704 -0.00029646663 0.027221903 -0.21333687 0.08631815 -0.57423073 -0.44989276 0.2206937 0.045496926 0.43996555 0.08213956 -0.07803167 -0.46396074 -0.32245398 0.16798836
4708 -0.31680802 -0.29568022 -0.07386452 -0.3673512 -0.31421024 -0.1940229 -0.16096182 0.20687918 0.54921067 -0.14965835 0.4966726 0.067114875 -0.15280919 -0.035605803 0.44098383 -0.022451786 -0.17338438 -0.12912887 0.06671392 -0.48469737 -0.13941208 0.09113054 -0.28400624 0.31934336 0.003320749 0.2455831 -0.23980656 -0.11313389 0.28418595 -0.19135883 0.19879611 0.7158862 0.5621298 0.1947742 0.03975707 0.02729481 -0.25240007 -0.15354556 0.2441355 -0.42823946 0.53571576 0.35991797 0.3021981 0.11919077 -0.09000713 -0.08364903 -0.44300222 -0.42185503 -0.05807158 0.22438335 -0.3007032 -0.03633047 -0.09495383 -0.027420603 -0.39869595 -0.18845034 0.0990101 0.029151753 0.42150655 0.117143765 -0.1636974 -0.41035414 0.06532782 0.03388765
6879 0.11054359 0.1980595 0.07067501 0.4137675 0.121391535 0.42890063 -0.5727375 0.053947363 -0.12181021 -0.43841517 0.36569285 0.22448543 0.30063793 -0.59106815 -0.116420254 -0.30120212 -0.19824106 0.545817 0.528874 -0.40752432 0.6246673 -0.13683951 0.059914492 0.57320243 0.15378903 -0.043458886 0.014656379 0.0414234 0.0531962 -0.06621657 0.017540129 0.3507762 -0.1760401 0.023224205 -0.54171926 0.018282318 -0.4608151 -0.1361654 -0.40874955 -0.37865287 0.13619511 0.62032056 0.4809641 0.31465313 -0.040687524 0.1567972 -0.1690664 -0.14405891 -0.6550832 -0.42493787 0.04057692 0.3939958 -0.38781846 0.53843224 -0.12087447 -0.16563772 0.31788617 -0.13477048 0.0035607377 0.15040208 0.26150572 -0.6019749 0.1387376 -0.29869497
2133 0.113955736 0.05041697 0.3810053 -0.11240349 -0.5001525 -0.4046405 -0.073404245 0.3179945 0.2534899 0.18331306 0.77597296 0.29585612 -0.07532361 -0.22277105 0.089395255 -0.19450864 -0.35523772 -0.019964255 0.21154189 -0.59044313 0.042475868 0.14132333 -0.16588603 0.2827885 -0.19856356 0.20767444 -0.36600965 -0.2317474 0.38304678 -0.4299453 0.018205963 0.5400143 0.6038098 0.397769 0.27472398 0.114624046 -0.32949665 -0.024151903 0.37030968 -0.39502582 0.4279139 0.25858673 -0.023662264 0.3393177 0.41094795 0.13758312 -0.2882305 -0.34318554 -0.20477016 0.13140117 -0.12150449 -0.036037058 -0.0889785 -0.14097889 -0.43614417 -0.12033797 0.27924514 0.061316703 0.35791904 -0.1661455 -0.14584708 -0.10309005 -0.16643919 0.2530536
4110 0.14498326 -0.40382057 0.5814801 0.2208515 0.092348985 0.56994164 -0.48867702 0.12127159 0.36565986 0.040084206 0.82297456 -0.015267308 -0.169161 -0.74756885 -0.32002586 -0.7404002 0.19932693 -0.48848215 0.7186782 -1.0659953 0.20581846 -0.07135036 0.5380268 0.62717384 -0.12877758 -0.57097214 0.93837196 0.3420816 0.5581018 -0.5010872 0.60771614 0.3259062 0.10269055 0.24448654 0.0051400163 -0.3987061 -0.43496823 -0.1457704 -0.9666948 -0.21224481 0.2287346 0.10071301 0.46388483 0.5942187 0.5593585 -0.40593293 0.12998532 0.72835654 -0.44471955 -0.22769909 -0.07370974 0.37715873 0.2078015 0.20790635 -0.37011012 0.47942784 0.3901859 0.5684649 0.05278298 0.42618448 0.0935972 -0.6851297 -0.23476398 0.19769914
975 0.06447439 0.20128466 -0.1584483 0.76995355 -0.18838806 0.48553458 0.10023198 0.1731576 0.2400289 -0.015810814 0.5178429 -0.2529074 0.25953895 -0.23665199 -0.08040732 -0.12617429 -0.18908957 0.6073623 0.43258336 -0.6478863 0.105164 0.15085733 0.24694325 0.45270053 -0.29505157 0.2051553 -0.1896908 0.5321375 -0.41366273 -0.03167737 0.09217541 0.3596664 -0.4820942 -0.3419648 -0.20692869 0.12063148 -0.31178373 -0.046395175 0.051591218 0.019268854 0.352336 -0.13762765 0.21707906 0.075164504 0.11969435 -0.027886488 -0.5302545 -0.377277 -0.17968988 -0.37639508 -0.07168104 0.53110576 -0.16501161 -0.11890657 -0.32098088 -0.31999996 0.4390243 -0.034364663 0.17918323 0.015978176 0.18589917 -0.38676056 0.23322515 -0.4716123
3080 0.20946825 -0.12311335 -0.09533735 0.48290172 -0.0014381446 0.56736606 -1.3287038 0.18852206 0.15201007 -0.55928206 0.11046438 0.359883 0.011184819 -0.39350873 -0.33257315 -0.57926244 0.1835161 0.24689904 0.3814435 0.13242812 0.4735153 0.072163604 0.15546104 0.057889346 -0.14727074 0.04496677 0.19474626 0.090123 0.15704913 -0.32417715 -0.023340216 0.6595879 0.022608 0.25562266 -0.52589005 0.12895976 -0.36595386 -0.19491822 -0.23519154 -0.029526979 0.41457632 0.17336309 0.033584103 0.259006 0.1854104 -0.12017066 -0.25920326 -0.10929148 -0.63999736 -0.24413659 0.26527515 0.32833412 -0.6041751 0.6979364 0.58888716 -0.11807048 0.41382775 -0.054317504 0.236222 0.3081439 0.7661125 -0.49870208 -0.10066662 0.6220204
7280 -0.384139 0.11056698 0.16384222 0.37381622 -0.23547718 -0.19788507 -0.40219042 -0.008655618 -0.03950097 0.17665614 0.1364511 0.5993719 0.27935854 0.00908649 -0.0036509198 -0.54075736 -0.023204168 -0.0016738381 0.3099691 -0.6248831 0.15412149 0.12534206 0.09075521 0.2739419 -0.19006145 0.3455557 0.12645288 0.3087943 0.031741794 -0.446017 -0.16751109 -0.1832473 0.07647366 0.27436677 0.57008487 0.33217922 -0.24859926 -0.12738127 -0.52422124 -0.22491217 0.35466167 0.26574743 0.5791754 -0.02973655 0.23251022 0.010915684 0.1749765 -0.20405024 -0.46985286 0.14280279 -0.36344242 0.3729966 -0.40176886 0.24954696 0.15843298 -0.10454203 0.595086 -0.114505425 0.46375513 0.37682012 0.3150602 0.20262003 -0.23239549 -0.031345658
4961 -0.19311932 -0.101106025 0.09605253 0.05312152 -0.89292705 -0.12671892 -0.55528545 0.21771473 0.10410828 -0.11157755 0.34631008 0.3833015 0.03622925 0.15620635 0.12004591 -0.33171412 0.26998684 -0.014388926 -0.06211251 -0.31552988 0.41877037 0.16724013 0.6032725 0.21118636 0.010651521 0.6579259 -0.11308844 -0.10537147 -0.47987178 0.7975427 0.23398031 0.45632938 1.0969133 0.27990133 0.13481721 -0.42781642 -0.4452599 -0.72508615 0.10585259 -0.016386485 0.27256587 0.26407114 0.44322914 -0.22421499 0.13272354 -0.19727659 -0.028070714 0.08344653 -0.36013648 -0.48721954 0.039610397 -0.014739678 -0.49970156 -0.77916455 -0.45884025 0.15547955 -0.20350598 -0.03700722 0.23218505 0.042328916 0.33454162 -0.029234497 0.2781594 0.2833836
1244 -0.53362346 -0.11882793 -0.009413576 -0.0346661 -0.16153386 -0.045961373 -0.16830556 -0.060561284 0.4945688 -0.0065200687 0.5931208 0.1923618 0.4782256 0.48923418 0.07055763 -0.098564304 0.29048175 -0.075360246 0.24241474 -0.11876592 -0.4423902 -0.104195796 0.5035482 -0.109409794 -0.7565707 0.078911304 -0.19927464 0.3027429 0.82863086 0.028012635 0.107120536 0.21814455 0.1627129 0.09172148 -0.027446022 0.16527091 -0.14680754 0.14700446 -0.6082148 0.011422396 0.4828253 0.7094261 0.2953307 -0.61343783 0.4393592 -0.16679312 0.2092419 -0.59046847 0.37867814 -0.53109866 -0.076556414 0.34397888 -0.4832646 0.15446463 -0.008954991 -0.23274775 0.38324556 -0.3271428 0.85783684 0.2464363 -0.22188914 -0.06785787 -0.27319685 -0.0025477188
4749 -0.38325801 0.11124785 0.26643977 0.34303567 -0.5460203 -0.37622455 -0.34083137 0.03681505 -0.29395133 0.2670841 -0.03009056 0.635328 0.18539381 -0.16853692 0.16550368 -0.46750927 0.08010867 -0.14605033 0.35393706 -0.69962984 0.042261872 0.14670047 0.1267699 0.20973392 -0.36929578 0.29297104 0.07730803 0.2122722 0.007631919 -0.68624264 -0.22796308 -0.19073053 0.22080897 0.45701832 0.59895676 0.20006543 -0.45171025 -0.31935966 -0.52293485 -0.13656604 0.36232743 0.110534884 0.70080435 0.12930097 0.23434237 0.045842778 0.23832001 -0.20061 -0.3342281 -0.018332154 -0.3541454 0.33079678 -0.49427995 0.15489544 0.24613993 -0.03747148 0.6324521 -0.23392776 0.37385994 0.43069616 0.28043506 0.13934727 -0.3174825 -0.036635906
742 0.15997735 0.053085506 0.9495075 0.41933385 -0.47832027 0.3787235 -0.6163858 -0.11849792 0.43056408 0.1705414 0.9552965 0.0025717155 0.4799237 0.14113055 -0.12463089 -0.013265175 -0.3436192 0.435291 0.3524604 -0.14404485 0.17154013 0.058558468 0.23511374 0.2829798 0.11039672 -0.29624772 -0.08799248 0.123065725 0.37671778 -0.47556448 -0.12778668 -0.12776688 -0.02526487 -0.23216744 -0.452151 0.11415102 -0.03236043 0.7654765 0.16818811 0.28664652 -0.2599452 0.19868077 0.76621413 0.049702156 0.011442379 -0.14730273 -0.47747824 -0.18106377 -0.698955 -0.4331109 -0.09176857 0.3794046 -0.009744389 0.19945264 -1.1126761 0.6396331 0.038565088 -0.75854176 0.27091506 0.4038088 0.09806525 -0.5009337 -0.08017799 -0.080015294
6137 -0.20537642 0.10900069 -0.5543059 0.44485024 -0.10858276 0.5992406 -1.0111848 -0.13060974 0.19992238 -0.55270314 0.56874436 0.07998785 0.32685754 -0.30486298 -0.21563326 0.096556894 0.20509501 0.19591115 0.783988 -0.42125627 0.55601037 0.31607464 -0.08398749 0.16168565 -0.29189274 -0.02402352 -0.028892599 0.37307844 -0.3682751 -0.19781695 -0.18300717 0.58150214 -0.32784402 -0.38235006 -0.5861276 -0.035161495 -0.30320305 -0.24177884 -0.3502149 -0.13554588 0.045340877 0.5009444 0.283853 0.1451364 0.0452909 -0.030320985 -0.31174117 -0.23380834 -0.39941117 -0.17073245 -0.1668034 0.46864066 -0.40641 0.4388014 0.17737377 -0.120103955 0.46525675 -0.16056794 0.5623888 0.05144154 0.53797084 -1.0164673 0.32134533 -0.21866307
2027 -0.21214844 0.037740476 0.15805323 0.26545697 -0.49650872 -0.59516567 -0.40806916 0.076085284 -0.10628263 0.20486864 -0.04596893 0.5223605 0.27039537 -0.13007025 0.12772843 -0.56913054 0.16444975 -0.01652964 0.3358198 -0.7241097 0.09836848 0.22608346 0.080393076 0.34619096 -0.4265376 0.44690457 -0.011958111 0.26334593 -0.1061906 -0.57205296 -0.3036683 -0.33386105 0.21957588 0.29583007 0.6338278 0.21246055 -0.42437488 -0.17165664 -0.3982272 -0.3010945 0.37561926 0.018673005 0.6660839 0.013817206 0.3074263 0.027218373 0.07555823 -0.29348242 -0.3571964 0.19459274 -0.3544317 0.44770494 -0.45961165 0.1223457 0.14238285 -0.07153274 0.54591537 -0.2461904 0.38767403 0.44767922 0.298667 0.001753185 -0.39418548 0.044180933
6295 0.19713217 0.19399177 -0.042299505 -0.43691003 -0.09460721 0.05469077 0.10709401 -0.009875145 0.3403734 0.056510743 0.1157625 0.15388934 -0.11739328 -0.36101234 0.34435436 -0.29368955 -0.30690303 -0.20412767 0.0868644 -0.22199884 -0.09508073 0.5750935 -0.44511077 0.42857957 -0.042604595 0.4553576 -0.117722794 0.4109643 0.12694803 -0.21290955 0.016678752 0.1929041 0.27468568 0.29954097 0.29036102 0.05756249 0.1559798 0.08532877 -0.22263867 -0.19666368 0.4253046 0.111843415 0.3680797 -0.20297872 -0.14866047 -0.31426185 -0.12451559 -0.25224054 -0.3880355 -0.07752351 0.11664476 0.20744203 -0.49811858 -0.14184411 -0.60182804 -0.49727252 -0.030697962 -0.2757752 0.75905263 -0.16672462 -0.3001634 -0.4106482 0.0033404212 0.09851516
744 -0.0019499328 0.38516188 0.79967386 0.42801327 -0.09780714 0.29668587 -0.32545143 0.1430904 0.32263204 0.3651332 0.9209948 0.38717404 0.24101646 0.0965396 -0.066156626 -0.049654875 -0.5610603 0.30902594 0.15857409 -0.024418026 -0.0035348868 0.056753106 -0.007981285 0.53641397 -0.045631476 -0.09541769 -0.054817405 -0.06190257 0.20095901 -0.24841854 -0.065335795 0.21467735 -0.003770022 -0.057192534 -0.26331457 0.102280095 0.024917286 0.738998 0.09492932 -0.014383911 -0.28135327 0.76585954 0.48138374 0.15221424 -0.117806815 -0.06077521 -0.5705873 -0.2612012 -0.3762984 -0.20084536 -0.27144822 0.35781008 -0.03171575 0.26311532 -0.91951853 0.4146104 0.1983408 -0.70625603 0.6184244 0.24312906 0.17082693 -0.39836624 -0.010946989 -0.2776066
8889 0.33110347 -0.23575848 0.26401857 -0.21488562 -0.58978856 -0.11531756 -0.091812104 0.32024634 0.1825576 0.0012018415 0.7322872 0.42318112 -0.07637831 -0.08095096 0.26123458 -0.13338992 -0.2685741 -0.23117125 0.16747361 -0.5634902 -0.12902977 0.09064554 -0.25400525 0.07352201 -0.49845195 0.32801825 -0.21850827 -0.35749656 0.4298095 -0.36313102 0.15765512 0.17988195 0.40917793 0.3875329 0.1860557 -0.014545705 0.07211628 0.11371329 0.5231313 -0.5591152 0.34745118 0.32186267 0.09919674 -0.14911248 0.17129487 -0.07175391 -0.5813956 -0.16795968 -0.047891557 0.37822294 0.03165745 0.2989468 -0.43187007 -0.12307752 -0.5038107 -0.07996778 0.21520332 -0.3553717 0.31249455 0.041833203 0.35942987 -0.4260643 -0.17466135 0.04321496
3399 -0.19616939 -0.30811128 0.065748625 -0.12036337 -0.5404043 -0.078595094 0.5239268 0.37258285 -0.17453817 0.5063631 0.41691822 0.32507107 0.07671647 -0.2894121 -0.11074163 -0.09540819 0.40746817 0.4925141 0.055134214 -0.6656864 0.1138064 -0.1614768 0.5373408 0.38953957 -0.3940769 0.5543023 0.11062215 0.30432758 0.043967646 0.07516673 -0.81322235 0.378554 0.7775274 -0.045346167 0.43870926 -0.2484034 -0.31072617 -0.035839263 -0.50946814 -0.050242327 0.058838714 -0.19693269 0.48951828 -0.19232073 -0.5430939 -0.23996407 -0.011527658 0.47907725 -0.26795715 -0.32205248 0.04315463 0.8908763 -0.077858984 0.2896441 0.13757397 0.006580827 0.6213022 0.60656023 0.255793 -0.04350981 -0.2137344 -0.36675477 -0.07267569 0.09973809
2528 -0.081982374 -0.52324927 0.035292268 -0.36298317 -0.98927593 0.07128657 -0.5366183 -0.06142235 0.040899742 -0.17566752 0.35960734 0.48473823 0.49903253 -0.1182246 0.82675827 -0.059567522 0.03056259 0.5629243 -0.19204086 -0.26046374 0.49079993 -0.004878924 -0.000805502 0.5154786 -0.48184627 0.105907016 -0.06440676 0.35760763 0.18867056 -0.2875793 -0.5042067 -0.050336316 -0.15359059 0.27653286 0.065110676 0.16813794 0.18520606 -0.15543681 0.12931775 0.35235563 -0.18957555 0.08550391 0.008707671 0.40404633 0.19816089 -0.29056573 -0.4407097 -0.15612637 -0.11688933 0.24664035 -0.39891386 0.39334944 0.31634474 0.006009476 -0.2888074 -0.5501687 0.6566481 0.30006215 0.20969859 -0.55125123 0.6423434 -0.4576805 -0.25078645 -0.3803984
6533 -0.026700232 -0.46611017 0.1531008 -0.07239783 -0.2673594 -0.06947756 -0.5021609 0.17927644 0.06800791 0.12269706 0.90602267 0.19708668 -0.35502982 0.039252125 0.29719537 -0.47892463 -0.0074795713 0.14048165 0.22183375 -0.011343721 -0.13960475 0.39275697 -0.33821243 -0.24880314 -0.35741264 0.43947735 0.4303974 -0.011008382 0.4764731 0.088914976 0.3033135 0.08038028 0.25670224 0.08525386 0.5367996 -0.34781668 -0.28981102 0.1798383 0.7982938 -0.30782074 0.38094097 -0.2882954 -0.066035345 0.21348938 0.3032719 -0.13767628 -0.22523329 -0.35439435 0.2506553 -0.22108234 -0.01165966 0.3933804 -0.097115055 0.27227986 -0.23650005 -0.4764847 0.44574836 -0.35414326 0.63201 -0.060219184 0.028289411 -0.79863024 0.023599675 -0.012146089
3237 -0.44587836 0.6582331 0.20457588 -0.63208216 0.1298878 0.4071054 -0.18732649 0.11011638 -0.07167704 -0.055909693 0.42046085 0.03678683 0.53233224 0.4125414 0.32494822 -0.14375041 -0.40016708 -0.10045977 0.475699 0.050320853 0.6118331 0.17610577 -0.43105423 0.74184704 0.17577574 0.41855216 0.21693298 0.23157299 0.9525384 0.31092924 -0.0536637 -0.6082867 0.18298547 -0.06709362 0.83714455 0.32007068 -0.31321323 -0.63591295 0.26828754 0.52202237 0.4241532 0.47130385 0.84120286 -0.105126716 0.18690656 -0.40243798 -0.051350586 -0.07464096 -0.23776157 -0.4691394 0.34362245 0.89759415 0.57124007 -0.4021569 -0.16236967 -0.17564936 0.3925509 0.13522205 0.09842019 -0.36421275 0.8724857 -0.4831933 -0.48454472 -0.008003072
6532 -0.17246348 0.086612955 0.0776126 0.0033896368 -0.4455898 -0.115131736 -0.32015905 -0.033228666 0.1271353 0.27005765 0.47697225 0.5306468 -0.07869916 -0.086827576 0.011646857 -0.30231032 -0.069992565 -0.077368155 0.1259277 0.20644622 -0.06453429 0.35757264 -0.24971186 0.27277535 -0.13194723 0.44118965 0.15661284 0.36017838 0.21355747 -0.11105681 0.18632767 0.08324834 0.35439757 0.100046515 0.56387883 -0.17712937 0.27182624 0.07363032 0.47946832 -0.3960268 0.31873733 -0.013694754 0.0033988648 -0.11184503 0.29512537 -0.24501199 -0.057116024 -0.19126923 -0.28947657 0.0698679 0.07692437 0.47922105 -0.3965766 0.026460633 -0.5678111 -0.790083 0.25014284 -0.009981876 0.69379854 -0.17067339 -0.21391924 -0.39370015 -0.13521852 0.1554225
2463 -0.27269214 -0.26269323 0.39281142 0.19895239 -0.8351571 -0.3689205 -0.41358745 0.32549888 -0.17936234 -0.077177994 0.73652506 -0.0955242 -0.006635085 0.022159807 0.17894506 -0.3851728 0.045633506 -0.024924766 0.5824393 -0.18816718 -0.30403134 0.12646471 0.59101635 0.44546056 -0.30509615 -0.29449227 -0.50222474 1.1513664 0.5963275 0.37536862 -0.15626642 0.33858675 -0.2326043 0.30913872 -0.27843317 0.38022092 -0.02654333 -0.0021947508 -0.3980333 0.44629604 0.34553322 0.21332887 0.049642112 -0.56943893 0.2699051 0.044341344 0.13673332 -0.6460941 -0.6073477 -0.25323272 0.3001515 0.4945031 -0.19185331 -0.8574059 -0.047674663 -0.42043746 0.054099854 -0.6084209 -0.23407957 -0.2084612 0.37934396 -0.3009497 -0.6109945 0.16237544
3881 0.35618082 0.116813295 0.32556155 -0.24525869 -0.31375402 0.03375959 0.028958034 0.27635646 0.31261352 0.073205866 0.66825944 -0.0023957074 -0.05896536 0.041259862 0.095811285 -0.29655558 -0.48348254 -0.18291065 0.11840866 -0.556921 -0.074320786 0.11039831 -0.26872593 0.27851424 -0.23216982 0.25173876 -0.062894166 -0.14719385 0.27909827 -0.39608532 -0.2044537 0.6619842 0.4014725 0.5946126 0.27819744 0.15107366 -0.23677981 -0.19748023 0.43295518 -0.6888325 0.73464876 0.12116281 0.022946065 0.06743488 0.30192792 -0.03302821 -0.51229995 -0.4742175 -0.09114368 0.077074215 -0.050643098 0.2739661 -0.34123847 -0.1572715 -0.438507 0.004120026 -0.0715153 -0.23121175 0.48598674 -0.1819856 0.13891031 -0.38293228 -0.2539795 0.13664511
976 -0.9097705 -0.021176662 0.36363253 0.31474832 -1.219308 0.463331 -0.9641302 0.9925614 0.57283425 -0.6084914 0.5331813 -1.0873317 0.32204556 -0.050309826 0.16654606 -0.16827005 0.0011780375 1.212053 0.36678 -0.29491925 -0.4979698 -0.38067496 0.28532577 0.095255196 0.117038235 -0.23350678 -0.2017857 0.9164164 0.2688214 -0.03216143 0.9201719 -0.16989006 -0.0018675855 -0.16906978 0.54307103 1.0399228 0.12060792 -1.190525 -0.39715794 0.89685696 0.052604042 -0.48367572 0.11349508 0.20036064 -0.17040746 -0.335836 -0.55152696 -0.17401682 0.089405574 -0.25600433 -0.23898363 -0.01289188 0.2621952 0.3281733 -0.5408266 0.21383429 0.3872926 -0.14667793 1.0100381 -0.71017045 0.76721036 0.11099159 -0.98166764 -0.03160104
4372 -0.108867586 -0.56277746 0.5789452 0.12073873 -0.8593879 0.4353105 -0.784976 -0.2797076 0.31837842 0.55668855 1.1632372 -0.5709806 0.6950478 0.0917568 0.1106193 0.13292095 -0.13514148 -0.047124587 0.5428409 0.017436644 0.44964367 -0.036915652 0.68009347 0.097438216 0.10531784 -0.15958299 -0.044855885 -0.18267448 0.58625597 -0.715926 -0.33875388 -0.79735667 0.2752632 0.1631341 -0.54811484 -0.06323977 -0.09292588 0.9119213 0.35984764 0.33721146 -0.122846596 -0.164741 0.66162294 -0.1634892 -0.08936495 -0.43902788 -0.4989202 -0.21321313 -1.2580323 -0.56780666 0.2005132 0.458186 -0.16892204 -0.28024843 -1.1649389 0.623093 -0.6648669 -0.9028404 0.36539435 0.44465625 -0.09422351 -0.5053418 -0.2960612 0.14656702
2757 0.03168786 -0.79792076 0.109128304 -0.4464832 -0.32081607 -0.27014172 -0.58640796 0.30537078 -0.6548691 0.31367478 0.5521572 0.15957972 -0.6436128 -0.6331647 -0.21108171 -0.11915946 0.11101243 0.41515994 -0.24498677 0.64196414 -0.13355364 0.075854614 1.0925357 0.34521183 0.32552737 1.0990747 0.13762406 0.5005991 0.84276086 -0.3425715 -0.31553623 0.5681496 -0.10709177 0.8791604 -0.003434769 0.11947827 0.11097997 -0.4067424 -0.44014126 -0.11464354 0.8369216 0.11124007 0.3827706 0.6167786 -0.97961175 -0.8481334 -0.5905126 0.2846391 -0.02415226 0.1127727 0.2449096 0.27437907 0.22092584 0.47111025 -0.282 0.1593029 0.87470484 0.38718382 0.5753806 0.19383991 -0.8697206 -0.72678477 0.3802519 0.02409337
260 -0.8190899 0.12514713 0.33994144 -0.11462767 -1.2524705 0.32129687 -0.909492 0.48400924 0.46204993 -0.41578096 0.5254364 -1.0666107 0.3883714 -0.5613748 -0.20532155 -0.43882763 -0.039543822 0.88747275 0.5161346 -0.37157184 -0.5363622 -0.53492415 0.39706784 -0.029009743 0.27765423 0.047556777 0.05598818 0.1060976 0.41654325 0.21758795 1.1421955 0.066458516 -0.22355723 -0.31043664 0.9376619 1.0021265 -0.0566026 -0.95661074 -0.6027261 0.7444683 -0.10075947 -0.124435596 0.4768065 -0.08229281 -0.26925972 -0.55727744 -0.6417668 -0.33716395 -0.25441396 -0.48091033 -0.16370599 0.06491154 0.31871545 0.6119785 -0.29829967 -0.04783588 0.18692435 -0.34498727 1.2656336 -0.8906272 0.26030686 0.2723148 -1.5311209 -0.09022418
1058 -0.42298105 -0.05072189 0.26964965 -0.53717583 0.14487201 0.3976942 0.13772525 0.43295664 0.14004076 -0.037762284 0.5663525 -0.34366727 -0.4000902 -0.24608219 0.02968803 -0.48290613 -0.028607486 0.53954816 0.2272002 -0.9221846 -0.4494636 -0.11649278 0.6151464 0.16635878 0.020871418 0.38748175 -0.3765468 0.72736263 0.25198895 -0.14991048 -0.54339504 -0.08015946 0.17854007 -0.2807862 0.28672284 0.38745207 -0.22093847 -0.02910285 -0.90935445 0.10451835 0.096850924 0.04824333 0.28617567 -0.016041594 -0.1959056 -0.7151757 -0.077192724 -0.47992724 -0.51731586 -0.49846599 -0.112059385 0.3122798 -0.80701476 0.6515813 -0.2656256 -0.032425568 0.20283869 0.3233919 0.30288044 -0.4646565 0.16920385 -0.47961706 -0.24461329 0.22869249
632 -0.9420301 0.13852437 0.34802696 0.0929985 -1.3289669 0.4960394 -0.6394416 0.41603404 0.50114954 -0.48681617 0.2986156 -0.87578034 0.23254955 -0.55825347 0.0010488016 -0.3460281 -0.17204231 0.8081426 0.43569738 -0.5207615 -0.52059716 -0.41072467 0.20437986 0.3075054 0.1571477 0.049815428 0.06258105 0.44679174 0.23311782 0.16539396 1.127176 -0.15332668 -0.28988284 -0.062193636 0.19017966 0.695534 -0.32574865 -0.7666304 -0.44154918 0.69680476 -0.052246068 -0.41340223 0.20245509 -0.13668072 -0.29319295 -0.41592494 -0.81763655 0.10802043 -0.27914542 -0.53724587 -0.21803258 0.1971663 0.1945422 0.3152798 -0.28226745 0.10796734 0.14639734 -0.13982101 1.1514918 -0.50788677 0.5154458 0.28335768 -1.4046937 -0.23647842
2786 -0.059338477 0.14180274 -0.32285985 0.3993458 -0.6391418 0.26030028 -0.833835 -0.10103965 0.14661525 0.029547554 0.70772046 0.36698434 0.11798215 -0.14691773 0.35126287 -0.05919904 -0.5474465 0.42236418 0.704571 -0.14935747 0.14571619 -0.050825372 0.07992876 0.018656172 -0.19892837 -0.0034907395 0.22237673 0.16889443 -0.27311358 0.17564756 -0.027561102 0.233005 -0.43356997 -0.07858782 0.08119306 0.45951033 0.16903153 0.32517457 -0.28400743 -0.7306864 0.15337707 0.25626045 0.02694651 0.2529069 0.25681624 -0.11709943 -0.08452597 -0.45861247 -0.32856664 0.28581274 0.23381956 0.41234085 -0.37898824 0.16068405 0.10862518 -0.049474113 0.35477668 -0.008175015 0.26848242 -0.37834057 0.5964725 -0.7640733 0.15083103 0.11422727
7979 0.17671584 0.26239598 0.13792817 -0.28436333 -0.36984286 -0.07678365 -0.012709307 0.18575098 0.083778374 0.014403998 0.6384481 0.11237635 -0.031090686 -0.17297155 0.1842322 -0.4523207 -0.15395902 -0.4155412 0.03654064 -0.2765263 -0.021161526 0.33854672 -0.22076838 0.20013283 -0.17833202 0.44562256 0.07100601 -0.029394768 0.1437778 -0.22080974 0.30027738 0.09766231 0.5342986 0.19785906 0.14878827 0.114571586 0.21011086 0.16400997 0.3529939 -0.3968182 0.34889552 0.3265033 0.19410844 -0.12845647 0.18301451 -0.37170178 -0.14746836 -0.28308636 -0.23883715 0.011126623 0.033341628 0.28257698 -0.20010082 0.1476091 -0.57002807 -0.47582275 0.13761768 0.023598915 0.5213349 -0.3123262 0.072648495 -0.21511379 0.0011429369 -0.06474529
8086 -0.19799624 -0.28943166 0.015436462 -0.1568474 -0.13037376 0.087974116 0.21454336 0.6183053 0.26164564 0.16954584 0.23440923 0.26686838 -0.1710676 0.30116448 0.47989818 -0.51260376 0.044625323 -0.21694747 0.25172985 -0.45388755 0.18243138 0.333688 0.08417871 -0.0032662125 -0.3467815 0.55860794 -0.14593713 0.060058113 -0.29994127 0.284209 0.3232518 0.6295125 0.9716665 -0.24740432 0.15574582 -0.37293237 0.21070185 -0.23094814 0.35582727 -0.10952264 0.4592313 0.3961916 0.2965322 -0.019699095 -0.32520697 -0.11177188 -0.18990368 -0.15426902 -0.47017813 -0.026820736 -0.09303098 0.13578138 -0.15559135 -0.077000014 -0.8570457 0.24503377 0.07071564 0.073848195 0.4733835 -0.07127981 0.26546717 -0.36803997 0.13268101 0.15847681
6055 0.15683101 0.15089221 -0.007870522 -0.37655324 -0.16350238 -0.030268416 -0.0355048 -0.039865337 0.41647953 0.04867517 0.040901087 0.2777583 -0.08863038 -0.56819206 0.41733488 -0.19565786 -0.29711935 -0.13664019 0.055396486 -0.16922048 -0.03436334 0.63250077 -0.42576402 0.4727863 -0.075669415 0.50534457 -0.14866564 0.41254136 0.10515486 -0.2275928 0.21276563 0.036785167 0.27898395 0.33661485 0.21841924 0.13895509 0.12449199 0.18834634 -0.047016338 -0.311571 0.37338966 0.19883567 0.4464377 -0.08477138 -0.18301527 -0.13500868 0.010459578 -0.24472891 -0.41695592 -0.14326398 0.15667716 0.23719081 -0.5157764 -0.19655506 -0.61796516 -0.54067755 -0.10553308 -0.1063858 0.71171576 -0.1301455 -0.4165856 -0.32584527 -0.12297276 0.058993198
3331 -0.5934102 -0.274913 0.22340848 -0.06704502 -0.03529399 0.017092206 -0.05781593 0.047739625 -0.41761458 -0.19940834 -0.22899522 0.5646601 0.27090597 -0.5445609 0.3724646 -0.776769 0.13398896 -0.005419333 0.6872562 -0.43967247 0.56578106 -0.26386344 0.5746112 -0.19052042 -0.18968299 -0.32839102 -0.14079048 0.2873217 0.10014914 -0.14164549 -0.1777899 -0.18590583 0.15934855 0.49587566 0.24233419 0.63275963 0.062162317 -0.07002003 -0.17749289 -0.31090266 0.03737863 0.36240855 0.7988129 -0.13770758 -0.1461224 0.20450824 0.11426246 -0.2776911 -0.57217216 0.17538473 -0.07445962 0.6175064 -0.055472896 0.12674376 -0.08958073 -0.19106533 0.5899223 0.37357914 0.46335882 0.30773798 0.19319294 -0.0078068427 -0.23678738 0.28941855
930 -0.37572518 -0.17599757 0.43311632 0.7996543 0.35251758 -0.59936965 -0.12109528 0.3040606 -0.02069604 0.4088495 0.8845636 -0.09180908 -0.12838103 -0.28727865 0.5168321 0.52670354 0.347872 -0.11453257 0.4611851 0.3630069 0.27598357 0.5772437 -0.03720311 -0.32632637 -0.5287447 0.16687375 -0.013676699 0.39363253 -0.031257883 0.39163867 0.27192354 0.35958397 0.45481986 0.054674294 0.16086558 0.65990525 -0.082975715 -0.3947925 -0.28000194 0.078509495 0.276491 0.20951416 0.12530988 -0.4957259 0.41279915 -0.54565996 -0.12694289 -0.38125512 -0.25061333 -0.44018704 -0.17397174 0.15774567 -0.021884687 -0.27598733 -0.519361 0.0752834 -0.11120098 0.27783337 -0.008934687 0.062091406 0.26670757 -0.61321914 -0.42362761 0.59995276
3886 -0.73346573 -0.11808076 0.061868455 0.47061464 -0.37846106 0.3604859 -0.2051585 -0.16205584 0.053674202 0.24569967 0.25952926 0.09474253 -0.32466868 -0.018438978 0.43681577 -0.16041735 0.5080417 0.18293236 0.39796275 0.23305722 -0.1304657 0.018694462 0.027234491 -0.025385987 0.103063874 0.13572346 0.26072395 0.27905416 -0.32835254 -0.22962968 0.3468707 0.30719054 1.1444906 0.34378684 0.8617596 0.302234 0.26739973 -0.07247233 0.26160687 -0.17891547 0.28317848 0.05619886 -0.04179098 -0.62610286 0.64083886 -0.031169288 0.4043715 -0.3640468 -0.35049447 -0.3617711 -0.46012297 0.031898785 -0.0942246 -0.13758527 -0.6192416 -0.32244778 0.009170468 -0.054780144 0.3306975 -0.22944055 0.10345847 -1.4079489 -0.19322808 0.029150415
4260 -0.43889123 0.083398 -0.0022140157 0.20225611 -0.19305061 0.38933635 -0.50280106 0.8351991 -0.050162714 0.026970029 -0.6979092 0.16955929 -0.40439147 -0.37048212 -0.07535807 0.42962041 0.32488453 0.14460294 0.5061276 -0.35198933 0.8901742 0.25366628 0.5728492 0.6333091 -0.7224109 0.1328026 0.38019723 -0.49694422 -0.11038694 0.6196151 -0.22868869 0.084216505 0.33682242 0.23404998 -0.052817076 0.7954985 -0.20096463 0.03448174 -0.081554286 0.28129905 1.0981412 -0.3069078 -0.4297469 0.52660894 1.0322009 -0.2643215 0.13226195 0.08599888 -0.48986214 -0.4275783 -0.76248306 0.7420878 -0.23363698 -0.38037494 -1.1627027 -0.1297606 0.02858993 -0.2932821 0.63006264 -0.57250065 -0.31733385 -0.7068407 -0.028460091 -0.6802138
7630 -0.16781029 0.06522277 0.028909909 0.3924835 0.17723659 0.60335726 -0.7251182 0.12830114 0.11308798 -0.1459944 0.59041333 0.5271974 0.06617781 -0.28195006 -0.08360376 -0.35348645 -0.075396076 0.31293893 0.35229003 -0.50101787 0.23042789 0.15782878 0.046795823 0.36492357 0.104346745 0.3606521 -0.07233424 0.21451518 -0.03693128 0.21108715 0.15459399 0.29840666 -0.019292591 0.039932594 -0.09380813 0.12441545 -0.4047611 0.12108907 -0.58173496 -0.43916947 -0.24739535 0.087090105 0.49646473 0.029818948 -0.04671922 0.15250477 -0.07165063 -0.2889549 -0.22069329 0.065009825 -0.21836126 0.10562346 -0.3819961 0.37231624 -0.0888147 0.07538616 0.4203694 0.20740972 0.112495914 0.060353912 0.21227331 -0.6185358 -0.4374746 -0.37655875
1442 -0.6713757 0.23022428 0.18093327 -0.8002359 -0.005490678 0.45817313 -0.3090338 0.26069173 0.23363027 -0.25224093 0.27772206 0.21700153 0.21247199 0.059979226 0.64019793 -0.21260218 0.054847784 -0.25634414 0.9377312 0.22112742 0.6855733 0.035257574 -0.60651124 0.55676 0.23900865 0.31571338 0.032558464 0.52613884 0.670962 -0.09223717 -0.099869154 -0.29350922 -0.013435042 0.10567374 0.61764973 0.65915895 -0.38313147 -0.44662783 0.37702748 0.8638152 0.33916134 -0.16348545 0.63944054 0.046152055 0.08959158 -0.49475363 0.25188324 -0.020655822 -0.29657084 -0.5308356 0.045798257 0.3450654 0.108132385 -0.3704774 -0.24934152 0.08914162 0.276498 0.27385336 0.1886995 -0.55591774 0.5478745 -0.47225308 -0.48943543 -0.79851073
3123 -0.21664648 0.2582559 -0.27804813 0.6749189 0.01085603 0.5265881 -0.8233525 0.05608184 0.06428848 -0.3644759 0.76591104 0.20912215 0.07510223 -0.2576426 -0.10763079 0.016343175 -0.052639525 0.41203249 0.88299876 -0.31042615 0.6057748 -0.005258652 -0.18128021 0.26505527 0.022471098 0.013779243 0.03858064 0.23583286 -0.25180623 0.15273894 0.14689817 0.5253944 -0.22545913 -0.31730658 -0.49204552 0.16747084 -0.54078406 0.028474012 -0.28507027 -0.33555982 0.029187202 0.671972 0.4893906 0.19259764 -0.02717288 0.20076804 -0.3396382 -0.2887425 -0.27429998 -0.08217444 -0.32032472 0.51570785 -0.27467775 0.6415651 -0.0448381 -0.0031366772 0.30635068 0.04010022 0.19183576 -0.2462654 0.2903123 -0.8335222 -0.051887054 -0.37256408
4777 -0.78497535 0.12485239 0.39685565 0.38080952 -0.17275523 0.49366188 -0.64726275 0.060630318 -0.33410144 0.33436626 -0.13366328 0.27360108 -0.859742 -0.16113523 0.0021488024 -0.11932043 0.4082126 0.16389471 0.37695804 -0.09583335 0.19618337 0.34050173 -0.0032893626 0.2892915 -0.23623101 0.045148432 0.26099077 0.33234626 -0.20515473 -0.04253165 -0.29760695 0.45081154 0.9652818 0.39613083 0.008623554 0.8054047 0.016403163 0.010699146 0.37823725 0.16694465 0.4131853 -0.3004663 -0.37358603 -0.26141918 0.5602994 0.01014676 0.2800707 0.21451364 -0.2662416 -0.42886695 -0.73019135 0.13344918 -0.32923198 -0.1267665 -1.1923788 -0.40680736 -0.4220335 0.103860565 0.97908014 -0.49650776 -0.38942176 -0.9203504 -0.3678839 -0.2098192
7792 -0.10517829 0.16040404 -0.2507451 0.7000293 -0.13945065 0.5238187 -1.010164 -0.13576832 -0.013939583 -0.4954775 0.5998365 0.06459508 0.16265005 -0.19398126 -0.2025159 -0.061652374 -0.045548987 0.41276225 0.80483633 -0.21143045 0.58611345 0.08768203 -0.32509068 0.27577966 -0.06644083 -0.03521424 0.35464132 0.020621689 -0.09583199 0.003406715 0.24179126 0.6240733 -0.2922346 -0.3217798 -0.46551275 -0.024068847 -0.34332764 0.02131547 -0.5237804 -0.30672592 0.24237953 0.5522275 0.42896608 0.390324 0.003057675 0.11746479 -0.20673758 -0.10456366 -0.45323566 -0.30697218 -0.18584786 0.53582066 -0.27126437 0.70804554 -0.071072705 -0.16265985 0.2806214 -0.10312246 0.13287495 -0.18031338 0.37311515 -0.8074925 0.13439338 0.09866682
6045 0.20641974 0.15411186 -0.01790342 -0.12664473 -0.51996136 -0.13439591 0.112765625 0.53572935 0.43031943 -0.21345133 0.622353 0.3084416 -0.113418564 0.064069115 -0.15660259 -0.14093937 -0.37597105 -0.072683886 0.11715326 -0.31869286 -0.17251809 0.21451534 -0.037945177 0.2200574 -0.62770647 0.50987947 -0.37081856 -0.110431425 0.52878845 -0.18693994 0.0041482993 0.4010469 0.6990679 0.36679384 -0.1396415 0.06421129 -0.036948904 -0.061815463 0.4379932 -0.6670309 0.54677045 0.26526245 0.40546927 0.015212496 0.132638 0.048965774 -0.3642442 -0.32916212 -0.12479223 0.29830062 0.1680261 -0.06518662 -0.15302691 -0.12760173 -0.7327306 0.15461059 0.023375414 -0.17565815 0.49638715 -0.25812638 0.24984719 -0.33400315 0.04492843 0.09358842
633 0.045925733 0.38285643 1.0484936 0.21886186 -0.3537197 0.24150729 -0.5080022 -0.10550326 0.28379706 0.0013751806 0.87576747 0.1879434 0.3597595 0.21438704 0.014786629 -0.059614196 -0.19589028 0.44478953 0.11884552 -0.1801215 -0.043058753 0.13834704 0.13743243 0.15456502 0.23047976 -0.17951342 0.22223239 0.14523622 0.3063657 -0.47665036 0.10805002 -0.015078565 0.1386488 -0.16293801 -0.41880575 -0.051302984 0.13748652 0.7449386 0.2757638 0.08062327 -0.27981508 0.44251725 0.5427295 0.14870423 0.1184938 0.18111025 -0.3475297 -0.012223428 -0.4267513 -0.40442827 -0.19521278 0.5304985 0.181661 0.32014257 -1.2591666 0.57431966 0.43587816 -0.8202241 0.1552115 0.43546367 0.027457308 -0.7037954 0.03271315 -0.1062006
5184 0.135329 -0.12628847 0.5897332 0.35214365 -0.12882392 0.2612005 -0.36574993 -0.047521316 -0.3977409 0.14021802 0.49063668 0.3738383 -0.19467813 0.09397903 0.6434185 -0.4760268 0.16694357 -0.37794286 0.4419315 -0.4241632 0.470427 0.19570866 0.49429917 0.14350481 0.23366736 0.037723694 -0.36861306 0.0018199568 -0.12235129 -0.3786051 -0.27367607 -0.26494706 0.26884052 -0.081193 -0.21930765 0.30436587 -0.43848535 -0.32269868 -0.2657746 -0.37281474 0.39359358 0.39421052 0.32840672 -0.31738743 0.2725158 -0.36618474 -0.19012909 0.18839413 -0.39615136 0.08718614 -0.06718145 0.6344894 0.055519465 -0.031789217 0.086676694 0.013841764 0.2859502 0.20436431 0.29822102 0.29996783 0.064881474 0.0941604 -0.11519078 0.13159141
3864 -1.086141 1.2089454 -0.8236655 0.7142719 -2.047354 -0.9849685 -1.4705533 -0.34001818 -1.1038408 -0.6304813 1.8470674 -0.3023117 -1.6161928 -0.7675581 0.500996 -0.29263648 -0.5878193 0.7501056 0.34722623 -0.34349948 0.45298538 -2.2611582 -0.18381271 -2.3863873 -1.2029433 0.9734391 -2.2624562 0.63873106 0.0153155 -0.6791339 -0.33893463 -0.20916624 0.147867 -0.1243391 -1.2825155 -0.123334706 1.4785246 -0.08306246 -0.89132065 -0.12757148 0.914455 0.031748023 0.8547812 1.7859129 -1.2032937 -0.7779831 -0.7757007 0.7470298 0.54943657 -1.394103 -0.953715 1.7347378 -0.88046354 -0.7418032 -1.0722777 0.5010639 0.030703858 -0.28811115 -0.063277274 -0.4494547 0.62077045 -0.6505232 -0.84564894 -0.71982485
1905 -0.0027461317 -0.006151433 0.13027483 -0.08810247 -0.7421846 0.042474296 0.15247276 0.22330736 0.09340062 -0.44140697 0.37117475 -0.14195485 -0.58498937 0.09394683 0.08573602 -0.23532033 -0.1851082 -0.19162418 -0.12543046 -0.680126 0.34633577 0.4709547 0.4627678 -0.026120566 0.24915303 0.6986955 0.05760235 0.18026042 0.2079668 0.034064952 -0.18305536 0.5352356 0.42263293 0.13746516 0.42421043 0.33559236 -0.07561184 -0.20787065 -0.08789133 -0.02760859 0.14716251 -0.0851756 0.5383746 -0.01251803 0.32502714 -0.2567906 -0.14285758 0.19021462 -0.42797425 -0.22409669 0.22056386 0.61822647 -0.34347007 -0.08298441 -0.33044398 -0.44717655 -0.12114908 0.04716216 0.22069667 0.056812894 0.25212643 -0.36972657 0.50613225 0.21131083
3842 0.006857262 0.22208415 0.2743305 0.4250391 -0.2750042 0.5992599 0.0355883 -0.03208108 -0.10356294 -0.2454544 0.7124728 0.0014912706 0.06656888 0.05035019 -0.18038663 0.020922698 0.21635239 0.37781152 0.22646472 -0.68301165 0.09016113 0.26244584 0.19081414 0.12576838 0.11278212 0.1658938 -0.73268026 0.69108695 0.4804106 0.21888095 0.35287 0.635947 -0.6505153 -0.39537856 0.03647744 0.07378182 -0.38230583 -0.15824878 0.033629164 -0.123212464 0.48886046 -0.069409415 0.41599178 0.3201649 0.22058421 -0.5502554 -0.44403952 -0.5095016 -0.011270825 -0.095683746 -0.53676176 0.25983167 -0.35790145 -0.08703083 -0.4008204 -0.33246422 0.8055204 0.22279836 0.31816205 -0.0018708531 -0.22912584 -0.6391122 0.43057308 -0.15100577
9336 0.001515853 0.08253936 0.12735367 -0.07957252 -0.6309261 -0.20308252 -0.016775968 0.1931404 0.11787374 -0.07837723 0.5362839 0.105628096 -0.15251568 0.07819036 0.1948291 -0.32378137 0.06668889 -0.12126298 0.044377044 -0.400294 0.14554666 0.2345917 -0.14133564 0.3307607 -0.07095622 0.53606874 -0.21343459 -0.037151296 -0.06214362 -0.15976885 0.17518096 0.7572236 0.5446848 0.13151357 0.46190438 -0.06671707 -0.09491873 -0.046925172 0.60861623 -0.34759367 0.5630375 0.12932427 0.05482428 0.08721915 0.16951455 -0.36689457 -0.28208032 -0.30871388 -0.14569314 0.34167477 -0.11732631 0.23242086 -0.4098161 -0.28793666 -0.67084265 -0.16953081 0.08799456 0.17245193 0.39691523 0.009666553 -0.047507282 -0.3595036 0.08967442 0.12750252
1899 -0.06931901 0.25806272 0.005823347 0.8016999 -0.4612423 0.42488632 0.5601458 0.3816808 -0.054118033 0.03926056 0.40966192 -0.200189 0.06254253 -0.30829787 0.13807401 -0.14701511 0.02444161 0.17670713 0.24638881 -0.3980829 0.0037950282 0.08000109 0.5279655 0.54205406 -0.55091935 0.062398482 -0.29598552 0.43926904 -0.1948936 0.1463815 -0.16214567 0.1889237 -0.28089505 0.07526732 -0.33707914 0.12513182 -0.4317313 -0.04376265 0.41149873 0.10399542 0.5695882 -0.23803262 0.14158988 -0.023945173 0.24821466 -0.24610853 -0.6132421 -0.29189363 -0.15208504 0.2362069 -0.0068119965 0.49594536 -0.13449237 -0.23299752 -0.4376171 -0.7107064 0.4951492 -0.18752228 0.065686405 0.094513096 0.28058806 -0.16373567 -0.35452056 -0.2742417
2877 -0.16233394 0.34544712 0.20186 0.39682811 0.1588788 0.15182476 -0.0117806345 0.47134092 -0.8926627 -0.29894808 0.13590254 0.32696837 0.885372 -0.06592159 -0.17401403 -0.17854363 -0.059075624 -0.18585172 0.2571941 -0.208822 0.4814835 -0.22261043 0.1340531 -0.18573716 -0.022406075 0.7474874 0.46487945 0.09648528 0.73117995 -0.15685658 0.12748772 -0.046921816 0.6796436 0.46145323 -0.01104798 -0.1847535 0.19054714 -0.84036785 -0.8457134 -0.2795051 0.4652239 -0.35260323 0.77367884 0.10789912 0.50231206 0.12743135 0.22756289 -0.4661076 0.14952561 -0.15451464 -0.35041165 0.76471364 -1.2961415 -0.051232465 0.31201804 -0.18922246 0.7520876 -0.8299908 0.49543086 0.07027743 -0.2796241 0.035815608 -0.45416778 -0.22006668
8809 -0.17491212 0.049914986 0.3016167 0.33232903 -0.37861183 -0.22450922 -0.2883905 0.1179776 -0.4209728 0.1774653 -0.033346258 0.4995872 0.25231677 -0.0024769127 0.21051362 -0.40164924 -0.017221479 0.096822634 0.2690427 -0.535176 0.11559957 0.31780905 -0.11686121 0.1557548 -0.38439235 0.5548574 0.3369425 0.23414157 0.19318114 -0.6031115 -0.12202762 -0.16357146 0.36124858 0.28742957 0.5831776 0.15966484 0.022040749 -0.27263263 -0.49178723 -0.26221716 0.49110523 -0.037155855 0.56954247 0.08795887 0.19130965 0.06842487 0.14383832 -0.20999148 -0.058063973 0.070912294 -0.4138423 0.35374627 -0.7659451 0.07103408 0.38308105 -0.10896396 0.6447607 -0.40476638 0.37745896 0.35860857 0.24344811 0.35608888 -0.16057278 0.14529
5489 0.06861738 -0.032827538 0.1057874 0.66567713 0.25513178 0.3746948 0.37885407 -0.58846635 0.2903109 0.33191222 -0.0046347925 -0.5375162 -0.19239745 0.078404196 -0.19394135 0.33684584 0.14490235 0.75751936 0.20627567 -1.402914 0.0613768 -0.6114841 0.60970086 -0.07060803 -1.3981477 0.8881435 -0.60968244 0.4496056 1.1001083 0.2688586 -0.39941907 0.60102385 -0.14000703 0.55049604 -0.13646324 0.022939581 0.16457734 -0.4355612 -0.35311565 0.43039516 0.27717742 -0.0388708 -0.18557058 -0.38071024 -0.4964366 -1.1555066 0.720398 -0.11961096 -0.596372 0.13756748 0.11572183 0.9982803 0.48968366 0.4420521 -0.15136248 0.4560285 0.24677344 0.37249455 0.60706174 0.009434281 0.13442956 -0.61366284 -0.014503263 0.8369529
9449 -0.4825891 -0.3402325 0.12644896 0.07191095 0.034103174 0.14891832 -0.17971618 -0.04563968 -0.53107446 -0.118783064 -0.3417738 0.54683036 0.37743407 -0.369773 0.39441344 -0.9614304 0.07479362 0.04459053 0.4286949 -0.6315888 0.3942761 -0.14622508 0.39571244 -0.2516143 -0.037686635 -0.28962445 -0.044507563 0.17188378 0.20342022 0.07340452 -0.042520266 -0.26941332 0.00088872673 0.17624028 0.14531791 0.65406746 -0.05071744 -0.2447493 -0.032584917 -0.49902973 0.48723787 0.472163 0.5087116 -0.22877443 0.119837806 0.14409769 -0.42326942 0.046009168 -0.46313053 -0.09848212 -0.046917573 0.7807138 0.017553046 0.06301022 -0.30520406 0.107124716 0.42840642 0.30273703 0.30518746 0.496982 0.37014288 -0.039967667 -0.045308046 0.2932251
1341 0.0072903093 -0.5133957 0.56323075 0.20306772 -0.67019475 0.31116244 -1.0660785 -0.39688098 0.18243341 0.35798624 0.9133414 -0.44925636 0.5269025 0.11539774 0.08406168 0.13187154 -0.18966846 -0.07264874 0.37145764 -0.14126037 0.39167446 -0.2777761 0.9570325 0.10105206 -0.07019269 -0.172571 -0.039556105 -0.2927302 0.5623911 -0.79741305 -0.1451084 -0.41195217 -0.014901362 -0.033356376 -0.5288338 0.060013812 0.058737002 0.91683704 0.3156532 0.37728444 -0.20843002 -0.1287571 0.7248676 -0.13018957 0.17654411 -0.7187258 -0.561053 -0.14527331 -1.3905582 -0.6100205 0.049947206 0.38357925 0.084670864 -0.093530774 -1.3569908 0.6502705 -0.580522 -0.86022544 0.46496153 0.48929536 0.050646517 -0.6694044 -0.48816812 -0.13733812
943 -0.66489786 -0.008699367 0.4607224 -0.19666702 -0.9437271 0.7231364 -0.9568567 0.46169063 0.4811404 -0.27742103 0.22851251 -1.0290279 0.08165961 -0.56106293 -0.28735682 -0.4332883 -0.028326487 0.8581308 0.3115673 -0.7948069 -0.48308295 -0.52439195 0.24534377 0.18107924 0.27164432 -0.01684526 -0.07591984 0.41344112 0.29780638 0.1729127 0.96302944 -0.08263011 -0.23873939 -0.22771245 0.58223635 1.0953295 -0.18001291 -0.83430606 -0.63014454 0.8849698 -0.16859819 -0.24112673 0.19264308 0.08238966 -0.28585827 -0.6833356 -0.63973075 -0.5406561 -0.38568166 -0.29612842 -0.2417607 0.036489286 -0.16998728 0.5982848 -0.49452168 0.2536151 0.08491561 -0.2573689 1.2373848 -0.70885545 0.48210764 0.27429596 -1.1248977 0.04685894
7585 -0.15458886 -0.024232253 0.54293925 -0.11432483 0.31272748 0.50528246 -0.2897325 0.022452371 -0.25078973 -0.2807472 0.3079855 0.2464624 -0.21183263 -0.3021563 0.10175575 -0.49490947 0.16650756 0.6182633 0.18386568 -0.7921259 0.35910204 -0.4252185 0.5253197 0.3789532 -0.06949825 0.49490607 -0.50464445 0.09291689 0.3635722 0.09116566 -0.25711536 0.63934416 -0.09798103 0.46568906 -0.05686222 0.25229245 0.0398783 -0.36472312 -0.14520955 -0.2982502 0.22921884 -0.30806085 -0.06953596 -0.31090194 0.0064954176 -0.31652397 0.10548305 -0.12483136 -0.39749116 0.065096356 0.2504697 0.35511774 -0.33422294 0.40502045 0.21578524 0.0064600324 0.6061831 0.44720456 -0.014915018 0.35911235 -0.15574135 -0.43958452 -0.3738556 0.017108118
3965 0.28862262 0.105304845 -0.10150377 0.29958874 -0.2493083 0.42283252 -0.9071388 -0.25594807 -0.21935152 0.05072275 0.8659189 0.04090219 -0.015106644 -0.21995175 0.6690728 0.1688387 -0.2942952 0.24785341 0.1260416 -0.20218113 0.41964006 -0.019724576 0.1232092 0.014126495 0.06189796 0.38047048 0.3574508 -0.09841005 -0.20333064 0.11269289 -0.302061 -0.027719406 -0.41793996 -0.19496335 0.26272595 0.207649 -0.07312009 -0.04557909 -1.127728 -0.55596226 0.33561766 0.5993401 0.12046836 -0.034903597 0.27689627 -0.22825147 0.108126044 -0.03809391 -0.18170096 0.20205276 0.47081977 0.7514815 -0.46579596 0.09145263 0.09201326 -0.34077832 0.5091809 -0.37604836 0.4268917 -0.18842822 0.2964219 -0.23148808 0.004705124 -0.039339803
2746 0.30303624 0.3622363 0.016195977 -0.5984511 -0.36736837 -0.27360642 0.30450976 -0.06690973 -0.067404196 0.00977351 0.69494617 -0.097595364 -0.3806733 -0.36292818 0.13667509 -0.61946714 -0.22359897 0.333217 0.17166993 -0.38761836 0.06371275 -0.045040056 0.07072865 0.43733925 -0.15819511 0.71686536 0.0033855857 0.33012003 -0.044979084 -0.11098825 -0.2812903 0.31343976 -0.078357205 0.32278666 0.20397036 0.38681954 -0.023876987 0.07835366 -0.18009768 -0.21266648 0.3189906 0.18837948 0.27071244 -0.33966246 0.30448335 -0.44113854 -0.010997349 -0.21635586 -0.3670074 -0.5238725 0.12512785 0.32640442 -0.42301756 -0.11695897 -0.5283295 -0.688373 0.17732845 -0.25145873 0.5214988 -0.12017836 0.34160742 -0.13024935 -0.28241858 0.17514856
5945 0.21696354 -0.12759037 -0.20070189 -0.0391209 -0.4823971 0.5185844 -0.4044815 0.042788215 -0.67657495 -0.4148347 -0.00089915755 0.20312877 -0.10904223 -0.119833276 0.21713237 -0.8117794 -0.14117432 0.08920983 0.67313266 -0.22220036 0.61862266 -0.48687404 0.25975633 -0.06656314 -0.2209271 -0.3141944 0.15135403 0.19869095 0.259326 0.03495839 0.08521042 0.38074178 -0.20459586 0.01810796 -0.29056212 0.533422 0.036220986 -0.02614718 -0.4627941 -0.7558393 0.23972797 -0.0040430767 0.3503057 -0.07654795 0.16566066 0.0044566183 -0.11522388 -0.3905993 -0.72394615 -0.4455244 0.24049948 0.5256705 0.098210655 0.44288716 0.05116143 0.0931663 -0.18929553 -0.29879308 -0.024754869 -0.17796858 0.29004285 -0.36631545 -0.10319765 0.34287542
7071 -0.1955676 0.195625 0.18279852 -0.018901993 -0.22571196 0.30568972 -0.19761634 -0.4215772 -0.1611868 0.09403653 0.24696206 0.31067997 -0.13684003 -0.27340457 0.31707463 -0.15575802 0.10869627 0.08449092 0.3149761 -0.17601408 -0.15707183 0.2573767 -0.16954806 0.2502972 -0.1654701 0.21255487 0.37345853 0.4356291 0.1360958 0.034615126 -0.07132959 0.102219656 0.5931284 0.23867017 0.33374485 0.12893172 0.17677619 0.26133037 0.50358474 -0.31882253 0.44517702 0.18362878 -0.4083015 0.07306003 0.38403472 -0.113971084 -0.018828707 -0.041254304 -0.46892375 0.010040978 0.20724598 0.22052369 -0.12791875 0.21110152 -1.0293398 -0.7427711 -0.0134149715 0.10268683 1.1641777 -0.6325539 -0.4544398 -0.03033848 -0.4177102 -0.09781378
3992 -0.123464935 0.3739897 -0.101089455 0.2666309 0.07945287 -0.06348477 0.019370671 -0.031992357 0.15453602 0.3103503 0.6450393 0.31828332 0.3259908 0.15049945 0.2535865 -0.34868628 -0.25421524 0.2625235 -0.08754024 -0.30863184 0.5972908 -0.16671889 0.32482594 0.38924614 -0.017816149 0.69986093 0.19189028 0.16264725 0.1867447 -0.3079709 0.20898022 0.0540375 0.21038973 0.32451648 0.3552441 0.35456845 0.40243846 -0.03494494 0.047203008 0.05308331 0.47683844 0.87556595 0.24614266 -0.42313847 0.45122305 -0.23784569 0.017465994 -0.102354996 -0.78291976 0.011875478 0.010143549 0.6424639 -0.17623442 0.28618923 0.31275874 -0.46254513 0.7326065 -0.48194784 1.0441376 -0.30119658 0.37051252 0.5008659 -0.13749689 -0.15921716
269 -0.42318082 -0.23614198 0.09541758 -0.06980567 -0.47658882 -0.10657542 -0.28690404 0.2812172 0.025441311 0.34130692 0.43871155 0.07488291 -0.2735988 0.1837811 0.17168249 -0.10780742 0.22067918 0.322334 0.25444287 -0.4686446 0.2989102 0.043326765 0.04214774 0.07679248 -0.272193 0.51099193 -0.18050368 -0.5078722 -0.029475136 0.3679832 -0.07314559 0.8259274 0.8390994 0.118848585 0.6195203 -0.46067947 -0.53334266 -0.04333271 0.4386209 -0.20085147 0.86663157 -0.041785564 0.26158294 0.04058383 0.06644282 0.09406825 -0.055570167 -0.020110052 -0.39562485 -0.108968504 0.003531509 0.014257166 -0.13382463 -0.4431722 -0.6150197 -0.048985157 0.3366859 -0.04763738 0.6111614 -0.552021 -0.0070842956 -0.090385556 0.33612606 0.27094784
178 -0.5511237 0.2685734 0.21710871 0.14947575 -0.95084625 0.5727566 -0.8130598 0.40438002 0.45733848 -0.30832475 0.42480305 -0.74077696 0.33955505 -0.33875844 -0.35212108 -0.24317013 0.052589998 0.6868155 0.39312643 -0.58550775 -0.3695705 -0.17097107 0.32173294 0.19355232 0.34635887 0.10658424 -0.13586201 0.4395991 0.37309754 0.22146837 1.0643766 0.13191251 -0.33188644 -0.2325155 0.67592627 0.80498815 -0.30354616 -0.76612175 -0.53715307 0.5734278 -0.14106831 -0.4082656 0.47793618 0.0080082165 -0.4182671 -0.56217706 -0.85276043 -0.3511906 -0.107782595 -0.30238608 -0.2729742 -0.09656609 -0.011220562 0.2627932 -0.3873541 0.067401424 0.33854005 -0.0041451007 1.1297214 -0.59785104 0.56449854 0.046026677 -0.9314817 -0.30194777
702 0.08631146 -0.6908257 0.32412258 0.19226532 -0.61288756 0.86903465 0.01779748 -0.024617843 -0.06258789 -0.01211173 0.8469613 0.38667446 -0.027363284 0.137752 -0.34201702 0.3165383 0.6386076 -0.14236777 0.31068635 -0.3881415 -0.061700106 -0.08221863 0.16929838 -0.06128426 0.26512888 0.30622905 -0.42846048 0.16274217 1.0705743 0.26272535 0.26859328 -0.055471454 0.058570962 0.10060128 0.2927878 -0.51726794 -0.2618342 0.016878834 -0.18964672 0.19848467 0.4089845 0.09677138 0.11943462 -0.3869347 0.4926573 -0.08228183 -0.12336501 -0.30151576 -0.019370582 -0.38778263 -0.14728372 0.3840054 -0.23892356 0.06508081 -0.3104711 -0.43957192 0.6004357 0.22098596 0.8079143 -0.15600218 -0.38531178 -0.7895157 -0.26353234 0.53064233
820 0.032318145 0.3028421 -0.11816076 0.7414169 -0.35438097 0.48655215 0.2770105 0.2234603 -0.07348312 0.15846695 0.43670657 -0.10487783 -0.044718824 -0.39595667 -0.124217145 -0.114203095 0.03816948 0.32185194 0.15844369 -0.57826316 0.08105047 0.22844765 0.5164068 0.69615906 -0.69591403 0.29708603 -0.27290204 0.57334435 -0.24385028 0.18472265 0.066880286 0.18953606 -0.5079391 -0.11097238 -0.26718763 0.17530705 -0.18129267 -0.3006868 0.15919343 -0.10744004 0.48416042 -0.48830056 0.39471284 -0.17644775 0.26785904 0.034587454 -0.48778573 -0.21396917 -0.076170236 -0.12943077 0.15862462 0.18701336 -0.039518125 -0.58767456 -0.29768705 -0.5721845 0.621248 -0.39047682 0.5648093 0.29060504 0.18623522 -0.10137384 -0.33836764 -0.21791391
2060 0.4584037 -0.26706806 0.07053234 0.078135446 -0.3886209 -0.38112137 -0.069823325 0.17555276 0.039113913 0.12040068 0.48995999 0.6245456 -0.2088484 -0.31640628 0.5045478 -0.26274055 -0.23562439 0.33387512 0.26697227 -0.29788584 0.020136405 0.14756435 0.051439 0.48269713 -0.55630213 0.19454132 -0.16539973 -0.45175257 0.39691898 -0.38374376 0.34049836 -0.08433656 0.31909698 0.37298626 0.39324403 0.19285041 -0.16287668 -0.15048149 0.3328437 -0.36688724 0.29774177 0.49382398 0.08970175 -0.41451257 -0.11550251 -0.097969875 -0.15766262 -0.053035684 -0.18345626 0.24398147 -0.059098773 0.19677517 -0.80269593 -0.3637118 -0.15366717 -0.29675326 0.3207214 -0.49324954 0.5592525 0.27156818 0.3593068 0.03943162 -0.5194545 0.03476207
356 -0.11395995 -0.39702138 0.49828216 0.17867696 -0.90295357 0.43730906 -0.7042769 -0.08188334 0.17893915 0.352447 1.2209852 -0.39037713 0.7538809 0.26000145 0.37760746 0.0775672 -0.2739816 0.16479142 0.424658 -0.24543846 0.37006843 0.060537808 0.4594732 0.09302702 -0.07598095 -0.36827266 -0.12937285 -0.3080974 0.7167047 -0.52317405 -0.11098244 -0.6062092 0.34774885 0.18764761 -0.57194155 -0.0677379 -0.089944825 1.0671299 0.4793114 0.22639368 -0.14016165 -0.222742 0.63874483 0.14410359 0.043696284 -0.41488457 -0.6979273 -0.058520194 -1.0805475 -0.5115354 -0.11539794 0.2985777 0.021535123 -0.0852353 -0.9685342 0.5304074 -0.35826224 -0.72976637 0.20687768 0.5339679 -0.017656866 -0.38179877 -0.28756678 -0.1542331
3242 -0.8754882 -0.289937 0.061259218 0.065751515 -0.36615962 0.18281114 -0.66480255 0.74867034 -0.42021257 -0.17307052 -0.3419588 0.23662326 -0.39971986 -0.10200977 -0.23695359 0.27647093 0.72611433 0.20896551 0.5081737 -0.10137521 1.0008404 0.40740517 0.33858243 0.7631241 -0.5972432 0.3405446 0.12724254 -0.5483053 -0.20336287 1.0105991 -0.36405963 0.4132023 0.7008958 0.33495557 0.08249272 0.3996252 -0.2035508 0.30037597 0.02396546 0.1626866 0.92422897 -0.102842405 -0.36613148 0.5462586 0.73817825 -0.32244214 0.34897062 0.21618873 -0.80457354 -0.033766057 -0.43863612 0.6729969 -0.120811276 -0.7295855 -0.94044656 0.19027893 0.36060056 -0.3114436 0.87889564 -0.70148283 -0.20493153 -0.2938249 0.14426751 -0.7304017
7796 -0.13468954 -0.021915535 0.26779062 -0.1609767 -0.814002 -0.19503228 -0.2783656 0.08953638 0.27575696 0.07790863 0.3225117 0.42777908 -0.14133704 -0.07268936 0.43250042 -0.26358402 0.029137004 -0.053353682 -0.054821704 -0.016340198 0.14599429 0.1937574 0.12569031 0.5018844 -0.1343748 0.784862 -0.31354138 -0.0978036 -0.3901036 0.31942874 0.5416933 0.41107714 0.6832264 0.12051024 0.09377257 -0.25986454 -0.18265094 -0.32939357 0.24170531 -0.13679603 0.23555632 0.38933295 0.40655494 0.104633495 -0.09285637 -0.30253726 0.293978 -0.4018406 -0.7749006 -0.11361735 0.08075289 0.2306967 -0.06274156 -0.31409892 -0.5424798 -0.053748094 0.06354724 0.0021359345 0.23096189 0.29086423 -0.13472359 0.064859405 0.12658887 0.1361465
7433 -0.31079927 0.025138892 0.37536305 0.04699854 -0.67094564 -0.18139559 -0.30040663 0.16945328 0.14890476 0.035838928 0.4983036 -0.13710704 -0.2859768 0.026026767 0.11099063 -0.022994088 0.35422558 -0.13725291 -0.18745376 -0.44676855 0.48058075 -0.3053208 0.3964113 0.31831905 -0.077753544 0.6043468 -0.0454306 -0.1648222 -0.31145117 0.5113002 0.05171631 0.50647116 1.0530342 0.3242203 0.23386069 -0.34646583 -0.43582463 -0.64105326 0.27789047 -0.23874502 0.2785149 0.25761163 0.57861143 -0.21384577 -0.19940512 -0.13758707 -0.26309022 -0.11172147 -0.755847 -0.19706304 -0.057048783 0.34262225 -0.093308575 -0.29092026 -0.4377988 -0.06933813 -0.17621517 0.21408844 0.12762234 -0.10489653 0.22240001 -0.01830761 0.55044645 0.18452936
404 -0.12625846 -0.36111897 0.045644578 -0.23132016 -1.1539155 -0.014699881 -0.5470272 -0.21525466 0.045475237 -0.45027724 0.15462911 0.5235747 0.7138303 0.020972908 1.1812824 -0.33722728 0.059330504 0.77378416 -0.46964765 -0.22860901 0.5176233 0.1739419 -0.12755483 0.48457593 -0.4877009 0.06379092 -0.21120735 0.028825559 0.73118144 -0.15905336 -0.5082154 0.4109629 -0.11492916 0.6555952 0.13340755 0.192834 -0.18860477 -0.22931512 0.41584092 0.51929265 -0.08916406 0.38213375 -0.28396395 0.47962785 0.39168012 -0.687775 -0.7247164 -0.3068151 -0.5845342 0.53298086 -0.44424173 0.30663776 0.30076283 0.011365893 -0.6460059 -0.13350318 0.99186164 0.49323028 0.49060506 -0.6390432 0.49994272 -0.41921854 0.19407856 -0.4165861
6939 0.16544929 0.029646242 -0.32250932 0.1369778 -0.29177177 0.31125292 -1.1187856 -0.10162477 -0.014941884 -0.3505603 0.7407769 -0.043058857 0.32754654 -0.24762914 0.11901084 0.18088876 0.06950272 0.14230208 0.6601305 -0.54769325 0.4511831 0.11584068 -0.12040375 0.23858765 -0.11985892 0.18066776 -0.030660255 0.3899473 -0.34860018 -0.1170588 -0.3576261 -0.0011335956 -0.30501074 -0.28766838 0.07382518 0.15318795 0.0045566144 -0.099247776 -0.5637552 -0.19235857 0.17564797 0.6018482 -0.033265285 0.07585269 0.20953667 -0.113176145 -0.0831648 -0.072770625 -0.20600547 0.2502591 0.19827387 0.44558492 -0.27879748 0.10614728 0.16682667 -0.32112962 0.56262344 -0.38942724 0.31635985 0.12772688 0.68991673 -0.7899478 0.44897836 -0.2213019
