61 64
2 0.05710594 -0.3980755 0.13645537 0.21348853 -0.030535271 -0.18517658 0.14987293 0.057202883 -0.28693858 -0.021348324 0.08661438 0.016928157 0.17763291 -0.38198262 0.054153085 -0.2892384 0.39103284 0.12939623 0.09291481 0.13670328 -0.13819686 -0.025080733 0.11424152 -0.012153507 -0.030161459 -0.25688487 0.108147725 0.13005905 0.030263668 0.12720525 0.025984323 0.0625938 -0.3000902 0.41577753 -0.23246397 0.035886403 -0.09089123 -0.012255016 0.2570544 -0.34818858 -0.22523242 -0.12854238 0.33925387 0.2912644 -0.18907936 -0.31616732 -0.29600924 -0.4944756 -0.062473133 0.17288607 -0.2654349 0.26600003 -0.11179366 0.07745056 -0.4201954 0.060490366 -0.20088029 0.4992653 -0.09874843 0.3810461 -0.0070310985 -0.26321828 -0.25741118 0.16904977
0 0.05799523 -0.40361947 0.11965184 0.2103699 -0.045339953 -0.19255765 0.16669075 0.047292057 -0.30362076 -0.02588098 0.11733469 -0.013185057 0.1720434 -0.41698876 0.07925547 -0.2817781 0.43752232 0.15237598 0.0526983 0.12674566 -0.14569752 -0.03188371 0.07431648 -0.017226635 -0.05671326 -0.2898881 0.13370943 0.14296448 0.051293317 0.08085134 0.02052127 0.04997954 -0.29247305 0.46068513 -0.25599456 0.04254371 -0.08825872 0.025173713 0.29535198 -0.35209703 -0.22260952 -0.13942812 0.34176284 0.29245675 -0.22375874 -0.33245578 -0.28592816 -0.5403946 -0.050620925 0.15468647 -0.2501102 0.30242097 -0.118706696 0.07524083 -0.47148907 0.07478605 -0.21003444 0.5183927 -0.10950811 0.43888634 -0.01625185 -0.2501173 -0.29571038 0.21666522
1 -0.25375685 -0.34017277 0.27797583 0.022282233 0.1026283 -0.23544532 0.119299345 0.0864206 -0.07669353 -0.0646216 0.07115287 -0.11790975 0.024969202 -0.31735447 -0.08152696 -0.2918337 0.49589574 0.0050249742 0.31910276 0.011835091 -0.08734787 0.0023926017 0.1163807 0.1647927 0.16421434 -0.23647217 0.14639975 0.12778866 0.041371245 0.13823517 -0.022093736 0.020557899 -0.3437033 0.30019802 -0.07883652 -0.123228714 -0.15092616 0.018830327 0.25341874 -0.15530391 -0.23798466 -0.30068418 0.3536079 0.40156862 -0.10893771 -0.29679585 -0.14054605 -0.362318 0.015574061 0.26253134 -0.14867868 0.25596163 -0.17846224 0.18559016 -0.39564282 -0.006243057 -0.10413328 0.43546852 -0.13227788 0.365411 -0.13423714 -0.12103211 -0.2687199 0.24847776
3 -0.1989644 -0.4293386 0.20897754 0.084990874 0.07056875 -0.13699985 0.14505185 0.095387936 -0.018338272 -0.11738071 0.027864559 -0.07308177 0.009509731 -0.29024267 0.0046509993 -0.28399983 0.41148698 -0.031161457 0.22609395 -0.009824735 -0.11966423 0.014461272 0.09941408 0.13102303 0.09046065 -0.289376 0.06910049 0.043409377 -0.012540376 0.11701351 -0.026810747 0.016691187 -0.24972242 0.18708055 -0.103834264 -0.13202435 -0.009164974 0.07890963 0.095158435 -0.19857638 -0.28077587 -0.24587764 0.38779855 0.38290834 -0.13810115 -0.17972697 -0.0161749 -0.35138294 0.0033796937 0.24239543 -0.23617812 0.28916827 -0.18977192 0.10911221 -0.36733803 -0.10303343 -0.20079304 0.3645835 -0.09066755 0.34021676 -0.08578029 -0.15967138 -0.17979862 0.31792706
31 0.15335156 -0.40463462 0.11208918 0.24664919 -0.17367812 -0.17195682 0.107933894 -0.007026539 -0.37905413 0.058343194 0.15306994 0.029695146 0.2537578 -0.4799374 0.1293944 -0.3138559 0.3413569 0.18578821 0.041977048 0.09870067 -0.10417412 -0.00782804 0.0434018 0.009637009 -0.16246949 -0.28255337 0.16170055 0.2012748 0.024753017 0.117842786 0.028265836 0.071841724 -0.30940512 0.52904284 -0.33132976 0.06725366 -0.10867317 0.05573309 0.36094183 -0.39701578 -0.18254644 -0.07154607 0.3425054 0.2864162 -0.22388156 -0.28917244 -0.37620258 -0.5336117 -0.08557262 0.1338757 -0.30705243 0.37612545 -0.09937302 0.06909036 -0.50328606 0.123801775 -0.2990112 0.4966821 -0.087117456 0.4865574 0.031916443 -0.28793553 -0.29173902 0.16231321
34 -0.3716544 -0.33984575 0.33619508 -0.037976727 0.18698743 -0.20962673 0.1531168 0.11289667 -0.052952137 -0.13342312 -0.07114098 -0.17380254 -0.0016678353 -0.24763562 -0.22952607 -0.29229465 0.6055061 -0.009863677 0.37744167 -0.014426256 -0.0848538 0.015689094 0.23398761 0.20066541 0.16703333 -0.25155553 0.17862117 0.03978469 -0.0004894199 0.14225501 0.013538576 0.030172396 -0.34822252 0.18260898 -0.048519805 -0.22618562 -0.04071953 -0.088389225 0.21032885 -0.09349245 -0.31549707 -0.37462455 0.41892582 0.502841 -0.08396338 -0.27362603 0.016436597 -0.3769512 0.10458721 0.31862414 -0.071548305 0.16478053 -0.18544632 0.24383906 -0.39173013 -0.10685468 -0.073542215 0.37276003 -0.19989358 0.37946638 -0.19881243 -0.08162008 -0.33015186 0.27720377
35 -0.33554927 -0.34701458 0.28235942 -0.000170631 0.16077334 -0.1547205 0.19708885 0.08423139 -0.08070178 -0.15407486 -0.066066355 -0.18764178 -0.0062062065 -0.23571227 -0.1807789 -0.26434237 0.6864014 0.060688145 0.36775798 0.0692698 -0.11230709 0.0011199713 0.12130516 0.20267932 0.15230161 -0.29495877 0.14881796 0.047510874 -0.00031347302 0.1248259 0.029521368 -0.014602225 -0.29981828 0.19790174 -0.09033049 -0.20889838 -0.0015816172 -0.083663195 0.21818446 -0.127969 -0.34120494 -0.38190204 0.4540671 0.4739821 -0.09045348 -0.32698274 -0.018379094 -0.39212245 0.10754182 0.26943251 -0.098917 0.1287028 -0.17239046 0.21240231 -0.408363 -0.13591945 -0.088198416 0.37095475 -0.19407432 0.40170652 -0.2436352 -0.0883219 -0.2709472 0.2964711
30 0.1495658 -0.26776063 0.012116319 0.1586867 -0.12794079 -0.12475662 0.06053908 0.02300008 -0.40968674 0.05615032 0.083162814 0.0151647115 0.23895974 -0.41623107 0.013054597 -0.14678879 0.25359744 0.21083772 -0.02931384 0.10748761 -0.09747035 0.044058383 0.13324548 -0.048313815 -0.29621226 -0.18585633 0.045268003 0.21003504 0.005113884 0.16706547 0.10713034 0.11585863 -0.29271546 0.4707001 -0.3535693 0.029068127 -0.116753876 -0.022756984 0.2917117 -0.3470693 -0.09601769 -0.09558488 0.30041382 0.24156548 -0.23829871 -0.23524965 -0.34124577 -0.43288437 -0.078065395 0.011909464 -0.1740937 0.27242094 -0.16200317 0.037000876 -0.3943892 0.11005136 -0.18490887 0.48758954 -0.102172345 0.40769154 0.017960615 -0.17275015 -0.3090516 0.1616034
32 0.14047089 -0.38411134 0.030160759 0.24079944 -0.1463641 -0.12160361 0.13057834 0.056295082 -0.37294686 0.00879074 0.054827675 -0.009641133 0.2605045 -0.41185498 0.07802534 -0.21868615 0.3241462 0.19922602 -0.07445108 0.115509816 -0.15396926 0.014228752 0.13097648 -0.097850725 -0.28248242 -0.24092504 0.05901383 0.1594762 0.0067132576 0.07097965 0.0558429 0.09658156 -0.20874804 0.4580575 -0.3919709 0.03623369 -0.054379255 0.005189932 0.26060832 -0.41455626 -0.17261037 -0.12328874 0.3737143 0.27519026 -0.24656986 -0.2977655 -0.2771421 -0.50252366 -0.02072137 0.044725068 -0.26322934 0.3199003 -0.18348801 0.055240292 -0.432309 0.13269971 -0.3057484 0.52074546 -0.06379733 0.48170516 0.033964112 -0.23024428 -0.31452805 0.23077409
33 0.12063195 -0.37458822 0.08533359 0.2431876 -0.14041695 -0.16252364 0.17197849 0.056922134 -0.3739864 0.021544674 0.09159563 -0.029280653 0.2437223 -0.4193993 0.13326387 -0.24869126 0.34212595 0.19484258 -0.09532116 0.100173816 -0.107526846 -0.06588718 0.13120966 -0.08963976 -0.24318956 -0.23859245 0.09453167 0.22149108 0.05001114 0.044498313 0.04557057 0.120838284 -0.20632988 0.55914515 -0.40614083 0.0570883 -0.08002406 0.009233331 0.37174255 -0.37618974 -0.15363446 -0.1151296 0.37086663 0.25830904 -0.24575935 -0.2856404 -0.3063049 -0.57140625 -0.010320313 0.09853635 -0.23863436 0.3173572 -0.119790405 0.05322726 -0.5098795 0.16850764 -0.28427908 0.518134 -0.10189715 0.51976454 0.056445714 -0.24639489 -0.36394137 0.22513771
12 -0.104514726 -0.0712243 -0.052669685 -0.257033 0.06918776 0.0058237924 -0.095664084 0.007839775 -0.04413913 0.08434579 -0.022495562 0.14449455 0.06363588 -0.20634478 -0.17119974 0.16629343 -0.016820643 -0.13563696 0.28929228 -0.033668336 0.07027268 0.2488768 0.29769728 0.34562126 -0.18256506 -0.09258584 -0.12071293 0.03083303 -0.18948929 0.5822474 0.21952446 0.22910891 -0.4900427 0.019096827 -0.069744475 -0.36400178 0.041670408 -0.10234776 -0.13415459 -0.10205787 -0.24423087 -0.21382031 0.22149849 0.3505482 -0.09592068 0.19292578 -0.111208156 0.09889586 -0.2182883 0.02229429 0.08654764 0.19912025 -0.2834915 0.057795174 -0.19123824 -0.2769466 0.10238281 0.23078467 -0.1469359 -0.052260682 0.022261135 -0.03508268 -0.15948759 0.19082457
14 -0.11764076 -0.109260924 -0.084770255 -0.22244117 0.17362867 0.072191164 -0.023055974 0.08844029 0.05427399 -0.03850081 -0.07277628 0.17338014 3.7610458e-05 -0.26451153 -0.1281118 0.1065266 -0.13334714 -0.050678223 0.03560224 0.008521218 0.16294229 0.12690553 0.30250788 0.24334882 -0.23746406 -0.053274393 -0.33215994 0.043429118 -0.21455498 0.43277645 0.19821301 0.27705312 -0.35445544 -0.010214607 -0.12992062 -0.29763693 0.061090007 -0.08016992 -0.22834328 -0.18089673 -0.21504879 -0.014653353 0.2221352 0.18408161 -0.19545059 0.38709405 -0.01853245 0.06311935 -0.08633849 -0.0024955363 -0.030295422 0.16194263 -0.18115965 -0.056164123 -0.16337882 -0.32486197 0.12399278 0.20893341 -0.21602894 -0.095943995 0.06017868 0.00770118 -0.09406864 0.19050498
8 -0.19584976 -0.41078192 0.1731979 -0.054417454 -0.20973773 0.02452069 0.07135476 0.03796033 0.10603766 0.04748114 -0.12529781 0.0085212225 0.076195195 -0.20397307 0.115853466 -0.31164327 0.17881769 -0.121226385 0.14716199 -0.1324869 0.14014052 0.021169702 0.21147591 0.24787554 -0.14288393 -0.20992059 0.09557797 0.030877313 -0.1530142 0.075176015 0.020001858 0.10717061 -0.099663325 0.046978053 -0.25785342 -0.27670735 0.27330545 0.061963484 0.15302902 -0.08721937 -0.37074742 -0.046465747 0.3392138 0.43987557 -0.06952015 0.19505295 0.064198956 -0.10439248 -0.008184744 0.18236654 -0.14891426 0.3079359 0.023188412 0.18604885 -0.49571475 -0.110075586 -0.36722383 0.07712377 -0.21309955 0.40203595 -0.012066905 -0.28369632 -0.07619882 0.2848162
7 -0.1697188 -0.34087738 0.13434838 -0.011245427 -0.06542607 -0.008804958 0.112286545 0.07428899 0.059348222 -0.043202516 -0.069529355 -0.03390761 0.053309444 -0.22775224 0.016049998 -0.22335856 0.22177812 -0.061204694 0.14413814 -0.06444368 0.022999745 -0.013748266 0.18231629 0.1866603 -0.049037322 -0.18644355 -0.02913683 0.036086135 -0.08954467 0.13793267 0.025416845 0.120468736 -0.15619516 0.09791795 -0.19965038 -0.23692542 0.09086617 -0.007272637 0.08492928 -0.1518395 -0.27856252 -0.17165832 0.3540064 0.3719233 -0.10736345 0.07922575 0.032019258 -0.20628712 0.067123346 0.1548288 -0.16969696 0.25603023 -0.121183895 0.1178119 -0.3598843 -0.0980646 -0.19707969 0.16585754 -0.13081482 0.31647432 -0.018045325 -0.1334267 -0.13705012 0.3101725
13 -0.23001799 -0.2532673 0.041120976 -0.34499317 -0.141246 0.08368525 -0.08137196 -0.028455306 0.2987131 0.08334722 -0.07670686 0.12454137 -0.033454165 -0.27600405 0.08148476 -0.13250197 -0.10264346 -0.20943296 0.13893321 -0.26822156 0.34552306 0.16098292 0.15690923 0.4790478 -0.29495206 -0.2688294 0.028484361 0.014352812 -0.2430012 0.19993739 0.0980406 0.1493265 -0.24470265 -0.16560957 -0.19260328 -0.41456154 0.37070325 0.18962094 -0.035428308 -0.00055917347 -0.29875228 0.039860357 0.292494 0.4105491 -0.12081374 0.5360343 0.17461596 0.17278038 -0.1827286 0.121211335 -0.029921608 0.4155303 0.054339536 0.14369917 -0.4929535 -0.3179698 -0.22130755 -0.024945203 -0.2770315 0.22145036 0.010396556 -0.20645566 -0.04423192 0.25258738
9 -0.15583704 -0.26082805 0.07249286 -0.082866445 0.10955919 -0.08908518 -0.012364569 0.060449857 0.04192658 -0.036826927 0.056879114 0.09451529 0.035673182 -0.2843006 -0.12082706 -0.06335207 0.05723646 -0.09294451 0.2285109 -0.053542648 -0.053052552 0.16911215 0.22163673 0.18906276 -0.04979375 -0.098691 -0.062555596 -0.02536019 -0.113832094 0.32444823 0.047545217 0.14947121 -0.36670926 0.04689367 0.022777941 -0.25347704 -0.02552029 0.016083555 -0.13218573 -0.17612138 -0.21111865 -0.2514021 0.27781817 0.3491168 -0.1318272 0.014923546 -0.027383918 -0.12028532 -0.107958384 0.08256355 -0.17199951 0.29479134 -0.30433932 0.03202345 -0.11882245 -0.14674532 -0.06433896 0.3141245 -0.055549998 0.039561037 0.014429225 -0.071169235 -0.170067 0.2540623
11 -0.32923552 -0.4956251 0.18643755 -0.18055883 -0.12320811 -0.011650846 -0.11237637 0.05508777 0.45553985 -0.021994777 -0.095381804 0.16681589 -0.09681735 -0.20327485 0.22943658 -0.409447 -0.058759063 -0.27111766 0.17412058 -0.33453473 0.34100935 0.074952155 0.17032292 0.38399836 -0.11217259 -0.3462869 0.098977305 -0.017373621 -0.24872155 -0.044401832 -0.024509884 0.061269056 -0.11678275 -0.26256105 -0.13002461 -0.22157341 0.34934622 0.27096546 -0.018748265 -0.01667415 -0.3396789 0.20700593 0.35549718 0.36655837 -0.09483729 0.46481684 0.2479472 0.15508455 -0.1533055 0.29767883 -0.19035198 0.44895732 0.14185363 0.1674335 -0.5181369 -0.32608476 -0.3182125 0.021787373 -0.2890443 0.29510176 0.022970801 -0.40565002 0.1057 0.22399458
26 -0.08044064 -0.00092237897 -0.16195877 -0.1562799 0.45812196 -0.15354311 0.28230688 0.32111564 0.034228597 -0.23808086 -0.03122516 0.10425483 -0.09281801 -0.15386799 0.1172232 0.38505664 -0.12577824 -0.25356278 -0.08682761 0.15987793 0.055011168 -0.26093695 0.4704102 0.07736357 -0.05783974 -0.0073015494 -0.5898685 0.21407945 -0.12786353 0.51951873 0.21910803 0.5513173 -0.38346288 0.26700637 -0.20465271 -0.14867051 -0.0092071565 -0.24359258 -0.16513976 -0.27019975 -0.11893786 -0.27880418 0.27024636 0.036021914 -0.31139535 0.26394966 -0.08516063 -0.107076764 -0.17908512 0.09674599 0.3259745 0.14987592 -0.3576951 -0.28197968 -0.118776836 -0.3594833 0.60085356 0.45381042 -0.4301809 -0.40336707 0.31676248 -0.012579456 -0.2886519 0.4776507
10 -0.26922774 -0.37288022 0.2110409 -0.13970344 -0.19863921 -0.024920518 0.046398107 -0.015689442 0.28378952 0.07837384 -0.020947745 0.07932989 -0.020063916 -0.17427188 0.23012275 -0.33723894 0.078431666 -0.23530744 0.09778799 -0.26685852 0.28383222 -0.004630003 0.14750396 0.36260653 -0.094124556 -0.28925216 0.26989946 0.021429844 -0.14008605 -0.080386065 -0.053112376 0.048603177 -0.064390965 0.0051712054 -0.1819538 -0.243574 0.33358526 0.20673628 0.19801198 -0.033848777 -0.36126867 0.038430665 0.3379333 0.4162201 -0.04129459 0.25698552 0.16869739 -0.035949048 -0.07495094 0.26490185 -0.076183856 0.4150293 0.14458391 0.20105946 -0.5523824 -0.10160073 -0.37588623 0.009918094 -0.25592127 0.38442388 0.050962415 -0.36051485 -0.10514924 0.2144728
27 -0.055958904 -0.10105083 -0.08209737 -0.28446314 -0.048446216 0.1489215 -0.119743176 0.017013447 -0.04075696 0.11235736 -0.046405785 0.10499182 0.09064919 -0.2235954 -0.09707621 0.14693494 -0.02676537 -0.16752253 0.34668213 -0.045583744 0.13340466 0.28866905 0.24193347 0.48845884 -0.31317636 -0.13927767 -0.26143822 0.027773606 -0.2927967 0.6756809 0.26321626 0.19040188 -0.44362372 -0.02717117 -0.1936368 -0.48746264 0.15866958 -0.057587158 -0.17609282 -0.12025188 -0.29799864 -0.16658482 0.23743138 0.40262932 -0.08903493 0.37003627 -0.13327722 0.23948008 -0.25595903 -0.04559938 0.13175404 0.30338854 -0.27788755 0.10058297 -0.2574901 -0.2947333 0.006307518 0.16654225 -0.18378438 0.029977992 -0.033341143 -0.040856283 -0.019411016 0.2714185
24 -0.013393183 -0.1414118 -0.08427725 -0.23603232 -0.015796304 0.0850908 -0.11026345 0.015016045 -0.031614818 0.09677261 0.008732955 0.16198094 0.09062384 -0.33721638 -0.11732131 0.0902305 0.013632484 -0.11332192 0.3205667 0.005263048 0.09852322 0.2844129 0.19559635 0.44970986 -0.2007111 -0.1631086 -0.17652065 -0.011851765 -0.22712578 0.63833195 0.21073708 0.17691155 -0.5261553 -0.020985257 -0.14657743 -0.42748925 0.14096676 -0.055501692 -0.1800669 -0.16527858 -0.32948235 -0.1094461 0.21345243 0.39669245 -0.1422359 0.2870073 -0.18626364 0.15766037 -0.2908338 -0.042768452 0.041153036 0.3055725 -0.21925959 0.096598186 -0.26473698 -0.28992894 0.025093783 0.19072498 -0.18885331 0.024669314 -0.027206982 -0.11020639 -0.015533955 0.22416484
23 0.015429503 -0.17349873 -0.15552488 -0.17355664 -0.06979184 0.14689362 -0.11884242 0.043511804 -0.008771473 0.039768435 -0.11708678 0.13714571 0.153059 -0.2518823 -0.12573023 0.124196514 0.0013628678 -0.09256318 0.3060304 0.07995659 0.03190863 0.2727004 0.23660639 0.3598159 -0.25984296 -0.14938691 -0.28222498 -0.089203544 -0.30443314 0.6289064 0.22821072 0.1997119 -0.40734315 -0.119656466 -0.23157954 -0.4253317 0.1483145 -0.107020885 -0.30118617 -0.21574649 -0.36028916 -0.14480077 0.25520468 0.3744534 -0.09496542 0.26575994 -0.15305154 0.2080274 -0.2276552 -0.07217644 -0.01960507 0.25873905 -0.2791464 0.030754369 -0.18312755 -0.3246985 -0.039473187 0.18127885 -0.12513149 -0.006188444 0.0012393885 -0.12553996 0.07672522 0.25328657
5 -0.18032518 -0.42462596 0.15798219 -0.002380229 -0.04415086 -0.059552547 0.070187636 0.024530679 0.1284573 -0.07754802 0.03850493 0.013712183 -0.0060340436 -0.26970875 0.15601422 -0.2742866 0.16223949 -0.10514285 0.1727668 -0.11907607 0.06044212 0.017406736 0.07656954 0.22705132 -0.09738397 -0.30552799 0.0473967 0.018983953 -0.1178112 0.053937808 -0.013400037 0.049178354 -0.16744478 0.10145766 -0.1731323 -0.16549698 0.14623335 0.17843798 0.06350293 -0.14610583 -0.22367083 -0.0900105 0.331624 0.33085868 -0.13293295 0.14151305 0.06901745 -0.18518949 -0.0296316 0.19358863 -0.20625153 0.41182223 -0.055918105 0.05079393 -0.41859284 -0.12657578 -0.24018958 0.20298134 -0.16079246 0.3273042 -0.008459678 -0.2174956 -0.09959418 0.35348362
41 -0.2754246 0.013594071 -0.07763284 -0.23623067 0.57192546 -0.18859833 0.3846533 0.35546312 0.054396987 -0.27239904 -0.003069616 0.081805855 -0.1923571 -0.16543205 0.10225254 0.40668488 -0.18015113 -0.2594669 -0.16844875 0.068755895 0.1511804 -0.39372 0.559096 0.0929204 -0.11091009 0.07714832 -0.62678015 0.3689878 -0.08672156 0.47631237 0.21456163 0.67935354 -0.41249624 0.45935458 -0.2091773 -0.15969834 -0.00091656594 -0.24715479 -0.053489484 -0.21694133 -0.043747175 -0.33941045 0.3294668 0.02930879 -0.33777234 0.38962683 0.042889453 -0.19962926 -0.06940171 0.113091156 0.38822052 0.1291238 -0.37439242 -0.3213995 -0.18124653 -0.3580665 0.6746192 0.49317423 -0.5397179 -0.38949084 0.35366896 0.13033879 -0.50062215 0.58234304
53 0.14012037 -0.14383435 -0.370819 -0.3365446 0.16822161 -0.05157126 -0.25818017 0.05973569 -0.12362581 -0.01168364 -0.21201406 0.59066814 0.04209968 -0.690156 -0.51401913 -0.07649086 -0.27047864 0.4050819 -0.32989952 0.08082844 0.38492644 0.27966884 0.35506254 0.0032164813 -0.35387138 -0.11566291 -0.036910772 -0.0460128 -0.07630993 0.09345977 0.16502765 0.27135238 -0.68680567 -0.26852727 -0.17590463 -0.022087455 0.10911012 -0.32745796 -0.2757893 -0.36808458 -0.23468661 0.6061296 0.00037157326 0.021157235 -0.5005134 0.45659578 -0.03160856 -0.021097044 -0.18792398 -0.19029021 -0.22776432 0.015578612 0.30826393 0.001140648 -0.24399748 -0.45806047 0.2947814 0.09407908 -0.4364144 -0.024182351 0.06945096 -0.16362093 -0.1893829 -0.24355981
21 -0.34235856 -0.3396256 0.20118774 -0.32476616 -0.22882628 0.04388067 -0.1175955 -0.1325888 0.37798062 0.16622457 0.035556257 0.2588707 -0.08838022 -0.35230452 0.16014688 -0.42194203 -0.12484678 -0.13258582 0.06953875 -0.29761937 0.5531302 0.097684674 0.08831339 0.48101914 -0.22787279 -0.3133061 0.20936008 0.0891144 -0.14501317 -0.059451353 0.028811255 0.022979131 -0.15952072 -0.06059155 -0.21771912 -0.2575606 0.34402826 0.34469172 0.22716549 0.07726455 -0.32425588 0.40975142 0.20798886 0.30716583 -0.13253103 0.62582064 0.10627785 0.13307868 -0.14826867 0.18137921 -0.14758427 0.4274923 0.4173452 0.20840915 -0.7288676 -0.21455507 -0.3380229 -0.11870664 -0.3958369 0.4400643 -0.043824304 -0.32977653 0.0106184445 0.06347363
28 -0.12335904 -0.132685 -0.027713282 -0.20969617 0.045472186 0.10512824 -0.0683805 0.013057668 -0.061529145 0.00045665717 -0.103066795 0.12773769 0.06597823 -0.26249015 -0.27892044 0.03131479 0.002580728 0.03544847 0.13335726 -0.0014056792 0.08011749 0.21795227 0.26679355 0.22985187 -0.3205028 -0.055160325 -0.20153356 -0.005640103 -0.15829119 0.37740797 0.19101548 0.19771443 -0.33365163 -0.024460021 -0.15917842 -0.363159 0.12132616 -0.12390113 -0.11792888 -0.123082794 -0.20461266 -0.09047956 0.23577712 0.3126599 -0.18423016 0.25546792 -0.040794533 0.016333949 -0.07531918 -0.07751472 -0.048957963 0.13422725 -0.15238324 0.039431628 -0.17721158 -0.2474355 -0.001061712 0.13768396 -0.2114727 0.09675742 -0.068072155 -0.0068086255 -0.1136252 0.18375957
60 -0.107757844 0.113350466 -0.19258308 -0.17848872 0.45255345 -0.1752344 0.45838907 0.42334953 -0.062753186 -0.17310391 -0.051115315 0.0629785 -0.04908342 -0.08337877 0.21317455 0.512549 -0.21189366 -0.32075414 -0.34254068 0.12526476 0.09390675 -0.45967048 0.6891377 0.015794683 -0.19097956 0.16312723 -0.65890884 0.44450048 -0.08615523 0.5616287 0.26434964 0.8228951 -0.33192235 0.5924325 -0.321176 -0.1783687 0.012159923 -0.35028842 0.06737385 -0.26712158 -0.07614444 -0.42754585 0.35366544 0.058449127 -0.3523192 0.2757598 -0.0970603 -0.2562544 -0.11165272 0.08549082 0.53078014 0.10670037 -0.4532843 -0.3169054 -0.17984746 -0.26856297 0.6601962 0.52962047 -0.537685 -0.432631 0.49873197 0.047975622 -0.5897474 0.5824326
40 -0.31852946 0.09700254 -0.11956969 -0.36016503 0.5614879 -0.15194625 0.14853689 0.29660612 -0.009124694 -0.22522579 -0.17434512 0.1415506 -0.13589466 -0.23518917 -0.36086625 0.2665115 -0.19429934 -0.0009932446 -0.2721153 -0.016460687 0.23860577 -0.11977944 0.64078486 0.022976859 -0.20431286 0.15823638 -0.42781264 0.19339219 -0.11113077 0.27651435 0.2101759 0.5810329 -0.4498309 0.14076945 -0.05313493 -0.19363284 -0.062431283 -0.3797297 -0.13498569 -0.17088684 -0.07006694 -0.123638205 0.2574262 0.063835606 -0.34763327 0.332962 0.1900859 -0.19060108 0.08025031 0.030388284 0.2416588 -0.10091199 -0.2610461 -0.18450506 -0.023838522 -0.4362073 0.6075039 0.30585107 -0.47158372 -0.34294406 0.20463549 0.24158034 -0.54807144 0.22559105
43 -0.22035064 0.09616595 -0.09969762 -0.2344149 0.4958081 -0.26674047 0.43141752 0.4020772 0.09784789 -0.10921006 0.10345741 0.15320066 -0.15294272 -0.11249655 0.26363385 0.41667905 -0.31387275 -0.4372873 -0.2834637 0.04130153 0.15698086 -0.43694785 0.65218437 0.07523394 -0.0008484775 0.20144157 -0.5780638 0.45489842 -0.029581618 0.5343154 0.1866776 0.79873973 -0.38022634 0.5885334 -0.120854296 -0.17816363 -0.053978596 -0.21455377 0.091498725 -0.17269142 -0.0680899 -0.37768993 0.30126327 0.07903099 -0.3351005 0.26972306 -0.09184641 -0.21191359 -0.2268279 0.14881414 0.47270727 0.19282411 -0.3942454 -0.26548856 -0.17201947 -0.2377412 0.64330184 0.5132341 -0.49930292 -0.51790416 0.5045429 0.024820933 -0.5638413 0.53291065
38 -0.158968 -0.18644862 -0.110710576 -0.289898 0.2732541 -0.026219591 -0.18691272 0.053294104 -0.17794082 -0.23163293 -0.43296716 0.17437154 0.11797654 -0.46550488 -0.9226661 -0.0676801 0.078404315 0.50633174 -0.10021902 0.0007491263 0.13274705 0.35100305 0.5228808 -0.06839069 -0.45370144 -0.025770094 -0.07985131 -0.20686314 -0.15850002 0.07091552 0.18484479 0.2038952 -0.4989342 -0.38199273 -0.11359627 -0.22747529 -0.01660516 -0.49259576 -0.3322103 -0.31283295 -0.19418804 0.10857895 0.26673272 0.23540483 -0.3553369 0.2437875 0.29033625 -0.25504032 0.2898487 -0.15737177 -0.2702889 -0.19286366 -0.13632856 -0.004512019 -0.027036205 -0.5010904 0.21729209 0.13717574 -0.31478295 0.14592898 -0.16408584 0.18104443 -0.3392583 -0.07099171
16 -0.34633344 -0.57415944 0.17485373 -0.11682778 -0.2102439 -0.2687598 0.30339745 0.3410505 0.673654 0.17111197 -0.4550942 0.48819733 0.10672362 -0.05076332 0.22658129 -0.69857544 -0.34877852 -0.5469035 -0.6173139 -0.3243191 0.5037552 -0.33999324 0.9494423 -0.062429998 0.34420556 0.17413358 0.33543396 -0.090101674 -0.10661938 -0.4796382 -0.378064 0.65425926 0.068762526 -0.32003015 0.0035157711 -0.23276247 0.4637532 -0.26157114 0.105498485 -0.29066667 -0.84411955 0.3137208 0.43208796 0.4870354 -0.11274376 0.18656605 0.40410504 -0.15704069 0.011174152 0.5317389 -0.2331854 0.18390611 0.28561053 0.30596966 -0.2853329 -0.16714284 -0.47553897 -0.07368246 -0.31701598 -0.09954672 0.6378836 -0.8335682 -0.26770657 -0.11927416
42 -0.20385288 0.040578842 -0.114553146 -0.1702147 0.57142615 -0.22083631 0.40845832 0.43499374 0.047636077 -0.23131579 0.041627172 0.05159263 -0.16045891 -0.05187835 0.25061652 0.5021969 -0.17752057 -0.4403098 -0.077272 0.09493857 0.012401395 -0.39661744 0.6090386 0.10163992 -0.028714815 0.07300768 -0.6943505 0.3845318 -0.12795104 0.6485987 0.23599076 0.7295806 -0.39974108 0.5166612 -0.17408009 -0.19483158 -0.051468875 -0.25725216 -0.08972109 -0.26026988 -0.08205978 -0.5116832 0.38262478 0.102524534 -0.28845373 0.23250662 -0.048977647 -0.18303604 -0.18658018 0.17038472 0.47387713 0.19081387 -0.5607938 -0.32613826 -0.110821284 -0.32114097 0.6896781 0.6064752 -0.46073374 -0.52472585 0.44294092 0.07018996 -0.4946921 0.67058575
15 -0.31191784 -0.49959084 0.22474754 -0.088915244 -0.22069916 -0.08188515 0.22428048 0.122004755 0.5922947 0.18363534 -0.11433485 0.37627184 0.057118364 -0.12539642 0.27778408 -0.5884598 -0.2771058 -0.4004577 -0.3426594 -0.19613035 0.4683169 -0.23847066 0.52618366 0.13159959 0.21560292 0.045821093 0.11903388 0.0020042097 -0.038261928 -0.19207582 -0.23630251 0.36904258 0.09028979 -0.084450096 -0.06174424 -0.23846778 0.29462388 0.08261041 0.17961106 -0.110994615 -0.61929524 0.3100669 0.26703143 0.33517626 -0.06538062 0.37013617 0.1107587 -0.07842814 -0.02495365 0.34059677 -0.31736234 0.25160196 0.31097525 0.2093212 -0.44917268 -0.11997049 -0.47587273 -0.09747137 -0.20893547 0.10006733 0.37253758 -0.5437711 -0.031165736 -0.054377403
6 -0.33090928 -0.7211627 0.3414468 0.091221236 -0.122510925 -0.17113309 0.2802092 0.19840455 0.5622953 -0.027726158 -0.102329515 0.16875681 -0.0129938135 -0.19671467 0.33597386 -0.68862617 0.041841127 -0.39955008 -0.048392467 -0.224259 0.24262172 -0.28455082 0.34594846 0.12963906 0.3896325 -0.19304381 0.21374099 -0.113413945 -0.06533103 -0.2704023 -0.3182034 0.17012554 0.06250932 -0.10486412 -0.03328443 -0.16565144 0.23058352 0.1613245 0.06366735 -0.271829 -0.6367513 0.10678403 0.44898817 0.39940453 -0.067343794 0.14395572 0.27892148 -0.28469443 0.10386254 0.50726855 -0.45230392 0.42250463 0.11030245 0.19675873 -0.4227833 -0.1067172 -0.51007736 0.05024259 -0.11012143 0.2337551 0.28355438 -0.5392055 -0.029968226 0.21178031
39 -0.32202634 -0.07155795 -0.076975234 -0.4052022 0.48317596 0.024697348 -0.14879479 0.046596017 -0.232342 -0.23493603 -0.3060407 0.21026628 -0.035900388 -0.617962 -0.9484596 -0.11234723 -0.005536947 0.64343804 -0.24463381 0.025745668 0.34555614 0.30583224 0.4585548 0.013796455 -0.55346113 -0.03685095 -0.2132985 0.020680489 -0.09907304 0.05132614 0.2657546 0.19519666 -0.5672367 -0.17276368 -0.11076417 -0.17410094 -0.048666786 -0.34105238 -0.19988093 -0.21810907 -0.03615689 0.30182612 0.18307164 0.06862788 -0.4427197 0.4804607 0.2312459 -0.26308337 0.31555316 -0.14215188 -0.27581385 -0.18125267 0.08433724 -0.03200117 -0.201856 -0.46535838 0.30151555 0.1938009 -0.40816748 0.2138242 -0.26111752 0.38360956 -0.47161925 -0.094147585
18 -0.5240951 -0.58884865 0.3084797 -0.15195902 -0.13264385 -0.34917825 0.4308618 0.34609017 0.7204177 0.18959789 -0.33138463 0.45387614 0.05646729 -0.14983714 0.20429826 -0.8479669 -0.31376266 -0.4409954 -0.7936816 -0.34388047 0.66422236 -0.5291991 0.9862835 -0.090135686 0.39417702 0.25390333 0.38769546 0.07702564 0.070153914 -0.6215402 -0.41615885 0.6937907 0.15329744 -0.022564124 0.011908235 -0.19913524 0.3544731 -0.16315562 0.4215807 -0.16280262 -0.7730821 0.3526151 0.41164348 0.43934995 -0.18247063 0.2733377 0.40319917 -0.42720282 0.20020144 0.543121 -0.30217403 0.13130295 0.43228933 0.324457 -0.49266472 -0.057453107 -0.4719395 -0.0985339 -0.42588577 0.077474736 0.63523877 -0.70250005 -0.47693402 -0.10376122
20 -0.40754554 -0.729836 0.3393871 0.068738796 -0.12233764 -0.3168113 0.3664898 0.2795435 0.44910657 -0.03850768 -0.33889574 0.17870474 0.10277907 -0.20127077 0.046521574 -0.8071392 0.10571762 -0.2208882 -0.33666685 -0.23712769 0.28134888 -0.32600567 0.6434282 -0.09106684 0.40858367 0.008755464 0.42759293 -0.1273252 0.013488908 -0.5546285 -0.41130814 0.32206783 0.06939556 -0.14875245 0.016404191 -0.115435466 0.2820141 -0.16243212 0.16529702 -0.309139 -0.7235216 0.10090542 0.43977144 0.48543856 -0.09021201 -0.040207952 0.4147429 -0.47359726 0.26787725 0.47483948 -0.48909953 0.18611099 0.21006884 0.2618367 -0.37590215 -0.06915984 -0.51658106 0.024065144 -0.22778599 0.28618243 0.33671454 -0.55981255 -0.28123596 0.06253942
49 0.12306783 -0.024647979 -0.38030285 -0.38542134 0.38260782 -0.057414852 -0.096884616 0.054823965 0.059024245 -0.04565977 0.21202864 0.6841808 -0.1977115 -0.690027 -0.09529702 0.18425623 -0.57308745 0.1420259 -0.31858966 0.16551816 0.48745584 0.03945802 0.24317832 0.15877149 -0.31758064 -0.12945011 -0.5385718 0.24387117 -0.011029484 0.4619239 0.2603124 0.3845556 -0.7358388 0.16957447 -0.21102346 0.020977542 0.010326037 -0.02784121 -0.2601485 -0.27240577 -0.039924446 0.5926625 -0.071769714 -0.20483726 -0.57983094 0.8559738 -0.29055154 0.06644669 -0.47450328 -0.17402492 -0.04238954 0.21330774 0.30368236 -0.26067752 -0.46855223 -0.49256533 0.6760593 0.28309193 -0.5846309 -0.300437 0.19626322 -0.034305554 -0.14282894 0.0034134374
25 0.013287738 -0.2806558 -0.115908 -0.19459853 -0.14151117 0.15369846 -0.20026445 -0.051046174 0.0834685 0.05558409 -0.01746616 0.20648131 0.0831146 -0.34807548 0.00833736 -0.00017407436 -0.028320763 -0.102292396 0.38811746 0.019640781 0.14655942 0.30365658 0.08707461 0.4772554 -0.27962202 -0.32652953 -0.20015262 -0.07320881 -0.313511 0.57483476 0.21741685 0.07334053 -0.438639 -0.14640121 -0.27826136 -0.36022457 0.18988547 0.08662671 -0.27025828 -0.20673943 -0.3586393 0.05394 0.22131938 0.3317335 -0.12160373 0.44322208 -0.1624401 0.27254415 -0.3047361 -0.031088402 -0.11517763 0.416273 -0.10091465 0.046859715 -0.38329297 -0.35565147 -0.08494571 0.1251464 -0.18753254 0.13508193 -0.050655268 -0.21232161 0.18909846 0.24307118
44 0.19670312 -0.026097655 -0.4141303 -0.23969457 0.35074311 -0.1179956 0.055409744 0.22129735 0.08188576 -0.030747771 0.18934605 0.5920731 -0.12712057 -0.4865495 0.16425984 0.29629335 -0.52385134 -0.12568092 -0.2918591 0.21593885 0.2783844 -0.107094586 0.31195152 0.10104109 -0.08479288 -0.048527814 -0.5645993 0.27618217 -0.02334397 0.567601 0.21840943 0.5089255 -0.6601305 0.24014792 -0.17576872 0.017653747 -0.037204757 -0.07647313 -0.2516683 -0.36578032 -0.14517862 0.3359414 -0.0022903548 -0.16326381 -0.49377128 0.56318027 -0.35028544 0.055930942 -0.52569354 -0.08964057 0.071476765 0.2400786 0.050458554 -0.30964258 -0.27172944 -0.4235026 0.6559382 0.35929582 -0.46529615 -0.5000544 0.3938021 -0.18625478 -0.11703247 0.11977722
45 -0.17427352 0.041246127 -0.18341655 -0.24118975 0.5234423 -0.13430583 0.2985644 0.39147776 0.0658156 -0.24553606 -0.12087532 0.112577155 -0.10323602 -0.119398244 0.0012856745 0.42054585 -0.19869384 -0.2611069 -0.16991563 0.099163935 0.09024234 -0.2730044 0.6186643 0.06662085 -0.10953899 0.107611574 -0.63631094 0.22828409 -0.15618435 0.52732235 0.23099388 0.6686798 -0.40787685 0.25468218 -0.16338232 -0.21339744 -0.005860455 -0.33210328 -0.19504076 -0.2530217 -0.13116007 -0.33152115 0.31690696 0.07636324 -0.32324532 0.32614765 0.057842884 -0.11425678 -0.08927944 0.08654228 0.3733585 0.081645854 -0.43509355 -0.28042176 -0.04907594 -0.41817963 0.6499878 0.4164306 -0.4648524 -0.47035027 0.35112756 0.08888676 -0.41386065 0.49631044
17 -0.5748428 -0.54401803 0.27985156 -0.22898516 -0.063388065 -0.30256507 0.46436748 0.3823782 0.8828162 0.1671806 -0.2502062 0.50364554 -0.054475743 -0.06582508 0.3994171 -0.64815664 -0.48305044 -0.6998432 -0.70077705 -0.3705468 0.6982283 -0.56476486 0.99053246 0.06711486 0.38752845 0.22560675 0.14819014 0.13536525 -0.025429651 -0.38401237 -0.347239 0.7815385 0.109294534 -0.03237758 -0.0047128685 -0.29551917 0.43551984 -0.060967997 0.28899816 -0.12034205 -0.7700204 0.2661478 0.4273843 0.4348365 -0.17300683 0.47918883 0.40025318 -0.20118614 0.015703872 0.58770645 -0.1556009 0.25973755 0.34036347 0.20670025 -0.4936946 -0.19684061 -0.35714823 -0.045904055 -0.47047448 -0.13271146 0.71571076 -0.7059775 -0.370679 0.05304172
51 -0.011873135 -0.112303756 -0.2942753 -0.4145359 0.22430171 -0.005345289 -0.2610756 0.0083808005 -0.11654878 -0.038417082 -0.21508628 0.50349844 0.037861735 -0.6768971 -0.692239 -0.03647751 -0.2549902 0.43944114 -0.25694716 0.015192881 0.38404077 0.3373098 0.4456811 0.06346561 -0.46493503 -0.063611194 -0.16566071 -0.050731335 -0.115653425 0.22595072 0.22727133 0.31113386 -0.68402654 -0.23835458 -0.15755543 -0.16748555 0.06506028 -0.3433262 -0.32564378 -0.30525395 -0.1956995 0.4753257 0.07161061 0.092936695 -0.47467834 0.5690533 0.04482909 -0.058495935 -0.07466331 -0.21472017 -0.22632669 -0.020815482 0.1753768 -0.0388651 -0.2546868 -0.5152867 0.3421642 0.11323646 -0.44097823 -0.002337301 -0.0036229698 0.021187311 -0.2881391 -0.15461624
22 -0.15503879 -0.273132 0.014233864 -0.2500722 -0.08291223 0.11289106 -0.13199455 -0.046997137 0.15169626 0.03565293 -0.04206195 0.16089405 0.0016682663 -0.2999716 -0.007300635 -0.0950538 -0.04182754 -0.108002655 0.27272215 -0.11099137 0.24679591 0.22131601 0.13664712 0.4422713 -0.28629917 -0.2703394 -0.10525126 -0.022839207 -0.24364331 0.35204336 0.15641865 0.0712171 -0.32518888 -0.11739809 -0.21797837 -0.35746646 0.23206967 0.1187129 -0.12655029 -0.09097177 -0.28614023 0.060421452 0.24024066 0.33975747 -0.118683614 0.4907995 0.011360287 0.18019044 -0.16754575 0.042907324 -0.089858666 0.35506898 -0.016986025 0.08222675 -0.4192402 -0.31819594 -0.12251456 0.0677817 -0.23995511 0.2034766 -0.059570163 -0.14840552 0.055036232 0.24024667
55 -0.24556753 -0.16337216 -0.120061584 -0.44109988 0.30542707 -0.022522325 -0.19849938 0.035421442 -0.024475755 -0.1412178 -0.33470398 0.3496509 -0.007612315 -0.5708689 -0.85845834 -0.1489897 -0.1131467 0.46625742 -0.20359854 -0.055128947 0.40334544 0.31272414 0.50645727 0.061193258 -0.40250987 -0.037394717 -0.11994817 -0.11927569 -0.1354045 0.063934326 0.17887278 0.25108668 -0.55723697 -0.35506648 -0.076141186 -0.22911918 0.039885003 -0.37810662 -0.30099097 -0.23623325 -0.20990263 0.37352666 0.17609252 0.16343744 -0.39560676 0.5370007 0.26802632 -0.13709955 0.17357998 -0.13749406 -0.27118433 -0.12470219 0.13995034 0.025847703 -0.21120687 -0.5435427 0.27897918 0.05831585 -0.43960238 0.093856096 -0.114302464 0.1468761 -0.3248523 -0.14835507
56 -0.2405781 -0.1359836 -0.09738449 -0.37447128 0.32339698 -0.029860185 -0.14595434 0.043888826 -0.0945145 -0.14537832 -0.25513393 0.289195 -0.025762133 -0.544163 -0.7230319 -0.13555333 -0.07750666 0.4366394 -0.196964 -0.02932079 0.3471674 0.23768133 0.42893225 0.058732286 -0.3853281 -0.05560649 -0.122901924 -0.027342552 -0.11043149 0.054192837 0.17428944 0.23120683 -0.520393 -0.20933664 -0.10840745 -0.17140523 0.030617926 -0.29170895 -0.20011707 -0.21120085 -0.15012169 0.32036966 0.17423621 0.12822519 -0.39132038 0.46412528 0.19700906 -0.18138427 0.1566847 -0.10153249 -0.23142588 -0.083941765 0.118101396 -0.002882316 -0.22484739 -0.45077556 0.25357538 0.12119772 -0.4193098 0.12840872 -0.1128526 0.16210127 -0.35584125 -0.08060372
19 -0.3870166 -0.6435322 0.37863657 0.10539364 -0.06862044 -0.3156843 0.42067719 0.30462652 0.5025357 -0.00034987764 -0.2121392 0.14605238 0.043534108 -0.06282433 0.2748002 -0.6655194 0.0614952 -0.43850824 -0.26705828 -0.20145655 0.19971994 -0.42708078 0.6153148 -0.06554703 0.47497594 0.038976386 0.29120845 -0.015594194 0.019487014 -0.3924844 -0.36907035 0.3822844 0.12385098 0.01832815 0.021077633 -0.12799788 0.18332966 -0.049828243 0.24458897 -0.2413918 -0.6394878 -0.050179966 0.4729636 0.4450733 -0.04539307 -0.10389223 0.30021685 -0.44731912 0.1675987 0.560691 -0.33002442 0.24078088 0.045787696 0.22299074 -0.31673476 0.0060720555 -0.4711073 0.14184752 -0.14447899 0.13254191 0.40714797 -0.57191527 -0.27260438 0.16194923
29 -0.069871455 -0.17591748 -0.09289588 -0.23870744 0.07818667 0.022527121 -0.11220718 -0.004333915 -0.06315358 0.0032988228 -0.061717562 0.24888723 0.049111646 -0.41514006 -0.26742736 -0.011826457 -0.08703405 0.09782786 0.06288258 -0.011972794 0.18218225 0.21495208 0.257145 0.20997071 -0.3433475 -0.13203737 -0.16061597 0.018964743 -0.14141761 0.3446221 0.19583534 0.20764223 -0.44998607 -0.019006517 -0.18673496 -0.24855472 0.08746692 -0.098565154 -0.13821946 -0.21337605 -0.18316151 0.080053836 0.19550912 0.22419158 -0.25417382 0.3590358 -0.05723869 -0.024221592 -0.13081472 -0.06081275 -0.12219359 0.19256677 -0.067795664 0.008538202 -0.29220742 -0.27942732 0.08548917 0.20276967 -0.2555771 0.09961704 -0.007997028 -0.05555118 -0.1730049 0.12128828
58 0.041968882 -0.11685752 -0.35172185 -0.4217125 0.2550521 -0.0005999105 -0.13446978 0.09301528 0.13719703 -0.012545175 0.042882185 0.6148187 -0.10382346 -0.5996859 -0.1493596 0.10264056 -0.4937501 0.0516906 -0.19203934 0.06421187 0.45179006 0.11911184 0.3235033 0.24726827 -0.2847527 -0.15216504 -0.44181588 0.113656536 -0.13106208 0.47971237 0.24432121 0.3841233 -0.6965031 -0.060736533 -0.18411042 -0.1387088 0.100651406 -0.062628545 -0.34284526 -0.2821904 -0.22092248 0.48989433 0.023447704 -0.030175006 -0.48968372 0.80915934 -0.14224388 0.1599328 -0.40370405 -0.13650627 -0.0750023 0.22831094 0.20998316 -0.1680231 -0.39325112 -0.5520911 0.48392263 0.1758721 -0.51404095 -0.24520628 0.20036834 -0.13894942 -0.07799907 0.019613452
50 0.05039254 -0.10051777 -0.36864996 -0.38409534 0.2718102 -0.03191755 -0.13289738 0.09124182 0.054172255 -0.03171205 -0.060220577 0.62250787 -0.04593209 -0.62664723 -0.34960887 0.062402662 -0.46141958 0.20602702 -0.31233853 0.10100767 0.43002456 0.14977945 0.40035918 0.10176689 -0.3030405 -0.04807746 -0.3767836 0.06774406 -0.09052083 0.34297457 0.20966078 0.3962587 -0.6804968 -0.123935245 -0.14232643 -0.08938677 0.052077904 -0.2059544 -0.35141915 -0.3243794 -0.19299945 0.5447881 -0.0029560593 -0.06240835 -0.49495247 0.71116567 -0.09047599 0.044792205 -0.273244 -0.18486612 -0.15554753 0.08885596 0.22307123 -0.16587226 -0.2890023 -0.5304279 0.48391208 0.15912922 -0.48672906 -0.24121414 0.18074404 -0.08225894 -0.15717427 -0.09975974
47 -0.22719617 0.04962588 -0.17593819 -0.29052138 0.49526048 -0.18744746 0.26598784 0.39045522 0.0878327 -0.20148507 -0.18619291 0.16924761 -0.09765891 -0.13085331 -0.094504975 0.35029128 -0.25378832 -0.23704797 -0.2659204 0.042335164 0.16987824 -0.2650636 0.6908898 0.018312186 -0.045238983 0.18914308 -0.4905968 0.19885479 -0.12643844 0.36196074 0.15923539 0.7092395 -0.3799164 0.15041396 -0.08169817 -0.20791553 0.031364463 -0.41822967 -0.18353216 -0.21262078 -0.14998743 -0.23929451 0.26375812 0.087690316 -0.30809745 0.31368917 0.13494532 -0.1320173 -0.058847263 0.07692555 0.35526368 0.010047803 -0.3237426 -0.23123948 0.005893932 -0.39460102 0.6212484 0.32529965 -0.47572097 -0.5044511 0.38667053 0.05369288 -0.47445825 0.37564594
37 -0.06333938 -0.34924808 -0.025645263 -0.14122207 0.030214772 0.02497388 -0.14686112 0.008893085 0.022193609 -0.020017613 -0.045327887 0.25197715 0.066758834 -0.45271695 -0.18367131 -0.11332353 0.024820888 0.039586384 0.22536555 -0.01675107 0.085721806 0.27896258 0.20282435 0.27181107 -0.22020313 -0.256614 -0.083838314 -0.057689697 -0.17290656 0.3559114 0.14100957 0.099585 -0.48421574 -0.1067864 -0.15141141 -0.25895754 0.09339604 -0.012962329 -0.20536229 -0.2582897 -0.3019721 0.07242881 0.27785164 0.31952122 -0.24500288 0.25657138 -0.07736365 -0.00081648375 -0.17658027 0.020417886 -0.25843248 0.3099042 -0.08383572 0.06973836 -0.3352197 -0.29992345 -0.053042773 0.2454469 -0.18758245 0.17615166 -0.062067438 -0.19138001 -0.034285873 0.17056952
52 -0.11482255 -0.18192595 -0.14259052 -0.3304285 0.14906181 -0.029111799 -0.17018968 0.02475629 -0.015107955 -0.054525115 -0.2484494 0.3918632 0.054094132 -0.52445865 -0.6228666 -0.1853187 -0.14651573 0.3502105 -0.20424688 -0.010366445 0.33551797 0.26187468 0.4156318 0.03889724 -0.3081014 -0.028354192 -0.05561358 -0.0878534 -0.094313204 0.064995036 0.12144252 0.24003534 -0.4948444 -0.27504882 -0.07302839 -0.16777976 0.06352282 -0.29619384 -0.23952946 -0.2517492 -0.24375546 0.3862353 0.11084414 0.15841426 -0.3429756 0.41500697 0.11626482 -0.08620989 0.0249596 -0.11489322 -0.28116652 -0.03814816 0.17018294 0.036230892 -0.19605526 -0.3962518 0.15897258 0.05715431 -0.34033823 0.05698018 -0.029910762 -0.014640197 -0.23399308 -0.1659681
46 -0.26117346 0.06414979 -0.14333859 -0.29707164 0.51077735 -0.1585785 0.30780727 0.37787956 0.13822454 -0.1919202 -0.12862596 0.1773258 -0.1545043 -0.085705146 -0.015345967 0.349792 -0.29293817 -0.29091635 -0.287781 0.023481539 0.20380212 -0.3146711 0.67134666 0.05537672 -0.057350542 0.16662143 -0.5437083 0.24006857 -0.11123375 0.37339905 0.1668656 0.7111262 -0.34715334 0.22061035 -0.10077186 -0.21493031 0.046832908 -0.3476462 -0.13056268 -0.17221795 -0.13470626 -0.23057751 0.27214608 0.061140783 -0.3140843 0.39674792 0.13449089 -0.10664361 -0.0767116 0.09553597 0.38768578 0.03530893 -0.29664707 -0.23682109 -0.062087152 -0.38155058 0.6295427 0.3187016 -0.5065716 -0.5041063 0.40322635 0.06281372 -0.4723894 0.39870158
59 -0.17595518 -0.23865464 -0.120618686 -0.36196202 0.26343465 -0.0121292155 -0.16531177 0.041179076 0.049486924 -0.12382521 -0.1948249 0.3854669 -0.030757928 -0.5705202 -0.5819122 -0.14848289 -0.124740094 0.29445553 -0.08044477 -1.7072329e-05 0.3440163 0.25398463 0.372302 0.14400011 -0.27188253 -0.14189261 -0.18283002 -0.08058374 -0.13368952 0.17889978 0.14671537 0.21966535 -0.58334285 -0.27761462 -0.08994494 -0.19844566 0.05984363 -0.2128462 -0.3222148 -0.26133344 -0.2503727 0.3524297 0.15597346 0.15637836 -0.36869276 0.53554595 0.12492564 -0.067139566 -0.007417171 -0.06997811 -0.28051153 0.051136658 0.12003383 -0.015362292 -0.2668369 -0.5012213 0.24600627 0.12802947 -0.38824922 0.04712379 -0.07537039 0.0253103 -0.1756409 -0.040381026
54 -0.20892917 -0.23947895 -0.08440646 -0.33484104 0.22237617 -0.043933913 -0.13164675 0.057946097 0.058660533 -0.11275825 -0.25794962 0.34300646 0.0034324543 -0.50063646 -0.57412696 -0.16706347 -0.12785533 0.26184997 -0.14051701 -0.051760454 0.33861977 0.21629457 0.4561503 0.104329735 -0.27241287 -0.08272495 -0.10978575 -0.08588362 -0.13740826 0.08784612 0.11941366 0.2657674 -0.4968452 -0.2785407 -0.07977497 -0.20899035 0.07656274 -0.26135382 -0.2483826 -0.24724992 -0.27243742 0.30663988 0.19557168 0.19199441 -0.34695426 0.46678028 0.17737833 -0.10609305 0.05969592 -0.03592587 -0.2637463 0.010692284 0.11272881 0.020612791 -0.24020693 -0.47077796 0.18034051 0.101393245 -0.37896726 0.060228024 -0.025878951 -0.0067397035 -0.24397664 -0.0591013
48 -0.2097641 0.07830556 -0.18124986 -0.33771387 0.41691348 -0.10629904 0.20509781 0.30920783 0.11072182 -0.14750285 -0.16501278 0.19924566 -0.098864086 -0.119096234 -0.07559942 0.3423324 -0.30863047 -0.2410737 -0.23617582 0.011594217 0.22882208 -0.1967657 0.62436795 0.0959407 -0.1420231 0.1562134 -0.5000557 0.18576142 -0.15615913 0.3999954 0.2009323 0.6481909 -0.36710572 0.12653863 -0.12259244 -0.25668427 0.08916983 -0.34263217 -0.17903294 -0.1635308 -0.1529763 -0.17677258 0.24038681 0.09009382 -0.2877666 0.43444315 0.11878394 -0.030109748 -0.10560185 0.034666657 0.35953674 0.04625048 -0.26290217 -0.19512601 -0.060861636 -0.3947017 0.5591791 0.26365948 -0.47739586 -0.45315713 0.35088214 0.05957618 -0.40065557 0.34456578
4 -0.10927605 -0.3133428 0.16912875 0.08322189 -0.005971829 -0.1599934 0.122056596 0.069757365 -0.033781916 -0.02382345 0.032597017 0.0033123018 0.06616699 -0.24956249 0.020269156 -0.3015933 0.30126014 0.014133826 0.066080876 0.02076273 -0.015842557 -0.052187182 0.11159302 0.041692924 0.09215097 -0.17858152 0.15082483 0.070445016 0.048220422 -0.019156793 -0.05630984 0.03601349 -0.17275047 0.20731238 -0.11107151 -0.040816035 -0.009051812 0.023235375 0.21246989 -0.16524655 -0.23231366 -0.09183823 0.26713294 0.2791221 -0.10780655 -0.18764943 -0.08820088 -0.3314155 0.003924332 0.18846297 -0.1845513 0.18623947 -0.00913285 0.13437098 -0.34810558 0.018046627 -0.17955773 0.26799902 -0.10069517 0.29864782 -0.008966093 -0.21155645 -0.18736202 0.124955885
36 -0.06902675 -0.32322145 0.15743852 0.11409659 0.016947253 -0.16835152 0.1451316 0.07424719 -0.123840325 -0.045100413 0.0069416245 -0.029976167 0.087108806 -0.26042086 -0.019956008 -0.26668382 0.32212397 0.07687049 0.04529168 0.040476646 -0.07235019 -0.037780635 0.13118875 -0.00477669 0.04456874 -0.17640597 0.12698409 0.06167158 0.033700924 -0.0036362454 -0.027548142 0.046582047 -0.18115911 0.23947966 -0.12861913 -0.009233095 -0.059642263 -0.024949882 0.1845489 -0.22783017 -0.19531678 -0.12646237 0.2863384 0.25302944 -0.12531534 -0.23677239 -0.09024783 -0.38655365 0.048184115 0.17531466 -0.20832944 0.17010783 -0.07685347 0.08664822 -0.29460028 0.030558683 -0.16831978 0.3246288 -0.08656298 0.31029314 -0.020975182 -0.16853164 -0.22306749 0.14257304
57 -0.17981668 -0.26246375 -0.15894401 -0.39682564 0.21741736 -0.039379228 -0.113260195 0.10305325 0.19387321 -0.066212356 -0.21297343 0.48387435 -0.038947053 -0.54073226 -0.4097901 -0.17814976 -0.2921202 0.1347082 -0.21787779 -0.05314603 0.45239443 0.1498853 0.49803945 0.15802127 -0.23322058 -0.08235248 -0.18149963 -0.033713106 -0.1487842 0.1450425 0.10422172 0.3609698 -0.53658295 -0.2700016 -0.109174326 -0.21078582 0.14684619 -0.21318376 -0.29513395 -0.26417992 -0.34070352 0.42545077 0.17273742 0.1596445 -0.3923983 0.64407104 0.15369852 -0.0081139 -0.0768478 -0.005265944 -0.24019566 0.11246527 0.18864466 -0.010898844 -0.3245978 -0.5295339 0.22171816 0.08783021 -0.45938128 -0.044437237 0.09733119 -0.11948151 -0.19470331 -0.03106782
