61 64
14 -0.018768743 -0.19982865 0.026795624 -0.102667935 -0.10688217 0.059730962 -0.1848573 -0.2595205 0.06433923 0.16647321 -0.07078941 0.22841068 0.10744664 -0.13697152 -0.04383557 -0.26043528 -0.30504352 -0.23959783 0.070959315 0.10666822 0.42770144 0.1062826 0.22810963 0.24645549 -0.15529501 0.18208571 -0.017705455 -0.13393934 -0.21048485 0.18547939 -0.054866448 -0.015995523 -0.16044547 -0.20061341 -0.043058913 -0.19744563 0.1796228 0.16221578 -0.12075776 -0.1120494 -0.12741949 0.24782772 -0.13791098 0.19012387 0.032558307 0.56044877 -0.1420238 0.32428658 -0.10013146 -0.08128737 -0.17450069 0.113459066 0.0548098 0.11906791 0.015761495 -0.0758605 -0.06431687 -0.05060908 -0.06954019 -0.16093342 0.029054863 -0.06413933 0.27013856 -0.15123002
53 0.022329109 -0.29514226 -0.18303597 -0.094780445 0.32474792 0.084167086 0.028616076 -0.17502373 0.0019440361 -0.11726131 -0.07549169 0.43499252 -0.3111313 -0.12798621 -0.42876738 -0.46333647 -0.21430114 0.49356848 -0.307096 0.26286864 0.5316652 -0.0035993247 0.12899171 -0.17212532 0.088554956 -0.07802692 -0.41724664 -0.3588162 -0.28508282 -0.12986067 -0.1655182 -0.02207691 -0.26990584 -0.2830945 0.185376 0.2999388 0.072146125 -0.0066153067 -0.3884764 0.0066571916 -0.11981858 0.5864054 -0.29290095 0.057385847 -0.14898404 0.7019668 0.12434031 0.11809553 0.23874001 -0.19655392 -0.35533535 -0.29580083 0.60228026 0.14762942 0.15370284 -0.4108472 0.15534458 -0.10389828 -0.080242045 -0.29455867 -0.08316225 0.4764976 0.16417475 -0.32306707
13 0.058611996 -0.23334458 0.022208864 -0.23537752 -0.22730604 0.041156158 -0.1117779 -0.24273029 0.08791212 0.35602608 -0.07968785 0.067232974 0.113301404 -0.18481827 0.12330402 -0.30333757 -0.31776527 -0.35078642 0.11100151 -0.085064635 0.5626325 0.15420425 0.16665854 0.32957494 -0.26709828 0.15455906 0.22779024 0.019733831 -0.16895421 0.299924 -0.1200931 0.081857234 -0.123632535 -0.23342109 -0.081210636 -0.34975058 0.24049453 0.24293785 -0.06408333 -0.2407462 -0.11601239 0.19449778 -0.1630922 0.26223737 0.0879184 0.7012168 -0.039140414 0.3210036 0.0061859894 0.022872146 -0.2381936 0.37555897 -0.07451523 0.07772137 0.04480786 -0.09172247 -0.22438787 -0.25364986 0.024217855 -0.119610436 0.17538154 -0.07217992 0.16928731 0.0036661467
3 -0.2941799 -0.53617436 0.18197174 -0.11723789 0.088204145 -0.09548564 0.65961355 -0.2115965 -0.05355483 0.15512711 -0.18389046 0.1909199 -0.45868176 -0.41117787 0.1252174 -0.6005576 0.34542826 -0.50988376 0.14903845 0.0027819853 0.20457998 0.22561854 0.01119047 0.67511797 0.638353 -0.37026256 0.337951 -0.027985957 -0.033761572 0.46221244 0.01896505 -0.04990047 -0.63967323 0.20384674 0.028648624 -0.43406713 0.45046693 0.11380243 0.19243106 -0.14995864 -0.35916302 -0.120108016 0.45903176 0.5496777 -0.33077726 -0.054831415 0.31105807 -0.23565571 -0.16630945 0.3367641 0.07909095 0.22158314 0.06190135 0.3420896 -0.20875588 -0.42647484 -0.15886064 -0.22137302 -0.2221679 0.04316358 -0.258041 -0.29233366 0.055863626 0.5051383
41 -0.19026436 -0.34518534 -0.17094383 -0.083364315 0.3154539 0.20211966 0.3402464 -0.085315906 0.08803268 -0.2731334 -0.14082304 0.33754998 -0.3539407 0.18762143 0.14347593 -0.109753735 -0.36187163 -0.18419585 -0.03308382 0.5213693 0.33289984 -0.4099617 0.017966479 0.13755319 0.16754869 0.15977605 -0.68533283 -0.14282162 -0.4354545 0.08008152 -0.07611464 0.31388286 -0.32212916 0.06510071 0.015536792 0.11154833 0.055857725 -0.10673402 -0.35457098 0.0014061757 0.084125064 0.11464204 -0.121412225 -0.28407416 -0.038274575 1.1624111 0.2725547 0.250218 -0.07987457 -0.27702418 0.30822974 0.27369195 0.014638249 -0.19661157 0.15228629 -0.33842945 0.4874763 -0.005465992 -0.34819725 -0.85317016 0.1732699 0.39610475 0.117000185 0.2702756
27 0.1311977 -0.22101419 -0.0991786 -0.20060213 -0.1294563 0.07410694 -0.20664392 -0.2838195 0.04678977 0.1918539 -0.010753908 0.121119924 0.046830714 -0.15467443 0.00960729 -0.2540944 -0.31091478 -0.2755834 0.24495995 0.060268898 0.462953 0.18019144 0.15983152 0.27931014 -0.25817496 0.13758229 0.026269231 -0.11668569 -0.236098 0.32574022 -0.0933181 -0.066462055 -0.27227902 -0.2936363 -0.022269376 -0.17728974 0.08349095 0.18727057 -0.19798057 -0.24997708 -0.086871706 0.25168636 -0.23722738 0.16785395 0.08437664 0.6967624 -0.13561971 0.3509134 -0.038913645 -0.095944636 -0.18743728 0.26600528 -0.12923378 0.100434594 0.08587141 -0.19527179 0.06664975 -0.13777666 0.023677884 -0.19627239 0.028331207 0.122197144 0.25625065 -0.100314036
12 0.116804935 -0.305512 -0.026551569 -0.15055752 -0.12650855 0.09431102 -0.069218524 -0.24585459 -0.011325601 0.21339825 0.06697113 0.10355146 -0.0019160205 -0.2972938 0.00097006303 -0.2799435 -0.23695028 -0.15956138 0.2592009 -0.087065145 0.29279348 0.2415058 0.029399619 0.25516582 -0.26474726 0.0037740637 0.15152006 -0.07747964 -0.08034819 0.38158888 -0.10404423 -0.017193668 -0.301409 -0.17388806 -0.017189296 -0.24227345 0.21067695 0.17815213 -0.11816982 -0.27624127 -0.030387713 0.1448088 -0.11879868 0.20800173 -0.059324756 0.57741094 -0.06318831 0.1281939 -0.009620235 -0.086234935 -0.33476308 0.28926075 -0.111352615 0.04391668 0.044430576 -0.1497713 -0.0687007 -0.23860691 0.02819936 0.022307951 0.00503082 0.031414967 0.13044278 0.14221673
26 -0.013755034 -0.24890082 -0.1628302 -0.07525266 0.19486138 0.03807569 0.1552748 -0.11415873 0.12414511 -0.111753516 -0.058531955 0.3094252 -0.16129436 0.09100802 -0.005089432 -0.06706092 -0.4024943 -0.16905934 -0.037487235 0.3445397 0.2589099 -0.30052572 0.19144242 0.07191413 0.039159995 0.08966818 -0.54521644 -0.15284683 -0.28170654 0.23911054 0.0015907905 0.20621999 -0.18585433 0.008916056 -0.060664907 0.03678526 -0.027950117 0.02437809 -0.24409321 -0.07294141 0.012834335 0.12332012 -0.08865103 -0.21006283 -0.1394171 0.915566 0.04214679 0.078192815 -0.09449604 -0.14406982 0.0820959 0.16170307 0.06262804 -0.16456378 -0.06505511 -0.24486525 0.4638669 0.065947905 -0.3150523 -0.4989775 0.16873504 0.1340307 0.066332705 0.10716833
2 -0.23445752 -0.62683034 0.093353115 0.033404455 -0.06920252 -0.09796259 0.259875 -0.28173125 -0.3729301 -0.0055349115 0.04698065 0.24642758 -0.11103029 -0.5906959 0.053619266 -0.6505044 0.22441158 -0.09021618 0.101529874 0.06596989 0.19653948 0.36313835 0.1194825 0.58318603 -0.07316205 -0.36175972 0.0023132223 0.063780025 -0.19982491 0.38181856 0.08334301 -0.018626872 -0.76700646 0.35708612 -0.27448165 -0.27214494 0.37638605 0.17628337 0.17369811 -0.31352904 -0.27144462 -0.014753875 0.54739714 0.48753712 -0.42281613 0.077901624 -0.08569971 -0.29944292 -0.33596453 0.0067400653 -0.20133826 0.24484399 0.02853833 0.16995832 -0.41301528 -0.4491009 -0.1788013 0.18012963 -0.3776218 0.35375482 -0.26614228 -0.30247542 -0.06449282 0.37943995
40 -0.2439554 -0.16754633 -0.1436959 -0.13760114 0.329815 0.11305058 0.004671712 -0.13263659 0.08955742 -0.21278636 -0.13061099 0.2792349 -0.24315305 0.18340753 -0.17958812 -0.14239503 -0.32754692 -0.07733655 -0.14910826 0.18950926 0.42094076 -0.110512935 0.2687546 0.19251578 -0.10121917 0.028345399 -0.6099055 -0.28277484 -0.55517524 0.057786766 0.092468515 0.14834423 -0.13775444 -0.13549174 -0.040005047 0.019949568 -0.055335637 0.08403777 -0.22771807 -0.0032600074 -0.056714065 0.2487477 0.029977962 -0.03593097 -0.09500283 0.82913315 0.14855291 0.21679924 0.12896377 -0.11408395 0.10129774 -0.0036378156 0.10816662 0.021778945 0.08432131 -0.41128093 0.33862108 0.027098546 -0.28338423 -0.4211314 0.06367853 0.34302035 0.034528166 -0.061503615
24 0.16662799 -0.21772043 -0.05509852 -0.14862855 -0.15920505 0.05088411 -0.19775657 -0.30243605 0.10121442 0.19933522 -0.0147204315 0.1324926 0.1105465 -0.21463132 -0.07146608 -0.25471142 -0.3343828 -0.31045792 0.31938818 0.0901135 0.39854336 0.19609989 0.17340808 0.31558514 -0.19542648 0.19233365 0.054008115 -0.20285323 -0.19327375 0.41626015 -0.10171181 -0.07086828 -0.3103769 -0.34214193 0.029900968 -0.23668367 0.11551471 0.17151359 -0.19462977 -0.26238996 -0.08799197 0.22557679 -0.27707952 0.19057392 0.052395485 0.63658905 -0.18050148 0.36186948 -0.045103166 -0.13069461 -0.23766474 0.21700582 -0.15925986 0.1044835 0.1548169 -0.1537742 0.08941792 -0.1820697 0.02255526 -0.19293322 -0.016670756 0.057586867 0.35520482 -0.07708617
39 -0.2192221 -0.12816434 -0.05898247 -0.22444108 0.3639105 0.11897729 0.030409304 -0.17227286 0.049695168 -0.04300119 -0.21237144 0.3420551 -0.21517178 0.02570342 -0.49728036 -0.30311882 -0.2759202 0.2823634 -0.22034194 0.0821424 0.54579496 0.03211465 0.20675087 0.08369608 -0.017431807 -0.004066625 -0.3610306 -0.23981126 -0.31647745 -0.021091418 -0.009396301 0.059402123 -0.17350689 -0.42843542 0.21767429 0.07560786 0.093573354 0.0014542292 -0.27902922 -0.014496937 -0.038988415 0.50264853 -0.20039389 0.0027161806 -0.07175896 0.7299718 0.21901916 0.2885891 0.34290493 -0.13033803 -0.19371766 -0.2406236 0.4182916 0.1510093 0.21859598 -0.34733003 0.17941338 -0.14334482 -0.08979742 -0.25735894 -0.08544412 0.46311384 0.055218693 -0.280375
8 0.0007630506 -0.46314237 0.0056528137 -0.057132863 -0.012148501 -0.03890196 0.56020874 0.055868667 0.16871075 0.15577932 -0.08362722 -0.035582088 -0.4801781 -0.2807239 0.33591968 -0.5824312 0.20435229 -0.26003125 0.019907244 -0.24172267 0.25674805 0.2906099 -0.087945886 0.3807025 0.4663703 -0.30833673 0.3592633 -0.24412708 -0.2227856 0.2553715 -0.08188084 -0.070030265 -0.2349962 -0.02315064 0.10725403 -0.3768996 0.54128593 0.15968251 0.008024351 -0.06485058 -0.2815908 -0.086162426 0.2504847 0.60856843 -0.16717106 0.08272433 0.45726836 -0.21749114 0.18050323 0.28704065 -0.22124265 0.20891458 0.1692154 0.23187509 0.113694206 -0.28202665 -0.44887918 -0.58628637 0.0005349858 0.043136146 -0.025187936 -0.21405041 0.1534266 0.549177
60 -0.12162741 -0.31681284 -0.21209213 -0.18223834 0.37720877 0.1475804 0.31144813 -0.09361914 0.105244964 -0.17227608 -0.11871296 0.38352668 -0.43699595 0.21444955 0.09969863 -0.066588655 -0.3865841 -0.22317983 -0.11824338 0.40945244 0.37075981 -0.46214607 0.081863455 0.026716417 0.16571599 0.02170545 -0.65657324 -0.069764756 -0.3283718 0.12185427 -0.054001916 0.27282634 -0.19665594 0.09531301 -0.05944711 0.15241106 -0.07154515 -0.022026306 -0.30850667 -0.027977247 0.03565447 0.1762111 -0.07336187 -0.28659058 -0.101117104 1.167457 0.2111625 0.09186915 -0.04824962 -0.08811386 0.26733714 0.24671794 0.12304139 -0.16284491 -0.07708693 -0.35374779 0.5789058 0.06247748 -0.33344477 -0.753219 0.25197196 0.34460157 -0.034294214 0.13824053
56 -0.2651397 -0.17548381 -0.060774405 -0.2865263 0.4746753 0.15021403 0.10038327 -0.15189958 0.0023230438 -0.058365054 -0.21403505 0.36476645 -0.36418545 0.079754464 -0.44256082 -0.25798172 -0.21817708 0.25302836 -0.2624746 0.058407523 0.54387176 -0.051059518 0.11868996 0.04788767 -0.0020878883 -0.102008395 -0.41592318 -0.11191917 -0.30705753 -0.08852597 -0.012698774 0.12271523 -0.14623518 -0.31965372 0.14880429 0.12988941 0.011640769 -0.022449967 -0.23348571 -0.021426316 -0.0018308583 0.5060018 -0.11191662 -0.04549323 -0.08553006 0.7960868 0.26663315 0.19803947 0.3353775 -0.044508215 -0.1004206 -0.17284286 0.3989231 0.15940478 0.11054534 -0.34796992 0.22950342 -0.0516341 -0.10689725 -0.28453404 -0.04974366 0.5035124 -0.095463976 -0.23869626
7 0.099878855 -0.44131806 0.011859316 -0.035039317 -0.030192675 -0.1386362 0.6069099 0.05762924 0.2433373 0.23490906 -0.119595096 0.13575438 -0.37186804 -0.268622 0.2465159 -0.50370413 0.07655929 -0.3983895 -0.032710247 -0.069234796 0.209197 0.09923323 0.025084702 0.29305997 0.70898336 -0.15033498 0.366166 -0.24798445 -0.0072295745 0.30714074 -0.10172609 -0.030849254 -0.24611746 0.0216825 0.17900011 -0.37643775 0.4102186 0.09797933 -0.012223317 -0.09672609 -0.36214653 -0.08143108 0.1607553 0.47637647 -0.21758907 -0.002573734 0.39166176 -0.26667547 0.08944288 0.30711585 -0.22600225 0.12301439 0.17464434 0.19973576 0.08902209 -0.16742729 -0.3083282 -0.50542766 0.05025338 -0.11712107 0.040230714 -0.29968652 0.1977285 0.43358138
38 -0.14689563 -0.14942567 -0.039154872 -0.21781477 0.22413398 0.05251778 -0.088537976 -0.22565317 0.051642105 -0.01171227 -0.18918675 0.22147803 -0.02341243 0.0023518824 -0.42259583 -0.14676236 -0.3199925 0.041195 -0.06261011 0.03613465 0.43485808 0.043965515 0.29563132 0.23408626 -0.24236272 0.047070846 -0.33537537 -0.15956847 -0.34730113 0.20433967 0.0669398 0.1770769 -0.22824886 -0.33230966 0.04854504 -0.0767098 -0.10246337 0.059505392 -0.15796942 -0.17701413 -0.024293806 0.32948136 -0.07857002 -0.04163778 -0.11451903 0.74279964 0.09955216 0.24189074 0.25203207 -0.08910723 -0.1255013 -0.026797881 0.012403551 0.07546373 0.10878624 -0.3862857 0.253796 -0.019238062 -0.13289982 -0.19302154 -0.041026145 0.3407916 -0.012895246 -0.16667645
30 -0.012769253 -0.40288147 0.021736845 -0.06412884 -0.16299178 0.042545892 -0.04308698 -0.2835005 -0.18941239 0.1319986 0.07623932 0.11251637 0.04700585 -0.39328733 0.024318332 -0.38514018 -0.0692008 -0.07673772 0.09979353 -0.031246873 0.29440218 0.22331554 0.11198386 0.29855484 -0.39310032 -0.13511106 0.02043346 0.11530751 -0.13620621 0.34377292 -0.044289205 0.047669437 -0.38518387 0.090147234 -0.23893371 -0.18846498 0.17627607 0.21851751 0.029857608 -0.32596663 -0.073930584 0.14148156 0.12636136 0.26144454 -0.163418 0.49552575 -0.16043122 -0.031623006 -0.1631022 -0.043561604 -0.27678934 0.34522364 -0.08162958 0.028068082 -0.25446928 -0.23410869 -0.12663904 0.06766929 -0.14832842 0.2111856 -0.04557278 -0.08810908 -0.02485183 0.15169767
23 0.15940319 -0.26174796 -0.07134328 -0.20302068 -0.17402132 0.023626471 -0.119970895 -0.23744126 0.040226147 0.25499505 -0.010573222 0.058030024 0.05850085 -0.23454517 0.03882791 -0.25020924 -0.27636 -0.26951572 0.2652906 -0.0025170394 0.39895022 0.1700163 0.12958609 0.26130396 -0.27194807 0.090846695 0.13364197 -0.025429571 -0.12345763 0.423367 -0.10674824 0.014535581 -0.27672857 -0.23070413 -0.05153643 -0.24283305 0.11118756 0.19257087 -0.14196466 -0.29851478 -0.06754987 0.16075908 -0.19311392 0.19184424 0.034850758 0.6522532 -0.1168619 0.24387078 -0.04002165 -0.034019325 -0.26745626 0.3421885 -0.1769207 0.026442135 0.023546861 -0.18706378 0.0010455016 -0.16035071 0.031203695 -0.1131403 0.070950516 0.034043908 0.17973271 0.033354405
1 -0.41669542 -0.64939255 0.23755799 -0.37439182 0.25679994 -0.26795694 0.6637952 -0.21733077 -0.232395 0.23555493 -0.3343649 0.26030886 -0.48192915 -0.46788874 -0.051221635 -0.63072246 0.46824956 -0.3865679 0.09834647 -0.027613487 0.45578268 0.27086946 0.021683002 0.7109372 0.47986132 -0.48483527 0.3689138 0.27292848 -0.02079144 0.35978848 0.06545563 0.10377969 -0.8002254 0.20656236 -0.060102 -0.4089981 0.24798436 0.05570993 0.3104161 -0.33581042 -0.41788825 -0.03538694 0.5785525 0.5588808 -0.36434573 -0.11637177 0.31399277 -0.26631916 -0.06657488 0.47999397 0.011507036 0.23484126 0.048223406 0.4061227 -0.34128743 -0.5824296 -0.15072376 0.05409842 -0.21199413 0.08415589 -0.23719996 -0.24155067 -0.21545821 0.33370638
21 -0.07531042 -0.14627641 0.087060176 -0.14640735 -0.1430651 0.068281166 -0.039619863 -0.18056881 0.2533863 0.33715132 -0.1222309 0.21038571 0.012899094 -0.0047713737 0.16362077 -0.2956606 -0.35346863 -0.3980218 -0.12732643 -0.0806256 0.5711175 -0.030938607 0.23941751 0.18014066 -0.031888798 0.14309457 0.14017318 -0.065450914 -0.11432129 0.083156064 -0.09538007 0.008289509 0.22075836 -0.20353761 -0.10779335 -0.29623118 0.38278642 0.23383787 -0.049024273 -0.03218631 -0.15581502 0.27319542 -0.109906614 0.23175386 0.1212223 0.6533971 0.022396859 0.29344812 0.027184887 0.1396638 -0.1428758 0.17588744 0.26744688 0.1364169 -0.074865066 0.10852776 -0.28528264 -0.24054867 -0.01618175 -0.11095204 0.23758593 -0.23406287 0.18624178 -0.08828808
16 0.08743075 -0.3226578 0.16326115 0.037444737 -0.30880508 -0.19374973 0.15147576 -0.060825817 0.36716598 0.4876727 -0.21797876 0.42214137 0.213194 -0.10704875 0.21779351 -0.43876156 -0.504442 -0.57569844 -0.28049034 0.12201676 0.530973 -0.21157974 0.4886695 0.086899124 0.32590765 0.37686813 0.23505268 -0.098018646 0.091582954 0.190311 -0.12827915 0.12648658 0.19076376 -0.099727176 -0.02435232 -0.41950163 0.5020969 0.19386743 -0.024301063 -0.060913015 -0.36526206 0.2288753 -0.12963471 0.25261363 -0.005732853 0.48154187 -0.023939196 0.12451577 -0.19482945 0.21826902 -0.34261942 0.0839999 0.3652604 0.099722736 -0.14230898 0.2900452 -0.4298235 -0.1628339 -0.011632363 -0.23980461 0.367709 -0.6843375 0.31964615 -0.08277188
18 0.23460272 -0.4629965 0.042528693 0.15349378 -0.29602316 -0.32064426 0.44994804 0.1358717 0.3939904 0.43722168 -0.17851633 0.33798322 0.085354395 -0.22092031 0.33615363 -0.57907194 -0.3248913 -0.4530995 -0.3833763 0.22799842 0.40912557 -0.20730577 0.42409673 0.047871303 0.68816614 0.31913814 0.2998862 -0.20416164 0.08944597 0.24394415 -0.16569844 0.19509102 0.060055044 0.13975795 0.11783807 -0.44281518 0.47657076 0.17714715 0.011277975 0.023560338 -0.47919866 0.041312423 -0.06883257 0.34686276 -0.19452524 0.21645504 0.15048078 -0.22324172 -0.12593022 0.21874546 -0.42528072 0.045527503 0.3890152 0.042105958 -0.005483157 0.16032635 -0.55027467 -0.37794358 -0.012350251 -0.31259948 0.3678171 -0.69761413 0.34113997 0.22823283
31 -0.13984165 -0.6123311 0.036795504 -0.013608422 -0.10402833 -0.10808132 0.18254563 -0.30248824 -0.47939646 0.01763527 0.084491394 0.20972651 -0.0257066 -0.59541816 0.041057114 -0.60222733 0.16590992 0.022287598 0.04055477 0.07705262 0.2661618 0.31390354 0.09744993 0.49006644 -0.23015524 -0.31304312 -0.035576012 0.20337331 -0.19780137 0.35270283 0.016786586 0.07881256 -0.7869453 0.3948404 -0.3013543 -0.1786732 0.20010848 0.18449014 0.14027636 -0.4079501 -0.23692301 0.033679258 0.43984455 0.37299076 -0.3949248 0.22133398 -0.122642234 -0.3166784 -0.28932804 -0.023969324 -0.25449845 0.32774162 -0.06082211 0.07230749 -0.39574945 -0.50612277 -0.15735845 0.24716102 -0.322451 0.28527182 -0.16341135 -0.13295396 -0.17472526 0.28890133
49 0.11631525 -0.42114136 -0.12279831 -0.026371298 0.3562826 0.08836906 0.050741248 -0.2863069 0.08929915 -0.07304634 0.061819576 0.7069621 -0.4202772 -0.11597516 -0.36077312 -0.4159925 -0.3003296 0.30566528 -0.23160404 0.45030317 0.4090968 -0.24138463 0.08272949 -0.4105205 0.24992208 -0.11779395 -0.5447622 -0.31616628 -0.02102507 -0.11204585 -0.23188907 -0.16186771 -0.15513557 -0.07804775 0.057570662 0.43039843 0.05329212 -0.010353898 -0.4044887 0.04181659 -0.055982932 0.6443009 -0.288612 -0.04962881 -0.15617439 0.8309904 -0.13297434 -0.05067178 -0.116320565 -0.12396648 -0.32425863 -0.2922445 0.78299326 0.14703095 -0.29582226 -0.1279069 0.40534732 0.17021385 -0.15357985 -0.339121 -0.06589445 0.20324332 0.19051167 -0.42111677
51 -0.052729696 -0.29733986 -0.14088744 -0.14689007 0.4427986 0.20527054 0.025900345 -0.27798125 0.054638714 -0.10283684 -0.015707027 0.4949217 -0.46605158 -0.12567928 -0.55128306 -0.4743743 -0.19782422 0.5183445 -0.21476883 0.13169207 0.4614082 0.052060515 0.056454703 -0.19124992 0.077028744 -0.24187951 -0.43321735 -0.41463003 -0.19896007 -0.064599104 -0.14841029 -0.13482283 -0.23426664 -0.33987108 0.21603897 0.3260718 0.14060482 0.007403158 -0.4130871 0.027999517 -0.020334734 0.6658012 -0.26358178 0.063010775 -0.16730876 0.7827147 0.13572252 0.09906926 0.26457113 -0.17808 -0.3700313 -0.34587568 0.7193252 0.21626832 0.029946608 -0.37817013 0.294579 -0.15550894 -0.08956245 -0.15920231 -0.2028756 0.49576348 0.11431618 -0.31924
25 0.18754649 -0.2297556 -0.063299954 -0.23669407 -0.2172207 0.036985654 -0.2605081 -0.34193665 0.07200513 0.31177744 -0.027511045 0.1590714 0.14245561 -0.22178823 -0.034174085 -0.27426308 -0.38162404 -0.28304726 0.2559662 0.08886964 0.5195822 0.13901465 0.19004978 0.20633517 -0.28434 0.19358024 0.13611752 -0.04422692 -0.088793546 0.37168205 -0.15231901 -0.031817596 -0.24001417 -0.3159956 -0.035422135 -0.19021845 0.07940434 0.2094756 -0.18963487 -0.27992544 -0.082052164 0.3077923 -0.34890443 0.15716967 0.10568965 0.7551242 -0.23243594 0.381492 -0.073151335 -0.07886037 -0.31578687 0.26853076 -0.0700915 0.08026568 0.018882196 -0.1283668 0.039207775 -0.13956457 0.056214098 -0.18601793 0.071016535 0.056505937 0.28251985 -0.18664202
42 -0.08830023 -0.31091 -0.23902363 -0.1363534 0.3113191 0.09616695 0.30506212 -0.09488004 0.12819004 -0.18660846 -0.079743385 0.3704653 -0.39110953 0.22567323 0.1856641 -0.0693493 -0.41820318 -0.3432244 -0.035532605 0.5016053 0.3140745 -0.45809212 0.12523007 0.08880046 0.20903322 0.090931594 -0.68510896 -0.10944149 -0.36357835 0.20780753 -0.02870185 0.25652617 -0.25302938 0.15212795 -0.07465076 0.102011055 -0.07728278 -0.01637374 -0.31491438 -0.038976174 -0.0025638558 0.08734819 -0.060660463 -0.2603509 -0.09692275 1.1119813 0.15818612 0.11337578 -0.16904777 -0.13178141 0.3085941 0.27949017 0.030392144 -0.1896921 -0.06755334 -0.3524242 0.61431414 0.085776575 -0.3746865 -0.8190035 0.24828282 0.2878869 0.050350614 0.19828065
20 0.15656051 -0.5344182 0.038760826 0.28505358 -0.28695258 -0.350898 0.6407579 0.18097089 0.32068607 0.20151244 -0.12623395 0.263846 -0.0039654467 -0.28705674 0.31441277 -0.6525935 -0.16402178 -0.37088642 -0.3231251 0.19754668 0.2116171 -0.073736094 0.3779843 0.17944871 0.80229056 0.17377347 0.20401771 -0.41316333 -0.06258183 0.2649358 -0.11555888 0.10292797 -0.14617112 0.18854487 0.13251425 -0.4499931 0.5854364 0.14126231 -0.021107968 0.011919717 -0.5568968 -0.1679899 0.13119015 0.50749046 -0.31528205 -0.04889917 0.2869458 -0.35604495 -0.096753255 0.14295277 -0.41678396 -0.00856528 0.3628942 0.0082766 0.09023191 -0.047686595 -0.56243944 -0.42363706 -0.10738419 -0.20065305 0.22259904 -0.6441202 0.3894496 0.4413644
28 -0.09501642 -0.28014678 0.15433587 -0.06093902 -0.107844256 0.20944428 -0.23563112 -0.38259047 0.119576275 0.23878637 0.04260403 0.33189264 0.10061977 -0.29730126 -0.15379053 -0.2967742 -0.37251863 -0.3454359 0.3782982 -0.050344147 0.25354356 0.22357406 0.15943147 0.3578803 -0.32239446 0.12102279 0.11554034 -0.19144596 0.008599911 0.42323261 -0.018859245 -0.12358067 -0.17228726 -0.26496908 -0.021551412 -0.35599977 0.44676313 0.19862217 -0.049123816 -0.19702981 0.0106012635 0.2991949 -0.100415125 0.2086697 -0.045201715 0.63586396 -0.2784703 0.3237386 -0.20436783 -0.16149285 -0.32627052 0.16899705 0.042755224 0.21269417 -0.12244801 0.12264945 0.010905025 -0.17815284 -0.11881013 0.14150058 -0.13316219 -0.26270762 0.2635289 0.02022662
43 -0.0201853 -0.34182078 -0.27640262 -0.023815347 0.27648523 0.03871277 0.29328194 -0.05580314 0.1039602 -0.26189083 -0.04170625 0.39263502 -0.32445416 0.1694932 0.14652589 -0.1076324 -0.41839007 -0.16681328 -0.14298226 0.56705385 0.2728992 -0.45713964 0.17306876 -0.003649801 0.1979645 0.1336129 -0.7541219 -0.18489963 -0.4029563 0.15464722 -0.033765774 0.27073306 -0.29051945 0.2118264 -0.055914834 0.1812288 -0.10512959 -0.01962079 -0.3386963 -0.015585884 -0.033228688 0.106078796 -0.06242761 -0.27262777 -0.17248182 1.0317639 0.13522081 0.027515573 -0.17197298 -0.2120113 0.20675601 0.200474 0.09105273 -0.23459682 -0.051569182 -0.3844189 0.58200634 0.13184962 -0.40889895 -0.7998073 0.2419503 0.27070966 0.08175317 0.17178458
11 -0.13918978 -0.21280177 0.0917972 -0.04430321 -0.16641617 0.30396208 -0.08138775 -0.12958033 0.33307397 0.2477897 0.029592304 0.008312532 -0.19929475 -0.04136051 0.4041739 -0.45745042 -0.2608747 -0.3097904 -0.05111169 -0.41759375 0.52066565 0.19489115 0.08896211 0.23602955 -0.28907096 -0.1056182 0.19020604 -0.2505923 -0.32593212 0.0840579 -0.11277848 -0.12371442 0.38621294 -0.29776973 -0.17783765 -0.34366667 0.78712314 0.36163604 -0.09916813 0.06615922 -0.0258929 0.25459555 0.032682497 0.49138287 0.1577459 0.8364401 0.1508191 0.3373583 0.09825431 0.12489542 -0.21172115 0.33909008 0.3031232 0.18030548 -0.066624105 0.10987639 -0.533889 -0.501423 -0.07671347 0.18967523 0.19852273 -0.29934976 0.25539303 0.20733456
55 -0.074088275 -0.17695905 -0.083300956 -0.14989857 0.3379853 0.04745715 0.051400237 -0.1723482 0.12413558 -0.048536893 -0.1490696 0.37115467 -0.20175776 0.0077108555 -0.56259423 -0.28606734 -0.29530802 0.31119153 -0.25008792 0.10061563 0.45077395 -0.01086703 0.23732159 -0.024072425 0.06375656 -0.015611958 -0.41468835 -0.3476041 -0.270573 0.037268303 -0.030410979 0.07593798 -0.15605944 -0.36303002 0.24175778 0.11683304 -0.04036688 0.015056898 -0.28382078 -0.040886633 -0.07400713 0.48864383 -0.2023263 -0.02135877 -0.15630525 0.6598603 0.18880433 0.12702607 0.35131782 -0.12302057 -0.2908924 -0.3049525 0.42535338 0.13823529 0.17686743 -0.37135628 0.2442347 -0.14358404 -0.07957258 -0.25530007 -0.07333492 0.4263048 0.07084329 -0.28894952
15 0.055226594 -0.21181612 0.09996196 -0.04378266 -0.29364234 -0.06081814 -0.09204934 -0.22175579 0.26055595 0.377928 -0.12419962 0.3128289 0.280352 -0.11510371 0.04855681 -0.31931624 -0.48549035 -0.52307963 -0.023738395 0.12798676 0.47558275 -0.025858222 0.42061105 0.2261942 0.05310566 0.36962667 0.13315564 -0.17233728 -0.037213936 0.2801159 -0.078711234 0.034053758 0.03741575 -0.20270441 -0.0334809 -0.39852312 0.3018292 0.22530018 -0.051522806 -0.09210919 -0.25625682 0.20255223 -0.1991027 0.22425885 0.04509991 0.5173089 -0.16279593 0.28166443 -0.14860378 0.021817107 -0.2650908 0.10045202 0.12398583 0.11199528 -0.006083724 0.12957232 -0.24649025 -0.17144388 0.0104973335 -0.19466257 0.19277076 -0.35919294 0.36137104 -0.13458775
35 -0.41970396 -0.60631585 0.18198447 -0.24585582 0.20339048 -0.24087445 0.7142084 -0.18737394 -0.15823378 0.18117698 -0.31618303 0.2478212 -0.49694967 -0.42454368 0.026276492 -0.642086 0.43436283 -0.46145594 0.10219147 0.0034416236 0.3530181 0.29378378 0.079254545 0.8008904 0.62068886 -0.44337904 0.32767388 0.080988 -0.12951873 0.43269685 0.13744433 0.046922904 -0.7802677 0.18954384 -6.524473e-05 -0.48030058 0.38219386 0.070662215 0.29030305 -0.23748462 -0.44707942 -0.119903535 0.64514554 0.5977938 -0.39833313 -0.18523838 0.3632511 -0.28116378 -0.113029666 0.4202102 0.07735548 0.16450271 0.04908217 0.38442534 -0.22224967 -0.5785033 -0.15790887 -0.08760785 -0.261046 0.05421358 -0.28091612 -0.32454017 -0.08220744 0.47411206
5 -0.06603914 -0.4788512 0.025869729 -0.030931707 0.00025897662 -0.17317918 0.5817934 -0.041646477 0.11753419 0.131514 -0.118085675 0.081382155 -0.40408912 -0.3306146 0.22325619 -0.61116993 0.23719226 -0.4176793 0.053827368 -0.05856565 0.2291911 0.29506424 0.06859288 0.52121514 0.6365457 -0.29112622 0.3438964 -0.3121694 -0.18995051 0.3676064 -0.012914613 -0.119500384 -0.43999958 0.06581902 0.07872635 -0.4429696 0.46813986 0.17287354 0.058078095 -0.09287111 -0.4347923 -0.16883607 0.3573559 0.65127623 -0.27850112 -0.15305085 0.3625721 -0.2551597 0.037015274 0.2990871 -0.115874045 0.13160466 0.11863621 0.27378052 0.05420732 -0.39672142 -0.33513013 -0.43251985 -0.070228234 0.007528637 -0.114276975 -0.29449123 0.2118393 0.49310637
34 -0.50422484 -0.5403276 0.2686412 -0.2530142 0.26969793 -0.18024944 0.6902208 -0.2057533 -0.14024138 0.15703873 -0.3617544 0.22971493 -0.49087116 -0.38030946 -0.051543083 -0.5809882 0.4700436 -0.43995145 0.1613217 0.0049562436 0.31725618 0.26797244 0.04409788 0.7604615 0.61184466 -0.43544927 0.34519538 0.089399315 -0.07523497 0.39259785 0.13460243 0.049890228 -0.7393925 0.12684773 0.058847394 -0.43537137 0.4029752 0.03151582 0.2840708 -0.1531793 -0.38143823 -0.073905654 0.5658275 0.5546914 -0.33362353 -0.17813176 0.37911585 -0.1658213 -0.09556322 0.41180232 0.15256241 0.1461287 0.07233827 0.43702394 -0.22216612 -0.5334164 -0.12913276 -0.08498838 -0.2521669 0.041245155 -0.3329124 -0.25316486 -0.07639953 0.41796815
54 -0.16875374 -0.20242341 -0.058049176 -0.18659662 0.3945167 0.080534935 0.08779121 -0.18570243 0.09402895 -0.08422505 -0.2020502 0.35542676 -0.2558152 0.004477638 -0.5676946 -0.30900216 -0.24884276 0.30305213 -0.25058535 0.0729864 0.48818922 0.014819103 0.21283919 0.05646958 0.051942073 -0.07703088 -0.41706538 -0.31423798 -0.32381767 -0.0016837008 -0.017273922 0.10361959 -0.19825628 -0.3684836 0.22804551 0.09673417 -0.0132923145 0.006799475 -0.24399708 -0.040158365 -0.06487483 0.487561 -0.14229177 0.008489216 -0.16651861 0.6873992 0.23699309 0.1397066 0.39080977 -0.09384625 -0.24210958 -0.27760535 0.42775425 0.17033575 0.18830681 -0.41522136 0.22753932 -0.14905217 -0.10463698 -0.236938 -0.11675507 0.46554667 0.024506463 -0.24487653
9 0.108111985 -0.35530338 -0.077308446 0.0030417573 -0.124555886 -0.03123902 0.27835473 -0.048168473 0.17675458 0.1318864 0.028100144 -0.02806229 -0.23031168 -0.29933986 0.21476598 -0.4569473 0.0060835355 -0.30185193 0.19593361 -0.13584977 0.14923342 0.32607925 0.06971299 0.38703674 0.2238414 -0.15487069 0.2700961 -0.3726554 -0.2055044 0.45172355 -0.045307565 -0.13971715 -0.3048887 -0.11918025 0.068847574 -0.3876179 0.44227624 0.21461526 -0.0850411 -0.13382354 -0.24779975 -0.10758612 0.122951284 0.50476885 -0.16260287 0.14926444 0.20557626 -0.08714034 0.063197866 0.08339105 -0.24500947 0.22357276 -0.03336301 0.1330606 0.15268743 -0.27393845 -0.24449544 -0.5002554 -0.008823648 0.06320109 -0.05677559 -0.17499697 0.26122054 0.45631167
50 0.11659238 -0.3864164 -0.15056726 -0.07125268 0.26958114 0.06289184 0.062222365 -0.24161054 0.023448955 -0.05747634 0.0034532864 0.5577094 -0.28059357 -0.21884827 -0.50960416 -0.52054065 -0.24772641 0.5469045 -0.22919992 0.34384647 0.48962 -0.04375219 0.075936735 -0.28665486 0.13476041 -0.06832696 -0.44365972 -0.29931998 -0.108781725 -0.07550176 -0.2419862 -0.108499385 -0.3160916 -0.2624957 0.23779115 0.37758517 0.066810794 -0.008831867 -0.430916 -0.040224385 -0.059873775 0.6876857 -0.39362156 0.021020735 -0.14508674 0.7699315 -0.01810312 0.042290278 0.10502969 -0.24997681 -0.5134977 -0.3300729 0.7351892 0.11814819 -0.010242937 -0.2848194 0.26911336 -0.007947262 -0.08212808 -0.27864248 -0.13016337 0.37732726 0.21037751 -0.43312883
45 -0.30751497 -0.26388586 -0.10760967 -0.1253173 0.40538937 0.15117604 0.28424883 -0.09135068 0.1317508 -0.21519259 -0.2052044 0.41433263 -0.284952 0.26325405 -0.071403876 -0.055250667 -0.444061 -0.21115667 -0.15441918 0.3971198 0.33157972 -0.42107815 0.21903656 0.1683054 0.10876889 0.13045402 -0.75293964 -0.15190877 -0.42119142 0.1341108 0.066555016 0.36381546 -0.19234668 0.013596474 -0.007463014 0.031438313 -0.025554422 -0.054799087 -0.2518336 0.0033777324 0.047782984 0.1551188 0.0041069053 -0.30873516 -0.1390872 1.1137189 0.2690927 0.18860435 -0.0031960527 -0.16356897 0.28230995 0.1437767 0.06140571 -0.13976537 0.025553161 -0.32520932 0.52344286 0.07594796 -0.3911203 -0.6993372 0.16949165 0.3148623 -0.031841822 0.16137153
22 0.061985683 -0.21109512 -0.01356661 -0.27774808 -0.14420234 0.047688685 -0.17882262 -0.31586304 0.05520382 0.30931035 -0.06942054 0.13245814 0.045213442 -0.18022469 0.015289282 -0.2385482 -0.3003769 -0.39418107 0.26981458 -0.001788151 0.49377286 0.16282882 0.16938321 0.30465877 -0.23542655 0.122288875 0.18453091 -0.014507791 -0.09993112 0.369243 -0.08822449 -0.03569435 -0.22126205 -0.2740269 -0.062115863 -0.27309874 0.12178556 0.20398918 -0.11488122 -0.26332873 -0.08847833 0.2153623 -0.19508593 0.21391971 0.096528605 0.6530046 -0.14140415 0.35212916 -0.048348196 0.022021959 -0.19028264 0.29629555 -0.11960082 0.1228322 0.00045314207 -0.14283846 0.011112765 -0.14246453 0.040520743 -0.1501056 0.05902807 0.02424993 0.20139013 -0.08336707
19 0.1968958 -0.566709 0.09598506 0.15681157 -0.20206276 -0.32330883 0.68169427 0.15835264 0.36005735 0.36735886 -0.166251 0.37778887 -0.0942692 -0.2764709 0.33359468 -0.5445366 -0.20701635 -0.53720474 -0.27933192 0.18313298 0.24152848 -0.21810785 0.29293105 0.10672831 0.8498531 0.17962159 0.33046484 -0.2083917 0.1797906 0.29783565 -0.14512737 0.16205369 -0.081421316 0.20975286 0.13024744 -0.4619341 0.49881864 0.11077785 0.032986835 -0.06134656 -0.4842736 -0.088794105 0.08115109 0.3476425 -0.28926277 0.06434686 0.29199654 -0.39683625 -0.1246834 0.2962655 -0.37913072 0.07925711 0.30719897 0.03340456 -0.027150106 0.10561851 -0.47594187 -0.3559715 0.0111098075 -0.2774287 0.29429582 -0.7006161 0.25352776 0.41974682
33 -0.15623198 -0.7733691 0.10374219 -0.012506296 0.029539404 -0.11383077 0.27819738 -0.2833162 -0.44006747 0.07697715 0.08946744 0.37687063 -0.17002995 -0.6670244 -0.0006682537 -0.6249286 0.1871741 0.044873867 -0.0013705868 0.06172547 0.23675804 0.21778648 0.07062207 0.33660412 -0.19716603 -0.4402516 -0.032217957 0.29096338 0.0067947614 0.35587168 0.0074074417 0.09371314 -0.7423472 0.47568706 -0.3425646 -0.14076018 0.26093847 0.15555307 0.17299126 -0.4275621 -0.20626919 0.13695517 0.50796187 0.32700664 -0.4904744 0.28297457 -0.14576708 -0.4792107 -0.37564698 0.080191545 -0.35197556 0.3165988 0.103070416 0.112878285 -0.6756032 -0.37947544 -0.11225355 0.37816188 -0.3313947 0.39402774 -0.1670765 -0.31720018 -0.30144128 0.31058332
29 -0.26859143 -0.3070346 0.33640164 -0.11519169 0.05732139 0.16046001 -0.22928867 -0.4688882 0.15457784 0.34855038 -0.092990935 0.65814716 0.19895157 -0.2737007 -0.47394678 -0.1917601 -0.5649687 -0.45930263 0.35416377 -0.025715966 0.2672383 0.06329968 0.3116161 0.35736468 -0.33799395 0.215708 0.02762088 -0.08443592 0.24271908 0.49152485 0.115891315 0.0032607438 -0.118558735 -0.32318175 0.008301395 -0.42002535 0.42390254 0.102517724 0.06637673 -0.28377324 0.080584235 0.4632143 -0.0889858 -0.03930135 -0.122242905 0.72879493 -0.35519135 0.32751054 -0.28192073 -0.1086403 -0.34778023 0.010403369 0.09905017 0.2925266 -0.32936138 0.33215812 0.20248541 0.060465515 -0.14611469 0.17229736 -0.16716881 -0.44119284 0.09219155 -0.12717023
10 -0.06756643 -0.24016511 0.018720334 -0.18286397 -0.03682359 0.23784196 0.1866892 -0.11093181 0.2797541 0.28400674 0.026863193 -0.066734545 -0.46408996 -0.114039175 0.36845395 -0.44640443 -0.0016808076 -0.30499345 0.030924926 -0.49692923 0.4419128 0.30255124 -0.105776004 0.318211 0.029678568 -0.3043021 0.4399198 -0.2299259 -0.2017249 0.16049361 -0.14787883 -0.20388995 0.17243826 -0.22167382 -0.047936328 -0.3713401 0.6613963 0.30209613 -0.06298681 -0.024424072 -0.12250905 0.12255862 0.108919404 0.576348 0.07315132 0.51863736 0.35261673 0.10633615 0.27694517 0.27264068 -0.18556948 0.3263691 0.25246322 0.25137424 0.017478943 -0.07948673 -0.46813685 -0.6871259 0.050927322 0.19095832 0.10600038 -0.13759905 0.11840799 0.3430575
17 0.11848404 -0.4130816 0.14976488 0.1514341 -0.34241062 -0.27027282 0.35058647 0.047610477 0.35348007 0.43314397 -0.18777792 0.42046073 0.17782438 -0.17768894 0.23519588 -0.51872903 -0.3845121 -0.46277308 -0.40662953 0.23614638 0.45664614 -0.2639602 0.44601518 0.004430688 0.5549699 0.3654078 0.21328597 -0.1578528 0.113258325 0.13928299 -0.1711232 0.16798742 0.14442402 0.06168008 0.005150941 -0.40905684 0.5245796 0.17591976 -0.013942694 0.032923866 -0.4404461 0.097121455 -0.10512854 0.33016327 -0.102839656 0.29500782 0.08400522 -0.07242762 -0.18336241 0.19111614 -0.40682274 0.015157379 0.44244474 0.012064962 -0.072012074 0.23677415 -0.58282876 -0.20538262 -0.0019588396 -0.28035846 0.3750773 -0.6898892 0.35533464 0.05242583
37 -0.38779518 -0.2643754 0.37989548 -0.10506071 0.12784337 0.30228162 -0.23641147 -0.50304276 0.19537915 0.29869455 -0.09404822 0.6925511 0.14171003 -0.2693641 -0.45370433 -0.118104205 -0.56259185 -0.5919378 0.5206608 -0.035592027 0.13976005 0.114901036 0.29209208 0.53980345 -0.26293418 0.20641427 0.06262667 -0.1464247 0.23897032 0.5651836 0.17363426 -0.079058334 -0.20751393 -0.34483522 0.0754275 -0.5044967 0.5128367 0.07603694 0.070604995 -0.21916483 0.11969821 0.43044007 0.00874951 -0.05253682 -0.16824383 0.7138259 -0.35198823 0.41723546 -0.3301723 -0.16266039 -0.18865371 0.039141785 0.07061947 0.36920345 -0.3013186 0.36403283 0.3285962 -0.03427672 -0.2270155 0.17167592 -0.29754215 -0.44777226 0.13939145 0.0038165238
44 0.14514564 -0.4052634 -0.18478757 -0.03651109 0.2015096 0.038666043 0.033566404 -0.2477715 -0.029664751 -0.08374924 0.1040767 0.582058 -0.228796 -0.15216812 -0.22725168 -0.30374867 -0.3114816 0.21713977 -0.048141904 0.50233483 0.2638701 -0.20502989 0.058829468 -0.23511581 0.1032257 -0.032963295 -0.53233474 -0.1147581 -0.0106830895 0.06258018 -0.16008174 -0.07958582 -0.37656927 0.038269095 0.010702119 0.34781918 -0.054751027 -0.005530152 -0.34151012 -0.09967591 -0.025915146 0.45745367 -0.23865457 -0.13947289 -0.17079258 0.7709317 -0.22931652 -0.036873426 -0.26574618 -0.26225784 -0.26478714 -0.10596469 0.4809711 -0.025194377 -0.28509897 -0.18310378 0.49917603 0.24461223 -0.21017456 -0.35170054 -0.050771046 0.16715261 0.13190873 -0.2822771
52 0.13278025 -0.31833607 -0.1565796 -0.12860529 0.2772061 0.12943624 0.046554595 -0.21968152 0.114331886 -0.025559325 -0.017401904 0.43984708 -0.3502847 -0.22747129 -0.5894169 -0.625093 -0.23105459 0.6540099 -0.25106797 0.11129297 0.59002686 0.16191301 0.060605433 -0.24510983 0.09190113 -0.12233273 -0.29363325 -0.48372445 -0.20437083 -0.07326353 -0.24654438 -0.18072076 -0.23001337 -0.50708556 0.37342384 0.2888439 0.2058307 0.033467107 -0.4872787 -0.024777105 -0.07860533 0.75044596 -0.4538741 0.19587135 -0.113878496 0.74815655 0.15085359 0.13122153 0.38740286 -0.23511457 -0.6440815 -0.40297413 0.7957727 0.2121514 0.26012656 -0.3355685 0.09624149 -0.34377816 0.041188203 -0.17273173 -0.18630062 0.5142266 0.28418452 -0.4025589
32 -0.17349781 -0.793087 0.08422767 -0.031566035 -0.04465972 -0.08892874 0.30459073 -0.30310687 -0.47135654 0.07339943 0.09062202 0.28220707 -0.19199169 -0.6718621 0.14773937 -0.66783357 0.2577795 -0.06473243 0.049364664 0.040871434 0.27678156 0.28542846 0.023067407 0.4641988 -0.20833515 -0.4592056 0.023367774 0.30779693 -0.10006047 0.37294897 -0.008832451 0.07660134 -0.7828305 0.50665474 -0.39429778 -0.20047043 0.3075788 0.19935192 0.19220592 -0.45290962 -0.23916166 0.056941155 0.54753226 0.42789 -0.44491622 0.2886471 -0.10531823 -0.42711228 -0.3840442 0.09551248 -0.2667127 0.44561973 -0.011022045 0.12410255 -0.6304167 -0.44803602 -0.19399878 0.3226393 -0.34578687 0.36906272 -0.1528981 -0.30222964 -0.25996697 0.41426817
6 0.2311536 -0.5512534 -0.036958683 0.11399609 -0.10971324 -0.13584274 0.662284 0.09539886 0.32435265 0.26044396 -0.0021455039 0.20014198 -0.3775776 -0.3232864 0.46805868 -0.5505469 -0.0531792 -0.5631857 -0.011198291 -0.01404704 0.13035606 0.0050301375 0.061578333 0.2165636 0.78503644 -0.10537699 0.4197848 -0.36880222 0.07540103 0.41284356 -0.16130018 -0.09115241 -0.18677513 0.16660175 0.13223924 -0.42959395 0.5726297 0.17986763 -0.055561945 -0.1119049 -0.42398158 -0.14070858 0.16619737 0.46886754 -0.2926935 0.08362702 0.3323504 -0.404472 -0.034297455 0.29995292 -0.2794729 0.22414435 0.19405666 0.13534881 0.01207567 -0.07136712 -0.33744863 -0.58370507 0.028465027 -0.15513477 0.17026283 -0.4900125 0.2608099 0.5961501
58 0.105955414 -0.38259637 -0.16013464 -0.019042935 0.25021636 0.057644267 0.030323856 -0.26548058 0.004656397 -0.11917709 0.03600794 0.5903852 -0.23504004 -0.20043789 -0.5067847 -0.5178924 -0.26298985 0.518489 -0.23952013 0.40419933 0.41213495 -0.058040332 0.1292874 -0.27908677 0.1675127 -0.101219624 -0.5543502 -0.37308705 -0.1505869 -0.06343252 -0.19679147 -0.14323163 -0.32925636 -0.19245091 0.16024531 0.38430443 0.04664952 0.011007644 -0.42633963 -0.0044765137 -0.100589804 0.6162715 -0.31616226 0.032690052 -0.20577793 0.70142037 -0.08687808 0.008868967 0.023890572 -0.28302056 -0.4627622 -0.37638858 0.7594396 0.119840585 -0.0669631 -0.286405 0.29617584 0.058052234 -0.14119036 -0.2380648 -0.16156496 0.3235094 0.24663794 -0.4298668
4 -0.3330124 -0.52831084 0.16097438 -0.18118733 0.22390231 -0.19203043 0.6460996 -0.11034831 -0.018482648 0.142208 -0.25813097 0.2173326 -0.5106332 -0.35945666 0.01917269 -0.6097289 0.37497517 -0.40446538 0.06935523 -0.067359574 0.30136934 0.30879682 0.05332817 0.6486623 0.64231324 -0.4268427 0.32168016 -0.11533338 -0.13582927 0.32816127 0.09612683 -0.06179583 -0.5865424 0.08029315 0.054606944 -0.44548556 0.43797478 0.09621426 0.19531293 -0.1348266 -0.4227149 -0.0917728 0.5458948 0.6296834 -0.3389959 -0.21281208 0.39152417 -0.2631404 0.008763532 0.39551672 -0.004983413 0.063896194 0.17662257 0.41453904 -0.12719837 -0.45928615 -0.22686477 -0.22832832 -0.1605481 0.077787384 -0.2444989 -0.29939508 0.010014822 0.42566586
46 -0.26323602 -0.40151146 -0.13250679 -0.021875193 0.2947519 0.17807244 0.33291307 -0.052959934 0.034288924 -0.27630132 -0.13021849 0.42192104 -0.31454763 0.22317 0.17852356 -0.17775239 -0.39194754 -0.14397483 -0.26248124 0.58317405 0.38723618 -0.5246984 0.11873914 0.042137373 0.14497007 0.13595228 -0.83482337 -0.08380651 -0.47165725 -0.056429587 -0.07540736 0.40074554 -0.20795918 0.2146197 -0.12584257 0.14914784 0.04815732 -0.07115838 -0.30824444 0.08193009 0.030981764 0.13321495 -0.026321333 -0.2639967 -0.08328955 1.2338024 0.23266396 0.15155524 -0.18537721 -0.24437635 0.30289224 0.27028668 0.14877053 -0.24536642 -0.03521903 -0.28517255 0.36838788 0.16682655 -0.43607786 -0.8345986 0.27604353 0.2786927 0.037167534 0.1962887
0 -0.1885357 -0.74038017 0.09027466 -0.08674136 0.070074946 -0.062261257 0.34219882 -0.28494215 -0.41132143 0.068589486 0.04943805 0.33153075 -0.26223958 -0.59427583 0.091201186 -0.55931264 0.22960734 -0.105950594 0.10783153 0.09229827 0.21735732 0.17993784 -0.012452542 0.42610198 -0.08676695 -0.42567536 0.026632039 0.29248035 -0.015834928 0.3710802 0.009099484 0.09255674 -0.77984935 0.4573915 -0.27888054 -0.16330263 0.24932879 0.11905715 0.17397451 -0.41785437 -0.1965349 0.065495096 0.4840011 0.30004576 -0.43006483 0.30877647 -0.06836691 -0.40057483 -0.37776038 0.108786926 -0.17935166 0.39036033 -0.0087382505 0.12501496 -0.59685755 -0.40834394 -0.02276577 0.3085083 -0.33635047 0.24186628 -0.16983801 -0.25128558 -0.2735832 0.38675448
36 -0.24240917 -0.58325964 0.15035732 -0.21509293 0.11698395 -0.21759859 0.62336963 -0.11959913 -0.039653894 0.25048015 -0.24248676 0.18174835 -0.4459337 -0.42734808 0.086572394 -0.647085 0.32581842 -0.41765806 0.06527552 -0.13689625 0.36516324 0.35607085 0.070037276 0.67599124 0.5282655 -0.4016689 0.42945194 -0.043245345 -0.11864383 0.39117855 0.06649004 -0.01824358 -0.5954573 0.08612114 0.020269128 -0.503426 0.44673142 0.13587773 0.2061672 -0.2427883 -0.43425092 -0.07782707 0.51327795 0.6550332 -0.33580792 -0.14060196 0.37150714 -0.26536164 0.020106426 0.41243902 -0.120561734 0.1712264 0.11046332 0.3755147 -0.12565914 -0.44182545 -0.3281978 -0.26307938 -0.12752227 0.13166162 -0.18351005 -0.3454686 -0.011909498 0.45728824
47 -0.3757345 -0.37694165 -0.08295478 -0.0119110085 0.30724618 0.18227945 0.28623977 -0.10087573 0.047005426 -0.26781663 -0.1924535 0.52091277 -0.23132469 0.24604815 0.12656078 -0.16023462 -0.46881837 -0.24202801 -0.256453 0.6408247 0.41428792 -0.53992033 0.21127123 0.12886466 0.17064168 0.21491271 -0.8792176 -0.116566494 -0.496521 -0.054768927 -0.010853488 0.4017516 -0.18527354 0.16914827 -0.13669741 0.08221221 0.11467454 -0.07760434 -0.28892726 0.11846197 0.018810326 0.1594808 -0.0032693131 -0.28954288 -0.07607753 1.2408838 0.18365426 0.23027125 -0.24422754 -0.26642168 0.3673464 0.21406245 0.1856749 -0.20387983 -0.040053315 -0.22837666 0.37459245 0.20926021 -0.47504222 -0.85030067 0.24753727 0.20250529 0.0710985 0.16438705
57 0.14341459 -0.32939678 -0.16214165 -0.20991725 0.3018484 0.07998204 0.08498638 -0.20526071 0.032620396 0.026296744 -0.061287954 0.40393725 -0.33323792 -0.19582959 -0.48561677 -0.46893415 -0.19704919 0.4664063 -0.19715883 0.19173864 0.52483493 0.029983118 0.039513905 -0.22050579 0.115671925 -0.10788343 -0.25553766 -0.2466559 -0.11020007 -0.018362336 -0.23870331 -0.03413914 -0.30310106 -0.3314115 0.2763781 0.28359634 -0.0024975778 -0.008258865 -0.38907996 -0.086082116 -0.061109897 0.6084532 -0.39222005 0.058625694 -0.12560311 0.7217598 0.12843323 0.06435196 0.2757928 -0.12301792 -0.47355846 -0.23216169 0.55106443 0.14865234 0.13739918 -0.35341525 0.19342346 -0.15927394 0.041218806 -0.27322617 -0.12122584 0.5032998 0.1370467 -0.33314335
59 0.0946103 -0.3052585 -0.12781624 -0.117732376 0.2961538 0.083298326 0.097884506 -0.20517887 0.101719685 -0.022137912 -0.06808492 0.50570655 -0.30957943 -0.12926973 -0.48447892 -0.46777195 -0.25147685 0.43543458 -0.24507426 0.28280157 0.4989139 -0.03737613 0.09134311 -0.24668518 0.2439647 -0.056770973 -0.35882467 -0.3688673 -0.12838666 -0.084842265 -0.2184513 -0.088466845 -0.23135869 -0.33510947 0.28382015 0.2917795 0.09190771 -0.02481748 -0.41419363 0.0025170073 -0.091375306 0.619496 -0.38394237 0.05490865 -0.110968664 0.6944304 0.093691126 0.08445734 0.20752376 -0.17733853 -0.42336527 -0.3473994 0.69433945 0.1588023 0.13235489 -0.25544903 0.21237235 -0.15041177 -0.023093294 -0.3230394 -0.12468267 0.4057046 0.24803318 -0.37840486
48 -0.29031703 -0.3549477 -0.14018847 -0.018778251 0.27005294 0.22272766 0.2563519 -0.10646122 0.076904394 -0.3029716 -0.1527787 0.42748722 -0.25874957 0.2521909 0.1750349 -0.16444512 -0.4660795 -0.23256376 -0.16940393 0.6163956 0.4105648 -0.48568505 0.15068002 0.12690797 0.113208674 0.22319111 -0.8650699 -0.18852009 -0.559515 -0.013730548 -0.044884287 0.35449925 -0.209745 0.12016746 -0.10968158 0.09570399 0.1076337 -0.05911161 -0.3571743 0.1007835 0.040232543 0.1363742 -0.07263841 -0.2593481 -0.028025959 1.3022039 0.20031032 0.28523794 -0.19574319 -0.31528473 0.35229465 0.2741518 0.10512325 -0.22097595 0.062442973 -0.272215 0.40194228 0.11786255 -0.4492343 -0.8879666 0.25035292 0.30625322 0.15302654 0.20680179
