61 64
14 -0.12411469 -0.21866183 0.1578299 -0.1186098 -0.17177323 0.13612406 -0.12727696 -0.2578413 0.0732149 0.21017383 -0.0081178 0.3122593 0.06638787 -0.1842548 -0.11840592 -0.07121782 -0.24527611 -0.057307575 0.09084616 -0.25893077 0.1896578 0.13846898 0.101310536 0.25871515 -0.14303818 0.07344307 0.08730121 0.025082134 -0.09516108 0.1582267 -0.051526 0.17197353 -0.27217412 -0.15855241 0.12874205 -0.17460692 0.127771 0.09158067 -0.009709147 -0.07104274 -0.12776534 0.27716678 0.05172945 0.094049655 -0.08328288 0.44501257 -0.015883198 0.10495323 -0.08045844 -0.013631889 -0.24126184 0.09808366 0.0724844 0.08078365 -0.10694623 -0.20814887 -0.07621843 -0.08127675 -0.09700093 -0.031057466 0.0560467 -0.11128771 -0.01509934 -0.08690338
53 -0.22012162 -0.3425185 -0.17461447 -0.07088942 -0.035433684 0.08049778 0.13019633 -0.18266615 0.19054145 0.043135814 -0.17182603 0.108477585 -0.11730163 -0.018338323 -0.4328721 -0.23575692 -0.07064659 0.23220928 -0.10443636 -0.03368286 0.34414372 -0.07739798 0.18283376 0.03184633 0.047275014 -0.17062956 -0.40125278 -0.18104343 -0.22192605 0.014895254 -0.16290228 0.065663 -0.042088598 -0.5167802 0.012043976 0.072812654 0.098648086 0.07144852 -0.19407429 -0.15157108 -0.19400972 0.46965232 -0.1942187 -0.022989873 0.15270053 0.8582166 0.0721874 -0.05441524 0.16311084 -0.10670186 -0.36434212 -0.16810103 0.49063763 -0.08854273 -0.31672615 -0.5161354 0.1784508 -0.21277194 -0.116540425 -0.004691356 0.1661901 0.07082703 -0.099679984 -0.22656953
13 0.014133691 -0.24245195 0.12909456 -0.105810635 -0.20344085 0.14016671 -0.15235893 -0.26063612 0.027094651 0.22216392 0.015408052 0.32191217 0.067195185 -0.27752623 0.06387302 -0.09327062 -0.25684774 -0.1146055 0.12519787 -0.23080091 0.19716917 0.17049672 0.034995224 0.31297988 -0.2235431 0.065435104 0.26309162 0.04174014 -0.10240595 0.19486743 -0.036370635 0.17192155 -0.3499367 -0.019652912 0.079476856 -0.21924372 0.16068819 0.14586292 0.043536674 -0.14630124 -0.14475769 0.20988604 0.13762018 0.15636669 -0.12413228 0.38624805 -0.023488587 0.059978213 -0.14677738 0.029516015 -0.23835047 0.26264396 -0.05941522 0.09799666 -0.06960347 -0.10541142 -0.19059739 -0.13400306 -0.08860284 -0.0058303894 0.10000915 -0.23093122 0.009207659 0.03678113
3 -0.032995183 -0.43211055 0.091794975 0.1565181 -0.049561 -0.22832216 0.24789006 -0.007928391 -0.1696809 0.13836338 0.1592605 0.38487735 0.08223756 -0.50153476 0.088718556 -0.4816879 0.21861914 0.097926855 -0.040429637 0.0976206 0.14762437 -0.007837507 0.059785638 0.13160047 0.14366195 -0.15773945 0.14000514 0.15638229 0.10714012 0.119914725 -0.008405243 0.26359886 -0.3668266 0.39256904 -0.051455922 -0.12872775 0.37948263 0.042690646 0.33444247 -0.14127386 -0.38599592 0.08064448 0.3618751 0.36177802 -0.3847295 -0.13575365 -0.07041279 -0.5660482 -0.1250204 0.10300798 -0.2861954 0.14139082 0.12033816 0.12550305 -0.3921941 -0.21059293 -0.20685205 0.010641953 -0.23805559 0.14215994 0.08158169 -0.40026325 -0.31557775 0.34072524
41 -0.27909195 -0.016890107 -0.07335596 -0.21176308 0.24907508 0.12121667 0.01667704 -0.0324276 0.1291439 -0.031229604 -0.083737604 0.21661168 -0.054810308 0.12127251 0.075559445 0.05494039 -0.5986586 -0.33576614 -0.12362665 -0.08807105 0.2768101 -0.21486822 0.32577378 0.22486988 -0.19977243 0.22687635 -0.6002983 -0.027601263 -0.3836515 0.16764975 0.056420695 0.5153907 -0.12541287 0.06523456 0.014358162 -0.16730458 -0.032749757 -0.020195741 -0.049321044 -0.15037563 -0.24018314 0.13478062 0.10911164 -0.07958751 -0.06751336 0.75886846 -0.0256727 0.08394255 -0.10080308 0.05266011 0.100671165 0.06539481 -0.15032233 -0.09538999 -0.087740794 -0.43954825 0.29375908 0.045892708 -0.31231436 -0.5173941 0.41821638 0.14302783 -0.24347138 -0.0015986094
12 -0.104335904 -0.21247871 0.137281 -0.120809 -0.089557454 0.0931598 -0.11066782 -0.20356043 0.032940824 0.17545936 0.018376999 0.3261344 0.035661925 -0.24639165 0.008198826 -0.11872569 -0.17292552 -0.086570114 0.20847653 -0.18265252 0.17545706 0.1686286 0.07750261 0.36130583 -0.12763548 0.04097867 0.13186541 0.04247023 -0.11726032 0.19867335 0.028553154 0.21062161 -0.39247784 0.020753715 0.090377234 -0.22330429 0.18114172 -0.011171179 0.10758335 -0.07038828 -0.11195229 0.14500058 0.24274868 0.1947146 -0.12460822 0.2860746 -0.03875851 0.01884424 -0.1217435 0.020680532 -0.1217792 0.14977884 -0.038368754 0.14000632 -0.13065122 -0.16195165 -0.029868426 -0.054303054 -0.16351813 -0.021515071 -0.0003177799 -0.19194739 -0.06408011 0.12964746
27 -0.1754177 -0.26400155 0.06380729 -0.18430379 -0.10725319 0.14358094 -0.17403388 -0.25749257 -0.012720377 0.13396175 -0.05092358 0.19868188 -0.022445297 -0.117061056 -0.1010752 -0.104455076 -0.18734841 -0.10037911 0.16043755 -0.22232214 0.24615745 0.1352682 0.075930335 0.30646884 -0.30578923 0.0077278893 -0.0035527074 0.011933773 -0.2148837 0.21362786 -0.024078954 0.17488648 -0.2687055 -0.16056968 0.0045901 -0.19573654 0.124692865 0.13575976 0.035718225 -0.19315152 -0.17448305 0.19862749 0.03816734 0.13513556 -0.04195803 0.54821545 -0.07594734 0.16893584 -0.13585244 -0.016279457 -0.17329675 0.15199614 -0.07742848 0.049110245 -0.088251084 -0.31129238 -0.04468097 -0.078412846 -0.20324425 0.029025108 0.056134038 -0.0745695 0.015301988 0.004070609
2 0.10411493 -0.18173294 0.13877504 0.15587571 -0.0130298175 -0.28449705 0.12935545 -0.04250073 -0.32469407 0.10467235 0.24616179 0.46592882 0.3279003 -0.555698 0.06635291 -0.44430956 -0.12556621 0.21571635 -0.12845849 0.0716145 0.1674865 -0.01569218 0.015236502 0.11202131 -0.055468414 -0.071969256 0.1285003 0.25739 0.124879494 -0.008580626 -0.029759126 0.32779145 -0.54076105 0.48691806 0.046873733 0.090622194 0.18646741 0.0030109696 0.28955743 -0.2632808 -0.13644025 0.33915177 0.31645027 0.039270975 -0.4374144 -0.15783004 -0.17869195 -0.5535367 -0.14231277 0.040783584 -0.26405007 0.1792325 0.21203971 0.03685606 -0.33551347 -0.16326217 0.010456198 0.14896005 -0.28437176 -0.053507335 0.16133341 -0.25243455 -0.40843555 -0.05905989
7 0.19579235 -0.49225262 0.05965908 0.1838159 -0.2637986 -0.11778691 0.32610258 0.024466563 0.14109677 0.2416968 0.083055146 0.4380106 0.1256534 -0.38983148 0.22984791 -0.4118856 0.026536986 -0.15935282 -0.13773243 0.18765962 0.19523497 -0.1424454 0.18835181 0.10770772 0.41013852 0.10495466 0.04533156 -0.07527349 0.07973633 0.16230805 -0.03254122 0.2529385 -0.14588031 0.18089359 -0.04801504 -0.28252918 0.34747988 0.058570027 0.2061116 0.0038236962 -0.49539816 -0.07286108 0.19326061 0.43280384 -0.21499667 0.058652196 0.002388945 -0.49395582 -0.05994206 0.14605658 -0.4350936 0.09315205 0.043392166 0.09033152 -0.18975198 0.0032289345 -0.44981843 -0.19241412 0.07463589 0.033390556 0.2322661 -0.4596527 0.013764274 0.4019721
8 0.19815145 -0.50915986 0.15251595 0.20426507 -0.30328545 -0.14519319 0.26242414 -0.028032089 0.07108228 0.2595897 0.0882213 0.47594538 0.03549759 -0.4470351 0.2832396 -0.5591384 0.10027308 -0.0526884 0.0544681 0.1823574 0.17135826 -0.016262773 0.09455435 0.18352944 0.4347165 0.05328848 0.12751928 0.0022182688 -0.014127487 0.18238135 -0.01659614 0.2179046 -0.3502875 0.18420021 0.023379717 -0.18788195 0.46470654 -0.03279618 0.24586599 0.068014696 -0.35661063 0.023022346 0.33959547 0.50396174 -0.18547785 0.010135713 0.0012726432 -0.44937757 -0.20899235 0.18780883 -0.36295596 0.1212936 0.123740554 0.17879908 -0.27307665 -0.03030465 -0.38253272 -0.10875801 -0.06323529 0.022219073 0.015533585 -0.53706014 0.10147144 0.4462437
26 -0.2414037 -0.03455641 -0.009005826 -0.15795481 0.17374967 0.08495154 0.034559716 -0.0319504 0.11478202 0.020164063 -0.07769628 0.22459377 0.01268598 0.006684976 0.00034603008 0.030952452 -0.4418088 -0.19852647 -0.04181309 -0.089545265 0.25432622 -0.083292834 0.28177547 0.26563072 -0.12713565 0.1603394 -0.41532972 -0.028532166 -0.33280766 0.18628806 0.05880487 0.40427744 -0.21727212 0.00741186 0.06889396 -0.17031945 0.038799483 -0.048939344 -0.060694814 -0.08872008 -0.20387872 0.14282334 0.16054155 -0.023613295 -0.08762977 0.56140614 0.009134205 0.08600583 -0.08224733 0.036440738 0.060784996 0.095761456 -0.03509177 -0.0014921167 -0.12273545 -0.38743794 0.21361808 0.029518142 -0.24711198 -0.39490664 0.2751446 0.094980195 -0.21178493 0.018563453
40 -0.27366242 -0.013108495 -0.11191038 -0.17322595 0.16641617 0.119023815 0.079724714 -0.013728709 0.2151638 0.00269871 -0.1519893 0.21309851 -0.036918584 0.042208407 -0.14268985 0.0012973672 -0.34249914 -0.094218865 -0.06279042 -0.037029017 0.28513563 -0.09767141 0.28165254 0.3240476 0.016578108 0.077807285 -0.45265955 -0.064050816 -0.3712869 0.13286331 0.038572505 0.3776815 -0.2782103 -0.10345716 0.0976593 -0.11739072 -0.025680395 -0.1116072 -0.06109712 -0.07111432 -0.21494412 0.25129172 0.15820457 -0.015212505 -0.035986878 0.5948556 0.08954382 0.065697305 0.056761805 -0.04242837 0.07776452 -0.024650456 0.13011931 0.017453156 -0.13324876 -0.50857633 0.3543286 -0.103908926 -0.2822267 -0.42487568 0.23004603 0.15548275 -0.23041733 -0.08693453
24 -0.14120062 -0.19079208 0.09633842 -0.1322673 -0.14112303 0.14441286 -0.20769079 -0.26211524 -0.026116729 0.1320459 0.0056464025 0.22818765 0.0576882 -0.22185305 -0.10020585 -0.072586216 -0.20280178 -0.0032287005 0.13722523 -0.23712644 0.20641056 0.18865637 0.03592703 0.33038306 -0.32782847 -0.00016495406 0.11266084 0.022819819 -0.19612272 0.19564229 -0.019009886 0.18402572 -0.3673545 -0.12290662 0.049748104 -0.17110634 0.13956398 0.13460033 0.03619715 -0.17375432 -0.14271736 0.24755134 0.08408212 0.09405541 -0.13276806 0.44504383 -0.06979134 0.17128533 -0.1281795 -0.074072205 -0.17421618 0.20141082 -0.0199372 0.064805426 -0.07770323 -0.28218946 -0.053321514 -0.09943092 -0.21073315 0.033311065 0.04284948 -0.09654703 -0.0043177432 -0.034263894
39 -0.27008814 -0.18736126 -0.14853434 -0.09520959 0.10475733 0.12332093 0.08955028 -0.10095296 0.11835997 -0.02576072 -0.13589223 0.07627348 -0.04382075 -0.06568996 -0.39154494 -0.15808678 -0.16891317 0.22257584 -0.15526113 -0.1044825 0.26398227 -0.025110675 0.21846469 0.1429337 -0.10916787 -0.037509497 -0.3946677 -0.11967564 -0.2997205 0.13351317 -0.090459555 0.14264795 -0.16831496 -0.39449063 0.09566911 -0.021193614 0.08568109 0.123920925 -0.19270423 -0.18835418 -0.20907424 0.34052783 -0.07843075 -0.065069444 -0.0037736006 0.7549378 0.085136294 0.03465717 0.15652561 -0.07323892 -0.2833077 -0.09085782 0.25760153 -0.07786732 -0.17732787 -0.5049844 0.16062929 -0.15287894 -0.1559558 -0.042328004 0.17588353 0.13161932 -0.1869123 -0.14458354
60 -0.23912202 0.03661014 -0.19179282 -0.18467388 0.27635047 0.13260837 0.121999346 0.056669056 0.17823048 -0.075601906 -0.14814164 0.21605404 -0.082326874 0.11480624 0.046481334 -0.020618182 -0.50348514 -0.20355828 -0.19674912 0.039356805 0.29303074 -0.22824629 0.3213525 0.28068954 -0.06471928 0.18158068 -0.640283 -0.042156674 -0.45840526 0.17645045 0.070224896 0.5177272 -0.25119382 0.0723988 0.046508383 -0.105849 -0.048985314 -0.069452815 -0.043650303 -0.11601835 -0.27467033 0.18721198 0.17680325 -0.06897087 -0.101466976 0.7099108 0.06412012 0.05789948 -0.03296549 0.012340923 0.1781914 0.06770288 -0.036632836 -0.02849363 -0.09703346 -0.5312698 0.3804645 -0.062321797 -0.377389 -0.5674533 0.3575701 0.219297 -0.25564286 0.006637179
38 -0.19114865 -0.20970738 -0.1007314 -0.12445074 0.0035535225 0.10914072 0.014844289 -0.16452703 0.14382495 -0.0017508939 -0.14775544 0.1350832 -0.12809837 -0.026673963 -0.18997638 -0.16763765 -0.13559136 0.07510945 0.033739246 -0.029825695 0.26661336 -0.0055862973 0.13639142 0.21876033 -0.057029806 -0.07782605 -0.2910421 -0.10114375 -0.32439518 0.093355395 -0.03204704 0.18529199 -0.21720877 -0.26223433 0.012102575 -0.028963502 0.08390897 -0.01949878 -0.0590212 -0.119860366 -0.15123947 0.29867792 0.052807543 0.06696163 0.0533415 0.67652553 0.050697908 0.029342962 0.021220965 -0.05663841 -0.114659354 -0.023940576 0.19765745 -0.009282354 -0.20144331 -0.45428997 0.20653741 -0.14823213 -0.26355225 -0.12584433 0.078828886 0.025273534 -0.0625455 -0.05346847
30 -0.13779531 -0.31595615 0.12327752 -0.042564802 -0.08519617 -0.07572229 -0.1657682 -0.21509267 -0.25845742 0.11865003 0.10437481 0.1975763 0.08395458 -0.2869699 0.022545423 -0.22076884 -0.09010836 0.007591287 0.045609806 -0.18442078 0.22152497 0.09414489 0.0035816655 0.09906478 -0.38301164 -0.1291957 0.10644592 0.17010511 -0.044356845 0.06312354 -0.050977048 0.2001996 -0.19994813 0.097268015 -0.09848591 -0.057273757 0.17902729 0.17875028 0.17712809 -0.28589615 -0.17108747 0.26067424 0.057612926 0.09939654 -0.17679048 0.3069889 -0.23737225 -0.1121904 -0.24128112 0.015019916 -0.24060008 0.18964982 0.007499929 -0.024103802 -0.27889195 -0.23366396 -0.12441557 0.096707135 -0.2731044 0.14552392 0.16293143 -0.25057653 -0.14828528 -0.023177683
1 -0.039727516 -0.48922777 0.10003174 0.12394773 0.05789042 -0.37764472 0.24427517 -0.015234963 -0.31941837 0.12044174 0.15949093 0.37706032 0.07033828 -0.5542847 0.03927129 -0.64813167 0.28348497 0.18098639 0.07014864 0.10479011 0.22303718 0.013077488 0.018722143 0.13677333 0.07483667 -0.27305025 0.1320565 0.25828546 0.12593992 0.08175267 -0.02683048 0.23914675 -0.46789595 0.4582681 -0.092915736 -0.017311556 0.39305758 -0.027768217 0.4190394 -0.29471758 -0.2891868 0.17448568 0.43271002 0.37700325 -0.35209113 -0.17631705 -0.18366753 -0.6822084 -0.14278883 0.16637202 -0.29816976 0.10307471 0.18222481 0.13062462 -0.5266837 -0.2644083 -0.037921295 0.1577877 -0.37081528 0.1870906 0.036586996 -0.44375864 -0.4254634 0.27854976
23 -0.16597502 -0.3153023 0.07804681 -0.2068824 -0.16613714 0.21405698 -0.27414674 -0.34409943 -0.015613338 0.14727217 -0.02927837 0.21043757 -0.07569854 -0.14941396 -0.04214776 -0.101692975 -0.20270531 -0.13008568 0.2706762 -0.24202389 0.24819289 0.19663268 0.012571983 0.3340612 -0.4002869 -0.038888626 0.074256904 -0.015033837 -0.24365704 0.22510481 -0.019278992 0.16514762 -0.27980462 -0.17107143 -0.028602349 -0.22463214 0.17704429 0.16802174 0.043399937 -0.18583296 -0.1299751 0.20392331 0.055702753 0.1715949 -0.014965815 0.6237579 -0.11608331 0.20327945 -0.21370585 -0.042030565 -0.17803304 0.22872232 -0.09857416 0.037534118 -0.08241505 -0.26953518 -0.10076168 -0.10573068 -0.21069261 0.07416535 0.029743131 -0.16707195 0.10166779 0.078159496
20 0.15059207 -0.5092394 0.22327079 0.22640508 -0.36483133 -0.16673402 0.3754338 0.055770803 0.21347749 0.30638465 0.048373725 0.47685906 0.21616012 -0.27639762 0.2702129 -0.3204507 -0.10898267 -0.30755016 -0.15652291 0.15472229 0.20641162 -0.19422384 0.2937426 0.061648805 0.50729823 0.25933564 -0.02767981 -0.09084061 0.048960593 0.18219039 -0.025709013 0.2999203 -0.04192273 0.098347224 0.008919583 -0.31467098 0.35212487 0.0363275 0.14465363 0.094422214 -0.55464333 -0.15544204 0.16445073 0.41640165 -0.16553956 0.04908128 0.030086365 -0.3618461 -0.14520286 0.2029143 -0.45202214 0.08228336 0.038234275 0.06658241 -0.16937624 0.005643309 -0.5589981 -0.09771893 0.15079935 -0.105955325 0.30630475 -0.4665094 0.14966688 0.320817
56 -0.2728153 -0.14493068 -0.20634031 -0.1159277 0.15139344 0.12326741 0.061996095 -0.10516951 0.08546376 -0.07166552 -0.12007692 0.09467547 -0.07279402 -0.049761347 -0.37360856 -0.19878063 -0.2080382 0.24793553 -0.1744402 -0.0742684 0.28109798 -0.057817757 0.1950934 0.16608433 -0.14936922 -0.042895418 -0.48006764 -0.11010409 -0.3405197 0.12052962 -0.090333104 0.20088129 -0.22819498 -0.33089685 0.057253685 0.021995459 0.04655979 0.102435865 -0.18308643 -0.20911981 -0.1964655 0.4022396 -0.052509923 -0.09963581 -0.01989234 0.8171191 0.06493509 0.029826254 0.11541032 -0.10107482 -0.22326435 -0.07321367 0.23392454 -0.0800575 -0.20196459 -0.5656864 0.2685691 -0.1532856 -0.25848785 -0.0928218 0.1881693 0.20564589 -0.22739401 -0.15135543
18 0.030037893 -0.4252801 0.21619284 0.029575283 -0.30488765 -0.0651718 0.25238574 0.0025107926 0.28996575 0.39872986 -0.020286214 0.437377 0.2966188 -0.20777488 0.14688078 0.0060529737 -0.16808492 -0.47646752 -0.11803273 -0.01847842 0.28105143 -0.13972099 0.3660756 0.19387211 0.3294325 0.25219646 0.13064016 -0.051351227 0.14065741 0.20041075 -0.008309078 0.3021219 0.031305674 0.056514163 -0.027046729 -0.4898751 0.18668674 0.08443217 0.17039478 0.03413175 -0.573791 -0.1580838 0.059678175 0.36583623 -0.16070013 0.10476557 0.007649061 -0.18205012 0.04595686 0.14985305 -0.37207144 0.07302359 -0.027639855 0.086246535 -0.0901224 -0.016131064 -0.52435267 -0.18959421 0.19827028 -0.08240657 0.40388963 -0.3877728 0.021464769 0.17005594
28 -0.17311971 -0.42906278 0.10775329 -0.17443857 -0.15280044 0.10543975 -0.2302883 -0.3469762 -0.14047143 0.15485156 0.038717557 0.22685139 -0.13753873 -0.09725863 -0.0035337151 -0.2342128 -0.17040227 -0.22847787 0.29224062 -0.2078152 0.2249414 0.10152413 -0.01506083 0.16848402 -0.38498843 -0.07569117 -0.0059766034 0.012453375 -0.14244148 0.16433586 -0.03867065 0.1645619 -0.10322696 -0.08452243 -0.10310088 -0.18914452 0.2427492 0.19376141 0.13119677 -0.25356936 -0.15698655 0.14264832 0.031496305 0.22998604 0.01625369 0.56698525 -0.2126473 -0.009274653 -0.3240374 0.022989308 -0.24210574 0.17682782 -0.14793552 -0.042418696 -0.1207487 -0.20420837 -0.13009633 0.013080483 -0.21886338 0.10700855 0.07941732 -0.26428923 0.05467245 0.1300176
16 -0.036676686 -0.3075413 0.31268916 0.01639562 -0.30137348 0.009241645 0.08863094 -0.061270338 0.24027576 0.35393322 -0.01896954 0.43384638 0.17639048 -0.106208086 0.22725174 0.0148398215 -0.33061486 -0.4544438 -0.058290415 -0.14132631 0.17105143 -0.056145906 0.2978454 0.14190911 0.2573164 0.28998217 0.030743187 -0.009302595 -0.045271195 0.13823193 -0.001932026 0.36345106 -0.020253003 -0.034311358 0.1288153 -0.34598276 0.18776798 0.02286769 0.039584506 0.117595315 -0.3903559 -0.013784038 0.11889126 0.24438928 -0.09485391 0.20128557 0.0369795 -0.026135696 -0.18041494 0.17907819 -0.23923403 0.101966865 -0.019370157 0.07621883 -0.055258207 -0.035924636 -0.4127707 -0.01842691 0.11471709 -0.28292376 0.31411293 -0.37161958 0.10359904 0.07670959
35 0.045438997 -0.40617365 0.037147075 0.14992052 -0.005960621 -0.31519285 0.3969447 0.069838464 -0.08391578 0.15615909 0.0739813 0.4605429 0.102908105 -0.5658003 0.028011952 -0.5827779 0.33114755 0.17735547 0.08015889 0.26688278 0.2464368 0.009683583 0.08554288 0.33919126 0.38663784 -0.19688572 0.16338244 0.16422255 0.07051903 0.16293038 0.050100878 0.2435802 -0.6286951 0.41550094 -0.010149533 -0.11158326 0.3699041 -0.16068064 0.42417693 -0.116655685 -0.334387 0.10062883 0.5567873 0.46363398 -0.35462365 -0.30743518 -0.017417721 -0.644173 0.0033184842 0.10958808 -0.20256376 0.06176466 0.26908177 0.22730482 -0.42094758 -0.28671172 -0.011583212 -0.05339125 -0.28245 0.05203399 -0.042081773 -0.4096704 -0.32620966 0.34493595
25 -0.17410934 -0.3050424 0.1486058 -0.15736918 -0.22726771 0.18516378 -0.23303103 -0.33877534 0.07678362 0.17210428 -0.04311821 0.25904137 -0.06592515 -0.09551831 -0.028827837 -0.135069 -0.2094913 -0.14441447 0.24497834 -0.20671493 0.23033525 0.16158573 0.06527369 0.308527 -0.23852332 0.029999813 0.045629553 -0.014714792 -0.22319339 0.18904391 -0.020029217 0.17124204 -0.26680747 -0.20530912 0.025932586 -0.18418363 0.164379 0.11041087 0.04965048 -0.052180994 -0.11642113 0.2320769 0.062786676 0.1755393 1.8041712e-05 0.58394384 -0.07709914 0.22755536 -0.20679083 -0.021316137 -0.17151825 0.1688108 -0.020219952 0.09099386 -0.10458616 -0.26615417 -0.084452935 -0.09971538 -0.19492964 0.015716454 -0.038174633 -0.12713364 0.16759588 0.02556983
21 -0.093431346 -0.3218933 0.14072374 -0.1380453 -0.27481383 0.08308713 -0.033439443 -0.2027276 0.14743054 0.298876 -0.003325888 0.30888984 0.19072078 -0.16880633 0.0001840447 0.10775578 -0.19559914 -0.32814795 0.047311466 -0.18200164 0.30104145 0.019758342 0.17693456 0.268018 -0.13278289 0.061161965 0.21397245 -0.02047739 0.048851784 0.1581737 -0.0104967365 0.19714184 -0.048382603 -0.043415304 -0.09576604 -0.38458064 0.11397113 0.16323124 0.14691678 -0.12852702 -0.3744063 0.042856067 -0.043728575 0.22112527 -0.114513695 0.35277304 -0.07086304 0.056182835 0.017854705 -0.033380315 -0.26490638 0.16387476 -0.020642484 0.027427474 -0.09019749 -0.12457503 -0.30213737 -0.21759169 -0.0009375219 0.057512753 0.27845895 -0.2312692 -0.007002311 0.008836246
51 -0.17888679 -0.31794906 -0.09071753 -0.060473368 -0.05455771 0.12193163 0.09597616 -0.28881237 0.21959585 0.11027895 -0.105813794 0.21567653 -0.13927364 -0.029989857 -0.48404074 -0.29082018 -0.17920886 0.2315363 -0.10127668 -0.14921036 0.26513392 -0.045142997 0.16873133 -0.027511844 0.08716957 -0.09257942 -0.36999378 -0.16250311 -0.1258496 -0.0072463294 -0.24692093 0.056109432 -0.0587828 -0.49179468 0.1479107 0.10187484 0.09565901 0.055962615 -0.26523483 -0.10192226 -0.07590692 0.5771384 -0.16478138 -0.055429265 0.1595878 0.8730849 0.10568912 -0.13154119 0.13599432 -0.05805132 -0.418434 -0.17556103 0.5100881 -0.05455993 -0.32074818 -0.43421495 0.22968805 -0.13836305 -0.046987187 -0.07816277 0.097315475 0.116894394 -0.16779919 -0.28015307
5 0.30011007 -0.46480098 -0.09018314 0.15641129 -0.17539053 -0.08247263 0.3837982 0.011741318 0.08547047 0.21466333 0.13895863 0.49197507 0.030866103 -0.44249374 0.28247422 -0.4633385 0.025061987 -0.11471951 -0.10538827 0.25941938 0.1852043 -0.13046157 0.06665729 0.13497725 0.38307372 -0.011964443 0.096117236 -0.05311678 0.07319059 0.1421979 -0.04835865 0.24181479 -0.2552979 0.34230724 -0.031434856 -0.23441751 0.35482907 0.047882378 0.21676975 -0.11754858 -0.41355887 -0.028734008 0.29407597 0.41512045 -0.23531345 0.03397856 0.04861952 -0.700143 -0.06227408 0.109412774 -0.36925474 0.19413166 0.0715049 0.03770428 -0.17150036 0.042755157 -0.32400787 -0.2284424 0.038575243 -0.04986526 0.24787867 -0.5154093 -0.13442716 0.47861558
31 0.07192604 -0.12243049 0.18935663 0.17531803 -0.0504049 -0.21958 -0.009085607 -0.122276336 -0.35246444 0.09048754 0.3028471 0.41467574 0.3544202 -0.5451946 0.06327651 -0.36441708 -0.2495307 0.26897562 -0.21675393 -0.080823265 0.1281115 0.027028935 -0.01858765 0.038399663 -0.24826348 -0.006522859 0.17578812 0.27408788 0.12666586 -0.023312747 -0.08648751 0.283315 -0.4593853 0.41192374 0.080600925 0.12594467 0.1571767 0.13334547 0.2040497 -0.2744594 -0.0955015 0.4133343 0.18974803 -0.08818708 -0.4470401 -0.015129441 -0.19680889 -0.39762017 -0.2012995 0.01347088 -0.33055177 0.23631506 0.17356433 -0.006691267 -0.32633913 -0.1319401 -0.073655084 0.14152792 -0.26317865 0.01648638 0.20830911 -0.19484483 -0.3717501 -0.1693769
42 -0.30348328 0.052746568 -0.121489204 -0.2040836 0.2623461 0.13697459 0.10688588 0.03837818 0.201413 -0.004125245 -0.11650197 0.30988887 -0.05884108 0.12577745 0.05734728 0.0004280993 -0.5803247 -0.26559916 -0.12825662 0.0065740095 0.28587118 -0.21784844 0.34518585 0.30325848 0.0006340839 0.21323808 -0.66100526 -0.015603257 -0.46197242 0.15414323 0.079347566 0.58516985 -0.26136753 0.07501045 0.12916148 -0.13207817 -0.03365901 -0.14308894 -0.05738557 -0.06846476 -0.24600874 0.22553745 0.22598694 -0.07047502 -0.07458392 0.6971433 0.082178585 0.029119093 -0.08510311 0.010048441 0.2003788 0.055271126 0.001654563 -0.021045173 -0.10788241 -0.5055713 0.40484068 -0.00074374245 -0.3621064 -0.6835221 0.36836135 0.18808992 -0.3056784 -0.0076832203
43 -0.253082 0.11097977 -0.08599381 -0.17907725 0.28023994 0.08596889 0.085201755 0.044546604 0.1195098 -0.024070319 -0.03965908 0.33774242 -0.0118092615 0.07589009 0.11837805 -0.005011953 -0.62787443 -0.25614768 -0.16788755 -0.007550986 0.25798184 -0.21329485 0.3002429 0.26977393 -0.079135634 0.24193946 -0.5881218 0.03907386 -0.38533595 0.13308671 0.094618775 0.58661306 -0.2904093 0.23228826 0.11820144 -0.10764233 -0.054785788 -0.12866127 0.0042986814 -0.08623783 -0.19172563 0.22386512 0.26139268 -0.10357519 -0.1684387 0.5790415 0.035733007 -0.008004566 -0.13147435 -0.000112340625 0.23415384 0.116705626 -0.03965176 -0.012785408 -0.11478234 -0.43225965 0.41784987 0.04965491 -0.3922306 -0.67751414 0.36907792 0.1909784 -0.34869364 -0.025745451
11 -0.0037996233 -0.47610033 0.16413419 -0.023240272 -0.34700042 0.12418136 -0.12921973 -0.26685268 0.13683984 0.21426317 -0.036499992 0.29356256 -0.20848292 -0.107180946 0.2303952 -0.40320477 -0.074547015 -0.17156132 0.2381698 -0.064908154 0.1987969 0.105209045 0.051845793 0.20549808 0.0770377 0.054617718 0.035840224 -0.052169308 -0.23317327 0.15835886 -0.049437452 0.11894691 -0.19238625 -0.19493456 0.012086866 -0.13229315 0.34493914 0.07064144 0.081958205 0.10707672 -0.16286159 0.16653003 0.12510066 0.3858805 0.088682786 0.55128825 -0.040460024 0.08184922 -0.33712703 0.13073242 -0.23646474 0.1395089 0.0068770014 0.1404025 -0.16776341 -0.12810501 -0.28077552 -0.1216878 -0.15805085 0.0587682 -0.10906997 -0.34181878 0.39705512 0.26906982
19 0.0777405 -0.4793213 0.1747292 0.15263578 -0.315184 -0.08103493 0.32446745 0.021158116 0.22684914 0.33077097 0.06916687 0.4690911 0.22415645 -0.30543008 0.17960888 -0.12420369 -0.11057937 -0.34784514 -0.16256928 0.051013336 0.1868337 -0.15192512 0.28404912 0.0838817 0.3853672 0.17442247 0.07279391 -0.09843554 0.09162964 0.17171313 -0.011130879 0.3094398 0.03028757 0.073094115 0.013792361 -0.4184534 0.315416 0.11458545 0.125366 0.031000925 -0.5900254 -0.15794283 0.13689686 0.37740296 -0.20802663 0.046835914 0.056761395 -0.41268215 -0.057653017 0.13267612 -0.45447886 0.10253618 0.02081575 0.0073255445 -0.109486 0.0076650004 -0.5789365 -0.1466216 0.2253898 -0.089495 0.41035545 -0.50601923 -0.022427728 0.30505434
49 -0.011663608 -0.2549691 -0.15176417 0.01689419 0.08484606 0.11328822 0.15410706 -0.23178151 0.15412463 0.014013284 -0.0062621306 0.27832755 -0.16478194 -0.071997434 -0.33839116 -0.49540165 -0.33471447 0.29056898 -0.23764135 -0.036456622 0.20919642 -0.14710248 0.15944074 -0.14370057 0.08564764 0.032302305 -0.53771275 -0.1455599 -0.10813682 -0.018719971 -0.30828133 0.06754158 -0.13687156 -0.26302242 0.18527065 0.23498322 0.0822404 0.078893594 -0.31079468 -0.10040007 0.0023900787 0.6237986 -0.107101485 -0.14451669 0.07661044 0.91514164 0.07473713 -0.27294418 0.055956494 0.031078724 -0.41499716 -0.10948675 0.4280254 -0.026260192 -0.35311076 -0.33027855 0.30013445 -0.035979617 -0.08013169 -0.15675765 0.082513995 0.24689037 -0.21343559 -0.21153913
34 -0.03189922 -0.3636311 0.03582979 0.11314753 0.09194039 -0.32223412 0.3131689 0.06327598 -0.2230909 0.123922676 0.1271591 0.382247 0.15668355 -0.5566449 0.027916407 -0.45163813 0.26348162 0.14834619 0.0068192217 0.14586532 0.22671919 0.00776676 0.08239962 0.24094056 0.12630546 -0.25275013 0.20474325 0.2199036 0.11600238 0.12369667 0.044030618 0.2752066 -0.51978195 0.5026605 -0.06336632 -0.1041043 0.32856122 -0.038533304 0.3968685 -0.25288546 -0.3620025 0.113740325 0.47650832 0.35030764 -0.41877154 -0.28708076 -0.08079787 -0.6387084 -0.004582813 0.10020978 -0.19984698 0.14008509 0.18629932 0.14169025 -0.42695653 -0.27580127 -0.037883043 0.023187088 -0.30409417 0.09496361 0.112145595 -0.37946576 -0.49790373 0.27296284
9 0.17571576 -0.38285276 -0.13347961 -0.009328021 -0.18234667 0.14360565 0.12919363 -0.12854713 0.09461743 0.19314744 0.08120488 0.3875708 -0.098245665 -0.35535827 0.18647514 -0.2685601 -0.0058599585 -0.12585808 0.062512495 0.075032644 0.13511947 0.04293026 -0.012423235 0.2397423 0.1040132 -0.06441753 0.19045796 -0.09064863 -0.06454577 0.2001915 -0.015317543 0.18439876 -0.27470762 0.14904423 0.0065494413 -0.2941115 0.3058035 0.12008094 0.11434675 -0.13329193 -0.32144558 0.0014102786 0.24743456 0.3700207 -0.15829732 0.21575713 0.074693955 -0.41749698 -0.09950338 0.007863789 -0.26921472 0.26916558 -0.049747143 0.03729952 -0.028108798 -0.0028574641 -0.27567476 -0.29214835 0.009850374 -0.0057700607 0.1455905 -0.43263113 -0.0755569 0.4522976
15 -0.19045399 -0.45297593 0.23843342 -0.12496544 -0.32732245 0.06399625 -0.11873982 -0.27449307 0.10348558 0.28036824 -0.024178043 0.24686202 0.115668416 -0.06823367 -0.015103392 0.0063073295 -0.17700823 -0.3717037 0.11616978 -0.21601008 0.3102688 0.022309935 0.194792 0.18160515 -0.18992953 0.075636305 0.07414851 -0.037800033 -0.0057459036 0.16552739 -0.04051663 0.18341775 0.0676053 -0.18945345 -0.14547719 -0.3476682 0.17257836 0.19783925 0.1472353 -0.078758374 -0.36820978 0.034673095 -0.13499305 0.26170626 -0.018083924 0.49973464 -0.18126412 0.17071821 -0.124071665 0.012345914 -0.32518113 0.099045604 -0.06107971 0.02011302 -0.14097953 -0.20927359 -0.3667333 -0.11104846 -0.041777965 0.13616286 0.20991951 -0.22252731 0.17483503 -0.0028272374
22 -0.17515759 -0.39866698 0.14329866 -0.15306905 -0.23283081 0.13422878 -0.23855741 -0.34314856 0.008853896 0.16104367 -0.042337928 0.2217072 -0.10758654 -0.11929586 -0.0064866478 -0.21428779 -0.12711386 -0.14284973 0.29526028 -0.1801593 0.2619493 0.1620659 0.044589363 0.28216252 -0.27438152 -0.021132926 0.034189112 -0.015166796 -0.21563217 0.20280123 -0.03179716 0.13777393 -0.244603 -0.20141281 -0.059846297 -0.18872906 0.23082362 0.12531331 0.09052387 -0.09233847 -0.14371529 0.20540267 0.03170411 0.26045477 0.018129278 0.6184844 -0.14788754 0.21127175 -0.2511595 -0.004183411 -0.20180833 0.16079593 -0.042976566 0.08492625 -0.15805373 -0.29305816 -0.11630275 -0.06865997 -0.24671912 0.099156305 -0.05798292 -0.1639537 0.20644239 0.09721425
55 -0.32196674 -0.29667267 -0.06547497 -0.065316066 -0.048750557 0.07238696 0.13114782 -0.17891853 0.21878585 0.07017766 -0.15306656 0.165 -0.04102504 0.027826559 -0.42895415 -0.14578246 -0.16140607 0.16271251 -0.14751385 -0.101468615 0.31367144 -0.101296514 0.24861181 0.02113577 0.059326854 -0.08773168 -0.46213913 -0.13517754 -0.23612262 -0.005709153 -0.14533602 0.18000437 -0.0039983084 -0.4726225 0.08766396 0.045511246 0.06813108 0.030942028 -0.19399731 -0.10419628 -0.2258417 0.4682444 -0.1514401 -0.062171683 0.108424775 0.82456845 0.08022195 -0.036753733 0.133362 -0.10101012 -0.32328632 -0.17670253 0.4853243 -0.086886965 -0.33429343 -0.55259275 0.19311619 -0.110608466 -0.14432748 -0.13620262 0.21441768 0.0944775 -0.16616444 -0.2920067
45 -0.28357536 0.058017742 -0.22298181 -0.15087682 0.3507976 0.1214928 0.13890138 0.06427379 0.13527153 -0.14616723 -0.13264827 0.22759207 -0.07858538 0.057037685 -0.025826022 -0.15132275 -0.5033066 -0.023762723 -0.22890252 0.08053259 0.27708426 -0.21352719 0.3220642 0.2749847 -0.08256428 0.18557777 -0.76983273 -0.06615728 -0.5344831 0.17450693 0.07460614 0.54818076 -0.35769323 0.05757086 0.10427091 -0.029657306 -0.027348341 -0.09315409 -0.08674238 -0.11874658 -0.23249157 0.26539785 0.2286836 -0.124425225 -0.13160822 0.7557402 0.091173716 0.0069340565 -0.04618019 -0.009507111 0.14867155 0.05015779 0.011205836 -0.026283767 -0.14908491 -0.5984815 0.46102718 -0.031923052 -0.43821755 -0.56468314 0.30640084 0.28101742 -0.32725498 0.028855097
50 -0.21778654 -0.35384494 -0.23015554 -0.07675601 -0.041022796 0.073876254 0.22352621 -0.13888006 0.19124229 0.12169419 -0.15647556 0.1606269 -0.038025893 -0.021509219 -0.46916083 -0.19568479 -0.08309162 0.18101378 -0.18641707 -0.03433178 0.3486024 -0.1433228 0.19838579 -0.018809797 0.109446935 -0.17237958 -0.37030143 -0.10961938 -0.103403404 -0.024701865 -0.22199711 0.049731597 0.010807742 -0.48469126 0.05090237 0.066023156 0.04465018 0.13893633 -0.21473368 -0.22171529 -0.23047523 0.5173214 -0.26202953 -0.077782474 0.1521567 0.8255003 0.09050853 -0.18811882 0.23451275 -0.12072497 -0.43573874 -0.17083614 0.54582196 -0.15465927 -0.31061232 -0.4693272 0.17043597 -0.21091643 -0.027592555 -0.052639976 0.29212072 0.05091118 -0.2376128 -0.33139825
54 -0.27556536 -0.24036083 -0.070176154 -0.05127314 -0.028564898 0.055152167 0.17037152 -0.1630398 0.23114893 0.07290033 -0.17012936 0.19827929 -0.0042315447 -0.055981193 -0.47356033 -0.14974211 -0.09815395 0.24602236 -0.11754851 -0.08099297 0.2798111 -0.047438476 0.2147387 0.095667735 0.15180287 -0.14184152 -0.3370323 -0.112910904 -0.18028288 -0.028842561 -0.1402529 0.16065185 -0.15185657 -0.4311502 0.14230622 0.06544541 0.057636585 -0.048731998 -0.16410066 -0.083680116 -0.17102729 0.49526533 -0.06437305 -0.049636085 0.06524908 0.662046 0.12825337 -0.091739096 0.21334468 -0.1107017 -0.28966635 -0.18418002 0.56563264 -0.016467536 -0.33264878 -0.52311194 0.26157275 -0.14555652 -0.12829687 -0.1389382 0.1269747 0.0950556 -0.24304491 -0.30672976
6 0.29616797 -0.4787781 -0.10725969 0.05727284 -0.29152262 0.13078329 0.31449077 -0.06680261 0.2806975 0.28884378 0.045505002 0.4831916 -0.005044228 -0.32597962 0.25481552 -0.29221588 -0.039558087 -0.2839562 -0.07378718 0.18660851 0.18285342 -0.116367094 0.12049113 0.1935826 0.38328147 0.08072188 0.16067815 -0.17789707 0.062160593 0.20773277 -0.051145166 0.20653227 -0.14299333 0.16700466 -0.022363778 -0.3912744 0.28738296 0.12057631 0.1343904 -0.039000142 -0.47779557 -0.10056604 0.19417427 0.44980672 -0.15223786 0.21532893 0.13172029 -0.5048908 0.026673658 0.07761016 -0.38010633 0.22136374 -0.047107715 0.073382676 -0.007610477 0.093995266 -0.44923717 -0.41295215 0.18311985 -0.042257853 0.2553198 -0.4449171 0.014576561 0.4939166
17 -0.08837671 -0.47043845 0.43853122 0.037892584 -0.4746864 -0.055085815 0.1846584 -0.057342343 0.363331 0.504263 -0.004647026 0.50561845 0.4256364 -0.18361343 0.11847585 0.17690612 -0.29066724 -0.6328914 -0.07861332 -0.17101526 0.28651324 -0.099509716 0.44854113 0.21091236 0.2848434 0.3699126 0.17959923 -0.06218171 0.13479888 0.2466823 0.005613387 0.35165462 0.115968674 -0.085632876 0.020697707 -0.6293268 0.23398364 0.12671661 0.13578652 0.12016576 -0.6460728 -0.21373422 0.005167804 0.3942684 -0.1834107 0.12865904 -0.007262465 0.0099970335 -0.03470831 0.14762114 -0.4465272 0.10008458 -0.04534349 0.07606004 -0.0635137 -0.043161027 -0.7038919 -0.11289656 0.2776398 -0.12897791 0.44880253 -0.42855784 0.13144453 0.07801227
37 -0.39857057 -0.040983792 0.51532084 -0.10754119 -0.12249657 0.18164441 -0.19399196 -0.3056797 0.25218317 0.37188056 0.056491874 0.55373865 0.27743447 -0.37326387 -0.37212557 0.14801152 -0.37251613 0.01005011 0.20627652 -0.6319723 0.052043714 0.37439534 0.25142854 0.48770013 -0.033410694 0.24481085 0.32026583 0.11944248 0.055971567 0.2578345 -0.018267108 0.20998965 -0.5506978 -0.19464178 0.5268091 -0.35566914 0.19786474 -0.07889038 -0.069673575 0.22634485 0.0027325344 0.39349762 0.3140335 0.060930904 -0.29343027 0.20507284 0.12563339 0.2685114 0.008109281 -0.027835868 -0.19273418 0.014640382 0.22964828 0.35708246 -0.2382946 -0.2271008 0.04026902 0.039440095 -0.032417156 -0.12489524 -0.13887587 -0.037813544 -0.27201456 -0.19235744
29 -0.22136302 -0.44878694 0.06496725 -0.26111257 -0.12547946 0.1460014 -0.38878366 -0.44963992 -0.25006437 0.12875445 0.077069156 0.17641303 -0.14138663 -0.088255815 -0.02447926 -0.20001738 -0.28110802 -0.27056625 0.32258105 -0.33352977 0.27709693 0.10464092 -0.060700748 0.1424979 -0.69099045 -0.104367845 -0.013071427 0.009379141 -0.12936863 0.17771643 -0.05141859 0.14269654 -0.013118498 -0.09739855 -0.21099855 -0.19818637 0.21385184 0.3064721 0.1345609 -0.4292144 -0.14881873 0.19004165 -0.1028933 0.15415636 0.051077995 0.7925424 -0.33852503 0.04992395 -0.36771375 -0.016279325 -0.29985464 0.20512642 -0.29006085 -0.11477627 -0.13994367 -0.18629381 -0.10804731 0.026332034 -0.26240098 0.22747548 0.1823483 -0.24322213 0.0035090665 0.07156514
32 -0.15096225 -0.4232489 0.23056345 0.12784067 -0.04662711 -0.35268226 -0.057491545 -0.14186935 -0.5520963 0.12568954 0.31672117 0.31771633 0.25490043 -0.5258268 0.09317922 -0.3932701 -0.017674897 0.10755642 -0.12007842 -0.1617043 0.19805913 0.017549751 -0.031114403 -0.10369842 -0.4339921 -0.20606683 0.13569072 0.34407112 0.16514577 -0.03209664 -0.082564555 0.3254966 -0.18851401 0.4388114 -0.16804665 0.013950293 0.31901693 0.239014 0.332876 -0.42884943 -0.31468436 0.29594067 0.113926314 0.09688062 -0.4449459 0.009955458 -0.38081786 -0.48412362 -0.36510366 0.06249647 -0.40153244 0.23950441 0.066583924 -0.07209529 -0.5040164 -0.23368716 -0.23402765 0.32084495 -0.3664484 0.2246501 0.31048876 -0.4093148 -0.4394989 0.0010774472
33 -0.19350798 -0.38824952 0.19830571 0.078766145 0.041128222 -0.35029852 -0.12268451 -0.17539628 -0.6079872 0.08511091 0.33379552 0.2742597 0.23326577 -0.48973626 0.034778465 -0.38632247 -0.05931087 0.13166258 -0.09468039 -0.202464 0.22015493 0.014214914 -0.04908886 -0.12666267 -0.5573698 -0.25784278 0.09787632 0.36929703 0.18779337 -0.06552029 -0.09435625 0.30713937 -0.16493301 0.44717592 -0.19129701 0.06280869 0.24563617 0.24949984 0.3288214 -0.5021834 -0.2366833 0.3557091 0.09034034 0.010520004 -0.39973223 0.0778487 -0.44003057 -0.51163715 -0.3548713 0.04500708 -0.38355923 0.2227772 0.06585628 -0.1253654 -0.52088326 -0.24079758 -0.122977845 0.35566995 -0.38803846 0.25134832 0.3409106 -0.36781558 -0.5255354 -0.08920616
44 -0.14233287 -0.15104656 -0.24574968 -0.1251534 0.06411542 0.114597276 0.1814323 -0.0892863 0.22470096 0.07543962 -0.1003782 0.24034654 -0.08549723 0.02774836 -0.23840646 -0.103211574 -0.26544076 0.019658193 -0.19589326 0.013250481 0.30716372 -0.17719778 0.19664802 0.08885992 0.09719624 -0.06903343 -0.3808677 -0.05707946 -0.13955818 -0.002640609 -0.13666669 0.19416763 -0.12261389 -0.20350957 0.05342372 0.041963495 -0.026634822 0.03809349 -0.12933873 -0.16973248 -0.19920908 0.47331318 -0.11250623 -0.09082678 0.03586331 0.7270542 0.07820196 -0.116237156 0.16197711 -0.10251057 -0.17271653 -0.07437106 0.39953732 -0.08840851 -0.22132792 -0.44712502 0.32277805 -0.20105733 -0.15287577 -0.2943367 0.28079435 0.1403024 -0.2667446 -0.26754868
10 0.2217726 -0.35778794 -0.24176508 -0.10393197 -0.18448666 0.202959 0.17679101 -0.16206738 0.16213241 0.26878694 0.086550415 0.40070465 -0.025039569 -0.37578753 0.13447303 -0.06761588 -0.00017820852 -0.16553186 0.0049398364 0.013610108 0.21887508 0.008120563 -0.020485178 0.29466453 0.028305445 -0.14146915 0.41263402 -0.0708177 0.11297225 0.14727032 -0.06954816 0.12338643 -0.20279172 0.2386214 -0.08404434 -0.3670416 0.23628584 0.14981565 0.14768884 -0.28131714 -0.37142962 0.038130865 0.13979626 0.35415208 -0.16582613 0.26805964 0.12011819 -0.45680517 0.15333834 -0.07813824 -0.28385285 0.30155316 0.018541269 0.012863762 -0.052376777 0.06874553 -0.24290244 -0.48105726 0.045908093 0.07416517 0.2837946 -0.4056894 -0.28039506 0.37350118
58 -0.2135754 -0.3184306 -0.18291284 -0.12440528 -0.057724547 0.14223239 0.17741407 -0.19460057 0.26619297 0.16060261 -0.15541479 0.22822195 -0.05368838 0.0009958401 -0.46943521 -0.1761329 -0.18467194 0.16337796 -0.14941265 -0.10090934 0.35727182 -0.11517545 0.21589638 0.040191352 0.12006353 -0.13444789 -0.35442787 -0.10550195 -0.118699536 0.00031409148 -0.23295796 0.066454835 -0.064582214 -0.49554422 0.12365848 0.06309132 0.034983803 0.10004508 -0.2453159 -0.16705371 -0.17835265 0.59022844 -0.23196305 -0.088856824 0.14482342 0.9145455 0.11618743 -0.09069132 0.23529734 -0.12704024 -0.39367104 -0.16855194 0.5941284 -0.09196884 -0.31805617 -0.48052153 0.24253912 -0.23101425 -0.057147745 -0.12660699 0.2419479 0.093143374 -0.2103661 -0.38397887
52 -0.22653724 -0.33343968 -0.10988649 -0.058340702 -0.0848415 0.11030348 0.22227524 -0.16671719 0.3164731 0.13307664 -0.18352373 0.20134766 -0.01679961 -0.03602303 -0.526014 -0.19761744 -0.123259366 0.21060795 -0.16549599 -0.09150669 0.31583843 -0.08702691 0.2651789 0.040390488 0.1973772 -0.039565735 -0.37150237 -0.17323272 -0.13523397 0.0403289 -0.20480782 0.06131307 -0.041108795 -0.5727745 0.16547306 0.0017472827 0.08244459 0.065824 -0.2703353 -0.08372314 -0.20792457 0.4833242 -0.20465772 -0.028609103 0.1459938 0.8277834 0.16422175 -0.076389596 0.2650906 -0.088590614 -0.46408245 -0.23222136 0.54223585 -0.061067242 -0.27433878 -0.45331356 0.13612665 -0.22522746 0.026797896 -0.07917833 0.18123242 0.09439489 -0.152827 -0.28985173
36 0.23644176 -0.4374108 0.017606338 0.20265178 -0.049685124 -0.3249327 0.4231952 0.101406075 -0.06995689 0.16863593 0.12858605 0.47474945 0.11280984 -0.4956073 0.26717407 -0.6128955 0.09122746 -0.01516659 -0.109305315 0.30583504 0.24060184 -0.14189808 0.11972397 0.14223422 0.39013475 -0.050432216 0.032747466 0.08870391 0.08843171 0.11442507 -0.008657495 0.29196686 -0.40648726 0.4827472 -0.07131167 -0.0993296 0.34530398 -0.056667093 0.33440837 -0.14435187 -0.370602 0.040273573 0.4247496 0.41443685 -0.29813373 -0.14520961 -0.04762236 -0.7327153 -0.10600757 0.20618142 -0.2934189 0.13111421 0.13997458 0.1066728 -0.35390246 -0.09780091 -0.1812621 -0.032477994 -0.15762064 -0.053053148 0.19041473 -0.4553109 -0.23057044 0.37199372
46 -0.26460207 0.0924628 -0.119542316 -0.15466759 0.29817727 0.13144343 0.1080804 0.06297882 0.18262501 -0.08277237 -0.11433175 0.33127064 -0.08750845 0.067909494 0.123315945 -0.09461148 -0.5499439 -0.17122498 -0.14325322 0.088056564 0.2599715 -0.18439096 0.31881887 0.36132917 0.013709666 0.21474263 -0.67337036 -0.015664173 -0.52231884 0.16853154 0.12629767 0.6218313 -0.42667744 0.17949323 0.13554855 -0.091765195 -0.029992975 -0.19917877 -0.010101985 0.012211504 -0.20394953 0.23472218 0.36999917 -0.05388071 -0.16747804 0.6376339 0.086910345 0.037789986 -0.14729716 0.0061086225 0.29714623 0.11907544 -0.006062754 0.056621216 -0.14291303 -0.5398208 0.46450543 -0.0048776604 -0.46694335 -0.71528196 0.26870674 0.20674005 -0.27636018 0.054946978
4 0.20426159 -0.35234314 0.031535797 0.26520738 -0.005259169 -0.36505455 0.4335478 0.15913242 -0.10705223 0.12291853 0.1905505 0.49182716 0.19045931 -0.5143988 0.26331764 -0.6056181 0.053996157 0.04614777 -0.1907614 0.33911872 0.22206524 -0.17640491 0.12266463 0.09367095 0.40190253 -0.030752297 -0.04412328 0.13198963 0.09292116 0.07116297 -0.0012475806 0.3400157 -0.41378888 0.53757364 -0.036433596 -0.05042966 0.32266927 -0.065930486 0.3443034 -0.11450832 -0.36564544 0.0609434 0.45923656 0.33141747 -0.3635444 -0.2321985 -0.0654019 -0.7877914 -0.13515931 0.16611235 -0.25635052 0.12098376 0.19469003 0.07962758 -0.3813447 -0.11853045 -0.14333631 0.017846853 -0.1661519 -0.1183505 0.24975203 -0.44249663 -0.2902217 0.31079444
0 -0.096374094 -0.39447427 0.11805041 0.1077902 0.004927025 -0.31861433 0.036679156 -0.100259565 -0.4812281 0.094402395 0.29687953 0.3241193 0.21485223 -0.59989214 0.0644846 -0.41930494 0.08605223 0.17159231 -0.07969087 -0.07393584 0.19036658 0.0229196 -0.036324702 0.03888522 -0.32064155 -0.26996523 0.20153031 0.28309014 0.13063072 0.008093612 -0.031662945 0.31093276 -0.32493857 0.4568003 -0.13375108 -0.02741908 0.3531482 0.17820431 0.37142277 -0.44540873 -0.3322508 0.23714492 0.22001491 0.1763307 -0.45647213 -0.059037883 -0.29435688 -0.59938204 -0.23116341 0.048399966 -0.37785977 0.21081822 0.09285972 -0.057252407 -0.45775655 -0.23985258 -0.16279529 0.19256751 -0.37224644 0.23508766 0.26187626 -0.44122344 -0.51221615 0.12322525
59 -0.23878928 -0.28792477 -0.11945393 -0.11768653 -0.06856621 0.18455783 0.07493617 -0.262768 0.23261873 0.108224474 -0.16107349 0.23918462 -0.072394535 -0.011366563 -0.46999633 -0.23391499 -0.2485963 0.22644512 -0.13997647 -0.12746575 0.33304843 -0.056290608 0.19285156 0.0570605 0.025263656 -0.068929516 -0.42391318 -0.12705609 -0.23787722 0.004346973 -0.2295552 0.13044879 -0.14966713 -0.53527653 0.16278751 0.09435725 0.050585505 0.077399604 -0.2848393 -0.13404597 -0.11702077 0.6387996 -0.18722627 -0.111805156 0.14240456 1.0041869 0.11718881 -0.00862756 0.12494652 -0.11803806 -0.36713234 -0.120856665 0.51747894 -0.06631833 -0.29606897 -0.51509696 0.25293475 -0.16913554 -0.1299537 -0.15788631 0.14532225 0.16230722 -0.13808578 -0.36154196
48 -0.29639745 0.06382648 -0.08104797 -0.11199346 0.22705089 0.10585908 0.121321626 0.021438334 0.18451807 -0.05119086 -0.11105136 0.32232323 -0.03112749 0.04452142 -0.04765614 -0.114904575 -0.47559753 -0.047789436 -0.15498386 0.035565667 0.23577374 -0.15179928 0.29667896 0.26992846 0.06069864 0.17975418 -0.63780946 -0.021609927 -0.44216648 0.11831179 0.06152184 0.52026963 -0.37618324 0.043334052 0.18773673 -0.034923546 -0.0077022915 -0.17321648 -0.08044702 0.025030393 -0.18039775 0.31980142 0.28240675 -0.09467887 -0.13074327 0.59665126 0.10663491 0.009222345 -0.087623484 -0.035819255 0.17015941 0.039418112 0.15008336 0.05511528 -0.18551852 -0.54089576 0.43908894 0.019251863 -0.38048887 -0.62249845 0.21675207 0.23961721 -0.2876708 -0.06173187
57 -0.18641198 -0.28537196 -0.1352092 -0.062221315 0.01564672 0.08763558 0.17717485 -0.17936213 0.20091455 0.08201386 -0.121438034 0.2115539 -0.07287948 -0.018084206 -0.44157088 -0.27531713 -0.17561075 0.21851636 -0.17182307 -0.05965703 0.26875797 -0.11384767 0.20956473 -0.038712256 0.13227971 -0.07971907 -0.4395603 -0.101416446 -0.13107033 -0.03303137 -0.2332274 0.107344724 -0.073597915 -0.41227868 0.14470026 0.12709896 0.048678696 0.03789707 -0.25673497 -0.1098438 -0.11352045 0.53701323 -0.14341234 -0.09526935 0.11955592 0.8101811 0.11291093 -0.17608038 0.16378748 -0.04348081 -0.37535858 -0.172663 0.504889 -0.07776264 -0.32388595 -0.44554323 0.2503251 -0.083584376 -0.066458605 -0.14126475 0.14995973 0.14185482 -0.23240717 -0.28882974
47 -0.3176933 0.1465919 -0.10493608 -0.12181161 0.32496995 0.070178136 0.21292226 0.1520503 0.2227609 -0.049954273 -0.13122804 0.3607483 -0.006272018 0.030746078 0.07125812 -0.041189685 -0.51655656 -0.12415283 -0.18966438 0.09937437 0.25093746 -0.19951198 0.37070635 0.36076027 0.17601635 0.21682714 -0.674132 0.020408072 -0.50269276 0.14462788 0.13819695 0.64793277 -0.44154054 0.17725238 0.2239542 -0.08359162 -0.013749434 -0.2752866 -0.037335496 0.06479242 -0.22987889 0.25872618 0.40819308 -0.07371084 -0.19640931 0.49784487 0.16155395 -0.030023297 -0.0667554 0.0018553549 0.32724988 0.061716396 0.13896465 0.07969895 -0.18405153 -0.56901175 0.50406224 0.017417837 -0.43197086 -0.7968124 0.28326806 0.21681896 -0.3936055 0.016087536
